{"learner":{"attributes":{},"feature_names":["x_0","x_1"],"feature_types":["int","int"],"gradient_booster":{"model":{"gbtree_model_param":{"num_parallel_tree":"1","num_trees":"100"},"iteration_indptr":[0,1,2,3,4,5,6,7,8,9,10,11,12,13,14,15,16,17,18,19,20,21,22,23,24,25,26,27,28,29,30,31,32,33,34,35,36,37,38,39,40,41,42,43,44,45,46,47,48,49,50,51,52,53,54,55,56,57,58,59,60,61,62,63,64,65,66,67,68,69,70,71,72,73,74,75,76,77,78,79,80,81,82,83,84,85,86,87,88,89,90,91,92,93,94,95,96,97,98,99,100],"tree_info":[0,0,0,0,0,0,0,0,0,0,0,0,0,0,0,0,0,0,0,0,0,0,0,0,0,0,0,0,0,0,0,0,0,0,0,0,0,0,0,0,0,0,0,0,0,0,0,0,0,0,0,0,0,0,0,0,0,0,0,0,0,0,0,0,0,0,0,0,0,0,0,0,0,0,0,0,0,0,0,0,0,0,0,0,0,0,0,0,0,0,0,0,0,0,0,0,0,0,0,0],"trees":[{"base_weights":[1.1758489E-7,-1.7477875E0,1.7943615E1,-3.1467416E0,2.0901957E0,1.3800465E1,3.5098564E1,-3.4560835E-1,-1.9266978E-1,7.4874334E-2,9.986329E-1,1.2557237E0,2.7474616E0,2.8527784E0,4.55125E0],"categories":[],"categories_nodes":[],"categories_segments":[],"categories_sizes":[],"default_left":[0,0,0,0,0,0,0,0,0,0,0,0,0,0,0],"id":0,"left_children":[1,3,5,7,9,11,13,-1,-1,-1,-1,-1,-1,-1,-1],"loss_changes":[4.8795556E5,7.613056E4,9.767097E4,3.9150156E3,4.01161E4,1.8593078E4,1.7040281E4,0E0,0E0,0E0,0E0,0E0,0E0,0E0,0E0],"parents":[2147483647,0,0,1,1,2,2,3,3,4,4,5,5,6,6],"right_children":[2,4,6,8,10,12,14,-1,-1,-1,-1,-1,-1,-1,-1],"split_conditions":[4E0,2E0,6E0,3E0,3E0,3E0,7E0,-3.4560835E-1,-1.9266978E-1,7.4874334E-2,9.986329E-1,1.2557237E0,2.7474616E0,2.8527784E0,4.55125E0],"split_indices":[1,1,1,0,0,0,1,0,0,0,0,0,0,0,0],"split_type":[0,0,0,0,0,0,0,0,0,0,0,0,0,0,0],"sum_hessian":[1.5557E4,1.4177E4,1.38E3,1.039E4,3.787E3,1.113E3,2.67E2,8.287E3,2.103E3,3.238E3,5.49E2,1.022E3,9.1E1,1.66E2,1.01E2],"tree_param":{"num_deleted":"0","num_feature":"2","num_nodes":"15","size_leaf_vector":"1"}},{"base_weights":[7.677635E-4,-1.572971E0,1.6157515E1,-2.8321192E0,1.8814592E0,1.2424011E1,3.1616335E1,-3.2940188E-1,-2.0980795E-1,6.7389205E-2,8.989512E-1,9.651247E-1,1.7818909E0,2.866903E0,5.173597E0],"categories":[],"categories_nodes":[],"categories_segments":[],"categories_sizes":[],"default_left":[0,0,0,0,0,0,0,0,0,0,0,0,0,0,0],"id":1,"left_children":[1,3,5,7,9,11,13,-1,-1,-1,-1,-1,-1,-1,-1],"loss_changes":[3.9561088E5,6.1674516E4,7.9312375E4,3.5161875E3,3.2508057E4,1.6492125E4,1.4408844E4,0E0,0E0,0E0,0E0,0E0,0E0,0E0,0E0],"parents":[2147483647,0,0,1,1,2,2,3,3,4,4,5,5,6,6],"right_children":[2,4,6,8,10,12,14,-1,-1,-1,-1,-1,-1,-1,-1],"split_conditions":[4E0,2E0,6E0,1E0,3E0,5E0,8E0,-3.2940188E-1,-2.0980795E-1,6.7389205E-2,8.989512E-1,9.651247E-1,1.7818909E0,2.866903E0,5.173597E0],"split_indices":[1,1,1,1,0,1,1,0,0,0,0,0,0,0,0],"split_type":[0,0,0,0,0,0,0,0,0,0,0,0,0,0,0],"sum_hessian":[1.5557E4,1.4177E4,1.38E3,1.039E4,3.787E3,1.113E3,2.67E2,6.375E3,4.015E3,3.238E3,5.49E2,7.37E2,3.76E2,2.35E2,3.2E1],"tree_param":{"num_deleted":"0","num_feature":"2","num_nodes":"15","size_leaf_vector":"1"}},{"base_weights":[1.4118322E-3,-1.4156437E0,1.4549574E1,-2.0589E0,4.537012E0,1.1184076E1,2.8484703E1,-2.548959E-1,5.841616E-3,3.2984766E-1,1.3296118E0,1.0059917E0,2.356268E0,2.2842355E0,3.7443407E0],"categories":[],"categories_nodes":[],"categories_segments":[],"categories_sizes":[],"default_left":[0,0,0,0,0,0,0,0,0,0,0,0,0,0,0],"id":2,"left_children":[1,3,5,7,9,11,13,-1,-1,-1,-1,-1,-1,-1,-1],"loss_changes":[3.2075738E5,5.429809E4,6.444847E4,1.3277406E4,1.4959574E4,1.5264859E4,1.2691594E4,0E0,0E0,0E0,0E0,0E0,0E0,0E0,0E0],"parents":[2147483647,0,0,1,1,2,2,3,3,4,4,5,5,6,6],"right_children":[2,4,6,8,10,12,14,-1,-1,-1,-1,-1,-1,-1,-1],"split_conditions":[4E0,3E0,6E0,2E0,3E0,3E0,7E0,-2.548959E-1,5.841616E-3,3.2984766E-1,1.3296118E0,1.0059917E0,2.356268E0,2.2842355E0,3.7443407E0],"split_indices":[1,1,1,1,0,0,1,0,0,0,0,0,0,0,0],"split_type":[0,0,0,0,0,0,0,0,0,0,0,0,0,0,0],"sum_hessian":[1.5557E4,1.4177E4,1.38E3,1.2795E4,1.382E3,1.113E3,2.67E2,1.039E4,2.405E3,1.212E3,1.7E2,1.022E3,9.1E1,1.66E2,1.01E2],"tree_param":{"num_deleted":"0","num_feature":"2","num_nodes":"15","size_leaf_vector":"1"}},{"base_weights":[1.9649041E-3,-1.2739799E0,1.3101417E1,-1.8530295E0,4.084511E0,1.0068687E1,2.5658728E1,-2.2940877E-1,5.2576843E-3,2.9689005E-1,1.1974282E0,7.565705E-1,1.4941717E0,2.3112824E0,4.308827E0],"categories":[],"categories_nodes":[],"categories_segments":[],"categories_sizes":[],"default_left":[0,0,0,0,0,0,0,0,0,0,0,0,0,0,0],"id":3,"left_children":[1,3,5,7,9,11,13,-1,-1,-1,-1,-1,-1,-1,-1],"loss_changes":[2.6005586E5,4.3999523E4,5.233417E4,1.0754949E4,1.2137492E4,1.3474539E4,1.0896344E4,0E0,0E0,0E0,0E0,0E0,0E0,0E0,0E0],"parents":[2147483647,0,0,1,1,2,2,3,3,4,4,5,5,6,6],"right_children":[2,4,6,8,10,12,14,-1,-1,-1,-1,-1,-1,-1,-1],"split_conditions":[4E0,3E0,6E0,2E0,3E0,5E0,8E0,-2.2940877E-1,5.2576843E-3,2.9689005E-1,1.1974282E0,7.565705E-1,1.4941717E0,2.3112824E0,4.308827E0],"split_indices":[1,1,1,1,0,1,1,0,0,0,0,0,0,0,0],"split_type":[0,0,0,0,0,0,0,0,0,0,0,0,0,0,0],"sum_hessian":[1.5557E4,1.4177E4,1.38E3,1.2795E4,1.382E3,1.113E3,2.67E2,1.039E4,2.405E3,1.212E3,1.7E2,7.37E2,3.76E2,2.35E2,3.2E1],"tree_param":{"num_deleted":"0","num_feature":"2","num_nodes":"15","size_leaf_vector":"1"}},{"base_weights":[2.4201924E-3,-1.1464924E0,1.1797698E1,-1.667744E0,3.67714E0,9.063839E0,2.3117556E1,-2.0833986E-1,5.9492597E-3,2.0024143E-1,8.290848E-1,7.2469157E-1,1.5756644E0,1.8274354E0,3.0820472E0],"categories":[],"categories_nodes":[],"categories_segments":[],"categories_sizes":[],"default_left":[0,0,0,0,0,0,0,0,0,0,0,0,0,0,0],"id":4,"left_children":[1,3,5,7,9,11,13,-1,-1,-1,-1,-1,-1,-1,-1],"loss_changes":[2.1085153E5,3.5654258E4,4.2528125E4,9.186805E3,1.0669418E4,1.3432398E4,9.435E3,0E0,0E0,0E0,0E0,0E0,0E0,0E0,0E0],"parents":[2147483647,0,0,1,1,2,2,3,3,4,4,5,5,6,6],"right_children":[2,4,6,8,10,12,14,-1,-1,-1,-1,-1,-1,-1,-1],"split_conditions":[4E0,3E0,6E0,3E0,2E0,2E0,7E0,-2.0833986E-1,5.9492597E-3,2.0024143E-1,8.290848E-1,7.2469157E-1,1.5756644E0,1.8274354E0,3.0820472E0],"split_indices":[1,1,1,0,0,0,1,0,0,0,0,0,0,0,0],"split_type":[0,0,0,0,0,0,0,0,0,0,0,0,0,0,0],"sum_hessian":[1.5557E4,1.4177E4,1.38E3,1.2795E4,1.382E3,1.113E3,2.67E2,1.0313E4,2.482E3,1.015E3,3.67E2,8.77E2,2.36E2,1.66E2,1.01E2],"tree_param":{"num_deleted":"0","num_feature":"2","num_nodes":"15","size_leaf_vector":"1"}},{"base_weights":[2.6947823E-3,-6.8905497E-1,1.6023571E1,-1.5009854E0,4.21196E0,1.3787806E1,2.776864E1,-1.8997504E-1,2.2181926E-2,2.67892E-1,8.771538E-1,1.2189445E0,2.1490753E0,2.352852E0,3.5921361E0],"categories":[],"categories_nodes":[],"categories_segments":[],"categories_sizes":[],"default_left":[0,0,0,0,0,0,0,0,0,0,0,0,0,0,0],"id":5,"left_children":[1,3,5,7,9,11,13,-1,-1,-1,-1,-1,-1,-1,-1],"loss_changes":[1.724316E5,5.935733E4,1.6528078E4,8.791197E3,1.4795336E4,6.4235E3,2.6808125E3,0E0,0E0,0E0,0E0,0E0,0E0,0E0,0E0],"parents":[2147483647,0,0,1,1,2,2,3,3,4,4,5,5,6,6],"right_children":[2,4,6,8,10,12,14,-1,-1,-1,-1,-1,-1,-1,-1],"split_conditions":[5E0,3E0,7E0,2E0,2E0,2E0,8E0,-1.8997504E-1,2.2181926E-2,2.67892E-1,8.771538E-1,1.2189445E0,2.1490753E0,2.352852E0,3.5921361E0],"split_indices":[1,1,1,1,0,0,1,0,0,0,0,0,0,0,0],"split_type":[0,0,0,0,0,0,0,0,0,0,0,0,0,0,0],"sum_hessian":[1.5557E4,1.4914E4,6.43E2,1.2795E4,2.119E3,5.42E2,1.01E2,1.039E4,2.405E3,1.587E3,5.32E2,4.51E2,9.1E1,6.9E1,3.2E1],"tree_param":{"num_deleted":"0","num_feature":"2","num_nodes":"15","size_leaf_vector":"1"}},{"base_weights":[3.0867166E-3,-9.382125E-1,9.666908E0,-1.7097937E0,1.1785874E0,7.4213448E0,1.8965006E1,-2.1281974E-1,-1.0450894E-1,5.500701E-2,1.0426725E0,6.5106E-1,1.7467768E0,1.70007E0,3.2438076E0],"categories":[],"categories_nodes":[],"categories_segments":[],"categories_sizes":[],"default_left":[0,0,0,0,0,0,0,0,0,0,0,0,0,0,0],"id":6,"left_children":[1,3,5,7,9,11,13,-1,-1,-1,-1,-1,-1,-1,-1],"loss_changes":[1.4153316E5,2.31587E4,2.8693797E4,2.887668E3,2.2012447E4,1.0079074E4,6.5412188E3,0E0,0E0,0E0,0E0,0E0,0E0,0E0,0E0],"parents":[2147483647,0,0,1,1,2,2,3,3,4,4,5,5,6,6],"right_children":[2,4,6,8,10,12,14,-1,-1,-1,-1,-1,-1,-1,-1],"split_conditions":[4E0,2E0,6E0,1E0,4E0,3E0,8E0,-2.1281974E-1,-1.0450894E-1,5.500701E-2,1.0426725E0,6.5106E-1,1.7467768E0,1.70007E0,3.2438076E0],"split_indices":[1,1,1,1,0,0,1,0,0,0,0,0,0,0,0],"split_type":[0,0,0,0,0,0,0,0,0,0,0,0,0,0,0],"sum_hessian":[1.5557E4,1.4177E4,1.38E3,1.039E4,3.787E3,1.113E3,2.67E2,6.375E3,4.015E3,3.547E3,2.4E2,1.022E3,9.1E1,2.35E2,3.2E1],"tree_param":{"num_deleted":"0","num_feature":"2","num_nodes":"15","size_leaf_vector":"1"}},{"base_weights":[3.3000782E-3,-5.6771916E-1,1.3228065E1,-1.2356954E0,3.4643521E0,1.1390192E1,2.2882349E1,-1.6010623E-1,2.8248016E-2,2.9815716E-1,1.4448022E0,9.984738E-1,1.8171438E0,2.1287777E0,3.8957608E0],"categories":[],"categories_nodes":[],"categories_segments":[],"categories_sizes":[],"default_left":[0,0,0,0,0,0,0,0,0,0,0,0,0,0,0],"id":7,"left_children":[1,3,5,7,9,11,13,-1,-1,-1,-1,-1,-1,-1,-1],"loss_changes":[1.1749522E5,4.0175266E4,1.1166086E4,7.0982793E3,1.1198658E4,4.993742E3,1.7852656E3,0E0,0E0,0E0,0E0,0E0,0E0,0E0,0E0],"parents":[2147483647,0,0,1,1,2,2,3,3,4,4,5,5,6,6],"right_children":[2,4,6,8,10,12,14,-1,-1,-1,-1,-1,-1,-1,-1],"split_conditions":[5E0,3E0,7E0,3E0,4E0,2E0,9E0,-1.6010623E-1,2.8248016E-2,2.9815716E-1,1.4448022E0,9.984738E-1,1.8171438E0,2.1287777E0,3.8957608E0],"split_indices":[1,1,1,0,0,0,1,0,0,0,0,0,0,0,0],"split_type":[0,0,0,0,0,0,0,0,0,0,0,0,0,0,0],"sum_hessian":[1.5557E4,1.4914E4,6.43E2,1.2795E4,2.119E3,5.42E2,1.01E2,1.0313E4,2.482E3,2.031E3,8.8E1,4.51E2,9.1E1,9.4E1,7E0],"tree_param":{"num_deleted":"0","num_feature":"2","num_nodes":"15","size_leaf_vector":"1"}},{"base_weights":[3.6418007E-3,-5.108392E-1,1.1918985E1,-1.1121361E0,3.1187394E0,1.0256358E1,2.0653177E1,-1.6253792E-1,-1.7908195E-2,1.843556E-1,6.9121206E-1,9.5151275E-1,2.1073158E0,1.7435131E0,2.6853483E0],"categories":[],"categories_nodes":[],"categories_segments":[],"categories_sizes":[],"default_left":[0,0,0,0,0,0,0,0,0,0,0,0,0,0,0],"id":8,"left_children":[1,3,5,7,9,11,13,-1,-1,-1,-1,-1,-1,-1,-1],"loss_changes":[9.538003E4,3.2554775E4,9.140148E3,6.127503E3,1.0242242E4,4.153117E3,1.5669961E3,0E0,0E0,0E0,0E0,0E0,0E0,0E0,0E0],"parents":[2147483647,0,0,1,1,2,2,3,3,4,4,5,5,6,6],"right_children":[2,4,6,8,10,12,14,-1,-1,-1,-1,-1,-1,-1,-1],"split_conditions":[5E0,3E0,7E0,2E0,2E0,3E0,8E0,-1.6253792E-1,-1.7908195E-2,1.843556E-1,6.9121206E-1,9.5151275E-1,2.1073158E0,1.7435131E0,2.6853483E0],"split_indices":[1,1,1,0,0,0,1,0,0,0,0,0,0,0,0],"split_type":[0,0,0,0,0,0,0,0,0,0,0,0,0,0,0],"sum_hessian":[1.5557E4,1.4914E4,6.43E2,1.2795E4,2.119E3,5.42E2,1.01E2,8.254E3,4.541E3,1.587E3,5.32E2,5.09E2,3.3E1,6.9E1,3.2E1],"tree_param":{"num_deleted":"0","num_feature":"2","num_nodes":"15","size_leaf_vector":"1"}},{"base_weights":[3.8035573E-3,-6.9811314E-1,7.2100096E0,-1.3070625E0,9.725024E-1,5.5281286E0,1.4174211E1,-1.6877452E-1,-7.0234664E-2,4.4201445E-2,8.778306E-1,4.7922483E-1,1.3650708E0,1.2705317E0,2.4249508E0],"categories":[],"categories_nodes":[],"categories_segments":[],"categories_sizes":[],"default_left":[0,0,0,0,0,0,0,0,0,0,0,0,0,0,0],"id":9,"left_children":[1,3,5,7,9,11,13,-1,-1,-1,-1,-1,-1,-1,-1],"loss_changes":[7.8699836E4,1.4424841E4,1.6097234E4,2.390873E3,1.5681792E4,6.5932383E3,3.6581758E3,0E0,0E0,0E0,0E0,0E0,0E0,0E0,0E0],"parents":[2147483647,0,0,1,1,2,2,3,3,4,4,5,5,6,6],"right_children":[2,4,6,8,10,12,14,-1,-1,-1,-1,-1,-1,-1,-1],"split_conditions":[4E0,2E0,6E0,1E0,4E0,3E0,8E0,-1.6877452E-1,-7.0234664E-2,4.4201445E-2,8.778306E-1,4.7922483E-1,1.3650708E0,1.2705317E0,2.4249508E0],"split_indices":[1,1,1,1,0,0,1,0,0,0,0,0,0,0,0],"split_type":[0,0,0,0,0,0,0,0,0,0,0,0,0,0,0],"sum_hessian":[1.5557E4,1.4177E4,1.38E3,1.039E4,3.787E3,1.113E3,2.67E2,6.375E3,4.015E3,3.547E3,2.4E2,1.022E3,9.1E1,2.35E2,3.2E1],"tree_param":{"num_deleted":"0","num_feature":"2","num_nodes":"15","size_leaf_vector":"1"}},{"base_weights":[3.823175E-3,-4.2078248E-1,9.837658E0,-9.143283E-1,2.558384E0,8.472055E0,1.7011034E1,-1.1205919E-1,9.585185E-2,1.4584467E-1,5.830695E-1,7.305302E-1,1.411228E0,1.5647444E0,3.1077306E0],"categories":[],"categories_nodes":[],"categories_segments":[],"categories_sizes":[],"default_left":[0,0,0,0,0,0,0,0,0,0,0,0,0,0,0],"id":10,"left_children":[1,3,5,7,9,11,13,-1,-1,-1,-1,-1,-1,-1,-1],"loss_changes":[6.49666E4,2.1932684E4,6.164492E3,4.944172E3,7.62209E3,3.47025E3,1.4701445E3,0E0,0E0,0E0,0E0,0E0,0E0,0E0,0E0],"parents":[2147483647,0,0,1,1,2,2,3,3,4,4,5,5,6,6],"right_children":[2,4,6,8,10,12,14,-1,-1,-1,-1,-1,-1,-1,-1],"split_conditions":[5E0,3E0,7E0,4E0,2E0,2E0,9E0,-1.1205919E-1,9.585185E-2,1.4584467E-1,5.830695E-1,7.305302E-1,1.411228E0,1.5647444E0,3.1077306E0],"split_indices":[1,1,1,0,0,0,1,0,0,0,0,0,0,0,0],"split_type":[0,0,0,0,0,0,0,0,0,0,0,0,0,0,0],"sum_hessian":[1.5557E4,1.4914E4,6.43E2,1.2795E4,2.119E3,5.42E2,1.01E2,1.1526E4,1.269E3,1.587E3,5.32E2,4.51E2,9.1E1,9.4E1,7E0],"tree_param":{"num_deleted":"0","num_feature":"2","num_nodes":"15","size_leaf_vector":"1"}},{"base_weights":[3.924695E-3,-5.7126814E-1,5.909124E0,-1.0862805E0,8.4163153E-1,4.5257697E0,1.1637287E1,-1.4308575E-1,-5.3894263E-2,9.447057E-3,5.2402E-1,3.895878E-1,1.1480697E0,1.0411146E0,2.0053415E0],"categories":[],"categories_nodes":[],"categories_segments":[],"categories_sizes":[],"default_left":[0,0,0,0,0,0,0,0,0,0,0,0,0,0,0],"id":11,"left_children":[1,3,5,7,9,11,13,-1,-1,-1,-1,-1,-1,-1,-1],"loss_changes":[5.284812E4,1.0317687E4,1.0890492E4,1.9589707E3,1.2448535E4,4.835541E3,2.5568086E3,0E0,0E0,0E0,0E0,0E0,0E0,0E0,0E0],"parents":[2147483647,0,0,1,1,2,2,3,3,4,4,5,5,6,6],"right_children":[2,4,6,8,10,12,14,-1,-1,-1,-1,-1,-1,-1,-1],"split_conditions":[4E0,2E0,6E0,1E0,3E0,3E0,8E0,-1.4308575E-1,-5.3894263E-2,9.447057E-3,5.2402E-1,3.895878E-1,1.1480697E0,1.0411146E0,2.0053415E0],"split_indices":[1,1,1,1,0,0,1,0,0,0,0,0,0,0,0],"split_type":[0,0,0,0,0,0,0,0,0,0,0,0,0,0,0],"sum_hessian":[1.5557E4,1.4177E4,1.38E3,1.039E4,3.787E3,1.113E3,2.67E2,6.375E3,4.015E3,3.238E3,5.49E2,1.022E3,9.1E1,2.35E2,3.2E1],"tree_param":{"num_deleted":"0","num_feature":"2","num_nodes":"15","size_leaf_vector":"1"}},{"base_weights":[3.84851E-3,-3.4683532E-1,8.125658E0,-7.5171715E-1,2.0971339E0,7.003032E0,1.4022329E1,-1.1719047E-1,1.2131444E-3,1.7445461E-1,1.0123662E0,5.9772134E-1,1.1966804E0,1.281527E0,2.660337E0],"categories":[],"categories_nodes":[],"categories_segments":[],"categories_sizes":[],"default_left":[0,0,0,0,0,0,0,0,0,0,0,0,0,0,0],"id":12,"left_children":[1,3,5,7,9,11,13,-1,-1,-1,-1,-1,-1,-1,-1],"loss_changes":[4.4314918E4,1.4760247E4,4.164926E3,4.107013E3,5.9820547E3,2.6933887E3,1.2080488E3,0E0,0E0,0E0,0E0,0E0,0E0,0E0,0E0],"parents":[2147483647,0,0,1,1,2,2,3,3,4,4,5,5,6,6],"right_children":[2,4,6,8,10,12,14,-1,-1,-1,-1,-1,-1,-1,-1],"split_conditions":[5E0,3E0,7E0,2E0,4E0,2E0,9E0,-1.1719047E-1,1.2131444E-3,1.7445461E-1,1.0123662E0,5.9772134E-1,1.1966804E0,1.281527E0,2.660337E0],"split_indices":[1,1,1,0,0,0,1,0,0,0,0,0,0,0,0],"split_type":[0,0,0,0,0,0,0,0,0,0,0,0,0,0,0],"sum_hessian":[1.5557E4,1.4914E4,6.43E2,1.2795E4,2.119E3,5.42E2,1.01E2,8.254E3,4.541E3,2.031E3,8.8E1,4.51E2,9.1E1,9.4E1,7E0],"tree_param":{"num_deleted":"0","num_feature":"2","num_nodes":"15","size_leaf_vector":"1"}},{"base_weights":[3.9011815E-3,-3.1208003E-1,7.322E0,-9.036444E-1,1.0464299E0,6.3060336E0,1.2658743E1,-1.2152276E-1,-4.0873438E-2,3.0517513E-3,3.602369E-1,5.380815E-1,1.0783131E0,1.1547233E0,2.4275575E0],"categories":[],"categories_nodes":[],"categories_segments":[],"categories_sizes":[],"default_left":[0,0,0,0,0,0,0,0,0,0,0,0,0,0,0],"id":13,"left_children":[1,3,5,7,9,11,13,-1,-1,-1,-1,-1,-1,-1,-1],"loss_changes":[3.5978316E4,1.1987326E4,3.4119102E3,1.6018535E3,1.1749549E4,2.1912441E3,1.0367295E3,0E0,0E0,0E0,0E0,0E0,0E0,0E0,0E0],"parents":[2147483647,0,0,1,1,2,2,3,3,4,4,5,5,6,6],"right_children":[2,4,6,8,10,12,14,-1,-1,-1,-1,-1,-1,-1,-1],"split_conditions":[5E0,2E0,7E0,1E0,2E0,2E0,9E0,-1.2152276E-1,-4.0873438E-2,3.0517513E-3,3.602369E-1,5.380815E-1,1.0783131E0,1.1547233E0,2.4275575E0],"split_indices":[1,1,1,1,0,0,1,0,0,0,0,0,0,0,0],"split_type":[0,0,0,0,0,0,0,0,0,0,0,0,0,0,0],"sum_hessian":[1.5557E4,1.4914E4,6.43E2,1.039E4,4.524E3,5.42E2,1.01E2,6.375E3,4.015E3,3.238E3,1.286E3,4.51E2,9.1E1,9.4E1,7E0],"tree_param":{"num_deleted":"0","num_feature":"2","num_nodes":"15","size_leaf_vector":"1"}},{"base_weights":[3.8580932E-3,-4.301453E-1,4.4595394E0,-8.1329554E-1,6.210016E-1,3.4332263E0,8.708993E0,-1.0937239E-1,-3.6787115E-2,2.2121424E-2,6.5040916E-1,3.1366974E-1,1.4822291E0,7.7666944E-1,1.5183946E0],"categories":[],"categories_nodes":[],"categories_segments":[],"categories_sizes":[],"default_left":[0,0,0,0,0,0,0,0,0,0,0,0,0,0,0],"id":14,"left_children":[1,3,5,7,9,11,13,-1,-1,-1,-1,-1,-1,-1,-1],"loss_changes":[3.008768E4,5.7106543E3,5.9930156E3,1.2975337E3,8.90788E3,3.7156953E3,1.5172285E3,0E0,0E0,0E0,0E0,0E0,0E0,0E0,0E0],"parents":[2147483647,0,0,1,1,2,2,3,3,4,4,5,5,6,6],"right_children":[2,4,6,8,10,12,14,-1,-1,-1,-1,-1,-1,-1,-1],"split_conditions":[4E0,2E0,6E0,1E0,4E0,4E0,8E0,-1.0937239E-1,-3.6787115E-2,2.2121424E-2,6.5040916E-1,3.1366974E-1,1.4822291E0,7.7666944E-1,1.5183946E0],"split_indices":[1,1,1,1,0,0,1,0,0,0,0,0,0,0,0],"split_type":[0,0,0,0,0,0,0,0,0,0,0,0,0,0,0],"sum_hessian":[1.5557E4,1.4177E4,1.38E3,1.039E4,3.787E3,1.113E3,2.67E2,6.375E3,4.015E3,3.547E3,2.4E2,1.086E3,2.7E1,2.35E2,3.2E1],"tree_param":{"num_deleted":"0","num_feature":"2","num_nodes":"15","size_leaf_vector":"1"}},{"base_weights":[3.769074E-3,-2.5700065E-1,6.0431743E0,-5.7137793E-1,1.6406543E0,5.2087073E0,1.0426235E1,-7.3423676E-2,9.072397E-2,8.618073E-2,3.9580438E-1,4.7177672E-1,1.2419616E0,9.44098E-1,2.0822866E0],"categories":[],"categories_nodes":[],"categories_segments":[],"categories_sizes":[],"default_left":[0,0,0,0,0,0,0,0,0,0,0,0,0,0,0],"id":15,"left_children":[1,3,5,7,9,11,13,-1,-1,-1,-1,-1,-1,-1,-1],"loss_changes":[2.4503756E4,8.898923E3,2.3011348E3,3.082018E3,3.8229595E3,1.8636943E3,8.4823145E2,0E0,0E0,0E0,0E0,0E0,0E0,0E0,0E0],"parents":[2147483647,0,0,1,1,2,2,3,3,4,4,5,5,6,6],"right_children":[2,4,6,8,10,12,14,-1,-1,-1,-1,-1,-1,-1,-1],"split_conditions":[5E0,3E0,7E0,4E0,2E0,3E0,9E0,-7.3423676E-2,9.072397E-2,8.618073E-2,3.9580438E-1,4.7177672E-1,1.2419616E0,9.44098E-1,2.0822866E0],"split_indices":[1,1,1,0,0,0,1,0,0,0,0,0,0,0,0],"split_type":[0,0,0,0,0,0,0,0,0,0,0,0,0,0,0],"sum_hessian":[1.5557E4,1.4914E4,6.43E2,1.2795E4,2.119E3,5.42E2,1.01E2,1.1526E4,1.269E3,1.587E3,5.32E2,5.09E2,3.3E1,9.4E1,7E0],"tree_param":{"num_deleted":"0","num_feature":"2","num_nodes":"15","size_leaf_vector":"1"}},{"base_weights":[3.7289097E-3,-3.5193926E-1,3.655184E0,-6.758929E-1,5.368026E-1,2.810738E0,7.1516676E0,-9.298273E-2,-2.7256576E-2,3.181247E-2,9.318491E-1,2.5508448E-1,1.2799791E0,6.342096E-1,1.3864352E0],"categories":[],"categories_nodes":[],"categories_segments":[],"categories_sizes":[],"default_left":[0,0,0,0,0,0,0,0,0,0,0,0,0,0,0],"id":16,"left_children":[1,3,5,7,9,11,13,-1,-1,-1,-1,-1,-1,-1,-1],"loss_changes":[2.020656E4,4.0823667E3,4.0574277E3,1.0639785E3,7.271363E3,2.8593936E3,1.3684912E3,0E0,0E0,0E0,0E0,0E0,0E0,0E0,0E0],"parents":[2147483647,0,0,1,1,2,2,3,3,4,4,5,5,6,6],"right_children":[2,4,6,8,10,12,14,-1,-1,-1,-1,-1,-1,-1,-1],"split_conditions":[4E0,2E0,6E0,1E0,5E0,4E0,2E0,-9.298273E-2,-2.7256576E-2,3.181247E-2,9.318491E-1,2.5508448E-1,1.2799791E0,6.342096E-1,1.3864352E0],"split_indices":[1,1,1,1,0,0,0,0,0,0,0,0,0,0,0],"split_type":[0,0,0,0,0,0,0,0,0,0,0,0,0,0,0],"sum_hessian":[1.5557E4,1.4177E4,1.38E3,1.039E4,3.787E3,1.113E3,2.67E2,6.375E3,4.015E3,3.696E3,9.1E1,1.086E3,2.7E1,2.4E2,2.7E1],"tree_param":{"num_deleted":"0","num_feature":"2","num_nodes":"15","size_leaf_vector":"1"}},{"base_weights":[3.6387749E-3,-2.117346E-1,4.991667E0,-4.7033536E-1,1.3492405E0,4.279557E0,8.733666E0,-8.034075E-2,1.3512055E-2,9.24957E-2,4.7486004E-1,3.533681E-1,7.897563E-1,7.823858E-1,1.8445933E0],"categories":[],"categories_nodes":[],"categories_segments":[],"categories_sizes":[],"default_left":[0,0,0,0,0,0,0,0,0,0,0,0,0,0,0],"id":17,"left_children":[1,3,5,7,9,11,13,-1,-1,-1,-1,-1,-1,-1,-1],"loss_changes":[1.6714838E4,6.021364E3,1.6786992E3,2.5805562E3,3.0532678E3,1.4374248E3,7.569844E2,0E0,0E0,0E0,0E0,0E0,0E0,0E0,0E0],"parents":[2147483647,0,0,1,1,2,2,3,3,4,4,5,5,6,6],"right_children":[2,4,6,8,10,12,14,-1,-1,-1,-1,-1,-1,-1,-1],"split_conditions":[5E0,3E0,7E0,2E0,3E0,2E0,9E0,-8.034075E-2,1.3512055E-2,9.24957E-2,4.7486004E-1,3.533681E-1,7.897563E-1,7.823858E-1,1.8445933E0],"split_indices":[1,1,1,0,0,0,1,0,0,0,0,0,0,0,0],"split_type":[0,0,0,0,0,0,0,0,0,0,0,0,0,0,0],"sum_hessian":[1.5557E4,1.4914E4,6.43E2,1.2795E4,2.119E3,5.42E2,1.01E2,8.254E3,4.541E3,1.885E3,2.34E2,4.51E2,9.1E1,9.4E1,7E0],"tree_param":{"num_deleted":"0","num_feature":"2","num_nodes":"15","size_leaf_vector":"1"}},{"base_weights":[3.5493565E-3,-1.9052759E-1,4.498354E0,-4.2330706E-1,1.214584E0,4.144045E0,1.0932859E1,-5.5914458E-2,8.099388E-2,9.79801E-2,6.5613765E-1,3.4602934E-1,7.694944E-1,8.6972713E-1,1.6831913E0],"categories":[],"categories_nodes":[],"categories_segments":[],"categories_sizes":[],"default_left":[0,0,0,0,0,0,0,0,0,0,0,0,0,0,0],"id":18,"left_children":[1,3,5,7,9,11,13,-1,-1,-1,-1,-1,-1,-1,-1],"loss_changes":[1.357269E4,4.878929E3,1.4228867E3,2.144052E3,2.6548835E3,1.4592686E3,2.8880713E2,0E0,0E0,0E0,0E0,0E0,0E0,0E0,0E0],"parents":[2147483647,0,0,1,1,2,2,3,3,4,4,5,5,6,6],"right_children":[2,4,6,8,10,12,14,-1,-1,-1,-1,-1,-1,-1,-1],"split_conditions":[5E0,3E0,8E0,4E0,4E0,2E0,9E0,-5.5914458E-2,8.099388E-2,9.79801E-2,6.5613765E-1,3.4602934E-1,7.694944E-1,8.6972713E-1,1.6831913E0],"split_indices":[1,1,1,0,0,0,1,0,0,0,0,0,0,0,0],"split_type":[0,0,0,0,0,0,0,0,0,0,0,0,0,0,0],"sum_hessian":[1.5557E4,1.4914E4,6.43E2,1.2795E4,2.119E3,6.11E2,3.2E1,1.1526E4,1.269E3,2.031E3,8.8E1,5.14E2,9.7E1,2.5E1,7E0],"tree_param":{"num_deleted":"0","num_feature":"2","num_nodes":"15","size_leaf_vector":"1"}},{"base_weights":[3.4802502E-3,-2.618637E-1,2.7276247E0,-7.517214E-1,1.3844313E-1,2.0821745E0,5.400399E0,-5.1308226E-2,-1.6233377E-1,-4.057401E-2,2.9016337E-1,1.8668284E-1,1.0367858E0,4.724844E-1,1.1022133E0],"categories":[],"categories_nodes":[],"categories_segments":[],"categories_sizes":[],"default_left":[0,0,0,0,0,0,0,0,0,0,0,0,0,0,0],"id":19,"left_children":[1,3,5,7,9,11,13,-1,-1,-1,-1,-1,-1,-1,-1],"loss_changes":[1.1246585E4,2.780316E3,2.3711777E3,1.325386E3,1.1734406E4,1.9683447E3,9.6573047E2,0E0,0E0,0E0,0E0,0E0,0E0,0E0,0E0],"parents":[2147483647,0,0,1,1,2,2,3,3,4,4,5,5,6,6],"right_children":[2,4,6,8,10,12,14,-1,-1,-1,-1,-1,-1,-1,-1],"split_conditions":[4E0,1E0,6E0,3E0,3E0,4E0,2E0,-5.1308226E-2,-1.6233377E-1,-4.057401E-2,2.9016337E-1,1.8668284E-1,1.0367858E0,4.724844E-1,1.1022133E0],"split_indices":[1,1,1,0,0,0,0,0,0,0,0,0,0,0,0],"split_type":[0,0,0,0,0,0,0,0,0,0,0,0,0,0,0],"sum_hessian":[1.5557E4,1.4177E4,1.38E3,6.375E3,7.802E3,1.113E3,2.67E2,5.006E3,1.369E3,6.519E3,1.283E3,1.086E3,2.7E1,2.4E2,2.7E1],"tree_param":{"num_deleted":"0","num_feature":"2","num_nodes":"15","size_leaf_vector":"1"}},{"base_weights":[3.3143691E-3,-1.5689234E-1,3.713687E0,-4.82311E-1,5.9041864E-1,3.1294813E0,6.7873135E0,-6.7658275E-2,-1.7375546E-2,-1.4561198E-2,2.442332E-1,2.763659E-1,8.5247725E-1,6.0288465E-1,1.4945698E0],"categories":[],"categories_nodes":[],"categories_segments":[],"categories_sizes":[],"default_left":[0,0,0,0,0,0,0,0,0,0,0,0,0,0,0],"id":20,"left_children":[1,3,5,7,9,11,13,-1,-1,-1,-1,-1,-1,-1,-1],"loss_changes":[9.248672E3,3.6274475E3,1.1351445E3,6.2275684E2,6.1682246E3,1.0481694E3,5.410571E2,0E0,0E0,0E0,0E0,0E0,0E0,0E0,0E0],"parents":[2147483647,0,0,1,1,2,2,3,3,4,4,5,5,6,6],"right_children":[2,4,6,8,10,12,14,-1,-1,-1,-1,-1,-1,-1,-1],"split_conditions":[5E0,2E0,7E0,1E0,2E0,3E0,9E0,-6.7658275E-2,-1.7375546E-2,-1.4561198E-2,2.442332E-1,2.763659E-1,8.5247725E-1,6.0288465E-1,1.4945698E0],"split_indices":[1,1,1,1,0,0,1,0,0,0,0,0,0,0,0],"split_type":[0,0,0,0,0,0,0,0,0,0,0,0,0,0,0],"sum_hessian":[1.5557E4,1.4914E4,6.43E2,1.039E4,4.524E3,5.42E2,1.01E2,6.375E3,4.015E3,3.238E3,1.286E3,5.09E2,3.3E1,9.4E1,7E0],"tree_param":{"num_deleted":"0","num_feature":"2","num_nodes":"15","size_leaf_vector":"1"}},{"base_weights":[3.1996253E-3,-3.252983E-1,1.5245374E0,-4.0452155E-1,1.2970644E0,9.701026E-1,3.3473282E0,-5.804227E-2,-3.6528592E-3,-1.6265273E-1,5.9236336E-1,8.583002E-2,9.941492E-1,3.0550715E-1,8.665922E-1],"categories":[],"categories_nodes":[],"categories_segments":[],"categories_sizes":[],"default_left":[0,0,0,0,0,0,0,0,0,0,0,0,0,0,0],"id":21,"left_children":[1,3,5,7,9,11,13,-1,-1,-1,-1,-1,-1,-1,-1],"loss_changes":[7.775705E3,1.64518E3,2.7890918E3,7.8975415E2,8.07125E3,2.1178774E3,9.745542E2,0E0,0E0,0E0,0E0,0E0,0E0,0E0,0E0],"parents":[2147483647,0,0,1,1,2,2,3,3,4,4,5,5,6,6],"right_children":[2,4,6,8,10,12,14,-1,-1,-1,-1,-1,-1,-1,-1],"split_conditions":[3E0,5E0,5E0,2E0,1E0,5E0,8E0,-5.804227E-2,-3.6528592E-3,-1.6265273E-1,5.9236336E-1,8.583002E-2,9.941492E-1,3.0550715E-1,8.665922E-1],"split_indices":[1,0,1,0,1,0,1,0,0,0,0,0,0,0,0],"split_type":[0,0,0,0,0,0,0,0,0,0,0,0,0,0,0],"sum_hessian":[1.5557E4,1.2795E4,2.762E3,1.22E4,5.95E2,2.119E3,6.43E2,8.254E3,3.946E3,3.65E2,2.3E2,2.094E3,2.5E1,6.11E2,3.2E1],"tree_param":{"num_deleted":"0","num_feature":"2","num_nodes":"15","size_leaf_vector":"1"}},{"base_weights":[3.0480484E-3,-1.971676E-1,2.0585544E0,-2.6932564E-1,1.391918E0,1.5022068E0,4.406805E0,-4.4340465E-2,1.9535027E-2,-1.4643191E-1,5.551244E-1,1.1735239E-1,5.0292504E-1,3.7962988E-1,9.2231053E-1],"categories":[],"categories_nodes":[],"categories_segments":[],"categories_sizes":[],"default_left":[0,0,0,0,0,0,0,0,0,0,0,0,0,0,0],"id":22,"left_children":[1,3,5,7,9,11,13,-1,-1,-1,-1,-1,-1,-1,-1],"loss_changes":[6.403216E3,1.6260994E3,1.7975791E3,1.0972021E3,7.3262217E3,1.2901719E3,7.412466E2,0E0,0E0,0E0,0E0,0E0,0E0,0E0,0E0],"parents":[2147483647,0,0,1,1,2,2,3,3,4,4,5,5,6,6],"right_children":[2,4,6,8,10,12,14,-1,-1,-1,-1,-1,-1,-1,-1],"split_conditions":[4E0,5E0,2E0,2E0,1E0,7E0,4E0,-4.4340465E-2,1.9535027E-2,-1.4643191E-1,5.551244E-1,1.1735239E-1,5.0292504E-1,3.7962988E-1,9.2231053E-1],"split_indices":[1,0,0,1,1,1,0,0,0,0,0,0,0,0,0],"split_type":[0,0,0,0,0,0,0,0,0,0,0,0,0,0,0],"sum_hessian":[1.5557E4,1.4177E4,1.38E3,1.3562E4,6.15E2,1.117E3,2.63E2,9.866E3,3.696E3,3.65E2,2.5E2,1.023E3,9.4E1,2.35E2,2.8E1],"tree_param":{"num_deleted":"0","num_feature":"2","num_nodes":"15","size_leaf_vector":"1"}},{"base_weights":[2.8914846E-3,-2.6791656E-1,1.257056E0,-4.9082744E-1,1.3727881E-1,7.894851E-1,2.7943127E0,-2.1813633E-2,-7.437895E-2,-9.980656E-2,1.4120898E-1,6.948914E-2,8.3811945E-1,2.52673E-1,7.3780626E-1],"categories":[],"categories_nodes":[],"categories_segments":[],"categories_sizes":[],"default_left":[0,0,0,0,0,0,0,0,0,0,0,0,0,0,0],"id":23,"left_children":[1,3,5,7,9,11,13,-1,-1,-1,-1,-1,-1,-1,-1],"loss_changes":[5.284423E3,1.1558335E3,1.9837734E3,5.692721E2,6.57527E3,1.516608E3,7.712446E2,0E0,0E0,0E0,0E0,0E0,0E0,0E0,0E0],"parents":[2147483647,0,0,1,1,2,2,3,3,4,4,5,5,6,6],"right_children":[2,4,6,8,10,12,14,-1,-1,-1,-1,-1,-1,-1,-1],"split_conditions":[3E0,2E0,5E0,1E0,1E0,5E0,3E0,-2.1813633E-2,-7.437895E-2,-9.980656E-2,1.4120898E-1,6.948914E-2,8.3811945E-1,2.52673E-1,7.3780626E-1],"split_indices":[1,0,1,1,1,0,0,0,0,0,0,0,0,0,0],"split_type":[0,0,0,0,0,0,0,0,0,0,0,0,0,0,0],"sum_hessian":[1.5557E4,1.2795E4,2.762E3,8.254E3,4.541E3,2.119E3,6.43E2,3.973E3,4.281E3,2.402E3,2.139E3,2.094E3,2.5E1,6.09E2,3.4E1],"tree_param":{"num_deleted":"0","num_feature":"2","num_nodes":"15","size_leaf_vector":"1"}},{"base_weights":[2.7208333E-3,-1.6110519E-1,1.6846344E0,-2.5717348E-1,7.6099795E-1,1.1938162E0,3.7567937E0,-3.3494953E-2,4.2478975E-2,-1.351329E-1,3.322464E-1,1.026433E-1,6.842309E-1,3.1896985E-1,8.42268E-1],"categories":[],"categories_nodes":[],"categories_segments":[],"categories_sizes":[],"default_left":[0,0,0,0,0,0,0,0,0,0,0,0,0,0,0],"id":24,"left_children":[1,3,5,7,9,11,13,-1,-1,-1,-1,-1,-1,-1,-1],"loss_changes":[4.2871416E3,1.2561521E3,1.4000657E3,6.812341E2,7.243943E3,1.0500046E3,6.716787E2,0E0,0E0,0E0,0E0,0E0,0E0,0E0,0E0],"parents":[2147483647,0,0,1,1,2,2,3,3,4,4,5,5,6,6],"right_children":[2,4,6,8,10,12,14,-1,-1,-1,-1,-1,-1,-1,-1],"split_conditions":[4E0,4E0,2E0,3E0,1E0,8E0,6E0,-3.3494953E-2,4.2478975E-2,-1.351329E-1,3.322464E-1,1.026433E-1,6.842309E-1,3.1896985E-1,8.42268E-1],"split_indices":[1,0,0,1,1,1,1,0,0,0,0,0,0,0,0],"split_type":[0,0,0,0,0,0,0,0,0,0,0,0,0,0,0],"sum_hessian":[1.5557E4,1.4177E4,1.38E3,1.284E4,1.337E3,1.117E3,2.63E2,1.1526E4,1.314E3,7.33E2,6.04E2,1.086E3,3.1E1,2.36E2,2.7E1],"tree_param":{"num_deleted":"0","num_feature":"2","num_nodes":"15","size_leaf_vector":"1"}},{"base_weights":[2.587209E-3,-9.79527E-2,2.3310814E0,-3.0139372E-1,3.6924142E-1,2.2107656E0,1.1619828E0,-3.377174E-2,3.8185827E-2,-1.9082615E-2,1.7784797E-1,1.3643293E-1,3.409256E-1],"categories":[],"categories_nodes":[],"categories_segments":[],"categories_sizes":[],"default_left":[0,0,0,0,0,0,0,0,0,0,0,0,0],"id":25,"left_children":[1,3,5,7,9,11,-1,-1,-1,-1,-1,-1,-1],"loss_changes":[3.6424585E3,1.4177289E3,6.9403394E2,2.580152E2,3.5717798E3,6.4155054E2,0E0,0E0,0E0,0E0,0E0,0E0,0E0],"parents":[2147483647,0,0,1,1,2,2,3,3,4,4,5,5],"right_children":[2,4,6,8,10,12,-1,-1,-1,-1,-1,-1,-1],"split_conditions":[5E0,2E0,9E0,5E0,2E0,1E0,1.1619828E0,-3.377174E-2,3.8185827E-2,-1.9082615E-2,1.7784797E-1,1.3643293E-1,3.409256E-1],"split_indices":[1,1,1,0,0,0,0,0,0,0,0,0,0],"split_type":[0,0,0,0,0,0,0,0,0,0,0,0,0],"sum_hessian":[1.5557E4,1.4914E4,6.43E2,1.039E4,4.524E3,6.36E2,7E0,9.866E3,5.24E2,3.238E3,1.286E3,3.74E2,2.62E2],"tree_param":{"num_deleted":"0","num_feature":"2","num_nodes":"13","size_leaf_vector":"1"}},{"base_weights":[2.4443562E-3,-2.0067732E-1,9.4314015E-1,-2.5686687E-1,9.499425E-1,7.1763366E-1,3.0398607E0,-3.7743565E-2,-4.6368354E-4,-1.12207115E-1,4.2287612E-1,6.432035E-2,7.500042E-1,2.7544585E-1,1.197113E0],"categories":[],"categories_nodes":[],"categories_segments":[],"categories_sizes":[],"default_left":[0,0,0,0,0,0,0,0,0,0,0,0,0,0,0],"id":26,"left_children":[1,3,5,7,9,11,13,-1,-1,-1,-1,-1,-1,-1,-1],"loss_changes":[2.972945E3,8.275415E2,1.3042314E3,3.7104358E2,4.053824E3,1.255197E3,6.501594E2,0E0,0E0,0E0,0E0,0E0,0E0,0E0,0E0],"parents":[2147483647,0,0,1,1,2,2,3,3,4,4,5,5,6,6],"right_children":[2,4,6,8,10,12,14,-1,-1,-1,-1,-1,-1,-1,-1],"split_conditions":[3E0,5E0,6E0,2E0,1E0,5E0,3E0,-3.7743565E-2,-4.6368354E-4,-1.12207115E-1,4.2287612E-1,6.432035E-2,7.500042E-1,2.7544585E-1,1.197113E0],"split_indices":[1,0,1,0,1,0,0,0,0,0,0,0,0,0,0],"split_type":[0,0,0,0,0,0,0,0,0,0,0,0,0,0,0],"sum_hessian":[1.5557E4,1.2795E4,2.762E3,1.22E4,5.95E2,2.495E3,2.67E2,8.254E3,3.946E3,3.65E2,2.3E2,2.469E3,2.6E1,2.6E2,7E0],"tree_param":{"num_deleted":"0","num_feature":"2","num_nodes":"15","size_leaf_vector":"1"}},{"base_weights":[2.3644306E-3,-8.119899E-2,1.9376844E0,-2.4965326E-1,3.0564955E-1,1.8288417E0,1.0362079E0,-3.5600815E-2,-8.073687E-3,-1.8402545E-2,1.5377799E-1,1.7138974E-1,9.6589565E-1],"categories":[],"categories_nodes":[],"categories_segments":[],"categories_sizes":[],"default_left":[0,0,0,0,0,0,0,0,0,0,0,0,0],"id":27,"left_children":[1,3,5,7,9,11,-1,-1,-1,-1,-1,-1,-1],"loss_changes":[2.5162275E3,9.720315E2,5.715552E2,1.8664642E2,2.7304119E3,5.5676196E2,0E0,0E0,0E0,0E0,0E0,0E0,0E0],"parents":[2147483647,0,0,1,1,2,2,3,3,4,4,5,5],"right_children":[2,4,6,8,10,12,-1,-1,-1,-1,-1,-1,-1],"split_conditions":[5E0,2E0,9E0,1E0,2E0,4E0,1.0362079E0,-3.5600815E-2,-8.073687E-3,-1.8402545E-2,1.5377799E-1,1.7138974E-1,9.6589565E-1],"split_indices":[1,1,1,1,0,0,0,0,0,0,0,0,0],"split_type":[0,0,0,0,0,0,0,0,0,0,0,0,0],"sum_hessian":[1.5557E4,1.4914E4,6.43E2,1.039E4,4.524E3,6.36E2,7E0,6.375E3,4.015E3,3.238E3,1.286E3,6.28E2,8E0],"tree_param":{"num_deleted":"0","num_feature":"2","num_nodes":"13","size_leaf_vector":"1"}},{"base_weights":[2.273531E-3,-1.1287471E-1,1.1844382E0,-1.6358188E-1,1.0037719E0,9.545054E-1,4.1523113E0,-3.7340518E-2,-1.2027994E-3,-9.746671E-2,3.884668E-1,7.240479E-2,3.644374E-1,3.5400414E-1,1.0674375E0],"categories":[],"categories_nodes":[],"categories_segments":[],"categories_sizes":[],"default_left":[0,0,0,0,0,0,0,0,0,0,0,0,0,0,0],"id":28,"left_children":[1,3,5,7,9,11,13,-1,-1,-1,-1,-1,-1,-1,-1],"loss_changes":[2.1179539E3,8.0295087E2,9.38447E2,4.312927E2,3.5147876E3,7.9269336E2,3.575454E2,0E0,0E0,0E0,0E0,0E0,0E0,0E0,0E0],"parents":[2147483647,0,0,1,1,2,2,3,3,4,4,5,5,6,6],"right_children":[2,4,6,8,10,12,14,-1,-1,-1,-1,-1,-1,-1,-1],"split_conditions":[4E0,5E0,3E0,1E0,1E0,7E0,6E0,-3.7340518E-2,-1.2027994E-3,-9.746671E-2,3.884668E-1,7.240479E-2,3.644374E-1,3.5400414E-1,1.0674375E0],"split_indices":[1,0,0,0,1,1,1,0,0,0,0,0,0,0,0],"split_type":[0,0,0,0,0,0,0,0,0,0,0,0,0,0,0],"sum_hessian":[1.5557E4,1.4177E4,1.38E3,1.3562E4,6.15E2,1.282E3,9.8E1,5.687E3,7.875E3,3.65E2,2.5E2,1.182E3,1E2,9.1E1,7E0],"tree_param":{"num_deleted":"0","num_feature":"2","num_nodes":"15","size_leaf_vector":"1"}},{"base_weights":[2.1818322E-3,-1.5581323E-1,7.338875E-1,-2.0106825E-1,7.708851E-1,1.086916E-1,1.3630906E0,-2.9302178E-2,-8.700055E-4,-8.774667E-2,3.3792225E-1,6.347764E-3,9.0132344E-1,1.264751E-1,6.2332344E-1],"categories":[],"categories_nodes":[],"categories_segments":[],"categories_sizes":[],"default_left":[0,0,0,0,0,0,0,0,0,0,0,0,0,0,0],"id":29,"left_children":[1,3,5,7,9,11,13,-1,-1,-1,-1,-1,-1,-1,-1],"loss_changes":[1.7987106E3,5.367904E2,1.0867476E3,2.1582013E2,2.5654414E3,5.578475E2,6.516011E2,0E0,0E0,0E0,0E0,0E0,0E0,0E0,0E0],"parents":[2147483647,0,0,1,1,2,2,3,3,4,4,5,5,6,6],"right_children":[2,4,6,8,10,12,14,-1,-1,-1,-1,-1,-1,-1,-1],"split_conditions":[3E0,5E0,1E0,2E0,1E0,9E0,5E0,-2.9302178E-2,-8.700055E-4,-8.774667E-2,3.3792225E-1,6.347764E-3,9.0132344E-1,1.264751E-1,6.2332344E-1],"split_indices":[1,0,0,0,1,1,0,0,0,0,0,0,0,0,0],"split_type":[0,0,0,0,0,0,0,0,0,0,0,0,0,0,0],"sum_hessian":[1.5557E4,1.2795E4,2.762E3,1.22E4,5.95E2,1.386E3,1.376E3,8.254E3,3.946E3,3.65E2,2.3E2,1.38E3,6E0,1.35E3,2.6E1],"tree_param":{"num_deleted":"0","num_feature":"2","num_nodes":"15","size_leaf_vector":"1"}},{"base_weights":[2.0843374E-3,-6.44289E-2,1.5425236E0,-3.0795118E-1,1.0184605E-1,1.4453394E0,8.238813E-1,1.0871672E-3,-5.2053202E-2,-4.5228142E-2,5.4817438E-2,1.0801059E-1,3.3468553E-1],"categories":[],"categories_nodes":[],"categories_segments":[],"categories_sizes":[],"default_left":[0,0,0,0,0,0,0,0,0,0,0,0,0],"id":30,"left_children":[1,3,5,7,9,11,-1,-1,-1,-1,-1,-1,-1],"loss_changes":[1.594166E3,6.0396436E2,4.0719006E2,4.1018372E2,2.1925173E3,4.380852E2,0E0,0E0,0E0,0E0,0E0,0E0,0E0],"parents":[2147483647,0,0,1,1,2,2,3,3,4,4,5,5],"right_children":[2,4,6,8,10,12,-1,-1,-1,-1,-1,-1,-1],"split_conditions":[5E0,1E0,4E0,1E0,1E0,7E0,8.238813E-1,1.0871672E-3,-5.2053202E-2,-4.5228142E-2,5.4817438E-2,1.0801059E-1,3.3468553E-1],"split_indices":[1,0,0,1,1,1,0,0,0,0,0,0,0],"split_type":[0,0,0,0,0,0,0,0,0,0,0,0,0],"sum_hessian":[1.5557E4,1.4914E4,6.43E2,6.051E3,8.863E3,6.35E2,8E0,2.421E3,3.63E3,3.954E3,4.909E3,5.34E2,1.01E2],"tree_param":{"num_deleted":"0","num_feature":"2","num_nodes":"13","size_leaf_vector":"1"}},{"base_weights":[1.9546433E-3,-8.8200234E-2,9.275259E-1,-1.2916966E-1,8.140018E-1,8.195329E-1,5.933974E0,-1.7270226E-2,2.6061058E-2,-7.4485525E-2,3.0838332E-1,6.399777E-2,3.01545E-1,4.6069756E-1,9.446401E-1],"categories":[],"categories_nodes":[],"categories_segments":[],"categories_sizes":[],"default_left":[0,0,0,0,0,0,0,0,0,0,0,0,0,0,0],"id":31,"left_children":[1,3,5,7,9,11,13,-1,-1,-1,-1,-1,-1,-1,-1],"loss_changes":[1.2983154E3,5.2416223E2,7.4179016E2,2.3018399E2,2.181916E3,5.315422E2,9.164923E1,0E0,0E0,0E0,0E0,0E0,0E0,0E0,0E0],"parents":[2147483647,0,0,1,1,2,2,3,3,4,4,5,5,6,6],"right_children":[2,4,6,8,10,12,14,-1,-1,-1,-1,-1,-1,-1,-1],"split_conditions":[4E0,5E0,4E0,3E0,1E0,7E0,5E0,-1.7270226E-2,2.6061058E-2,-7.4485525E-2,3.0838332E-1,6.399777E-2,3.01545E-1,4.6069756E-1,9.446401E-1],"split_indices":[1,0,0,1,1,1,0,0,0,0,0,0,0,0,0],"split_type":[0,0,0,0,0,0,0,0,0,0,0,0,0,0,0],"sum_hessian":[1.5557E4,1.4177E4,1.38E3,1.3562E4,6.15E2,1.352E3,2.8E1,1.22E4,1.362E3,3.65E2,2.5E2,1.251E3,1.01E2,2.2E1,6E0],"tree_param":{"num_deleted":"0","num_feature":"2","num_nodes":"15","size_leaf_vector":"1"}},{"base_weights":[1.8886153E-3,-5.3444836E-2,1.283405E0,-1.4078948E-1,3.387417E-1,6.4557576E-1,2.199047E0,-1.9776626E-2,1.7087493E-2,-8.794646E-2,1.5765785E-1,5.122588E-2,7.695332E-1,2.0201552E-1,7.0431924E-1],"categories":[],"categories_nodes":[],"categories_segments":[],"categories_sizes":[],"default_left":[0,0,0,0,0,0,0,0,0,0,0,0,0,0,0],"id":32,"left_children":[1,3,5,7,9,11,13,-1,-1,-1,-1,-1,-1,-1,-1],"loss_changes":[1.1032976E3,5.1096686E2,3.746914E2,2.1665909E2,4.098461E3,3.5414172E2,2.1454846E2,0E0,0E0,0E0,0E0,0E0,0E0,0E0,0E0],"parents":[2147483647,0,0,1,1,2,2,3,3,4,4,5,5,6,6],"right_children":[2,4,6,8,10,12,14,-1,-1,-1,-1,-1,-1,-1,-1],"split_conditions":[5E0,3E0,1E0,3E0,1E0,9E0,4E0,-1.9776626E-2,1.7087493E-2,-8.794646E-2,1.5765785E-1,5.122588E-2,7.695332E-1,2.0201552E-1,7.0431924E-1],"split_indices":[1,0,0,1,1,1,0,0,0,0,0,0,0,0,0],"split_type":[0,0,0,0,0,0,0,0,0,0,0,0,0,0,0],"sum_hessian":[1.5557E4,1.4914E4,6.43E2,1.2198E4,2.716E3,3.8E2,2.63E2,1.0313E4,1.885E3,1.369E3,1.347E3,3.74E2,6E0,2.55E2,8E0],"tree_param":{"num_deleted":"0","num_feature":"2","num_nodes":"15","size_leaf_vector":"1"}},{"base_weights":[1.8150677E-3,-4.809587E-2,1.1577464E0,-7.225352E-2,1.3245821E0,8.590511E-1,2.7934024E0,-2.557361E-2,5.6770374E-3,-5.8106583E-2,5.076845E-1,7.620724E-2,7.2856075E-1,2.2305886E-1,8.916584E-1],"categories":[],"categories_nodes":[],"categories_segments":[],"categories_sizes":[],"default_left":[0,0,0,0,0,0,0,0,0,0,0,0,0,0,0],"id":33,"left_children":[1,3,5,7,9,11,13,-1,-1,-1,-1,-1,-1,-1,-1],"loss_changes":[8.976531E2,4.9468716E2,3.1223486E2,3.470226E2,1.847777E3,3.347363E2,3.2128558E2,0E0,0E0,0E0,0E0,0E0,0E0,0E0,0E0],"parents":[2147483647,0,0,1,1,2,2,3,3,4,4,5,5,6,6],"right_children":[2,4,6,8,10,12,14,-1,-1,-1,-1,-1,-1,-1,-1],"split_conditions":[5E0,6E0,2E0,1E0,1E0,9E0,7E0,-2.557361E-2,5.6770374E-3,-5.8106583E-2,5.076845E-1,7.620724E-2,7.2856075E-1,2.2305886E-1,8.916584E-1],"split_indices":[1,0,0,0,1,1,1,0,0,0,0,0,0,0,0],"split_type":[0,0,0,0,0,0,0,0,0,0,0,0,0,0,0],"sum_hessian":[1.5557E4,1.4914E4,6.43E2,1.4657E4,2.57E2,5.45E2,9.8E1,6.051E3,8.606E3,1.71E2,8.6E1,5.38E2,7E0,9.1E1,7E0],"tree_param":{"num_deleted":"0","num_feature":"2","num_nodes":"15","size_leaf_vector":"1"}},{"base_weights":[1.784528E-3,-1.0299164E-1,4.8702306E-1,-1.253098E-1,1.0084536E0,1.1270808E-3,9.76094E-1,-1.9953137E-2,1.7506419E-3,-5.2329708E-2,4.24861E-1,-6.525689E-3,3.3473292E-1,8.300601E-2,3.0067846E-1],"categories":[],"categories_nodes":[],"categories_segments":[],"categories_sizes":[],"default_left":[0,0,0,0,0,0,0,0,0,0,0,0,0,0,0],"id":34,"left_children":[1,3,5,7,9,11,13,-1,-1,-1,-1,-1,-1,-1,-1],"loss_changes":[7.9104114E2,3.1753632E2,6.5659155E2,1.3298105E2,1.2529275E3,3.0831854E2,4.0585315E2,0E0,0E0,0E0,0E0,0E0,0E0,0E0,0E0],"parents":[2147483647,0,0,1,1,2,2,3,3,4,4,5,5,6,6],"right_children":[2,4,6,8,10,12,14,-1,-1,-1,-1,-1,-1,-1,-1],"split_conditions":[3E0,6E0,1E0,2E0,1E0,8E0,6E0,-1.9953137E-2,1.7506419E-3,-5.2329708E-2,4.24861E-1,-6.525689E-3,3.3473292E-1,8.300601E-2,3.0067846E-1],"split_indices":[1,0,0,0,1,1,1,0,0,0,0,0,0,0,0],"split_type":[0,0,0,0,0,0,0,0,0,0,0,0,0,0,0],"sum_hessian":[1.5557E4,1.2795E4,2.762E3,1.2544E4,2.51E2,1.386E3,1.376E3,8.254E3,4.29E3,1.71E2,8E1,1.36E3,2.6E1,1.285E3,9.1E1],"tree_param":{"num_deleted":"0","num_feature":"2","num_nodes":"15","size_leaf_vector":"1"}},{"base_weights":[1.6746228E-3,-6.2311802E-2,6.5858835E-1,-8.266722E-2,1.0406078E0,5.668574E-1,4.915603E0,-1.489023E-2,9.631804E-3,-4.712716E-2,4.0522668E-1,1.18305115E-2,1.1146482E-1,3.6886793E-1,8.244695E-1],"categories":[],"categories_nodes":[],"categories_segments":[],"categories_sizes":[],"default_left":[0,0,0,0,0,0,0,0,0,0,0,0,0,0,0],"id":35,"left_children":[1,3,5,7,9,11,13,-1,-1,-1,-1,-1,-1,-1,-1],"loss_changes":[6.5399927E2,3.1838754E2,5.364942E2,1.6506107E2,1.1720989E3,3.323176E2,8.803961E1,0E0,0E0,0E0,0E0,0E0,0E0,0E0,0E0],"parents":[2147483647,0,0,1,1,2,2,3,3,4,4,5,5,6,6],"right_children":[2,4,6,8,10,12,14,-1,-1,-1,-1,-1,-1,-1,-1],"split_conditions":[4E0,6E0,4E0,2E0,1E0,1E0,5E0,-1.489023E-2,9.631804E-3,-4.712716E-2,4.0522668E-1,1.18305115E-2,1.1146482E-1,3.6886793E-1,8.244695E-1],"split_indices":[1,0,0,1,1,0,0,0,0,0,0,0,0,0,0],"split_type":[0,0,0,0,0,0,0,0,0,0,0,0,0,0,0],"sum_hessian":[1.5557E4,1.4177E4,1.38E3,1.3921E4,2.56E2,1.352E3,2.8E1,1.0161E4,3.76E3,1.71E2,8.5E1,7.44E2,6.08E2,2.2E1,6E0],"tree_param":{"num_deleted":"0","num_feature":"2","num_nodes":"15","size_leaf_vector":"1"}},{"base_weights":[1.6144483E-3,-2.4602622E-2,1.4974488E0,-7.178615E-2,4.5682567E-1,1.2810282E0,8.370991E-1,-1.2760791E-2,1.9623933E-2,-8.126002E-2,1.9304043E-1,1.11675195E-1,6.336674E-1],"categories":[],"categories_nodes":[],"categories_segments":[],"categories_sizes":[],"default_left":[0,0,0,0,0,0,0,0,0,0,0,0,0],"id":36,"left_children":[1,3,5,7,9,11,-1,-1,-1,-1,-1,-1,-1],"loss_changes":[6.101656E2,3.4737527E2,3.8794696E2,2.0839598E2,2.554936E3,2.0969E2,0E0,0E0,0E0,0E0,0E0,0E0,0E0],"parents":[2147483647,0,0,1,1,2,2,3,3,4,4,5,5],"right_children":[2,4,6,8,10,12,-1,-1,-1,-1,-1,-1,-1],"split_conditions":[6E0,4E0,3E0,3E0,1E0,9E0,8.370991E-1,-1.2760791E-2,1.9623933E-2,-8.126002E-2,1.9304043E-1,1.11675195E-1,6.336674E-1],"split_indices":[1,0,0,1,1,1,0,0,0,0,0,0,0],"split_type":[0,0,0,0,0,0,0,0,0,0,0,0,0],"sum_hessian":[1.5557E4,1.529E4,2.67E2,1.3926E4,1.364E3,2.6E2,7E0,1.1526E4,2.4E3,7.33E2,6.31E2,2.53E2,7E0],"tree_param":{"num_deleted":"0","num_feature":"2","num_nodes":"13","size_leaf_vector":"1"}},{"base_weights":[1.5623389E-3,-2.2134602E-2,1.3536085E0,-1.9015175E-1,9.419314E-2,1.155781E0,7.638528E-1,1.1996406E-2,-3.8595628E-2,-2.932301E-2,3.9568167E-2,1.0768434E-1,1.0839783E0],"categories":[],"categories_nodes":[],"categories_segments":[],"categories_sizes":[],"default_left":[0,0,0,0,0,0,0,0,0,0,0,0,0],"id":37,"left_children":[1,3,5,7,9,11,-1,-1,-1,-1,-1,-1,-1],"loss_changes":[4.984983E2,2.9888138E2,3.2438376E2,3.7992365E2,1.0555538E3,1.8784402E2,0E0,0E0,0E0,0E0,0E0,0E0,0E0],"parents":[2147483647,0,0,1,1,2,2,3,3,4,4,5,5],"right_children":[2,4,6,8,10,12,-1,-1,-1,-1,-1,-1,-1],"split_conditions":[6E0,1E0,3E0,1E0,1E0,1E1,7.638528E-1,1.1996406E-2,-3.8595628E-2,-2.932301E-2,3.9568167E-2,1.0768434E-1,1.0839783E0],"split_indices":[1,0,0,1,1,1,0,0,0,0,0,0,0],"split_type":[0,0,0,0,0,0,0,0,0,0,0,0,0],"sum_hessian":[1.5557E4,1.529E4,2.67E2,6.255E3,9.035E3,2.6E2,7E0,2.421E3,3.834E3,3.954E3,5.081E3,2.59E2,1E0],"tree_param":{"num_deleted":"0","num_feature":"2","num_nodes":"13","size_leaf_vector":"1"}},{"base_weights":[1.5307456E-3,-3.2476038E-2,7.8912336E-1,-5.0385762E-2,9.8517203E-1,7.228667E-1,5.383577E-1,-1.2699628E-2,1.0615381E-2,3.331542E-2,6.1223763E-1,5.9048083E-2,3.1240252E-1],"categories":[],"categories_nodes":[],"categories_segments":[],"categories_sizes":[],"default_left":[0,0,0,0,0,0,0,0,0,0,0,0,0],"id":38,"left_children":[1,3,5,7,9,11,-1,-1,-1,-1,-1,-1,-1],"loss_changes":[4.1672314E2,2.718874E2,1.9215033E2,1.7580067E2,8.621439E2,2.0032669E2,0E0,0E0,0E0,0E0,0E0,0E0,0E0],"parents":[2147483647,0,0,1,1,2,2,3,3,4,4,5,5],"right_children":[2,4,6,8,10,12,-1,-1,-1,-1,-1,-1,-1],"split_conditions":[5E0,6E0,4E0,2E0,2E0,8E0,5.383577E-1,-1.2699628E-2,1.0615381E-2,3.331542E-2,6.1223763E-1,5.9048083E-2,3.1240252E-1],"split_indices":[1,0,0,0,1,1,0,0,0,0,0,0,0],"split_type":[0,0,0,0,0,0,0,0,0,0,0,0,0],"sum_hessian":[1.5557E4,1.4914E4,6.43E2,1.4657E4,2.57E2,6.35E2,8E0,9.841E3,4.816E3,2.29E2,2.8E1,6.03E2,3.2E1],"tree_param":{"num_deleted":"0","num_feature":"2","num_nodes":"13","size_leaf_vector":"1"}},{"base_weights":[1.4775309E-3,-7.0523396E-2,3.3492756E-1,-8.659628E-2,7.298928E-1,1.3098326E-1,1.0237995E0,-1.3781867E-2,1.1965206E-3,-3.4760006E-2,3.0088913E-1,1.11498805E-2,5.2926064E-1,9.4133854E-2,7.3277825E-1],"categories":[],"categories_nodes":[],"categories_segments":[],"categories_sizes":[],"default_left":[0,0,0,0,0,0,0,0,0,0,0,0,0,0,0],"id":39,"left_children":[1,3,5,7,9,11,13,-1,-1,-1,-1,-1,-1,-1,-1],"loss_changes":[3.7355115E2,1.6468372E2,3.8804398E2,6.3335747E1,6.198583E2,2.1392879E2,3.2111646E2,0E0,0E0,0E0,0E0,0E0,0E0,0E0,0E0],"parents":[2147483647,0,0,1,1,2,2,3,3,4,4,5,5,6,6],"right_children":[2,4,6,8,10,12,14,-1,-1,-1,-1,-1,-1,-1,-1],"split_conditions":[3E0,6E0,2E0,2E0,1E0,9E0,7E0,-1.3781867E-2,1.1965206E-3,-3.4760006E-2,3.0088913E-1,1.11498805E-2,5.2926064E-1,9.4133854E-2,7.3277825E-1],"split_indices":[1,0,0,0,1,1,1,0,0,0,0,0,0,0,0],"split_type":[0,0,0,0,0,0,0,0,0,0,0,0,0,0,0],"sum_hessian":[1.5557E4,1.2795E4,2.762E3,1.2544E4,2.51E2,2.132E3,6.3E2,8.254E3,4.29E3,1.71E2,8E1,2.125E3,7E0,6.23E2,7E0],"tree_param":{"num_deleted":"0","num_feature":"2","num_nodes":"15","size_leaf_vector":"1"}},{"base_weights":[1.4339513E-3,-1.755732E-2,1.084994E0,-5.441315E-2,3.5849303E-1,9.088405E-1,6.6963786E-1,-9.59692E-3,1.4511659E-2,-7.1087524E-2,1.5998821E-1,8.363593E-2,9.8769647E-1],"categories":[],"categories_nodes":[],"categories_segments":[],"categories_sizes":[],"default_left":[0,0,0,0,0,0,0,0,0,0,0,0,0],"id":40,"left_children":[1,3,5,7,9,11,-1,-1,-1,-1,-1,-1,-1],"loss_changes":[3.201744E2,2.119474E2,2.5882275E2,1.1549194E2,1.8131775E3,1.6139441E2,0E0,0E0,0E0,0E0,0E0,0E0,0E0],"parents":[2147483647,0,0,1,1,2,2,3,3,4,4,5,5],"right_children":[2,4,6,8,10,12,-1,-1,-1,-1,-1,-1,-1],"split_conditions":[6E0,4E0,3E0,3E0,1E0,1E1,6.6963786E-1,-9.59692E-3,1.4511659E-2,-7.1087524E-2,1.5998821E-1,8.363593E-2,9.8769647E-1],"split_indices":[1,0,0,1,1,1,0,0,0,0,0,0,0],"split_type":[0,0,0,0,0,0,0,0,0,0,0,0,0],"sum_hessian":[1.5557E4,1.529E4,2.67E2,1.3926E4,1.364E3,2.6E2,7E0,1.1526E4,2.4E3,7.33E2,6.31E2,2.59E2,1E0],"tree_param":{"num_deleted":"0","num_feature":"2","num_nodes":"13","size_leaf_vector":"1"}},{"base_weights":[1.4084661E-3,-3.958263E-2,4.2224142E-1,-5.4388065E-2,7.625997E-1,1.8145832E-1,1.440322E0,-1.4497533E-2,8.188104E-4,2.6245764E-2,4.8436737E-1,1.6482022E-2,9.3831176E-1,1.285242E-1,6.95037E-1],"categories":[],"categories_nodes":[],"categories_segments":[],"categories_sizes":[],"default_left":[0,0,0,0,0,0,0,0,0,0,0,0,0,0,0],"id":41,"left_children":[1,3,5,7,9,11,13,-1,-1,-1,-1,-1,-1,-1,-1],"loss_changes":[2.683985E2,1.6842874E2,3.3827225E2,7.891949E1,5.232958E2,1.6961737E2,2.1665472E2,0E0,0E0,0E0,0E0,0E0,0E0,0E0,0E0],"parents":[2147483647,0,0,1,1,2,2,3,3,4,4,5,5,6,6],"right_children":[2,4,6,8,10,12,14,-1,-1,-1,-1,-1,-1,-1,-1],"split_conditions":[4E0,6E0,2E0,1E0,2E0,1E1,5E0,-1.4497533E-2,8.188104E-4,2.6245764E-2,4.8436737E-1,1.6482022E-2,9.3831176E-1,1.285242E-1,6.95037E-1],"split_indices":[1,0,0,0,1,1,0,0,0,0,0,0,0,0,0],"split_type":[0,0,0,0,0,0,0,0,0,0,0,0,0,0,0],"sum_hessian":[1.5557E4,1.4177E4,1.38E3,1.3921E4,2.56E2,1.117E3,2.63E2,5.687E3,8.234E3,2.29E2,2.7E1,1.116E3,1E0,2.57E2,6E0],"tree_param":{"num_deleted":"0","num_feature":"2","num_nodes":"15","size_leaf_vector":"1"}},{"base_weights":[1.4138647E-3,-8.882376E-3,1.5616843E0,-8.5223764E-2,1.4767422E-1,1.1354749E0,6.4277107E-1,-9.026068E-3,5.0552137E-2,-9.905609E-3,8.0826E-2,9.578956E-2,8.9139634E-1],"categories":[],"categories_nodes":[],"categories_segments":[],"categories_sizes":[],"default_left":[0,0,0,0,0,0,0,0,0,0,0,0,0],"id":42,"left_children":[1,3,5,7,9,11,-1,-1,-1,-1,-1,-1,-1],"loss_changes":[2.499519E2,1.8475075E2,2.04244E2,3.0964386E1,8.2593274E2,1.22684685E2,0E0,0E0,0E0,0E0,0E0,0E0,0E0],"parents":[2147483647,0,0,1,1,2,2,3,3,4,4,5,5],"right_children":[2,4,6,8,10,12,-1,-1,-1,-1,-1,-1,-1],"split_conditions":[7E0,2E0,2E0,7E0,2E0,1E1,6.4277107E-1,-9.026068E-3,5.0552137E-2,-9.905609E-3,8.0826E-2,9.578956E-2,8.9139634E-1],"split_indices":[1,1,0,0,0,1,0,0,0,0,0,0,0],"split_type":[0,0,0,0,0,0,0,0,0,0,0,0,0],"sum_hessian":[1.5557E4,1.5456E4,1.01E2,1.039E4,5.066E3,9.4E1,7E0,1.0303E4,8.7E1,3.689E3,1.377E3,9.3E1,1E0],"tree_param":{"num_deleted":"0","num_feature":"2","num_nodes":"13","size_leaf_vector":"1"}},{"base_weights":[1.3844769E-3,-1.4327667E-2,8.9785093E-1,-3.508484E-2,4.7525766E-1,7.424057E-1,5.857019E-1,-1.2587182E-2,3.2413483E-3,-3.444717E-2,1.6408052E-1,6.8012066E-2,8.4682655E-1],"categories":[],"categories_nodes":[],"categories_segments":[],"categories_sizes":[],"default_left":[0,0,0,0,0,0,0,0,0,0,0,0,0],"id":43,"left_children":[1,3,5,7,9,11,-1,-1,-1,-1,-1,-1,-1],"loss_changes":[2.1915367E2,1.5541006E2,2.0224722E2,8.990138E1,5.948448E2,1.1983531E2,0E0,0E0,0E0,0E0,0E0,0E0,0E0],"parents":[2147483647,0,0,1,1,2,2,3,3,4,4,5,5],"right_children":[2,4,6,8,10,12,-1,-1,-1,-1,-1,-1,-1],"split_conditions":[6E0,5E0,3E0,1E0,1E0,1E1,5.857019E-1,-1.2587182E-2,3.2413483E-3,-3.444717E-2,1.6408052E-1,6.8012066E-2,8.4682655E-1],"split_indices":[1,0,0,0,1,1,0,0,0,0,0,0,0],"split_type":[0,0,0,0,0,0,0,0,0,0,0,0,0],"sum_hessian":[1.5557E4,1.529E4,2.67E2,1.4669E4,6.21E2,2.6E2,7E0,6.255E3,8.414E3,3.65E2,2.56E2,2.59E2,1E0],"tree_param":{"num_deleted":"0","num_feature":"2","num_nodes":"13","size_leaf_vector":"1"}},{"base_weights":[1.3501969E-3,-2.1394748E-2,5.281196E-1,-3.3758152E-2,6.811021E-1,4.7408316E-1,4.2880154E-1,-8.13233E-3,7.3733698E-3,2.0701058E-2,4.4176522E-1,3.7356105E-2,2.2995763E-1],"categories":[],"categories_nodes":[],"categories_segments":[],"categories_sizes":[],"default_left":[0,0,0,0,0,0,0,0,0,0,0,0,0],"id":44,"left_children":[1,3,5,7,9,11,-1,-1,-1,-1,-1,-1,-1],"loss_changes":[1.86417E2,1.2956355E2,1.2880954E2,7.4950386E1,4.561239E2,1.15848526E2,0E0,0E0,0E0,0E0,0E0,0E0,0E0],"parents":[2147483647,0,0,1,1,2,2,3,3,4,4,5,5],"right_children":[2,4,6,8,10,12,-1,-1,-1,-1,-1,-1,-1],"split_conditions":[5E0,6E0,4E0,2E0,2E0,8E0,4.2880154E-1,-8.13233E-3,7.3733698E-3,2.0701058E-2,4.4176522E-1,3.7356105E-2,2.2995763E-1],"split_indices":[1,0,0,1,1,1,0,0,0,0,0,0,0],"split_type":[0,0,0,0,0,0,0,0,0,0,0,0,0],"sum_hessian":[1.5557E4,1.4914E4,6.43E2,1.4657E4,2.57E2,6.35E2,8E0,1.0161E4,4.496E3,2.29E2,2.8E1,6.03E2,3.2E1],"tree_param":{"num_deleted":"0","num_feature":"2","num_nodes":"13","size_leaf_vector":"1"}},{"base_weights":[1.2895793E-3,-6.9112494E-3,1.244024E0,-6.745289E-2,1.1724409E-1,8.570111E-1,5.6843E-1,-7.166292E-3,4.2626955E-2,-9.641371E-3,6.892906E-2,6.974075E-2,7.9298747E-1],"categories":[],"categories_nodes":[],"categories_segments":[],"categories_sizes":[],"default_left":[0,0,0,0,0,0,0,0,0,0,0,0,0],"id":45,"left_children":[1,3,5,7,9,11,-1,-1,-1,-1,-1,-1,-1],"loss_changes":[1.5856721E2,1.161915E2,1.704098E2,2.162912E1,6.1936633E2,1.01710815E2,0E0,0E0,0E0,0E0,0E0,0E0,0E0],"parents":[2147483647,0,0,1,1,2,2,3,3,4,4,5,5],"right_children":[2,4,6,8,10,12,-1,-1,-1,-1,-1,-1,-1],"split_conditions":[7E0,2E0,2E0,7E0,2E0,1E1,5.6843E-1,-7.166292E-3,4.2626955E-2,-9.641371E-3,6.892906E-2,6.974075E-2,7.9298747E-1],"split_indices":[1,1,0,0,0,1,0,0,0,0,0,0,0],"split_type":[0,0,0,0,0,0,0,0,0,0,0,0,0],"sum_hessian":[1.5557E4,1.5456E4,1.01E2,1.039E4,5.066E3,9.4E1,7E0,1.0303E4,8.7E1,3.689E3,1.377E3,9.3E1,1E0],"tree_param":{"num_deleted":"0","num_feature":"2","num_nodes":"13","size_leaf_vector":"1"}},{"base_weights":[1.2587087E-3,-2.8619973E-2,3.080065E-1,-3.9369248E-2,5.537925E-1,2.4636742E-1,3.173167E0,-9.713184E-3,5.3275795E-5,-2.8193653E-2,2.218811E-1,-7.172531E-3,6.3509114E-2,2.187937E-1,5.9570414E-1],"categories":[],"categories_nodes":[],"categories_segments":[],"categories_sizes":[],"default_left":[0,0,0,0,0,0,0,0,0,0,0,0,0,0,0],"id":46,"left_children":[1,3,5,7,9,11,13,-1,-1,-1,-1,-1,-1,-1,-1],"loss_changes":[1.426013E2,8.878332E1,2.4311089E2,3.208808E1,3.582422E2,1.6734424E2,6.650629E1,0E0,0E0,0E0,0E0,0E0,0E0,0E0,0E0],"parents":[2147483647,0,0,1,1,2,2,3,3,4,4,5,5,6,6],"right_children":[2,4,6,8,10,12,14,-1,-1,-1,-1,-1,-1,-1,-1],"split_conditions":[4E0,6E0,4E0,1E0,1E0,1E0,5E0,-9.713184E-3,5.3275795E-5,-2.8193653E-2,2.218811E-1,-7.172531E-3,6.3509114E-2,2.187937E-1,5.9570414E-1],"split_indices":[1,0,0,0,1,0,0,0,0,0,0,0,0,0,0],"split_type":[0,0,0,0,0,0,0,0,0,0,0,0,0,0,0],"sum_hessian":[1.5557E4,1.4177E4,1.38E3,1.3921E4,2.56E2,1.352E3,2.8E1,5.687E3,8.234E3,1.71E2,8.5E1,7.44E2,6.08E2,2.2E1,6E0],"tree_param":{"num_deleted":"0","num_feature":"2","num_nodes":"15","size_leaf_vector":"1"}},{"base_weights":[1.2006074E-3,-1.0918392E-2,6.926574E-1,-2.6761806E-2,3.627694E-1,5.5597985E-1,5.0651807E-1,-5.3252694E-3,1.04105435E-2,-3.0444017E-2,1.3115473E-1,5.0014157E-2,7.5369686E-1],"categories":[],"categories_nodes":[],"categories_segments":[],"categories_sizes":[],"default_left":[0,0,0,0,0,0,0,0,0,0,0,0,0],"id":47,"left_children":[1,3,5,7,9,11,-1,-1,-1,-1,-1,-1,-1],"loss_changes":[1.3037993E2,9.0539925E1,1.5734756E2,5.086335E1,3.9414624E2,9.796995E1,0E0,0E0,0E0,0E0,0E0,0E0,0E0],"parents":[2147483647,0,0,1,1,2,2,3,3,4,4,5,5],"right_children":[2,4,6,8,10,12,-1,-1,-1,-1,-1,-1,-1],"split_conditions":[6E0,5E0,3E0,3E0,1E0,1E1,5.0651807E-1,-5.3252694E-3,1.04105435E-2,-3.0444017E-2,1.3115473E-1,5.0014157E-2,7.5369686E-1],"split_indices":[1,0,0,1,1,1,0,0,0,0,0,0,0],"split_type":[0,0,0,0,0,0,0,0,0,0,0,0,0],"sum_hessian":[1.5557E4,1.529E4,2.67E2,1.4669E4,6.21E2,2.6E2,7E0,1.22E4,2.469E3,3.65E2,2.56E2,2.59E2,1E0],"tree_param":{"num_deleted":"0","num_feature":"2","num_nodes":"13","size_leaf_vector":"1"}},{"base_weights":[1.1716025E-3,-2.8563205E-3,1.8962128E0,-9.0543635E-2,5.8729887E-2,1.5079621E0,7.160118E-1,2.1045653E-2,-2.7346257E-2,-2.1081127E-2,2.6503462E-2,9.661249E-2,3.3050773E-1],"categories":[],"categories_nodes":[],"categories_segments":[],"categories_sizes":[],"default_left":[0,0,0,0,0,0,0,0,0,0,0,0,0],"id":48,"left_children":[1,3,5,7,9,11,-1,-1,-1,-1,-1,-1,-1],"loss_changes":[1.1876088E2,8.385082E1,5.66454E1,3.5276312E2,5.07253E2,2.796669E1,0E0,0E0,0E0,0E0,0E0,0E0,0E0],"parents":[2147483647,0,0,1,1,2,2,3,3,4,4,5,5],"right_children":[2,4,6,8,10,12,-1,-1,-1,-1,-1,-1,-1],"split_conditions":[8E0,1E0,1E1,1E0,1E0,1E0,7.160118E-1,2.1045653E-2,-2.7346257E-2,-2.1081127E-2,2.6503462E-2,9.661249E-2,3.3050773E-1],"split_indices":[1,0,1,1,1,0,0,0,0,0,0,0,0],"split_type":[0,0,0,0,0,0,0,0,0,0,0,0,0],"sum_hessian":[1.5557E4,1.5525E4,3.2E1,6.405E3,9.12E3,3.1E1,1E0,2.421E3,3.984E3,3.954E3,5.166E3,2.5E1,6E0],"tree_param":{"num_deleted":"0","num_feature":"2","num_nodes":"13","size_leaf_vector":"1"}},{"base_weights":[1.1278695E-3,-5.577195E-3,1.017197E0,-2.7588358E-2,2.2149959E-1,6.736783E-1,4.9693322E-1,-5.363514E-3,8.9429915E-3,-5.782908E-2,1.1485527E-1,5.361193E-2,6.8021125E-1],"categories":[],"categories_nodes":[],"categories_segments":[],"categories_sizes":[],"default_left":[0,0,0,0,0,0,0,0,0,0,0,0,0],"id":49,"left_children":[1,3,5,7,9,11,-1,-1,-1,-1,-1,-1,-1],"loss_changes":[1.0599935E2,7.726367E1,1.3513077E2,4.2956505E1,1.0134824E3,7.6440285E1,0E0,0E0,0E0,0E0,0E0,0E0,0E0],"parents":[2147483647,0,0,1,1,2,2,3,3,4,4,5,5],"right_children":[2,4,6,8,10,12,-1,-1,-1,-1,-1,-1,-1],"split_conditions":[7E0,4E0,2E0,3E0,1E0,1E1,4.9693322E-1,-5.363514E-3,8.9429915E-3,-5.782908E-2,1.1485527E-1,5.361193E-2,6.8021125E-1],"split_indices":[1,0,0,1,1,1,0,0,0,0,0,0,0],"split_type":[0,0,0,0,0,0,0,0,0,0,0,0,0],"sum_hessian":[1.5557E4,1.5456E4,1.01E2,1.4091E4,1.365E3,9.4E1,7E0,1.1526E4,2.565E3,7.33E2,6.32E2,9.3E1,1E0],"tree_param":{"num_deleted":"0","num_feature":"2","num_nodes":"13","size_leaf_vector":"1"}},{"base_weights":[1.0980803E-3,-1.4921826E-2,3.7211642E-1,-2.4367675E-2,5.2179205E-1,3.286021E-1,3.4057808E0,-8.356831E-3,1.7261998E-3,1.5229017E-2,3.434331E-1,3.0876681E-2,6.462006E-1,2.5480366E-1,5.133867E-1],"categories":[],"categories_nodes":[],"categories_segments":[],"categories_sizes":[],"default_left":[0,0,0,0,0,0,0,0,0,0,0,0,0,0,0],"id":50,"left_children":[1,3,5,7,9,11,13,-1,-1,-1,-1,-1,-1,-1,-1],"loss_changes":[9.24773E1,7.562756E1,8.389386E1,3.612613E1,2.7713367E2,7.537912E1,2.5902557E-1,0E0,0E0,0E0,0E0,0E0,0E0,0E0,0E0],"parents":[2147483647,0,0,1,1,2,2,3,3,4,4,5,5,6,6],"right_children":[2,4,6,8,10,12,14,-1,-1,-1,-1,-1,-1,-1,-1],"split_conditions":[5E0,6E0,4E0,1E0,2E0,1E1,6E0,-8.356831E-3,1.7261998E-3,1.5229017E-2,3.434331E-1,3.0876681E-2,6.462006E-1,2.5480366E-1,5.133867E-1],"split_indices":[1,0,0,0,1,1,1,0,0,0,0,0,0,0,0],"split_type":[0,0,0,0,0,0,0,0,0,0,0,0,0,0,0],"sum_hessian":[1.5557E4,1.4914E4,6.43E2,1.4657E4,2.57E2,6.35E2,8E0,6.051E3,8.606E3,2.29E2,2.8E1,6.34E2,1E0,7E0,1E0],"tree_param":{"num_deleted":"0","num_feature":"2","num_nodes":"15","size_leaf_vector":"1"}},{"base_weights":[1.1038388E-3,-2.312141E-3,1.608237E0,-3.0856019E-2,1.3143E-1,1.2748129E0,6.1389047E-1,-3.6855035E-3,7.715688E-2,1.0622648E-2,2.6515818E-1,7.919913E-2,2.8860343E-1],"categories":[],"categories_nodes":[],"categories_segments":[],"categories_sizes":[],"default_left":[0,0,0,0,0,0,0,0,0,0,0,0,0],"id":51,"left_children":[1,3,5,7,9,11,-1,-1,-1,-1,-1,-1,-1],"loss_changes":[8.5416115E1,5.9274864E1,4.2024963E1,6.16253E1,1.7318245E2,2.2608124E1,0E0,0E0,0E0,0E0,0E0,0E0,0E0],"parents":[2147483647,0,0,1,1,2,2,3,3,4,4,5,5],"right_children":[2,4,6,8,10,12,-1,-1,-1,-1,-1,-1,-1],"split_conditions":[8E0,3E0,1E1,7E0,5E0,1E0,6.1389047E-1,-3.6855035E-3,7.715688E-2,1.0622648E-2,2.6515818E-1,7.919913E-2,2.8860343E-1],"split_indices":[1,1,1,0,0,0,0,0,0,0,0,0,0],"split_type":[0,0,0,0,0,0,0,0,0,0,0,0,0],"sum_hessian":[1.5557E4,1.5525E4,3.2E1,1.2795E4,2.73E3,3.1E1,1E0,1.2701E4,9.4E1,2.704E3,2.6E1,2.5E1,6E0],"tree_param":{"num_deleted":"0","num_feature":"2","num_nodes":"13","size_leaf_vector":"1"}},{"base_weights":[1.0790038E-3,-5.172941E-4,3.1039476E0,-4.2717047E-2,8.4446505E-2,1.8810949E-1,5.8319587E-1,-8.96273E-4,-1.0155306E-2,-8.221353E-3,5.388801E-2],"categories":[],"categories_nodes":[],"categories_segments":[],"categories_sizes":[],"default_left":[0,0,0,0,0,0,0,0,0,0,0],"id":52,"left_children":[1,3,5,7,9,-1,-1,-1,-1,-1,-1],"loss_changes":[7.706197E1,5.5760963E1,1.5717178E1,2.06353E1,3.909174E2,0E0,0E0,0E0,0E0,0E0,0E0],"parents":[2147483647,0,0,1,1,2,2,3,3,4,4],"right_children":[2,4,6,8,10,-1,-1,-1,-1,-1,-1],"split_conditions":[9E0,2E0,1E1,2E0,2E0,1.8810949E-1,5.8319587E-1,-8.96273E-4,-1.0155306E-2,-8.221353E-3,5.388801E-2],"split_indices":[1,1,1,0,0,0,0,0,0,0,0],"split_type":[0,0,0,0,0,0,0,0,0,0,0],"sum_hessian":[1.5557E4,1.555E4,7E0,1.039E4,5.16E3,6E0,1E0,6.603E3,3.787E3,3.776E3,1.384E3],"tree_param":{"num_deleted":"0","num_feature":"2","num_nodes":"11","size_leaf_vector":"1"}},{"base_weights":[1.0228774E-3,-7.916409E-3,5.110587E-1,-1.5639232E-2,4.4213337E-1,3.9072862E-1,4.3729454E-1,-6.914267E-3,2.2489612E-3,1.2032859E-2,2.9791322E-1,3.4961328E-2,5.5403596E-1],"categories":[],"categories_nodes":[],"categories_segments":[],"categories_sizes":[],"default_left":[0,0,0,0,0,0,0,0,0,0,0,0,0],"id":53,"left_children":[1,3,5,7,9,11,-1,-1,-1,-1,-1,-1,-1],"loss_changes":[7.093851E1,5.3153156E1,1.2283127E2,3.0671282E1,2.1027747E2,5.332425E1,0E0,0E0,0E0,0E0,0E0,0E0,0E0],"parents":[2147483647,0,0,1,1,2,2,3,3,4,4,5,5],"right_children":[2,4,6,8,10,12,-1,-1,-1,-1,-1,-1,-1],"split_conditions":[6E0,6E0,3E0,1E0,2E0,1E1,4.3729454E-1,-6.914267E-3,2.2489612E-3,1.2032859E-2,2.9791322E-1,3.4961328E-2,5.5403596E-1],"split_indices":[1,0,0,0,1,1,0,0,0,0,0,0,0],"split_type":[0,0,0,0,0,0,0,0,0,0,0,0,0],"sum_hessian":[1.5557E4,1.529E4,2.67E2,1.5033E4,2.57E2,2.6E2,7E0,6.255E3,8.778E3,2.29E2,2.8E1,2.59E2,1E0],"tree_param":{"num_deleted":"0","num_feature":"2","num_nodes":"13","size_leaf_vector":"1"}},{"base_weights":[1.0061935E-3,-4.162276E-3,7.842222E-1,-2.0686928E-2,1.6631323E-1,4.769188E-1,4.3354222E-1,4.0504667E-3,-6.1548874E-3,-5.2360285E-2,9.6604794E-2,2.6081083E-2,2.794492E-1],"categories":[],"categories_nodes":[],"categories_segments":[],"categories_sizes":[],"default_left":[0,0,0,0,0,0,0,0,0,0,0,0,0],"id":54,"left_children":[1,3,5,7,9,11,-1,-1,-1,-1,-1,-1,-1],"loss_changes":[6.2982483E1,4.3546555E1,1.0924452E2,3.5238235E1,7.541961E2,4.685154E1,0E0,0E0,0E0,0E0,0E0,0E0,0E0],"parents":[2147483647,0,0,1,1,2,2,3,3,4,4,5,5],"right_children":[2,4,6,8,10,12,-1,-1,-1,-1,-1,-1,-1],"split_conditions":[7E0,4E0,2E0,1E0,1E0,9E0,4.3354222E-1,4.0504667E-3,-6.1548874E-3,-5.2360285E-2,9.6604794E-2,2.6081083E-2,2.794492E-1],"split_indices":[1,0,0,1,1,1,0,0,0,0,0,0,0],"split_type":[0,0,0,0,0,0,0,0,0,0,0,0,0],"sum_hessian":[1.5557E4,1.5456E4,1.01E2,1.4091E4,1.365E3,9.4E1,7E0,5.642E3,8.449E3,7.33E2,6.32E2,8.7E1,7E0],"tree_param":{"num_deleted":"0","num_feature":"2","num_nodes":"13","size_leaf_vector":"1"}},{"base_weights":[9.557989E-4,-1.788755E-2,1.9440985E-1,-2.2584409E-2,6.786224E-1,1.7119871E-1,4.7259673E-1,-4.0052566E-3,2.5025872E-3,-2.5014073E-2,3.0269942E-1,-1.0010645E-2,4.9124807E-2],"categories":[],"categories_nodes":[],"categories_segments":[],"categories_sizes":[],"default_left":[0,0,0,0,0,0,0,0,0,0,0,0,0],"id":55,"left_children":[1,3,5,7,9,11,-1,-1,-1,-1,-1,-1,-1],"loss_changes":[5.6717403E1,4.6397366E1,1.4444809E2,1.1714155E1,2.0795987E2,1.1944186E2,0E0,0E0,0E0,0E0,0E0,0E0,0E0],"parents":[2147483647,0,0,1,1,2,2,3,3,4,4,5,5],"right_children":[2,4,6,8,10,12,-1,-1,-1,-1,-1,-1,-1],"split_conditions":[4E0,7E0,5E0,2E0,1E0,1E0,4.7259673E-1,-4.0052566E-3,2.5025872E-3,-2.5014073E-2,3.0269942E-1,-1.0010645E-2,4.9124807E-2],"split_indices":[1,0,0,1,1,0,0,0,0,0,0,0,0],"split_type":[0,0,0,0,0,0,0,0,0,0,0,0,0],"sum_hessian":[1.5557E4,1.4177E4,1.38E3,1.4083E4,9.4E1,1.374E3,6E0,1.0303E4,3.78E3,6.8E1,2.6E1,7.44E2,6.3E2],"tree_param":{"num_deleted":"0","num_feature":"2","num_nodes":"13","size_leaf_vector":"1"}},{"base_weights":[9.1083E-4,-1.8239842E-3,1.2875719E0,-8.2399E-3,3.7789088E-1,1.0072697E0,5.12862E-1,-1.7797555E-3,2.2068879E-2,1.0777851E-2,2.5071308E-1,5.881911E-2,2.419952E-1],"categories":[],"categories_nodes":[],"categories_segments":[],"categories_sizes":[],"default_left":[0,0,0,0,0,0,0,0,0,0,0,0,0],"id":56,"left_children":[1,3,5,7,9,11,-1,-1,-1,-1,-1,-1,-1],"loss_changes":[5.474751E1,3.7827843E1,3.0363678E1,3.3412823E1,1.4811436E2,1.7521404E1,0E0,0E0,0E0,0E0,0E0,0E0,0E0],"parents":[2147483647,0,0,1,1,2,2,3,3,4,4,5,5],"right_children":[2,4,6,8,10,12,-1,-1,-1,-1,-1,-1,-1],"split_conditions":[8E0,6E0,1E1,5E0,2E0,1E0,5.12862E-1,-1.7797555E-3,2.2068879E-2,1.0777851E-2,2.5071308E-1,5.881911E-2,2.419952E-1],"split_indices":[1,0,1,1,1,0,0,0,0,0,0,0,0],"split_type":[0,0,0,0,0,0,0,0,0,0,0,0,0],"sum_hessian":[1.5557E4,1.5525E4,3.2E1,1.5268E4,2.57E2,3.1E1,1E0,1.4657E4,6.11E2,2.29E2,2.8E1,2.5E1,6E0],"tree_param":{"num_deleted":"0","num_feature":"2","num_nodes":"13","size_leaf_vector":"1"}},{"base_weights":[8.9015765E-4,2.638488E-4,4.8721886E-1,-1.4983365E-2,1.5691221E-1,-1.9031623E-3,5.8533944E-2,1.1256652E-2,2.2189283E-1],"categories":[],"categories_nodes":[],"categories_segments":[],"categories_sizes":[],"default_left":[0,0,0,0,0,0,0,0,0],"id":57,"left_children":[1,3,-1,5,7,-1,-1,-1,-1],"loss_changes":[4.74652E1,3.7159485E1,0E0,3.4467396E1,1.2593953E2,0E0,0E0,0E0,0E0],"parents":[2147483647,0,0,1,1,3,3,4,4],"right_children":[2,4,-1,6,8,-1,-1,-1,-1],"split_conditions":[1E1,4E0,4.8721886E-1,7E0,4E0,-1.9031623E-3,5.8533944E-2,1.1256652E-2,2.2189283E-1],"split_indices":[1,1,0,0,0,0,0,0,0],"split_type":[0,0,0,0,0,0,0,0,0],"sum_hessian":[1.5557E4,1.5556E4,1E0,1.4177E4,1.379E3,1.4083E4,9.4E1,1.351E3,2.8E1],"tree_param":{"num_deleted":"0","num_feature":"2","num_nodes":"9","size_leaf_vector":"1"}},{"base_weights":[8.5106486E-4,-1.6087531E-3,1.1581324E0,-5.716794E-2,3.74126E-2,9.050379E-1,4.628578E-1,2.1826176E-2,-2.2455402E-2,-1.579458E-2,1.8693944E-2,5.2081037E-2,2.2028776E-1],"categories":[],"categories_nodes":[],"categories_segments":[],"categories_sizes":[],"default_left":[0,0,0,0,0,0,0,0,0,0,0,0,0],"id":58,"left_children":[1,3,5,7,9,11,-1,-1,-1,-1,-1,-1,-1],"loss_changes":[4.4290844E1,3.3662422E1,2.4796543E1,2.9538544E2,2.66466E2,1.481002E1,0E0,0E0,0E0,0E0,0E0,0E0,0E0],"parents":[2147483647,0,0,1,1,2,2,3,3,4,4,5,5],"right_children":[2,4,6,8,10,12,-1,-1,-1,-1,-1,-1,-1],"split_conditions":[8E0,1E0,1E1,1E0,1E0,1E0,4.628578E-1,2.1826176E-2,-2.2455402E-2,-1.579458E-2,1.8693944E-2,5.2081037E-2,2.2028776E-1],"split_indices":[1,0,1,1,1,0,0,0,0,0,0,0,0],"split_type":[0,0,0,0,0,0,0,0,0,0,0,0,0],"sum_hessian":[1.5557E4,1.5525E4,3.2E1,6.405E3,9.12E3,3.1E1,1E0,2.421E3,3.984E3,3.954E3,5.166E3,2.5E1,6E0],"tree_param":{"num_deleted":"0","num_feature":"2","num_nodes":"13","size_leaf_vector":"1"}},{"base_weights":[8.13348E-4,-3.3498788E-4,2.232933E0,-2.1069849E-2,9.593628E-2,1.2955954E0,4.3971482E-1,-2.5216725E-3,5.33611E-2,7.7510835E-3,1.9554013E-1,8.606784E-2,1.952549E-1],"categories":[],"categories_nodes":[],"categories_segments":[],"categories_sizes":[],"default_left":[0,0,0,0,0,0,0,0,0,0,0,0,0],"id":59,"left_children":[1,3,5,7,9,11,-1,-1,-1,-1,-1,-1,-1],"loss_changes":[3.987937E1,3.1044485E1,1.0531876E1,2.944672E1,9.4273094E1,3.1952572E-1,0E0,0E0,0E0,0E0,0E0,0E0,0E0],"parents":[2147483647,0,0,1,1,2,2,3,3,4,4,5,5],"right_children":[2,4,6,8,10,12,-1,-1,-1,-1,-1,-1,-1],"split_conditions":[9E0,3E0,1E1,7E0,5E0,1E0,4.3971482E-1,-2.5216725E-3,5.33611E-2,7.7510835E-3,1.9554013E-1,8.606784E-2,1.952549E-1],"split_indices":[1,1,1,0,0,0,0,0,0,0,0,0,0],"split_type":[0,0,0,0,0,0,0,0,0,0,0,0,0],"sum_hessian":[1.5557E4,1.555E4,7E0,1.2795E4,2.755E3,6E0,1E0,1.2701E4,9.4E1,2.729E3,2.6E1,5E0,1E0],"tree_param":{"num_deleted":"0","num_feature":"2","num_nodes":"13","size_leaf_vector":"1"}},{"base_weights":[7.946626E-4,-3.1645978E-3,6.007701E-1,-2.3109073E-2,8.900178E-2,3.243554E-1,3.8080984E-1,1.26789315E-2,-1.2055365E-2,-5.1751357E-2,6.9062166E-2,2.3892744E-2,4.177292E-1],"categories":[],"categories_nodes":[],"categories_segments":[],"categories_sizes":[],"default_left":[0,0,0,0,0,0,0,0,0,0,0,0,0],"id":60,"left_children":[1,3,5,7,9,11,-1,-1,-1,-1,-1,-1,-1],"loss_changes":[3.6959293E1,2.841527E1,8.919319E1,1.856383E2,1.0038095E3,3.0271038E1,0E0,0E0,0E0,0E0,0E0,0E0,0E0],"parents":[2147483647,0,0,1,1,2,2,3,3,4,4,5,5],"right_children":[2,4,6,8,10,12,-1,-1,-1,-1,-1,-1,-1],"split_conditions":[7E0,3E0,2E0,1E0,1E0,1E1,3.8080984E-1,1.26789315E-2,-1.2055365E-2,-5.1751357E-2,6.9062166E-2,2.3892744E-2,4.177292E-1],"split_indices":[1,0,0,1,1,1,0,0,0,0,0,0,0],"split_type":[0,0,0,0,0,0,0,0,0,0,0,0,0],"sum_hessian":[1.5557E4,1.5456E4,1.01E2,1.2707E4,2.749E3,9.4E1,7E0,5.006E3,7.701E3,1.369E3,1.38E3,9.3E1,1E0],"tree_param":{"num_deleted":"0","num_feature":"2","num_nodes":"13","size_leaf_vector":"1"}},{"base_weights":[7.691973E-4,-5.4139104E-3,3.5354954E-1,-1.4044496E-2,1.9814897E-1,2.4941093E-1,3.706878E-1,-4.716611E-3,1.0580918E-3,1.3260677E-3,1.18659995E-1,1.2943419E-3,7.3888555E-2],"categories":[],"categories_nodes":[],"categories_segments":[],"categories_sizes":[],"default_left":[0,0,0,0,0,0,0,0,0,0,0,0,0],"id":61,"left_children":[1,3,5,7,9,11,-1,-1,-1,-1,-1,-1,-1],"loss_changes":[3.393825E1,2.6867037E1,9.266402E1,1.1965841E1,1.1365664E2,3.0199839E1,0E0,0E0,0E0,0E0,0E0,0E0,0E0],"parents":[2147483647,0,0,1,1,2,2,3,3,4,4,5,5],"right_children":[2,4,6,8,10,12,-1,-1,-1,-1,-1,-1,-1],"split_conditions":[6E0,5E0,3E0,1E0,2E0,1E0,3.706878E-1,-4.716611E-3,1.0580918E-3,1.3260677E-3,1.18659995E-1,1.2943419E-3,7.3888555E-2],"split_indices":[1,0,0,0,1,0,0,0,0,0,0,0,0],"split_type":[0,0,0,0,0,0,0,0,0,0,0,0,0],"sum_hessian":[1.5557E4,1.529E4,2.67E2,1.4669E4,6.21E2,2.6E2,7E0,6.255E3,8.414E3,5.24E2,9.7E1,1.76E2,8.4E1],"tree_param":{"num_deleted":"0","num_feature":"2","num_nodes":"13","size_leaf_vector":"1"}},{"base_weights":[7.2842493E-4,-3.1011208E-4,2.0194235E0,-1.8834352E-2,8.5697316E-2,1.1742619E0,3.9677772E-1,-2.2631001E-3,4.8899584E-2,-7.27595E-3,2.4466766E-2,7.679622E-2,1.8060303E-1],"categories":[],"categories_nodes":[],"categories_segments":[],"categories_sizes":[],"default_left":[0,0,0,0,0,0,0,0,0,0,0,0,0],"id":62,"left_children":[1,3,5,7,9,11,-1,-1,-1,-1,-1,-1,-1],"loss_changes":[3.261781E1,2.4777813E1,8.514179E0,2.468243E1,6.944125E1,4.0984917E-1,0E0,0E0,0E0,0E0,0E0,0E0,0E0],"parents":[2147483647,0,0,1,1,2,2,3,3,4,4,5,5],"right_children":[2,4,6,8,10,12,-1,-1,-1,-1,-1,-1,-1],"split_conditions":[9E0,3E0,1E1,7E0,1E0,1E0,3.9677772E-1,-2.2631001E-3,4.8899584E-2,-7.27595E-3,2.4466766E-2,7.679622E-2,1.8060303E-1],"split_indices":[1,1,1,0,0,0,0,0,0,0,0,0,0],"split_type":[0,0,0,0,0,0,0,0,0,0,0,0,0],"sum_hessian":[1.5557E4,1.555E4,7E0,1.2795E4,2.755E3,6E0,1E0,1.2701E4,9.4E1,1.38E3,1.375E3,5E0,1E0],"tree_param":{"num_deleted":"0","num_feature":"2","num_nodes":"13","size_leaf_vector":"1"}},{"base_weights":[7.017114E-4,-1.2897686E-3,9.376416E-1,-6.078516E-3,2.8212368E-1,7.31356E-1,3.7693903E-1,-1.3133656E-3,1.6290894E-2,6.712336E-3,1.9775705E-1,4.148278E-2,1.802553E-1],"categories":[],"categories_nodes":[],"categories_segments":[],"categories_sizes":[],"default_left":[0,0,0,0,0,0,0,0,0,0,0,0,0],"id":63,"left_children":[1,3,5,7,9,11,-1,-1,-1,-1,-1,-1,-1],"loss_changes":[2.9030836E1,2.1073534E1,1.6520145E1,1.82063E1,9.391383E1,1.0102301E1,0E0,0E0,0E0,0E0,0E0,0E0,0E0],"parents":[2147483647,0,0,1,1,2,2,3,3,4,4,5,5],"right_children":[2,4,6,8,10,12,-1,-1,-1,-1,-1,-1,-1],"split_conditions":[8E0,6E0,1E1,5E0,2E0,1E0,3.7693903E-1,-1.3133656E-3,1.6290894E-2,6.712336E-3,1.9775705E-1,4.148278E-2,1.802553E-1],"split_indices":[1,0,1,1,1,0,0,0,0,0,0,0,0],"split_type":[0,0,0,0,0,0,0,0,0,0,0,0,0],"sum_hessian":[1.5557E4,1.5525E4,3.2E1,1.5268E4,2.57E2,3.1E1,1E0,1.4657E4,6.11E2,2.29E2,2.8E1,2.5E1,6E0],"tree_param":{"num_deleted":"0","num_feature":"2","num_nodes":"13","size_leaf_vector":"1"}},{"base_weights":[6.8411446E-4,-2.4345542E-4,1.8036785E0,-2.4741877E-2,4.9080968E-2,1.0382265E0,3.5809213E-1,6.937805E-4,-7.996571E-3,-6.279261E-3,3.5413325E-2,6.6939674E-2,1.6256027E-1],"categories":[],"categories_nodes":[],"categories_segments":[],"categories_sizes":[],"default_left":[0,0,0,0,0,0,0,0,0,0,0,0,0],"id":64,"left_children":[1,3,5,7,9,11,-1,-1,-1,-1,-1,-1,-1],"loss_changes":[2.6019688E1,1.8792585E1,7.1653423E0,1.8179333E1,1.7615318E2,4.283204E-1,0E0,0E0,0E0,0E0,0E0,0E0,0E0],"parents":[2147483647,0,0,1,1,2,2,3,3,4,4,5,5],"right_children":[2,4,6,8,10,12,-1,-1,-1,-1,-1,-1,-1],"split_conditions":[9E0,2E0,1E1,2E0,2E0,1E0,3.5809213E-1,6.937805E-4,-7.996571E-3,-6.279261E-3,3.5413325E-2,6.6939674E-2,1.6256027E-1],"split_indices":[1,1,1,0,0,0,0,0,0,0,0,0,0],"split_type":[0,0,0,0,0,0,0,0,0,0,0,0,0],"sum_hessian":[1.5557E4,1.555E4,7E0,1.039E4,5.16E3,6E0,1E0,6.603E3,3.787E3,3.776E3,1.384E3,5E0,1E0],"tree_param":{"num_deleted":"0","num_feature":"2","num_nodes":"13","size_leaf_vector":"1"}},{"base_weights":[6.5484917E-4,-1.1283308E-3,8.395942E-1,-5.5060377E-3,2.5795823E-1,6.5321434E-1,3.4018746E-1,-1.184408E-3,1.4630526E-2,-1.2931721E-2,1.02064125E-1,3.6689904E-2,1.6233549E-1],"categories":[],"categories_nodes":[],"categories_segments":[],"categories_sizes":[],"default_left":[0,0,0,0,0,0,0,0,0,0,0,0,0],"id":65,"left_children":[1,3,5,7,9,11,-1,-1,-1,-1,-1,-1,-1],"loss_changes":[2.32754E1,1.7611088E1,1.3537239E1,1.46933565E1,7.633703E1,8.292906E0,0E0,0E0,0E0,0E0,0E0,0E0,0E0],"parents":[2147483647,0,0,1,1,2,2,3,3,4,4,5,5],"right_children":[2,4,6,8,10,12,-1,-1,-1,-1,-1,-1,-1],"split_conditions":[8E0,6E0,1E1,5E0,1E0,1E0,3.4018746E-1,-1.184408E-3,1.4630526E-2,-1.2931721E-2,1.02064125E-1,3.6689904E-2,1.6233549E-1],"split_indices":[1,0,1,1,1,0,0,0,0,0,0,0,0],"split_type":[0,0,0,0,0,0,0,0,0,0,0,0,0],"sum_hessian":[1.5557E4,1.5525E4,3.2E1,1.5268E4,2.57E2,3.1E1,1E0,1.4657E4,6.11E2,1.71E2,8.6E1,2.5E1,6E0],"tree_param":{"num_deleted":"0","num_feature":"2","num_nodes":"13","size_leaf_vector":"1"}},{"base_weights":[6.306194E-4,2.1518383E-4,3.231781E-1,-9.958459E-3,1.04738146E-1,-1.2763016E-3,4.0592916E-2,8.65948E-3,3.6510566E-1],"categories":[],"categories_nodes":[],"categories_segments":[],"categories_sizes":[],"default_left":[0,0,0,0,0,0,0,0,0],"id":66,"left_children":[1,3,-1,5,7,-1,-1,-1,-1],"loss_changes":[2.088335E1,1.6544033E1,0E0,1.6542118E1,8.8475945E1,0E0,0E0,0E0,0E0],"parents":[2147483647,0,0,1,1,3,3,4,4],"right_children":[2,4,-1,6,8,-1,-1,-1,-1],"split_conditions":[1E1,4E0,3.231781E-1,7E0,5E0,-1.2763016E-3,4.0592916E-2,8.65948E-3,3.6510566E-1],"split_indices":[1,1,0,0,0,0,0,0,0],"split_type":[0,0,0,0,0,0,0,0,0],"sum_hessian":[1.5557E4,1.5556E4,1E0,1.4177E4,1.379E3,1.4083E4,9.4E1,1.373E3,6E0],"tree_param":{"num_deleted":"0","num_feature":"2","num_nodes":"9","size_leaf_vector":"1"}},{"base_weights":[6.1489723E-4,-1.8946633E-4,1.5641203E0,-1.49627235E-2,6.8553776E-2,9.103688E-1,3.0701905E-1,1.2298247E-2,-1.035678E-2,-4.570583E-2,5.895523E-2,5.758222E-2,1.4588241E-1],"categories":[],"categories_nodes":[],"categories_segments":[],"categories_sizes":[],"default_left":[0,0,0,0,0,0,0,0,0,0,0,0,0],"id":67,"left_children":[1,3,5,7,9,11,-1,-1,-1,-1,-1,-1,-1],"loss_changes":[1.9566456E1,1.57940235E1,5.0817585E0,1.5647481E2,7.536119E2,4.443636E-1,0E0,0E0,0E0,0E0,0E0,0E0,0E0],"parents":[2147483647,0,0,1,1,2,2,3,3,4,4,5,5],"right_children":[2,4,6,8,10,12,-1,-1,-1,-1,-1,-1,-1],"split_conditions":[9E0,3E0,1E1,1E0,1E0,1E0,3.0701905E-1,1.2298247E-2,-1.035678E-2,-4.570583E-2,5.895523E-2,5.758222E-2,1.4588241E-1],"split_indices":[1,0,1,1,1,0,0,0,0,0,0,0,0],"split_type":[0,0,0,0,0,0,0,0,0,0,0,0,0],"sum_hessian":[1.5557E4,1.555E4,7E0,1.28E4,2.75E3,6E0,1E0,5.006E3,7.794E3,1.369E3,1.381E3,5E0,1E0],"tree_param":{"num_deleted":"0","num_feature":"2","num_nodes":"13","size_leaf_vector":"1"}},{"base_weights":[5.872033E-4,-2.2513855E-3,4.30739E-1,-8.491745E-3,1.4659786E-1,1.8899974E-1,3.24755E-1,-1.9723182E-3,4.349734E-3,1.1066696E-2,3.287576E-1,1.2895337E-2,2.9166794E-1],"categories":[],"categories_nodes":[],"categories_segments":[],"categories_sizes":[],"default_left":[0,0,0,0,0,0,0,0,0,0,0,0,0],"id":68,"left_children":[1,3,5,7,9,11,-1,-1,-1,-1,-1,-1,-1],"loss_changes":[1.899766E1,1.4358833E1,6.884146E1,8.663776E0,6.9833984E1,1.5183676E1,0E0,0E0,0E0,0E0,0E0,0E0,0E0],"parents":[2147483647,0,0,1,1,2,2,3,3,4,4,5,5],"right_children":[2,4,6,8,10,12,-1,-1,-1,-1,-1,-1,-1],"split_conditions":[7E0,5E0,2E0,3E0,4E0,1E1,3.24755E-1,-1.9723182E-3,4.349734E-3,1.1066696E-2,3.287576E-1,1.2895337E-2,2.9166794E-1],"split_indices":[1,0,0,1,1,1,0,0,0,0,0,0,0],"split_type":[0,0,0,0,0,0,0,0,0,0,0,0,0],"sum_hessian":[1.5557E4,1.5456E4,1.01E2,1.4835E4,6.21E2,9.4E1,7E0,1.22E4,2.635E3,6.15E2,6E0,9.3E1,1E0],"tree_param":{"num_deleted":"0","num_feature":"2","num_nodes":"13","size_leaf_vector":"1"}},{"base_weights":[5.90912E-4,-9.1491826E-4,7.090433E-1,-3.2068072E-3,3.7139398E-1,5.580232E-1,2.7708435E-1,-1.5986232E-3,5.6232032E-3,-3.211725E-2,2.1275309E-1,3.0779032E-2,1.4077422E-1],"categories":[],"categories_nodes":[],"categories_segments":[],"categories_sizes":[],"default_left":[0,0,0,0,0,0,0,0,0,0,0,0,0],"id":69,"left_children":[1,3,5,7,9,11,-1,-1,-1,-1,-1,-1,-1],"loss_changes":[1.6598064E1,1.3249382E1,8.729124E0,1.1722956E1,1.1622624E2,6.3707933E0,0E0,0E0,0E0,0E0,0E0,0E0,0E0],"parents":[2147483647,0,0,1,1,2,2,3,3,4,4,5,5],"right_children":[2,4,6,8,10,12,-1,-1,-1,-1,-1,-1,-1],"split_conditions":[8E0,7E0,1E1,3E0,1E0,1E0,2.7708435E-1,-1.5986232E-3,5.6232032E-3,-3.211725E-2,2.1275309E-1,3.0779032E-2,1.4077422E-1],"split_indices":[1,0,1,1,1,0,0,0,0,0,0,0,0],"split_type":[0,0,0,0,0,0,0,0,0,0,0,0,0],"sum_hessian":[1.5557E4,1.5525E4,3.2E1,1.5431E4,9.4E1,3.1E1,1E0,1.2701E4,2.73E3,6.8E1,2.6E1,2.5E1,6E0],"tree_param":{"num_deleted":"0","num_feature":"2","num_nodes":"13","size_leaf_vector":"1"}},{"base_weights":[5.7255564E-4,-3.5110188E-3,2.3356272E-1,-9.093347E-3,1.2815501E-1,1.418917E-1,3.195134E-1,-3.3102375E-3,8.7568694E-4,9.530142E-3,3.0009636E-1,-4.8851566E-3,5.374172E-2],"categories":[],"categories_nodes":[],"categories_segments":[],"categories_sizes":[],"default_left":[0,0,0,0,0,0,0,0,0,0,0,0,0],"id":70,"left_children":[1,3,5,7,9,11,-1,-1,-1,-1,-1,-1,-1],"loss_changes":[1.4803209E1,1.1240097E1,7.230603E1,6.2873588E0,5.8419662E1,1.971709E1,0E0,0E0,0E0,0E0,0E0,0E0,0E0],"parents":[2147483647,0,0,1,1,2,2,3,3,4,4,5,5],"right_children":[2,4,6,8,10,12,-1,-1,-1,-1,-1,-1,-1],"split_conditions":[6E0,5E0,3E0,1E0,4E0,1E0,3.195134E-1,-3.3102375E-3,8.7568694E-4,9.530142E-3,3.0009636E-1,-4.8851566E-3,5.374172E-2],"split_indices":[1,0,0,0,1,0,0,0,0,0,0,0,0],"split_type":[0,0,0,0,0,0,0,0,0,0,0,0,0],"sum_hessian":[1.5557E4,1.529E4,2.67E2,1.4669E4,6.21E2,2.6E2,7E0,6.255E3,8.414E3,6.15E2,6E0,1.76E2,8.4E1],"tree_param":{"num_deleted":"0","num_feature":"2","num_nodes":"13","size_leaf_vector":"1"}},{"base_weights":[5.587519E-4,-1.359318E-4,1.3508673E0,-3.1498957E-2,2.1948108E-2,7.910647E-1,2.634743E-1,1.909325E-2,-1.6600521E-2,-1.1386989E-2,1.2580315E-2,4.9551647E-2,1.282177E-1],"categories":[],"categories_nodes":[],"categories_segments":[],"categories_sizes":[],"default_left":[0,0,0,0,0,0,0,0,0,0,0,0,0],"id":71,"left_children":[1,3,5,7,9,11,-1,-1,-1,-1,-1,-1,-1],"loss_changes":[1.4594169E1,1.0771662E1,3.6654825E0,1.9228749E2,1.2874004E2,3.80692E-1,0E0,0E0,0E0,0E0,0E0,0E0,0E0],"parents":[2147483647,0,0,1,1,2,2,3,3,4,4,5,5],"right_children":[2,4,6,8,10,12,-1,-1,-1,-1,-1,-1,-1],"split_conditions":[9E0,1E0,1E1,1E0,1E0,1E0,2.634743E-1,1.909325E-2,-1.6600521E-2,-1.1386989E-2,1.2580315E-2,4.9551647E-2,1.282177E-1],"split_indices":[1,0,1,1,1,0,0,0,0,0,0,0,0],"split_type":[0,0,0,0,0,0,0,0,0,0,0,0,0],"sum_hessian":[1.5557E4,1.555E4,7E0,6.425E3,9.125E3,6E0,1E0,2.421E3,4.004E3,3.954E3,5.171E3,5E0,1E0],"tree_param":{"num_deleted":"0","num_feature":"2","num_nodes":"13","size_leaf_vector":"1"}},{"base_weights":[5.3146895E-4,-8.1623404E-4,6.345892E-1,-2.8615252E-3,3.3143377E-1,4.9798226E-1,2.5030062E-1,-1.4402117E-3,5.081532E-3,-2.8769081E-2,1.9013657E-1,3.7581265E-2,2.1426201E-1],"categories":[],"categories_nodes":[],"categories_segments":[],"categories_sizes":[],"default_left":[0,0,0,0,0,0,0,0,0,0,0,0,0],"id":72,"left_children":[1,3,5,7,9,11,-1,-1,-1,-1,-1,-1,-1],"loss_changes":[1.3295164E1,1.055161E1,7.176426E0,9.560278E0,9.288543E1,5.624368E0,0E0,0E0,0E0,0E0,0E0,0E0,0E0],"parents":[2147483647,0,0,1,1,2,2,3,3,4,4,5,5],"right_children":[2,4,6,8,10,12,-1,-1,-1,-1,-1,-1,-1],"split_conditions":[8E0,7E0,1E1,3E0,1E0,2E0,2.5030062E-1,-1.4402117E-3,5.081532E-3,-2.8769081E-2,1.9013657E-1,3.7581265E-2,2.1426201E-1],"split_indices":[1,0,1,1,1,0,0,0,0,0,0,0,0],"split_type":[0,0,0,0,0,0,0,0,0,0,0,0,0],"sum_hessian":[1.5557E4,1.5525E4,3.2E1,1.5431E4,9.4E1,3.1E1,1E0,1.2701E4,2.73E3,6.8E1,2.6E1,3E1,1E0],"tree_param":{"num_deleted":"0","num_feature":"2","num_nodes":"13","size_leaf_vector":"1"}},{"base_weights":[5.2123005E-4,-1.7182818E-3,3.3988997E-1,-9.658178E-3,8.0192946E-2,1.2748389E-1,2.8197262E-1,4.8711817E-3,-4.863714E-3,-3.4463007E-2,5.7267305E-2,7.82474E-3,2.3778573E-1],"categories":[],"categories_nodes":[],"categories_segments":[],"categories_sizes":[],"default_left":[0,0,0,0,0,0,0,0,0,0,0,0,0],"id":73,"left_children":[1,3,5,7,9,11,-1,-1,-1,-1,-1,-1,-1],"loss_changes":[1.182498E1,1.0053492E1,5.3367226E1,3.206451E1,2.8598764E2,1.0339985E1,0E0,0E0,0E0,0E0,0E0,0E0,0E0],"parents":[2147483647,0,0,1,1,2,2,3,3,4,4,5,5],"right_children":[2,4,6,8,10,12,-1,-1,-1,-1,-1,-1,-1],"split_conditions":[7E0,4E0,2E0,1E0,1E0,1E1,2.8197262E-1,4.8711817E-3,-4.863714E-3,-3.4463007E-2,5.7267305E-2,7.82474E-3,2.3778573E-1],"split_indices":[1,0,0,1,1,1,0,0,0,0,0,0,0],"split_type":[0,0,0,0,0,0,0,0,0,0,0,0,0],"sum_hessian":[1.5557E4,1.5456E4,1.01E2,1.4091E4,1.365E3,9.4E1,7E0,5.642E3,8.449E3,7.33E2,6.32E2,9.3E1,1E0],"tree_param":{"num_deleted":"0","num_feature":"2","num_nodes":"13","size_leaf_vector":"1"}},{"base_weights":[5.0450064E-4,-1.00181045E-4,1.1758671E0,-1.8032659E-2,3.6004543E-2,6.9842964E-1,2.2589646E-1,8.8616664E-4,-6.491547E-3,-1.078136E-2,1.6135002E-2,4.1638058E-2,1.1953621E-1],"categories":[],"categories_nodes":[],"categories_segments":[],"categories_sizes":[],"default_left":[0,0,0,0,0,0,0,0,0,0,0,0,0],"id":74,"left_children":[1,3,5,7,9,11,-1,-1,-1,-1,-1,-1,-1],"loss_changes":[1.1057504E1,1.00691E1,2.559163E0,1.3102396E1,9.30545E1,4.833901E-1,0E0,0E0,0E0,0E0,0E0,0E0,0E0],"parents":[2147483647,0,0,1,1,2,2,3,3,4,4,5,5],"right_children":[2,4,6,8,10,12,-1,-1,-1,-1,-1,-1,-1],"split_conditions":[9E0,2E0,1E1,2E0,1E0,1E0,2.2589646E-1,8.8616664E-4,-6.491547E-3,-1.078136E-2,1.6135002E-2,4.1638058E-2,1.1953621E-1],"split_indices":[1,1,1,0,0,0,0,0,0,0,0,0,0],"split_type":[0,0,0,0,0,0,0,0,0,0,0,0,0],"sum_hessian":[1.5557E4,1.555E4,7E0,1.039E4,5.16E3,6E0,1E0,6.603E3,3.787E3,2.403E3,2.757E3,5E0,1E0],"tree_param":{"num_deleted":"0","num_feature":"2","num_nodes":"13","size_leaf_vector":"1"}},{"base_weights":[4.789119E-4,-4.9924883E-3,1.2719546E-1,-8.477693E-3,1.9303511E-1,9.929625E-2,2.0846071E0,-1.5588257E-3,2.678664E-3,4.5852186E-3,1.3536917E-1,-1.7255278E-3,2.7236983E-2,1.3679719E-1,3.908844E-1],"categories":[],"categories_nodes":[],"categories_segments":[],"categories_sizes":[],"default_left":[0,0,0,0,0,0,0,0,0,0,0,0,0,0,0],"id":75,"left_children":[1,3,5,7,9,11,13,-1,-1,-1,-1,-1,-1,-1,-1],"loss_changes":[1.078726E1,1.0295473E1,3.4961998E1,3.675901E0,4.4011772E1,1.2834085E1,6.418625E0,0E0,0E0,0E0,0E0,0E0,0E0,0E0,0E0],"parents":[2147483647,0,0,1,1,2,2,3,3,4,4,5,5,6,6],"right_children":[2,4,6,8,10,12,14,-1,-1,-1,-1,-1,-1,-1,-1],"split_conditions":[5E0,6E0,4E0,3E0,2E0,1E0,6E0,-1.5588257E-3,2.678664E-3,4.5852186E-3,1.3536917E-1,-1.7255278E-3,2.7236983E-2,1.3679719E-1,3.908844E-1],"split_indices":[1,0,0,0,1,0,1,0,0,0,0,0,0,0,0],"split_type":[0,0,0,0,0,0,0,0,0,0,0,0,0,0,0],"sum_hessian":[1.5557E4,1.4914E4,6.43E2,1.4657E4,2.57E2,6.35E2,8E0,1.2198E4,2.459E3,2.29E2,2.8E1,3.8E2,2.55E2,7E0,1E0],"tree_param":{"num_deleted":"0","num_feature":"2","num_nodes":"15","size_leaf_vector":"1"}},{"base_weights":[4.7565668E-4,-6.864186E-4,5.472001E-1,-2.5347427E-3,2.9956648E-1,4.3012023E-1,2.1468773E-1,-1.2231763E-3,4.256745E-3,-2.2349644E-2,1.6251878E-1,3.2316837E-2,1.8728141E-1],"categories":[],"categories_nodes":[],"categories_segments":[],"categories_sizes":[],"default_left":[0,0,0,0,0,0,0,0,0,0,0,0,0],"id":76,"left_children":[1,3,5,7,9,11,-1,-1,-1,-1,-1,-1,-1],"loss_changes":[9.884916E0,8.617141E0,5.2571526E0,6.749811E0,6.623464E1,4.3323283E0,0E0,0E0,0E0,0E0,0E0,0E0,0E0],"parents":[2147483647,0,0,1,1,2,2,3,3,4,4,5,5],"right_children":[2,4,6,8,10,12,-1,-1,-1,-1,-1,-1,-1],"split_conditions":[8E0,7E0,1E1,3E0,1E0,2E0,2.1468773E-1,-1.2231763E-3,4.256745E-3,-2.2349644E-2,1.6251878E-1,3.2316837E-2,1.8728141E-1],"split_indices":[1,0,1,1,1,0,0,0,0,0,0,0,0],"split_type":[0,0,0,0,0,0,0,0,0,0,0,0,0],"sum_hessian":[1.5557E4,1.5525E4,3.2E1,1.5431E4,9.4E1,3.1E1,1E0,1.2701E4,2.73E3,6.8E1,2.6E1,3E1,1E0],"tree_param":{"num_deleted":"0","num_feature":"2","num_nodes":"13","size_leaf_vector":"1"}},{"base_weights":[4.6515052E-4,-7.658615E-5,1.0534754E0,-2.8517398E-3,1.6443224E-1,6.2124854E-1,2.0395318E-1,-7.1967405E-4,9.71355E-3,1.0097328E-2,2.4254647E-1,3.5618465E-2,1.1058159E-1],"categories":[],"categories_nodes":[],"categories_segments":[],"categories_sizes":[],"default_left":[0,0,0,0,0,0,0,0,0,0,0,0,0],"id":77,"left_children":[1,3,5,7,9,11,-1,-1,-1,-1,-1,-1,-1],"loss_changes":[8.875208E0,7.1000805E0,2.1425438E0,6.6450953E0,3.6773643E1,5.052142E-1,0E0,0E0,0E0,0E0,0E0,0E0,0E0],"parents":[2147483647,0,0,1,1,2,2,3,3,4,4,5,5],"right_children":[2,4,6,8,10,12,-1,-1,-1,-1,-1,-1,-1],"split_conditions":[9E0,6E0,1E1,5E0,3E0,1E0,2.0395318E-1,-7.1967405E-4,9.71355E-3,1.0097328E-2,2.4254647E-1,3.5618465E-2,1.1058159E-1],"split_indices":[1,0,1,1,1,0,0,0,0,0,0,0,0],"split_type":[0,0,0,0,0,0,0,0,0,0,0,0,0],"sum_hessian":[1.5557E4,1.555E4,7E0,1.5293E4,2.57E2,6E0,1E0,1.4657E4,6.36E2,2.51E2,6E0,5E0,1E0],"tree_param":{"num_deleted":"0","num_feature":"2","num_nodes":"13","size_leaf_vector":"1"}},{"base_weights":[4.5797418E-4,-5.2086405E-5,9.918947E-1,-9.703694E-3,4.4858955E-2,5.8000726E-1,1.9375534E-1,1.1275902E-2,-8.836452E-3,-3.7739348E-2,4.634125E-2,3.2649994E-2,1.0505257E-1],"categories":[],"categories_nodes":[],"categories_segments":[],"categories_sizes":[],"default_left":[0,0,0,0,0,0,0,0,0,0,0,0,0],"id":78,"left_children":[1,3,5,7,9,11,-1,-1,-1,-1,-1,-1,-1],"loss_changes":[7.86762E0,6.74123E0,1.9922447E0,1.23322235E2,4.8637357E2,4.9196267E-1,0E0,0E0,0E0,0E0,0E0,0E0,0E0],"parents":[2147483647,0,0,1,1,2,2,3,3,4,4,5,5],"right_children":[2,4,6,8,10,12,-1,-1,-1,-1,-1,-1,-1],"split_conditions":[9E0,3E0,1E1,1E0,1E0,1E0,1.9375534E-1,1.1275902E-2,-8.836452E-3,-3.7739348E-2,4.634125E-2,3.2649994E-2,1.0505257E-1],"split_indices":[1,0,1,1,1,0,0,0,0,0,0,0,0],"split_type":[0,0,0,0,0,0,0,0,0,0,0,0,0],"sum_hessian":[1.5557E4,1.555E4,7E0,1.28E4,2.75E3,6E0,1E0,5.006E3,7.794E3,1.369E3,1.381E3,5E0,1E0],"tree_param":{"num_deleted":"0","num_feature":"2","num_nodes":"13","size_leaf_vector":"1"}},{"base_weights":[4.3420756E-4,-2.574459E-3,1.7209497E-1,-4.3121283E-3,2.7542487E-1,9.319912E-2,2.7245602E-1,-1.5536129E-3,1.9320159E-3,5.1337415E-3,2.7059588E-1,-4.8448155E-3,3.8706228E-2],"categories":[],"categories_nodes":[],"categories_segments":[],"categories_sizes":[],"default_left":[0,0,0,0,0,0,0,0,0,0,0,0,0],"id":79,"left_children":[1,3,5,7,9,11,-1,-1,-1,-1,-1,-1,-1],"loss_changes":[8.035684E0,7.387824E0,5.3715626E1,4.031286E0,5.1603027E1,1.0882855E1,0E0,0E0,0E0,0E0,0E0,0E0,0E0],"parents":[2147483647,0,0,1,1,2,2,3,3,4,4,5,5],"right_children":[2,4,6,8,10,12,-1,-1,-1,-1,-1,-1,-1],"split_conditions":[6E0,7E0,3E0,2E0,2E0,1E0,2.7245602E-1,-1.5536129E-3,1.9320159E-3,5.1337415E-3,2.7059588E-1,-4.8448155E-3,3.8706228E-2],"split_indices":[1,0,0,1,1,0,0,0,0,0,0,0,0],"split_type":[0,0,0,0,0,0,0,0,0,0,0,0,0],"sum_hessian":[1.5557E4,1.529E4,2.67E2,1.5196E4,9.4E1,2.6E2,7E0,1.0303E4,4.893E3,8.7E1,7E0,1.76E2,8.4E1],"tree_param":{"num_deleted":"0","num_feature":"2","num_nodes":"13","size_leaf_vector":"1"}},{"base_weights":[4.282048E-4,-5.758822E-4,4.7282293E-1,-2.1232313E-3,2.507848E-1,3.7240505E-1,1.8430977E-1,-1.0379618E-3,3.627836E-3,-1.7928865E-2,1.3405733E-1,2.7090946E-2,1.7593841E-1],"categories":[],"categories_nodes":[],"categories_segments":[],"categories_sizes":[],"default_left":[0,0,0,0,0,0,0,0,0,0,0,0,0],"id":80,"left_children":[1,3,5,7,9,11,-1,-1,-1,-1,-1,-1,-1],"loss_changes":[7.3798265E0,6.0392575E0,3.854424E0,4.893222E0,4.476581E1,4.028078E0,0E0,0E0,0E0,0E0,0E0,0E0,0E0],"parents":[2147483647,0,0,1,1,2,2,3,3,4,4,5,5],"right_children":[2,4,6,8,10,12,-1,-1,-1,-1,-1,-1,-1],"split_conditions":[8E0,7E0,1E1,3E0,1E0,2E0,1.8430977E-1,-1.0379618E-3,3.627836E-3,-1.7928865E-2,1.3405733E-1,2.7090946E-2,1.7593841E-1],"split_indices":[1,0,1,1,1,0,0,0,0,0,0,0,0],"split_type":[0,0,0,0,0,0,0,0,0,0,0,0,0],"sum_hessian":[1.5557E4,1.5525E4,3.2E1,1.5431E4,9.4E1,3.1E1,1E0,1.2701E4,2.73E3,6.8E1,2.6E1,3E1,1E0],"tree_param":{"num_deleted":"0","num_feature":"2","num_nodes":"13","size_leaf_vector":"1"}},{"base_weights":[4.1792562E-4,-1.2407841E-3,2.517734E-1,-7.233426E-3,6.058173E-2,6.7126706E-2,2.412981E0,4.500254E-3,-4.21163E-3,-2.6425192E-2,4.3714937E-2,-8.4039517E-4,8.895731E-2,1.6985169E-1,3.7071154E-1],"categories":[],"categories_nodes":[],"categories_segments":[],"categories_sizes":[],"default_left":[0,0,0,0,0,0,0,0,0,0,0,0,0,0,0],"id":81,"left_children":[1,3,5,7,9,11,13,-1,-1,-1,-1,-1,-1,-1,-1],"loss_changes":[6.4868426E0,5.7269506E0,4.0542126E1,2.5679504E1,1.6720714E2,5.908868E0,1.1003036E0,0E0,0E0,0E0,0E0,0E0,0E0,0E0,0E0],"parents":[2147483647,0,0,1,1,2,2,3,3,4,4,5,5,6,6],"right_children":[2,4,6,8,10,12,14,-1,-1,-1,-1,-1,-1,-1,-1],"split_conditions":[7E0,4E0,2E0,1E0,1E0,9E0,3E0,4.500254E-3,-4.21163E-3,-2.6425192E-2,4.3714937E-2,-8.4039517E-4,8.895731E-2,1.6985169E-1,3.7071154E-1],"split_indices":[1,0,0,1,1,1,0,0,0,0,0,0,0,0,0],"split_type":[0,0,0,0,0,0,0,0,0,0,0,0,0,0,0],"sum_hessian":[1.5557E4,1.5456E4,1.01E2,1.4091E4,1.365E3,9.4E1,7E0,5.642E3,8.449E3,7.33E2,6.32E2,8.7E1,7E0,6E0,1E0],"tree_param":{"num_deleted":"0","num_feature":"2","num_nodes":"15","size_leaf_vector":"1"}},{"base_weights":[4.176281E-4,1.9827294E-4,1.706463E-1,-1.3203399E-2,2.714942E-2,9.773246E-4,-5.32574E-3,-8.815329E-3,1.2781526E-2],"categories":[],"categories_nodes":[],"categories_segments":[],"categories_sizes":[],"default_left":[0,0,0,0,0,0,0,0,0],"id":82,"left_children":[1,3,-1,5,7,-1,-1,-1,-1],"loss_changes":[5.821929E0,5.6193986E0,0E0,9.563426E0,5.998487E1,0E0,0E0,0E0,0E0],"parents":[2147483647,0,0,1,1,3,3,4,4],"right_children":[2,4,-1,6,8,-1,-1,-1,-1],"split_conditions":[1E1,2E0,1.706463E-1,2E0,1E0,9.773246E-4,-5.32574E-3,-8.815329E-3,1.2781526E-2],"split_indices":[1,1,0,0,0,0,0,0,0],"split_type":[0,0,0,0,0,0,0,0,0],"sum_hessian":[1.5557E4,1.5556E4,1E0,1.039E4,5.166E3,6.603E3,3.787E3,2.408E3,2.758E3],"tree_param":{"num_deleted":"0","num_feature":"2","num_nodes":"9","size_leaf_vector":"1"}},{"base_weights":[3.8684128E-4,-2.1056442E-3,1.4820519E-1,-4.717909E-3,1.4444245E-1,9.271565E-2,2.1246564E0,-1.3268295E-3,1.3113766E-3,7.4059553E-3,2.4226294E-1,4.9353205E-3,5.2230902E-2,1.4126858E-1,3.1982404E-1],"categories":[],"categories_nodes":[],"categories_segments":[],"categories_sizes":[],"default_left":[0,0,0,0,0,0,0,0,0,0,0,0,0,0,0],"id":83,"left_children":[1,3,5,7,9,11,13,-1,-1,-1,-1,-1,-1,-1,-1],"loss_changes":[5.7324247E0,5.8582473E0,2.809848E1,2.2923737E0,4.279315E1,4.6685333E0,8.324146E-1,0E0,0E0,0E0,0E0,0E0,0E0,0E0,0E0],"parents":[2147483647,0,0,1,1,2,2,3,3,4,4,5,5,6,6],"right_children":[2,4,6,8,10,12,14,-1,-1,-1,-1,-1,-1,-1,-1],"split_conditions":[6E0,6E0,3E0,2E0,3E0,2E0,4E0,-1.3268295E-3,1.3113766E-3,7.4059553E-3,2.4226294E-1,4.9353205E-3,5.2230902E-2,1.4126858E-1,3.1982404E-1],"split_indices":[0,1,1,1,0,1,1,0,0,0,0,0,0,0,0],"split_type":[0,0,0,0,0,0,0,0,0,0,0,0,0,0,0],"sum_hessian":[1.5557E4,1.53E4,2.57E2,1.5033E4,2.67E2,2.51E2,6E0,1.0161E4,4.872E3,2.6E2,7E0,2.29E2,2.2E1,5E0,1E0],"tree_param":{"num_deleted":"0","num_feature":"2","num_nodes":"15","size_leaf_vector":"1"}},{"base_weights":[3.9751054E-4,-4.6433866E-4,4.0587246E-1,-1.8796504E-3,2.2944677E-1,3.1746626E-1,1.6174355E-1,-6.6787755E-4,4.822617E-3,4.2539025E-3,2.256751E-1,2.2600433E-2,1.5763931E-1],"categories":[],"categories_nodes":[],"categories_segments":[],"categories_sizes":[],"default_left":[0,0,0,0,0,0,0,0,0,0,0,0,0],"id":84,"left_children":[1,3,5,7,9,11,-1,-1,-1,-1,-1,-1,-1],"loss_changes":[5.43706E0,5.052528E0,3.0211387E0,3.7111642E0,3.590129E1,3.328333E0,0E0,0E0,0E0,0E0,0E0,0E0,0E0],"parents":[2147483647,0,0,1,1,2,2,3,3,4,4,5,5],"right_children":[2,4,6,8,10,12,-1,-1,-1,-1,-1,-1,-1],"split_conditions":[8E0,7E0,1E1,4E0,2E0,2E0,1.6174355E-1,-6.6787755E-4,4.822617E-3,4.2539025E-3,2.256751E-1,2.2600433E-2,1.5763931E-1],"split_indices":[1,0,1,1,1,0,0,0,0,0,0,0,0],"split_type":[0,0,0,0,0,0,0,0,0,0,0,0,0],"sum_hessian":[1.5557E4,1.5525E4,3.2E1,1.5431E4,9.4E1,3.1E1,1E0,1.4083E4,1.348E3,8.7E1,7E0,3E1,1E0],"tree_param":{"num_deleted":"0","num_feature":"2","num_nodes":"13","size_leaf_vector":"1"}},{"base_weights":[3.9482093E-4,1.9730644E-4,1.536564E-1,-3.2798448E-3,8.369334E-2,-5.3765095E-4,1.1193121E-2,5.675482E-3,2.4423268E-1],"categories":[],"categories_nodes":[],"categories_segments":[],"categories_sizes":[],"default_left":[0,0,0,0,0,0,0,0,0],"id":85,"left_children":[1,3,-1,5,7,-1,-1,-1,-1],"loss_changes":[4.7202373E0,4.5169125E0,0E0,3.608526E0,3.9382076E1,0E0,0E0,0E0,0E0],"parents":[2147483647,0,0,1,1,3,3,4,4],"right_children":[2,4,-1,6,8,-1,-1,-1,-1],"split_conditions":[1E1,5E0,1.536564E-1,6E0,4E0,-5.3765095E-4,1.1193121E-2,5.675482E-3,2.4423268E-1],"split_indices":[1,0,0,1,1,0,0,0,0],"split_type":[0,0,0,0,0,0,0,0,0],"sum_hessian":[1.5557E4,1.5556E4,1E0,1.4935E4,6.21E2,1.4669E4,2.66E2,6.15E2,6E0],"tree_param":{"num_deleted":"0","num_feature":"2","num_nodes":"9","size_leaf_vector":"1"}},{"base_weights":[3.8201697E-4,-3.8337833E-4,3.6047733E-1,-7.873633E-3,3.440247E-2,2.7849364E-1,1.4919777E-1,1.0243218E-2,-7.895387E-3,-3.193652E-2,3.8507342E-2,1.933008E-2,1.459736E-1],"categories":[],"categories_nodes":[],"categories_segments":[],"categories_sizes":[],"default_left":[0,0,0,0,0,0,0,0,0,0,0,0,0],"id":86,"left_children":[1,3,5,7,9,11,-1,-1,-1,-1,-1,-1,-1],"loss_changes":[4.2881603E0,4.0456457E0,2.6457248E0,1.0017911E2,3.414011E2,2.9381003E0,0E0,0E0,0E0,0E0,0E0,0E0,0E0],"parents":[2147483647,0,0,1,1,2,2,3,3,4,4,5,5],"right_children":[2,4,6,8,10,12,-1,-1,-1,-1,-1,-1,-1],"split_conditions":[8E0,3E0,2E0,1E0,1E0,1E1,1.4919777E-1,1.0243218E-2,-7.895387E-3,-3.193652E-2,3.8507342E-2,1.933008E-2,1.459736E-1],"split_indices":[1,0,0,1,1,1,0,0,0,0,0,0,0],"split_type":[0,0,0,0,0,0,0,0,0,0,0,0,0],"sum_hessian":[1.5557E4,1.5525E4,3.2E1,1.2775E4,2.75E3,3.1E1,1E0,5.006E3,7.769E3,1.369E3,1.381E3,3E1,1E0],"tree_param":{"num_deleted":"0","num_feature":"2","num_nodes":"13","size_leaf_vector":"1"}},{"base_weights":[3.645977E-4,-9.5785025E-4,2.1562745E-1,-6.1761388E-3,5.2261073E-2,4.908652E-2,2.0206241E-1,1.198843E-3,-2.0908804E-3,4.1289227E-3,2.19998E-1,-1.13504445E-2,6.07571E-2],"categories":[],"categories_nodes":[],"categories_segments":[],"categories_sizes":[],"default_left":[0,0,0,0,0,0,0,0,0,0,0,0,0],"id":87,"left_children":[1,3,5,7,9,11,-1,-1,-1,-1,-1,-1,-1],"loss_changes":[4.429163E0,4.2948565E0,2.8458368E1,3.769305E0,3.245167E1,8.059761E0,0E0,0E0,0E0,0E0,0E0,0E0,0E0],"parents":[2147483647,0,0,1,1,2,2,3,3,4,4,5,5],"right_children":[2,4,6,8,10,12,-1,-1,-1,-1,-1,-1,-1],"split_conditions":[7E0,4E0,2E0,1E0,5E0,1E0,2.0206241E-1,1.198843E-3,-2.0908804E-3,4.1289227E-3,2.19998E-1,-1.13504445E-2,6.07571E-2],"split_indices":[0,1,1,1,0,1,0,0,0,0,0,0,0],"split_type":[0,0,0,0,0,0,0,0,0,0,0,0,0],"sum_hessian":[1.5557E4,1.5463E4,9.4E1,1.4083E4,1.38E3,8.7E1,7E0,6.307E3,7.776E3,1.374E3,6E0,6.8E1,1.9E1],"tree_param":{"num_deleted":"0","num_feature":"2","num_nodes":"13","size_leaf_vector":"1"}},{"base_weights":[3.5865622E-4,-1.6953328E-3,1.2217156E-1,-1.8764483E-3,1.3846855E-1,7.297026E-2,1.8759651E0,-4.94406E-4,6.805656E-3,3.6496052E-3,3.7557032E-2,1.2604427E-1,2.78455E-1],"categories":[],"categories_nodes":[],"categories_segments":[],"categories_sizes":[],"default_left":[0,0,0,0,0,0,0,0,0,0,0,0,0],"id":88,"left_children":[1,3,5,7,-1,9,11,-1,-1,-1,-1,-1,-1],"loss_changes":[3.8928556E0,3.8446026E0,2.212565E1,3.2826042E0,0E0,2.7676425E0,4.0501404E-1,0E0,0E0,0E0,0E0,0E0,0E0],"parents":[2147483647,0,0,1,1,2,2,3,3,5,5,6,6],"right_children":[2,4,6,8,-1,10,12,-1,-1,-1,-1,-1,-1],"split_conditions":[6E0,1E1,3E0,5E0,1.3846855E-1,8E0,4E0,-4.94406E-4,6.805656E-3,3.6496052E-3,3.7557032E-2,1.2604427E-1,2.78455E-1],"split_indices":[0,1,1,1,0,0,1,0,0,0,0,0,0],"split_type":[0,0,0,0,0,0,0,0,0,0,0,0,0],"sum_hessian":[1.5557E4,1.53E4,2.57E2,1.5299E4,1E0,2.51E2,6E0,1.4657E4,6.42E2,2.25E2,2.6E1,5E0,1E0],"tree_param":{"num_deleted":"0","num_feature":"2","num_nodes":"13","size_leaf_vector":"1"}},{"base_weights":[3.6073715E-4,-1.0437109E-2,2.2071274E-2,8.915745E-3,-4.417412E-2,-7.436983E-2,1.0630505E-1,1.7205944E-2,-2.375084E-2,-2.58454E-2,3.2736897E-2,-1.3726788E-2,-2.7879586E-3,1.0123711E-2,1.8363881E-1],"categories":[],"categories_nodes":[],"categories_segments":[],"categories_sizes":[],"default_left":[0,0,0,0,0,0,0,0,0,0,0,0,0,0,0],"id":89,"left_children":[1,3,5,7,9,11,13,-1,-1,-1,-1,-1,-1,-1,-1],"loss_changes":[3.6474457E0,6.7847548E0,4.1990665E1,2.6553845E2,3.016632E2,7.0433636E0,2.4004883E1,0E0,0E0,0E0,0E0,0E0,0E0,0E0,0E0],"parents":[2147483647,0,0,1,1,2,2,3,3,4,4,5,5,6,6],"right_children":[2,4,6,8,10,12,14,-1,-1,-1,-1,-1,-1,-1,-1],"split_conditions":[2E0,2E0,1E0,1E0,1E0,3E0,7E0,1.7205944E-2,-2.375084E-2,-2.58454E-2,3.2736897E-2,-1.3726788E-2,-2.7879586E-3,1.0123711E-2,1.8363881E-1],"split_indices":[1,0,0,1,1,1,0,0,0,0,0,0,0,0,0],"split_type":[0,0,0,0,0,0,0,0,0,0,0,0,0,0,0],"sum_hessian":[1.5557E4,1.039E4,5.167E3,6.603E3,3.787E3,2.409E3,2.758E3,3.973E3,2.63E3,2.402E3,1.385E3,1.023E3,1.386E3,2.751E3,7E0],"tree_param":{"num_deleted":"0","num_feature":"2","num_nodes":"15","size_leaf_vector":"1"}},{"base_weights":[3.3609333E-4,-5.9154104E-6,6.651163E-1,-1.9568906E-3,1.156461E-1,3.8389152E-1,1.316845E-1,-1.0814115E-3,1.5578483E-3,7.013637E-3,1.7374758E-1,1.5672684E-2,8.734398E-2],"categories":[],"categories_nodes":[],"categories_segments":[],"categories_sizes":[],"default_left":[0,0,0,0,0,0,0,0,0,0,0,0,0],"id":90,"left_children":[1,3,5,7,9,11,-1,-1,-1,-1,-1,-1,-1],"loss_changes":[3.5372808E0,3.509064E0,9.6073246E-1,2.375552E0,1.8920876E1,6.415651E-1,0E0,0E0,0E0,0E0,0E0,0E0,0E0],"parents":[2147483647,0,0,1,1,2,2,3,3,4,4,5,5],"right_children":[2,4,6,8,10,12,-1,-1,-1,-1,-1,-1,-1],"split_conditions":[9E0,6E0,1E1,2E0,3E0,1E0,1.316845E-1,-1.0814115E-3,1.5578483E-3,7.013637E-3,1.7374758E-1,1.5672684E-2,8.734398E-2],"split_indices":[1,0,1,1,1,0,0,0,0,0,0,0,0],"split_type":[0,0,0,0,0,0,0,0,0,0,0,0,0],"sum_hessian":[1.5557E4,1.555E4,7E0,1.5293E4,2.57E2,6E0,1E0,1.0161E4,5.132E3,2.51E2,6E0,5E0,1E0],"tree_param":{"num_deleted":"0","num_feature":"2","num_nodes":"13","size_leaf_vector":"1"}},{"base_weights":[3.291859E-4,-8.41313E-4,1.7770244E-1,-5.4149716E-3,4.6342317E-2,1.2202494E-2,2.1208014E0,3.4341656E-3,-3.1964227E-3,-1.7964518E-2,3.0831465E-2,-4.3912674E-3,6.27944E-2,1.4650105E-1,3.355669E-1],"categories":[],"categories_nodes":[],"categories_segments":[],"categories_sizes":[],"default_left":[0,0,0,0,0,0,0,0,0,0,0,0,0,0,0],"id":91,"left_children":[1,3,5,7,9,11,13,-1,-1,-1,-1,-1,-1,-1,-1],"loss_changes":[3.2302265E0,3.3358994E0,3.2775566E1,1.4875329E1,8.092597E1,3.310056E0,1.5624275E0,0E0,0E0,0E0,0E0,0E0,0E0,0E0,0E0],"parents":[2147483647,0,0,1,1,2,2,3,3,4,4,5,5,6,6],"right_children":[2,4,6,8,10,12,14,-1,-1,-1,-1,-1,-1,-1,-1],"split_conditions":[7E0,4E0,2E0,1E0,1E0,9E0,3E0,3.4341656E-3,-3.1964227E-3,-1.7964518E-2,3.0831465E-2,-4.3912674E-3,6.27944E-2,1.4650105E-1,3.355669E-1],"split_indices":[1,0,0,1,1,1,0,0,0,0,0,0,0,0,0],"split_type":[0,0,0,0,0,0,0,0,0,0,0,0,0,0,0],"sum_hessian":[1.5557E4,1.5456E4,1.01E2,1.4091E4,1.365E3,9.4E1,7E0,5.642E3,8.449E3,7.33E2,6.32E2,8.7E1,7E0,6E0,1E0],"tree_param":{"num_deleted":"0","num_feature":"2","num_nodes":"15","size_leaf_vector":"1"}},{"base_weights":[3.3186917E-4,-2.8180436E-4,3.5334095E-1,-4.388767E-4,1.2196045E-1,-1.0003681E-2,2.3682104E-1,-9.473984E-4,1.7690888E-3],"categories":[],"categories_nodes":[],"categories_segments":[],"categories_sizes":[],"default_left":[0,0,0,0,0,0,0,0,0],"id":92,"left_children":[1,3,5,7,-1,-1,-1,-1,-1],"loss_changes":[3.370465E0,2.9766283E0,2.4901327E1,2.5442133E0,0E0,0E0,0E0,0E0,0E0],"parents":[2147483647,0,0,1,1,2,2,3,3],"right_children":[2,4,6,8,-1,-1,-1,-1,-1],"split_conditions":[8E0,1E1,1E0,2E0,1.2196045E-1,-1.0003681E-2,2.3682104E-1,-9.473984E-4,1.7690888E-3],"split_indices":[0,1,1,1,0,0,0,0,0],"split_type":[0,0,0,0,0,0,0,0,0],"sum_hessian":[1.5557E4,1.5531E4,2.6E1,1.553E4,1E0,2.2E1,4E0,1.0365E4,5.165E3],"tree_param":{"num_deleted":"0","num_feature":"2","num_nodes":"9","size_leaf_vector":"1"}},{"base_weights":[3.211041E-4,-2.4576776E-4,3.264075E-1,-8.6286064E-4,2.8960836E-1,-9.046807E-3,2.1787536E-1,-6.3474517E-4,2.4851633E-3,2.1541262E-2,1.331936E-1],"categories":[],"categories_nodes":[],"categories_segments":[],"categories_sizes":[],"default_left":[0,0,0,0,0,0,0,0,0,0,0],"id":93,"left_children":[1,3,5,7,9,-1,-1,-1,-1,-1,-1],"loss_changes":[2.8759642E0,2.778411E0,2.1046448E1,2.186177E0,2.2651806E0,0E0,0E0,0E0,0E0,0E0,0E0],"parents":[2147483647,0,0,1,1,2,2,3,3,4,4],"right_children":[2,4,6,8,10,-1,-1,-1,-1,-1,-1],"split_conditions":[8E0,8E0,1E0,3E0,2E0,-9.046807E-3,2.1787536E-1,-6.3474517E-4,2.4851633E-3,2.1541262E-2,1.331936E-1],"split_indices":[0,1,1,0,0,0,0,0,0,0,0],"split_type":[0,0,0,0,0,0,0,0,0,0,0],"sum_hessian":[1.5557E4,1.5531E4,2.6E1,1.5499E4,3.2E1,2.2E1,4E0,1.2775E4,2.724E3,3.1E1,1E0],"tree_param":{"num_deleted":"0","num_feature":"2","num_nodes":"11","size_leaf_vector":"1"}},{"base_weights":[3.1249327E-4,1.6494584E-4,1.1478539E-1,-1.5071819E-3,9.932537E-2,-3.97776E-4,5.481511E-3,5.839923E-3,1.5584771E-1],"categories":[],"categories_nodes":[],"categories_segments":[],"categories_sizes":[],"default_left":[0,0,0,0,0,0,0,0,0],"id":94,"left_children":[1,3,-1,5,7,-1,-1,-1,-1],"loss_changes":[2.6340408E0,2.5796385E0,0E0,2.1291914E0,1.5316089E1,0E0,0E0,0E0,0E0],"parents":[2147483647,0,0,1,1,3,3,4,4],"right_children":[2,4,-1,6,8,-1,-1,-1,-1],"split_conditions":[1E1,6E0,1.1478539E-1,5E0,3E0,-3.97776E-4,5.481511E-3,5.839923E-3,1.5584771E-1],"split_indices":[1,0,0,1,1,0,0,0,0],"split_type":[0,0,0,0,0,0,0,0,0],"sum_hessian":[1.5557E4,1.5556E4,1E0,1.5299E4,2.57E2,1.4657E4,6.42E2,2.51E2,6E0],"tree_param":{"num_deleted":"0","num_feature":"2","num_nodes":"9","size_leaf_vector":"1"}},{"base_weights":[2.9931567E-4,1.591457E-4,1.09046176E-1,-8.102132E-4,1.5793848E-1,-4.2377907E-4,3.4171536E-3,2.7097228E-3,1.57745E-1],"categories":[],"categories_nodes":[],"categories_segments":[],"categories_sizes":[],"default_left":[0,0,0,0,0,0,0,0,0],"id":95,"left_children":[1,3,-1,5,7,-1,-1,-1,-1],"loss_changes":[2.377214E0,2.3794904E0,0E0,1.8541994E0,1.7601671E1,0E0,0E0,0E0,0E0],"parents":[2147483647,0,0,1,1,3,3,4,4],"right_children":[2,4,-1,6,8,-1,-1,-1,-1],"split_conditions":[1E1,7E0,1.09046176E-1,4E0,2E0,-4.2377907E-4,3.4171536E-3,2.7097228E-3,1.57745E-1],"split_indices":[1,0,0,1,1,0,0,0,0],"split_type":[0,0,0,0,0,0,0,0,0],"sum_hessian":[1.5557E4,1.5556E4,1E0,1.5462E4,9.4E1,1.4083E4,1.379E3,8.7E1,7E0],"tree_param":{"num_deleted":"0","num_feature":"2","num_nodes":"9",