{"learner":{"attributes":{},"feature_names":["x_0","x_1","x_2"],"feature_types":["int","int","int"],"gradient_booster":{"model":{"gbtree_model_param":{"num_parallel_tree":"1","num_trees":"100"},"iteration_indptr":[0,1,2,3,4,5,6,7,8,9,10,11,12,13,14,15,16,17,18,19,20,21,22,23,24,25,26,27,28,29,30,31,32,33,34,35,36,37,38,39,40,41,42,43,44,45,46,47,48,49,50,51,52,53,54,55,56,57,58,59,60,61,62,63,64,65,66,67,68,69,70,71,72,73,74,75,76,77,78,79,80,81,82,83,84,85,86,87,88,89,90,91,92,93,94,95,96,97,98,99,100],"tree_info":[0,0,0,0,0,0,0,0,0,0,0,0,0,0,0,0,0,0,0,0,0,0,0,0,0,0,0,0,0,0,0,0,0,0,0,0,0,0,0,0,0,0,0,0,0,0,0,0,0,0,0,0,0,0,0,0,0,0,0,0,0,0,0,0,0,0,0,0,0,0,0,0,0,0,0,0,0,0,0,0,0,0,0,0,0,0,0,0,0,0,0,0,0,0,0,0,0,0,0,0],"trees":[{"base_weights":[-2.0285042E-7,-1.7523469E0,1.814894E1,-3.3854597E0,2.7554047E0,1.4403015E1,3.4873066E1,-4.1561E-1,-2.1726115E-1,1.4730248E-1,1.0533379E0,1.3157668E0,2.7562635E0,2.8662202E0,4.5049877E0],"categories":[],"categories_nodes":[],"categories_segments":[],"categories_sizes":[],"default_left":[0,0,0,0,0,0,0,0,0,0,0,0,0,0,0],"id":0,"left_children":[1,3,5,7,9,11,13,-1,-1,-1,-1,-1,-1,-1,-1],"loss_changes":[4.948265E5,1.04464016E5,8.53245E4,9.726484E3,3.7627562E4,1.8008625E4,1.45105E4,0E0,0E0,0E0,0E0,0E0,0E0,0E0,0E0],"parents":[2147483647,0,0,1,1,2,2,3,3,4,4,5,5,6,6],"right_children":[2,4,6,8,10,12,14,-1,-1,-1,-1,-1,-1,-1,-1],"split_conditions":[4E0,2E0,6E0,1E0,3E0,3E0,7E0,-4.1561E-1,-2.1726115E-1,1.4730248E-1,1.0533379E0,1.3157668E0,2.7562635E0,2.8662202E0,4.5049877E0],"split_indices":[2,2,2,2,1,1,2,0,0,0,0,0,0,0,0],"split_type":[0,0,0,0,0,0,0,0,0,0,0,0,0,0,0],"sum_hessian":[1.5557E4,1.4188E4,1.369E3,1.0415E4,3.773E3,1.12E3,2.49E2,6.367E3,4.048E3,3.24E3,5.33E2,1.025E3,9.5E1,1.57E2,9.2E1],"tree_param":{"num_deleted":"0","num_feature":"3","num_nodes":"15","size_leaf_vector":"1"}},{"base_weights":[7.71856E-4,-1.5770721E0,1.6342398E1,-3.0469744E0,2.4801824E0,1.2966347E1,3.1415243E1,-3.740555E-1,-1.955404E-1,1.3257676E-1,9.4820136E-1,1.1044449E0,1.9901489E0,2.8774993E0,5.215602E0],"categories":[],"categories_nodes":[],"categories_segments":[],"categories_sizes":[],"default_left":[0,0,0,0,0,0,0,0,0,0,0,0,0,0,0],"id":1,"left_children":[1,3,5,7,9,11,13,-1,-1,-1,-1,-1,-1,-1,-1],"loss_changes":[4.0118162E5,8.4627445E4,6.930747E4,7.8785625E3,3.0492734E4,1.4721594E4,1.2189422E4,0E0,0E0,0E0,0E0,0E0,0E0,0E0,0E0],"parents":[2147483647,0,0,1,1,2,2,3,3,4,4,5,5,6,6],"right_children":[2,4,6,8,10,12,14,-1,-1,-1,-1,-1,-1,-1,-1],"split_conditions":[4E0,2E0,6E0,1E0,3E0,2E0,8E0,-3.740555E-1,-1.955404E-1,1.3257676E-1,9.4820136E-1,1.1044449E0,1.9901489E0,2.8774993E0,5.215602E0],"split_indices":[2,2,2,2,1,1,2,0,0,0,0,0,0,0,0],"split_type":[0,0,0,0,0,0,0,0,0,0,0,0,0,0,0],"sum_hessian":[1.5557E4,1.4188E4,1.369E3,1.0415E4,3.773E3,1.12E3,2.49E2,6.367E3,4.048E3,3.24E3,5.33E2,8.79E2,2.41E2,2.23E2,2.6E1],"tree_param":{"num_deleted":"0","num_feature":"3","num_nodes":"15","size_leaf_vector":"1"}},{"base_weights":[1.4466093E-3,-2.1227648E0,9.97482E0,-2.7423315E0,5.536575E-1,6.560124E0,2.1404696E1,-3.3665583E-1,-1.7599119E-1,-1.1848162E-2,9.1461927E-1,5.373355E-1,1.598091E0,1.8642706E0,3.709311E0],"categories":[],"categories_nodes":[],"categories_segments":[],"categories_sizes":[],"default_left":[0,0,0,0,0,0,0,0,0,0,0,0,0,0,0],"id":2,"left_children":[1,3,5,7,9,11,13,-1,-1,-1,-1,-1,-1,-1,-1],"loss_changes":[3.29626E5,2.127154E4,1.0648834E5,6.381711E3,1.3931297E4,2.3448656E4,2.65205E4,0E0,0E0,0E0,0E0,0E0,0E0,0E0,0E0],"parents":[2147483647,0,0,1,1,2,2,3,3,4,4,5,5,6,6],"right_children":[2,4,6,8,10,12,14,-1,-1,-1,-1,-1,-1,-1,-1],"split_conditions":[3E0,2E0,5E0,1E0,4E0,3E0,7E0,-3.3665583E-1,-1.7599119E-1,-1.1848162E-2,9.1461927E-1,5.373355E-1,1.598091E0,1.8642706E0,3.709311E0],"split_indices":[2,2,2,2,1,1,2,0,0,0,0,0,0,0,0],"split_type":[0,0,0,0,0,0,0,0,0,0,0,0,0,0,0],"sum_hessian":[1.5557E4,1.2826E4,2.731E3,1.0415E4,2.411E3,2.104E3,6.27E2,6.367E3,4.048E3,2.237E3,1.74E2,1.87E3,2.34E2,5.35E2,9.2E1],"tree_param":{"num_deleted":"0","num_feature":"3","num_nodes":"15","size_leaf_vector":"1"}},{"base_weights":[1.8225502E-3,-1.2911657E0,1.3393216E1,-2.4681475E0,1.9575711E0,1.0620991E1,2.5770302E1,-3.0299553E-1,-1.5839641E-1,3.822949E-2,5.728258E-1,9.619136E-1,2.1217678E0,2.3510764E0,4.356166E0],"categories":[],"categories_nodes":[],"categories_segments":[],"categories_sizes":[],"default_left":[0,0,0,0,0,0,0,0,0,0,0,0,0,0,0],"id":3,"left_children":[1,3,5,7,9,11,13,-1,-1,-1,-1,-1,-1,-1,-1],"loss_changes":[2.6940275E5,5.4259367E4,4.6733844E4,5.1692617E3,2.2414887E4,1.1696828E4,9.025906E3,0E0,0E0,0E0,0E0,0E0,0E0,0E0,0E0],"parents":[2147483647,0,0,1,1,2,2,3,3,4,4,5,5,6,6],"right_children":[2,4,6,8,10,12,14,-1,-1,-1,-1,-1,-1,-1,-1],"split_conditions":[4E0,2E0,6E0,1E0,2E0,3E0,8E0,-3.0299553E-1,-1.5839641E-1,3.822949E-2,5.728258E-1,9.619136E-1,2.1217678E0,2.3510764E0,4.356166E0],"split_indices":[2,2,2,2,1,1,2,0,0,0,0,0,0,0,0],"split_type":[0,0,0,0,0,0,0,0,0,0,0,0,0,0,0],"sum_hessian":[1.5557E4,1.4188E4,1.369E3,1.0415E4,3.773E3,1.12E3,2.49E2,6.367E3,4.048E3,2.662E3,1.111E3,1.025E3,9.5E1,2.23E2,2.6E1],"tree_param":{"num_deleted":"0","num_feature":"3","num_nodes":"15","size_leaf_vector":"1"}},{"base_weights":[2.2792157E-3,-1.7484316E0,8.222032E0,-2.2213771E0,2.9466525E-1,5.410011E0,1.7634583E1,-2.7270076E-1,-1.4256066E-1,-5.874421E-2,5.1490283E-1,3.720301E-1,1.0324613E0,1.5362961E0,3.0537326E0],"categories":[],"categories_nodes":[],"categories_segments":[],"categories_sizes":[],"default_left":[0,0,0,0,0,0,0,0,0,0,0,0,0,0,0],"id":4,"left_children":[1,3,5,7,9,11,13,-1,-1,-1,-1,-1,-1,-1,-1],"loss_changes":[2.2390036E5,1.2395047E4,7.2215984E4,4.1871523E3,1.0331376E4,1.744204E4,1.7937625E4,0E0,0E0,0E0,0E0,0E0,0E0,0E0,0E0],"parents":[2147483647,0,0,1,1,2,2,3,3,4,4,5,5,6,6],"right_children":[2,4,6,8,10,12,14,-1,-1,-1,-1,-1,-1,-1,-1],"split_conditions":[3E0,2E0,5E0,1E0,3E0,2E0,7E0,-2.7270076E-1,-1.4256066E-1,-5.874421E-2,5.1490283E-1,3.720301E-1,1.0324613E0,1.5362961E0,3.0537326E0],"split_indices":[2,2,2,2,1,1,2,0,0,0,0,0,0,0,0],"split_type":[0,0,0,0,0,0,0,0,0,0,0,0,0,0,0],"sum_hessian":[1.5557E4,1.2826E4,2.731E3,1.0415E4,2.411E3,2.104E3,6.27E2,6.367E3,4.048E3,2.041E3,3.7E2,1.567E3,5.37E2,5.35E2,9.2E1],"tree_param":{"num_deleted":"0","num_feature":"3","num_nodes":"15","size_leaf_vector":"1"}},{"base_weights":[2.4392654E-3,-1.5735852E0,7.402023E0,-1.9992791E0,2.65388E-1,4.869677E0,1.5878433E1,-2.3069322E-1,-7.99968E-2,-2.7348492E-2,7.1552867E-1,3.9309043E-1,1.2323184E0,1.382953E0,2.751643E0],"categories":[],"categories_nodes":[],"categories_segments":[],"categories_sizes":[],"default_left":[0,0,0,0,0,0,0,0,0,0,0,0,0,0,0],"id":5,"left_children":[1,3,5,7,9,11,13,-1,-1,-1,-1,-1,-1,-1,-1],"loss_changes":[1.8144786E5,1.0042018E4,5.856561E4,3.8413672E3,8.957182E3,1.4680559E4,1.45941875E4,0E0,0E0,0E0,0E0,0E0,0E0,0E0,0E0],"parents":[2147483647,0,0,1,1,2,2,3,3,4,4,5,5,6,6],"right_children":[2,4,6,8,10,12,14,-1,-1,-1,-1,-1,-1,-1,-1],"split_conditions":[3E0,2E0,5E0,3E0,4E0,3E0,7E0,-2.3069322E-1,-7.99968E-2,-2.7348492E-2,7.1552867E-1,3.9309043E-1,1.2323184E0,1.382953E0,2.751643E0],"split_indices":[2,2,2,1,1,1,2,0,0,0,0,0,0,0,0],"split_type":[0,0,0,0,0,0,0,0,0,0,0,0,0,0,0],"sum_hessian":[1.5557E4,1.2826E4,2.731E3,1.0415E4,2.411E3,2.104E3,6.27E2,8.288E3,2.127E3,2.237E3,1.74E2,1.87E3,2.34E2,5.35E2,9.2E1],"tree_param":{"num_deleted":"0","num_feature":"3","num_nodes":"15","size_leaf_vector":"1"}},{"base_weights":[2.5899275E-3,-9.6167594E-1,9.989427E0,-1.4161971E0,3.3164637E0,7.9151697E0,1.9250435E1,-2.2563258E-1,-5.8781385E-2,2.769378E-1,1.3857566E0,6.449222E-1,1.3213183E0,1.741359E0,3.3776472E0],"categories":[],"categories_nodes":[],"categories_segments":[],"categories_sizes":[],"default_left":[0,0,0,0,0,0,0,0,0,0,0,0,0,0,0],"id":6,"left_children":[1,3,5,7,9,11,13,-1,-1,-1,-1,-1,-1,-1,-1],"loss_changes":[1.4983261E5,2.7595273E4,2.6164938E4,8.925605E3,7.8218896E3,8.621148E3,6.0823594E3,0E0,0E0,0E0,0E0,0E0,0E0,0E0,0E0],"parents":[2147483647,0,0,1,1,2,2,3,3,4,4,5,5,6,6],"right_children":[2,4,6,8,10,12,14,-1,-1,-1,-1,-1,-1,-1,-1],"split_conditions":[4E0,3E0,6E0,1E0,4E0,2E0,8E0,-2.2563258E-1,-5.8781385E-2,2.769378E-1,1.3857566E0,6.449222E-1,1.3213183E0,1.741359E0,3.3776472E0],"split_indices":[2,2,2,2,1,1,2,0,0,0,0,0,0,0,0],"split_type":[0,0,0,0,0,0,0,0,0,0,0,0,0,0,0],"sum_hessian":[1.5557E4,1.4188E4,1.369E3,1.2826E4,1.362E3,1.12E3,2.49E2,6.367E3,6.459E3,1.296E3,6.6E1,8.79E2,2.41E2,2.23E2,2.6E1],"tree_param":{"num_deleted":"0","num_feature":"3","num_nodes":"15","size_leaf_vector":"1"}},{"base_weights":[2.8749458E-3,-8.6541116E-1,8.995655E0,-1.6386139E0,1.2688086E0,7.1254067E0,1.7345867E1,-1.9170877E-1,-5.53131E-2,4.363293E-3,4.201699E-1,6.343702E-1,1.5405651E0,1.5680004E0,3.0523922E0],"categories":[],"categories_nodes":[],"categories_segments":[],"categories_sizes":[],"default_left":[0,0,0,0,0,0,0,0,0,0,0,0,0,0,0],"id":7,"left_children":[1,3,5,7,9,11,13,-1,-1,-1,-1,-1,-1,-1,-1],"loss_changes":[1.2148941E5,2.3416547E4,2.1271656E4,3.1474727E3,1.3560954E4,7.158172E3,5.0096016E3,0E0,0E0,0E0,0E0,0E0,0E0,0E0,0E0],"parents":[2147483647,0,0,1,1,2,2,3,3,4,4,5,5,6,6],"right_children":[2,4,6,8,10,12,14,-1,-1,-1,-1,-1,-1,-1,-1],"split_conditions":[4E0,2E0,6E0,3E0,2E0,3E0,8E0,-1.9170877E-1,-5.53131E-2,4.363293E-3,4.201699E-1,6.343702E-1,1.5405651E0,1.5680004E0,3.0523922E0],"split_indices":[2,2,2,1,1,1,2,0,0,0,0,0,0,0,0],"split_type":[0,0,0,0,0,0,0,0,0,0,0,0,0,0,0],"sum_hessian":[1.5557E4,1.4188E4,1.369E3,1.0415E4,3.773E3,1.12E3,2.49E2,8.288E3,2.127E3,2.662E3,1.111E3,1.025E3,9.5E1,2.23E2,2.6E1],"tree_param":{"num_deleted":"0","num_feature":"3","num_nodes":"15","size_leaf_vector":"1"}},{"base_weights":[3.0357132E-3,-1.1666249E0,5.4947023E0,-1.8685867E0,-4.7447947E-1,3.5575817E0,1.1979009E1,-1.806338E-1,-2.0922749E-1,-9.5281E-2,4.6569315E-1,3.0815262E-1,1.3709352E0,1.0452498E0,2.064815E0],"categories":[],"categories_nodes":[],"categories_segments":[],"categories_sizes":[],"default_left":[0,0,0,0,0,0,0,0,0,0,0,0,0,0,0],"id":8,"left_children":[1,3,5,7,9,11,13,-1,-1,-1,-1,-1,-1,-1,-1],"loss_changes":[9.994145E4,6.2312363E3,3.427371E4,8.4890625E1,1.5860573E4,1.01308125E4,8.094828E3,0E0,0E0,0E0,0E0,0E0,0E0,0E0,0E0],"parents":[2147483647,0,0,1,1,2,2,3,3,4,4,5,5,6,6],"right_children":[2,4,6,8,10,12,14,-1,-1,-1,-1,-1,-1,-1,-1],"split_conditions":[3E0,1E0,5E0,3E0,4E0,4E0,7E0,-1.806338E-1,-2.0922749E-1,-9.5281E-2,4.6569315E-1,3.0815262E-1,1.3709352E0,1.0452498E0,2.064815E0],"split_indices":[2,2,2,1,1,1,2,0,0,0,0,0,0,0,0],"split_type":[0,0,0,0,0,0,0,0,0,0,0,0,0,0,0],"sum_hessian":[1.5557E4,1.2826E4,2.731E3,6.367E3,6.459E3,2.104E3,6.27E2,4.988E3,1.379E3,5.909E3,5.5E2,2.011E3,9.3E1,5.35E2,9.2E1],"tree_param":{"num_deleted":"0","num_feature":"3","num_nodes":"15","size_leaf_vector":"1"}},{"base_weights":[3.038698E-3,-7.0791787E-1,7.366367E0,-1.3437954E0,1.0472512E0,5.8327827E0,1.4213493E1,-1.6958438E-1,-7.268442E-2,5.7162322E-2,8.3063143E-1,4.603084E-1,1.0280311E0,1.2778013E0,2.5596244E0],"categories":[],"categories_nodes":[],"categories_segments":[],"categories_sizes":[],"default_left":[0,0,0,0,0,0,0,0,0,0,0,0,0,0,0],"id":9,"left_children":[1,3,5,7,9,11,13,-1,-1,-1,-1,-1,-1,-1,-1],"loss_changes":[8.1451445E4,1.5837362E4,1.4302977E4,2.261088E3,1.3025418E4,6.0835625E3,3.7578594E3,0E0,0E0,0E0,0E0,0E0,0E0,0E0,0E0],"parents":[2147483647,0,0,1,1,2,2,3,3,4,4,5,5,6,6],"right_children":[2,4,6,8,10,12,14,-1,-1,-1,-1,-1,-1,-1,-1],"split_conditions":[4E0,2E0,6E0,2E0,4E0,2E0,8E0,-1.6958438E-1,-7.268442E-2,5.7162322E-2,8.3063143E-1,4.603084E-1,1.0280311E0,1.2778013E0,2.5596244E0],"split_indices":[2,2,2,1,0,1,2,0,0,0,0,0,0,0,0],"split_type":[0,0,0,0,0,0,0,0,0,0,0,0,0,0,0],"sum_hessian":[1.5557E4,1.4188E4,1.369E3,1.0415E4,3.773E3,1.12E3,2.49E2,6.63E3,3.785E3,3.542E3,2.31E2,8.79E2,2.41E2,2.23E2,2.6E1],"tree_param":{"num_deleted":"0","num_feature":"3","num_nodes":"15","size_leaf_vector":"1"}},{"base_weights":[3.1186568E-3,-9.614952E-1,4.5320716E0,-1.4086211E0,-1.4336051E-1,2.9318326E0,9.888713E0,-1.6864084E-1,5.896576E-2,-1.7010175E-1,1.6139135E-1,1.7723131E-1,6.305801E-1,8.639332E-1,1.6983117E0],"categories":[],"categories_nodes":[],"categories_segments":[],"categories_sizes":[],"default_left":[0,0,0,0,0,0,0,0,0,0,0,0,0,0,0],"id":10,"left_children":[1,3,5,7,9,11,13,-1,-1,-1,-1,-1,-1,-1,-1],"loss_changes":[6.797245E4,4.6920312E3,2.338946E4,4.604967E3,1.2413347E4,8.223965E3,5.419629E3,0E0,0E0,0E0,0E0,0E0,0E0,0E0,0E0],"parents":[2147483647,0,0,1,1,2,2,3,3,4,4,5,5,6,6],"right_children":[2,4,6,8,10,12,14,-1,-1,-1,-1,-1,-1,-1,-1],"split_conditions":[3E0,2E0,5E0,4E0,1E0,2E0,7E0,-1.6864084E-1,5.896576E-2,-1.7010175E-1,1.6139135E-1,1.7723131E-1,6.305801E-1,8.639332E-1,1.6983117E0],"split_indices":[2,1,2,0,2,1,2,0,0,0,0,0,0,0,0],"split_type":[0,0,0,0,0,0,0,0,0,0,0,0,0,0,0],"sum_hessian":[1.5557E4,1.2826E4,2.731E3,8.293E3,4.533E3,2.104E3,6.27E2,7.281E3,1.012E3,2.403E3,2.13E3,1.567E3,5.37E2,5.35E2,9.2E1],"tree_param":{"num_deleted":"0","num_feature":"3","num_nodes":"15","size_leaf_vector":"1"}},{"base_weights":[3.015765E-3,-8.6535496E-1,4.0800977E0,-1.1400652E0,2.7100283E-1,2.639033E0,8.903921E0,-1.493044E-1,1.4640073E-2,-1.640589E-1,2.6282197E-1,1.9518887E-1,8.046771E-1,7.726686E-1,1.519176E0],"categories":[],"categories_nodes":[],"categories_segments":[],"categories_sizes":[],"default_left":[0,0,0,0,0,0,0,0,0,0,0,0,0,0,0],"id":11,"left_children":[1,3,5,7,9,11,13,-1,-1,-1,-1,-1,-1,-1,-1],"loss_changes":[5.5085363E4,4.004501E3,1.896784E4,4.6910234E3,1.1260391E4,7.806257E3,4.531246E3,0E0,0E0,0E0,0E0,0E0,0E0,0E0,0E0],"parents":[2147483647,0,0,1,1,2,2,3,3,4,4,5,5,6,6],"right_children":[2,4,6,8,10,12,14,-1,-1,-1,-1,-1,-1,-1,-1],"split_conditions":[3E0,3E0,5E0,3E0,1E0,3E0,2E0,-1.493044E-1,1.4640073E-2,-1.640589E-1,2.6282197E-1,1.9518887E-1,8.046771E-1,7.726686E-1,1.519176E0],"split_indices":[2,1,2,0,2,0,1,0,0,0,0,0,0,0,0],"split_type":[0,0,0,0,0,0,0,0,0,0,0,0,0,0,0],"sum_hessian":[1.5557E4,1.2826E4,2.731E3,1.0329E4,2.497E3,2.104E3,6.27E2,8.105E3,2.224E3,1.379E3,1.118E3,1.868E3,2.36E2,5.3E2,9.7E1],"tree_param":{"num_deleted":"0","num_feature":"3","num_nodes":"15","size_leaf_vector":"1"}},{"base_weights":[2.9234826E-3,-5.268491E-1,5.489741E0,-1.011311E0,8.103748E-1,4.3048563E0,1.0780806E1,-1.1437503E-1,1.0118255E-2,1.3505446E-2,4.8371282E-1,3.6870486E-1,1.0862836E0,1.0096021E0,3.023356E0],"categories":[],"categories_nodes":[],"categories_segments":[],"categories_sizes":[],"default_left":[0,0,0,0,0,0,0,0,0,0,0,0,0,0,0],"id":12,"left_children":[1,3,5,7,9,11,13,-1,-1,-1,-1,-1,-1,-1,-1],"loss_changes":[4.5226348E4,9.1929375E3,8.542539E3,1.5347861E3,1.0262167E4,4.501756E3,3.025002E3,0E0,0E0,0E0,0E0,0E0,0E0,0E0,0E0],"parents":[2147483647,0,0,1,1,2,2,3,3,4,4,5,5,6,6],"right_children":[2,4,6,8,10,12,14,-1,-1,-1,-1,-1,-1,-1,-1],"split_conditions":[4E0,2E0,6E0,4E0,3E0,3E0,9E0,-1.1437503E-1,1.0118255E-2,1.3505446E-2,4.8371282E-1,3.6870486E-1,1.0862836E0,1.0096021E0,3.023356E0],"split_indices":[2,2,2,1,0,1,2,0,0,0,0,0,0,0,0],"split_type":[0,0,0,0,0,0,0,0,0,0,0,0,0,0,0],"sum_hessian":[1.5557E4,1.4188E4,1.369E3,1.0415E4,3.773E3,1.12E3,2.49E2,9.307E3,1.108E3,3.232E3,5.41E2,1.025E3,9.5E1,2.42E2,7E0],"tree_param":{"num_deleted":"0","num_feature":"3","num_nodes":"15","size_leaf_vector":"1"}},{"base_weights":[3.0091468E-3,-7.126267E-1,3.3629866E0,-1.0833399E0,-3.4327682E-2,2.1733825E0,7.3450775E0,-1.3100894E-1,5.4772884E-2,-1.3107726E-1,1.4056572E-1,1.7655742E-1,1.0879096E0,6.799831E-1,1.9230016E0],"categories":[],"categories_nodes":[],"categories_segments":[],"categories_sizes":[],"default_left":[0,0,0,0,0,0,0,0,0,0,0,0,0,0,0],"id":13,"left_children":[1,3,5,7,9,11,13,-1,-1,-1,-1,-1,-1,-1,-1],"loss_changes":[3.741192E4,3.2253691E3,1.2925822E4,3.0682031E3,8.335613E3,7.4540947E3,3.9388203E3,0E0,0E0,0E0,0E0,0E0,0E0,0E0,0E0],"parents":[2147483647,0,0,1,1,2,2,3,3,4,4,5,5,6,6],"right_children":[2,4,6,8,10,12,14,-1,-1,-1,-1,-1,-1,-1,-1],"split_conditions":[3E0,2E0,5E0,4E0,1E0,4E0,8E0,-1.3100894E-1,5.4772884E-2,-1.3107726E-1,1.4056572E-1,1.7655742E-1,1.0879096E0,6.799831E-1,1.9230016E0],"split_indices":[2,1,2,0,2,1,2,0,0,0,0,0,0,0,0],"split_type":[0,0,0,0,0,0,0,0,0,0,0,0,0,0,0],"sum_hessian":[1.5557E4,1.2826E4,2.731E3,8.293E3,4.533E3,2.104E3,6.27E2,7.281E3,1.012E3,2.403E3,2.13E3,2.011E3,9.3E1,6.01E2,2.6E1],"tree_param":{"num_deleted":"0","num_feature":"3","num_nodes":"15","size_leaf_vector":"1"}},{"base_weights":[2.952524E-3,-4.3090585E-1,4.496393E0,-8.3076364E-1,6.727904E-1,3.9247162E0,1.2303992E1,-9.451365E-2,1.2993346E-2,2.8888244E-2,6.532761E-1,2.9395375E-1,7.697564E-1,1.0895666E0,2.5905495E0],"categories":[],"categories_nodes":[],"categories_segments":[],"categories_sizes":[],"default_left":[0,0,0,0,0,0,0,0,0,0,0,0,0,0,0],"id":14,"left_children":[1,3,5,7,9,11,13,-1,-1,-1,-1,-1,-1,-1,-1],"loss_changes":[3.0332523E4,6.2624707E3,6.0665977E3,1.1446079E3,8.48844E3,4.7276074E3,1.4991904E3,0E0,0E0,0E0,0E0,0E0,0E0,0E0,0E0],"parents":[2147483647,0,0,1,1,2,2,3,3,4,4,5,5,6,6],"right_children":[2,4,6,8,10,12,14,-1,-1,-1,-1,-1,-1,-1,-1],"split_conditions":[4E0,2E0,7E0,4E0,4E0,2E0,9E0,-9.451365E-2,1.2993346E-2,2.8888244E-2,6.532761E-1,2.9395375E-1,7.697564E-1,1.0895666E0,2.5905495E0],"split_indices":[2,2,2,1,0,1,2,0,0,0,0,0,0,0,0],"split_type":[0,0,0,0,0,0,0,0,0,0,0,0,0,0,0],"sum_hessian":[1.5557E4,1.4188E4,1.369E3,1.0415E4,3.773E3,1.277E3,9.2E1,9.307E3,1.108E3,3.542E3,2.31E2,1.014E3,2.63E2,8.5E1,7E0],"tree_param":{"num_deleted":"0","num_feature":"3","num_nodes":"15","size_leaf_vector":"1"}},{"base_weights":[3.0007984E-3,-5.8732754E-1,2.7746475E0,-7.385732E-1,7.7410513E-1,1.7751327E0,6.120514E0,-1.0021184E-1,2.7243389E-2,-1.3678853E-1,3.6222085E-1,1.4104795E-1,9.5613766E-1,5.12032E-1,1.1477479E0],"categories":[],"categories_nodes":[],"categories_segments":[],"categories_sizes":[],"default_left":[0,0,0,0,0,0,0,0,0,0,0,0,0,0,0],"id":15,"left_children":[1,3,5,7,9,11,13,-1,-1,-1,-1,-1,-1,-1,-1],"loss_changes":[2.5457344E4,2.641789E3,9.125607E3,3.076393E3,7.832037E3,5.963193E3,3.3060586E3,0E0,0E0,0E0,0E0,0E0,0E0,0E0,0E0],"parents":[2147483647,0,0,1,1,2,2,3,3,4,4,5,5,6,6],"right_children":[2,4,6,8,10,12,14,-1,-1,-1,-1,-1,-1,-1,-1],"split_conditions":[3E0,4E0,5E0,3E0,1E0,4E0,2E0,-1.0021184E-1,2.7243389E-2,-1.3678853E-1,3.6222085E-1,1.4104795E-1,9.5613766E-1,5.12032E-1,1.1477479E0],"split_indices":[2,1,2,0,2,1,1,0,0,0,0,0,0,0,0],"split_type":[0,0,0,0,0,0,0,0,0,0,0,0,0,0,0],"sum_hessian":[1.5557E4,1.2826E4,2.731E3,1.1544E4,1.282E3,2.104E3,6.27E2,9.157E3,2.387E3,7.32E2,5.5E2,2.011E3,9.3E1,5.3E2,9.7E1],"tree_param":{"num_deleted":"0","num_feature":"3","num_nodes":"15","size_leaf_vector":"1"}},{"base_weights":[2.887748E-3,-5.285829E-1,2.4981918E0,-8.44332E-1,4.9130265E-2,1.5981406E0,5.511106E0,-9.7509935E-2,1.1873694E-1,-1.0229266E-1,1.2585041E-1,1.0148569E-1,6.191216E-1,4.6261993E-1,1.0551955E0],"categories":[],"categories_nodes":[],"categories_segments":[],"categories_sizes":[],"default_left":[0,0,0,0,0,0,0,0,0,0,0,0,0,0,0],"id":16,"left_children":[1,3,5,7,9,11,13,-1,-1,-1,-1,-1,-1,-1,-1],"loss_changes":[2.0634043E4,2.339846E3,7.3997676E3,2.204709E3,5.8796973E3,5.6331504E3,2.7524922E3,0E0,0E0,0E0,0E0,0E0,0E0,0E0,0E0],"parents":[2147483647,0,0,1,1,2,2,3,3,4,4,5,5,6,6],"right_children":[2,4,6,8,10,12,14,-1,-1,-1,-1,-1,-1,-1,-1],"split_conditions":[3E0,2E0,5E0,5E0,1E0,3E0,7E0,-9.7509935E-2,1.1873694E-1,-1.0229266E-1,1.2585041E-1,1.0148569E-1,6.191216E-1,4.6261993E-1,1.0551955E0],"split_indices":[2,1,2,0,2,0,2,0,0,0,0,0,0,0,0],"split_type":[0,0,0,0,0,0,0,0,0,0,0,0,0,0,0],"sum_hessian":[1.5557E4,1.2826E4,2.731E3,8.293E3,4.533E3,2.104E3,6.27E2,7.792E3,5.01E2,2.403E3,2.13E3,1.868E3,2.36E2,5.35E2,9.2E1],"tree_param":{"num_deleted":"0","num_feature":"3","num_nodes":"15","size_leaf_vector":"1"}},{"base_weights":[2.7457487E-3,-3.203725E-1,3.3492582E0,-6.266097E-1,5.249076E-1,2.537061E0,6.9777536E0,-6.899737E-2,5.335244E-2,3.1007877E-2,8.6652726E-1,2.0354722E-1,8.626596E-1,6.4456743E-1,2.2267442E0],"categories":[],"categories_nodes":[],"categories_segments":[],"categories_sizes":[],"default_left":[0,0,0,0,0,0,0,0,0,0,0,0,0,0,0],"id":17,"left_children":[1,3,5,7,9,11,13,-1,-1,-1,-1,-1,-1,-1,-1],"loss_changes":[1.6824236E4,3.67324E3,4.0197617E3,7.660552E2,6.5972275E3,3.4064702E3,1.8903027E3,0E0,0E0,0E0,0E0,0E0,0E0,0E0,0E0],"parents":[2147483647,0,0,1,1,2,2,3,3,4,4,5,5,6,6],"right_children":[2,4,6,8,10,12,14,-1,-1,-1,-1,-1,-1,-1,-1],"split_conditions":[4E0,2E0,6E0,5E0,5E0,3E0,9E0,-6.899737E-2,5.335244E-2,3.1007877E-2,8.6652726E-1,2.0354722E-1,8.626596E-1,6.4456743E-1,2.2267442E0],"split_indices":[2,2,2,1,1,0,2,0,0,0,0,0,0,0,0],"split_type":[0,0,0,0,0,0,0,0,0,0,0,0,0,0,0],"sum_hessian":[1.5557E4,1.4188E4,1.369E3,1.0415E4,3.773E3,1.12E3,2.49E2,9.876E3,5.39E2,3.677E3,9.6E1,1.036E3,8.4E1,2.42E2,7E0],"tree_param":{"num_deleted":"0","num_feature":"3","num_nodes":"15","size_leaf_vector":"1"}},{"base_weights":[2.7810049E-3,-4.353575E-1,2.059882E0,-6.252992E-1,3.5499358E-1,1.201096E0,4.8940125E0,-7.361072E-2,1.24782376E-1,-1.0789808E-1,2.1105893E-1,8.906556E-2,8.4536046E-1,4.0473697E-1,9.49197E-1],"categories":[],"categories_nodes":[],"categories_segments":[],"categories_sizes":[],"default_left":[0,0,0,0,0,0,0,0,0,0,0,0,0,0,0],"id":18,"left_children":[1,3,5,7,9,11,13,-1,-1,-1,-1,-1,-1,-1,-1],"loss_changes":[1.4023247E4,1.9258196E3,6.6435674E3,2.1474724E3,6.2607305E3,4.716061E3,2.4335273E3,0E0,0E0,0E0,0E0,0E0,0E0,0E0,0E0],"parents":[2147483647,0,0,1,1,2,2,3,3,4,4,5,5,6,6],"right_children":[2,4,6,8,10,12,14,-1,-1,-1,-1,-1,-1,-1,-1],"split_conditions":[3E0,3E0,2E0,5E0,1E0,4E0,5E0,-7.361072E-2,1.24782376E-1,-1.0789808E-1,2.1105893E-1,8.906556E-2,8.4536046E-1,4.0473697E-1,9.49197E-1],"split_indices":[2,0,1,1,2,0,2,0,0,0,0,0,0,0,0],"split_type":[0,0,0,0,0,0,0,0,0,0,0,0,0,0,0],"sum_hessian":[1.5557E4,1.2826E4,2.731E3,1.0341E4,2.485E3,2.097E3,6.34E2,9.764E3,5.77E2,1.368E3,1.117E3,2.012E3,8.5E1,5.37E2,9.7E1],"tree_param":{"num_deleted":"0","num_feature":"3","num_nodes":"15","size_leaf_vector":"1"}},{"base_weights":[2.659914E-3,-1.7861266E-1,4.3124976E0,-3.918097E-1,1.1206069E0,3.864105E0,1.2543062E1,-6.633526E-2,1.0500737E-2,2.5429612E-2,3.643385E-1,3.4131125E-1,1.3258647E0,9.9997276E-1,1.8923101E0],"categories":[],"categories_nodes":[],"categories_segments":[],"categories_sizes":[],"default_left":[0,0,0,0,0,0,0,0,0,0,0,0,0,0,0],"id":19,"left_children":[1,3,5,7,9,11,13,-1,-1,-1,-1,-1,-1,-1,-1],"loss_changes":[1.2155542E4,4.1361733E3,2.2691826E3,1.7305237E3,4.5995713E3,2.4841562E3,3.300249E2,0E0,0E0,0E0,0E0,0E0,0E0,0E0,0E0],"parents":[2147483647,0,0,1,1,2,2,3,3,4,4,5,5,6,6],"right_children":[2,4,6,8,10,12,14,-1,-1,-1,-1,-1,-1,-1,-1],"split_conditions":[5E0,3E0,3E0,2E0,2E0,8E0,6E0,-6.633526E-2,1.0500737E-2,2.5429612E-2,3.643385E-1,3.4131125E-1,1.3258647E0,9.9997276E-1,1.8923101E0],"split_indices":[2,2,1,1,1,2,2,0,0,0,0,0,0,0,0],"split_type":[0,0,0,0,0,0,0,0,0,0,0,0,0,0,0],"sum_hessian":[1.5557E4,1.493E4,6.27E2,1.2826E4,2.104E3,5.96E2,3.1E1,8.293E3,4.533E3,1.567E3,5.37E2,5.7E2,2.6E1,2.4E1,7E0],"tree_param":{"num_deleted":"0","num_feature":"3","num_nodes":"15","size_leaf_vector":"1"}},{"base_weights":[2.7084358E-3,-1.6072907E-1,3.8885088E0,-4.7762534E-1,5.7021695E-1,3.1348386E0,7.9324927E0,-5.2883543E-2,4.7668748E-2,8.032642E-3,3.755186E-1,2.8854036E-1,1.9080976E0,5.989675E-1,1.193827E0],"categories":[],"categories_nodes":[],"categories_segments":[],"categories_sizes":[],"default_left":[0,0,0,0,0,0,0,0,0,0,0,0,0,0,0],"id":20,"left_children":[1,3,5,7,9,11,13,-1,-1,-1,-1,-1,-1,-1,-1],"loss_changes":[9.881285E3,3.4588008E3,1.8891709E3,5.0928613E2,7.0459507E3,2.0570098E3,6.9117773E2,0E0,0E0,0E0,0E0,0E0,0E0,0E0,0E0],"parents":[2147483647,0,0,1,1,2,2,3,3,4,4,5,5,6,6],"right_children":[2,4,6,8,10,12,14,-1,-1,-1,-1,-1,-1,-1,-1],"split_conditions":[5E0,2E0,2E0,5E0,3E0,9E0,6E0,-5.2883543E-2,4.7668748E-2,8.032642E-3,3.755186E-1,2.8854036E-1,1.9080976E0,5.989675E-1,1.193827E0],"split_indices":[2,2,1,0,0,2,2,0,0,0,0,0,0,0,0],"split_type":[0,0,0,0,0,0,0,0,0,0,0,0,0,0,0],"sum_hessian":[1.5557E4,1.493E4,6.27E2,1.0415E4,4.515E3,5.3E2,9.7E1,9.885E3,5.3E2,3.914E3,6.01E2,5.23E2,7E0,6.7E1,3E1],"tree_param":{"num_deleted":"0","num_feature":"3","num_nodes":"15","size_leaf_vector":"1"}},{"base_weights":[2.7183467E-3,-2.2551E-1,2.3664625E0,-5.294058E-1,3.512367E-1,1.9928991E0,7.4745007E0,-7.007597E-2,7.839493E-2,-7.80087E-2,1.4415939E-1,1.5642907E-1,6.9191647E-1,6.463226E-1,1.7411393E0],"categories":[],"categories_nodes":[],"categories_segments":[],"categories_sizes":[],"default_left":[0,0,0,0,0,0,0,0,0,0,0,0,0,0,0],"id":21,"left_children":[1,3,5,7,9,11,13,-1,-1,-1,-1,-1,-1,-1,-1],"loss_changes":[8.393661E3,2.4871045E3,2.5993052E3,2.0919253E3,6.041803E3,2.6875952E3,8.220161E2,0E0,0E0,0E0,0E0,0E0,0E0,0E0,0E0],"parents":[2147483647,0,0,1,1,2,2,3,3,4,4,5,5,6,6],"right_children":[2,4,6,8,10,12,14,-1,-1,-1,-1,-1,-1,-1,-1],"split_conditions":[4E0,2E0,7E0,4E0,1E0,3E0,9E0,-7.007597E-2,7.839493E-2,-7.80087E-2,1.4415939E-1,1.5642907E-1,6.9191647E-1,6.463226E-1,1.7411393E0],"split_indices":[2,1,2,0,2,1,2,0,0,0,0,0,0,0,0],"split_type":[0,0,0,0,0,0,0,0,0,0,0,0,0,0,0],"sum_hessian":[1.5557E4,1.4188E4,1.369E3,9.292E3,4.896E3,1.277E3,9.2E1,8.22E3,1.072E3,2.403E3,2.493E3,1.176E3,1.01E2,8.5E1,7E0],"tree_param":{"num_deleted":"0","num_feature":"3","num_nodes":"15","size_leaf_vector":"1"}},{"base_weights":[2.659282E-3,-1.3351564E-1,3.2402787E0,-6.398765E-1,2.0863812E-1,2.8725266E0,9.999894E0,-7.607949E-2,1.235946E-1,-2.5990987E-2,1.4257951E-1,2.5141853E-1,1.0344396E0,7.800504E-1,1.5623003E0],"categories":[],"categories_nodes":[],"categories_segments":[],"categories_sizes":[],"default_left":[0,0,0,0,0,0,0,0,0,0,0,0,0,0,0],"id":22,"left_children":[1,3,5,7,9,11,13,-1,-1,-1,-1,-1,-1,-1,-1],"loss_changes":[6.859684E3,2.5869778E3,1.532397E3,1.3666321E3,5.082282E3,1.5724482E3,2.738899E2,0E0,0E0,0E0,0E0,0E0,0E0,0E0,0E0],"parents":[2147483647,0,0,1,1,2,2,3,3,4,4,5,5,6,6],"right_children":[2,4,6,8,10,12,14,-1,-1,-1,-1,-1,-1,-1,-1],"split_conditions":[5E0,1E0,3E0,5E0,2E0,8E0,6E0,-7.607949E-2,1.235946E-1,-2.5990987E-2,1.4257951E-1,2.5141853E-1,1.0344396E0,7.800504E-1,1.5623003E0],"split_indices":[2,1,1,0,2,2,2,0,0,0,0,0,0,0,0],"split_type":[0,0,0,0,0,0,0,0,0,0,0,0,0,0,0],"sum_hessian":[1.5557E4,1.493E4,6.27E2,6.02E3,8.91E3,5.96E2,3.1E1,5.656E3,3.64E2,6.434E3,2.476E3,5.7E2,2.6E1,2.4E1,7E0],"tree_param":{"num_deleted":"0","num_feature":"3","num_nodes":"15","size_leaf_vector":"1"}},{"base_weights":[2.637091E-3,-2.7966243E-1,1.3280592E0,-3.496389E-1,1.11758E0,1.0920458E0,7.594034E0,-6.153936E-2,1.164239E-2,-1.14252225E-1,4.5309415E-1,6.6111825E-2,4.9257874E-1,5.463142E-1,1.169027E0],"categories":[],"categories_nodes":[],"categories_segments":[],"categories_sizes":[],"default_left":[0,0,0,0,0,0,0,0,0,0,0,0,0,0,0],"id":23,"left_children":[1,3,5,7,9,11,13,-1,-1,-1,-1,-1,-1,-1,-1],"loss_changes":[5.8216465E3,1.2545396E3,4.031939E3,1.5131254E3,4.7264785E3,4.3482817E3,8.0026904E2,0E0,0E0,0E0,0E0,0E0,0E0,0E0,0E0],"parents":[2147483647,0,0,1,1,2,2,3,3,4,4,5,5,6,6],"right_children":[2,4,6,8,10,12,14,-1,-1,-1,-1,-1,-1,-1,-1],"split_conditions":[3E0,5E0,4E0,2E0,1E0,3E0,5E0,-6.153936E-2,1.164239E-2,-1.14252225E-1,4.5309415E-1,6.6111825E-2,4.9257874E-1,5.463142E-1,1.169027E0],"split_indices":[2,1,1,0,2,0,1,0,0,0,0,0,0,0,0],"split_type":[0,0,0,0,0,0,0,0,0,0,0,0,0,0,0],"sum_hessian":[1.5557E4,1.2826E4,2.731E3,1.2215E4,6.11E2,2.633E3,9.8E1,7.779E3,4.436E3,3.68E2,2.43E2,2.368E3,2.65E2,6.6E1,3.2E1],"tree_param":{"num_deleted":"0","num_feature":"3","num_nodes":"15","size_leaf_vector":"1"}},{"base_weights":[2.5380973E-3,-1.1644913E-1,2.8315122E0,-5.709966E-1,1.9069333E-1,2.2011404E0,6.2182055E0,-6.772508E-2,1.0773621E-1,-5.1939934E-2,7.6759584E-2,2.0026837E-1,1.4924914E0,4.5132786E-1,9.7574586E-1],"categories":[],"categories_nodes":[],"categories_segments":[],"categories_sizes":[],"default_left":[0,0,0,0,0,0,0,0,0,0,0,0,0,0,0],"id":24,"left_children":[1,3,5,7,9,11,13,-1,-1,-1,-1,-1,-1,-1,-1],"loss_changes":[5.237336E3,2.0846382E3,1.3270151E3,1.055278E3,3.650828E3,1.3109482E3,5.4731006E2,0E0,0E0,0E0,0E0,0E0,0E0,0E0,0E0],"parents":[2147483647,0,0,1,1,2,2,3,3,4,4,5,5,6,6],"right_children":[2,4,6,8,10,12,14,-1,-1,-1,-1,-1,-1,-1,-1],"split_conditions":[5E0,1E0,2E0,5E0,1E0,9E0,6E0,-6.772508E-2,1.0773621E-1,-5.1939934E-2,7.6759584E-2,2.0026837E-1,1.4924914E0,4.5132786E-1,9.7574586E-1],"split_indices":[2,1,1,0,2,2,2,0,0,0,0,0,0,0,0],"split_type":[0,0,0,0,0,0,0,0,0,0,0,0,0,0,0],"sum_hessian":[1.5557E4,1.493E4,6.27E2,6.02E3,8.91E3,5.3E2,9.7E1,5.656E3,3.64E2,3.994E3,4.916E3,5.23E2,7E0,6.7E1,3E1],"tree_param":{"num_deleted":"0","num_feature":"3","num_nodes":"15","size_leaf_vector":"1"}},{"base_weights":[2.4890173E-3,-1.6420038E-1,1.7288783E0,-3.3216622E-1,5.635871E-1,1.4081705E0,6.2744107E0,-5.4029644E-2,4.618218E-2,-7.260449E-2,1.951363E-1,1.2034978E-1,9.1120493E-1,4.5765924E-1,1.0066483E0],"categories":[],"categories_nodes":[],"categories_segments":[],"categories_sizes":[],"default_left":[0,0,0,0,0,0,0,0,0,0,0,0,0,0,0],"id":25,"left_children":[1,3,5,7,9,11,13,-1,-1,-1,-1,-1,-1,-1,-1],"loss_changes":[4.477422E3,1.7346996E3,1.9883342E3,1.90545E3,4.7638623E3,2.0088809E3,5.333721E2,0E0,0E0,0E0,0E0,0E0,0E0,0E0,0E0],"parents":[2147483647,0,0,1,1,2,2,3,3,4,4,5,5,6,6],"right_children":[2,4,6,8,10,12,14,-1,-1,-1,-1,-1,-1,-1,-1],"split_conditions":[4E0,3E0,3E0,3E0,1E0,4E0,1E0,-5.4029644E-2,4.618218E-2,-7.260449E-2,1.951363E-1,1.2034978E-1,9.1120493E-1,4.5765924E-1,1.0066483E0],"split_indices":[2,1,0,0,2,1,1,0,0,0,0,0,0,0,0],"split_type":[0,0,0,0,0,0,0,0,0,0,0,0,0,0,0],"sum_hessian":[1.5557E4,1.4188E4,1.369E3,1.1528E4,2.66E3,1.28E3,8.9E1,9.134E3,2.394E3,1.379E3,1.281E3,1.248E3,3.2E1,6.3E1,2.6E1],"tree_param":{"num_deleted":"0","num_feature":"3","num_nodes":"15","size_leaf_vector":"1"}},{"base_weights":[2.407892E-3,-6.106914E-2,3.8894777E0,-2.198022E-1,7.589591E-1,3.1980088E0,8.671209E0,-2.7955685E-2,9.733066E-2,5.1914748E-2,6.848224E-1,2.7955517E-1,1.3513676E0,6.840254E-1,1.3080174E0],"categories":[],"categories_nodes":[],"categories_segments":[],"categories_sizes":[],"default_left":[0,0,0,0,0,0,0,0,0,0,0,0,0,0,0],"id":26,"left_children":[1,3,5,7,9,11,13,-1,-1,-1,-1,-1,-1,-1,-1],"loss_changes":[3.8390132E3,1.9928718E3,7.9887354E2,9.1475757E2,3.6223115E3,8.7557666E2,1.6077954E2,0E0,0E0,0E0,0E0,0E0,0E0,0E0,0E0],"parents":[2147483647,0,0,1,1,2,2,3,3,4,4,5,5,6,6],"right_children":[2,4,6,8,10,12,14,-1,-1,-1,-1,-1,-1,-1,-1],"split_conditions":[6E0,3E0,2E0,5E0,4E0,9E0,3E0,-2.7955685E-2,9.733066E-2,5.1914748E-2,6.848224E-1,2.7955517E-1,1.3513676E0,6.840254E-1,1.3080174E0],"split_indices":[2,2,1,1,0,2,1,0,0,0,0,0,0,0,0],"split_type":[0,0,0,0,0,0,0,0,0,0,0,0,0,0,0],"sum_hessian":[1.5557E4,1.5308E4,2.49E2,1.2826E4,2.482E3,2.19E2,3E1,1.2215E4,6.11E2,2.389E3,9.3E1,2.12E2,7E0,2.3E1,7E0],"tree_param":{"num_deleted":"0","num_feature":"3","num_nodes":"15","size_leaf_vector":"1"}},{"base_weights":[2.4517952E-3,-9.076902E-2,2.2188175E0,-3.3634546E-1,3.8579676E-1,1.9160812E0,7.7974014E0,-4.9486093E-2,9.0900816E-2,-5.821274E-2,1.2520894E-1,1.3175476E-1,5.187189E-1,6.259367E-1,1.3418992E0],"categories":[],"categories_nodes":[],"categories_segments":[],"categories_sizes":[],"default_left":[0,0,0,0,0,0,0,0,0,0,0,0,0,0,0],"id":27,"left_children":[1,3,5,7,9,11,13,-1,-1,-1,-1,-1,-1,-1,-1],"loss_changes":[3.214662E3,1.7475543E3,1.0456509E3,1.9457064E3,4.2586597E3,1.1620127E3,1.9268408E2,0E0,0E0,0E0,0E0,0E0,0E0,0E0,0E0],"parents":[2147483647,0,0,1,1,2,2,3,3,4,4,5,5,6,6],"right_children":[2,4,6,8,10,12,14,-1,-1,-1,-1,-1,-1,-1,-1],"split_conditions":[5E0,2E0,3E0,4E0,1E0,7E0,4E0,-4.9486093E-2,9.0900816E-2,-5.821274E-2,1.2520894E-1,1.3175476E-1,5.187189E-1,6.259367E-1,1.3418992E0],"split_indices":[2,0,1,1,2,2,1,0,0,0,0,0,0,0,0],"split_type":[0,0,0,0,0,0,0,0,0,0,0,0,0,0,0],"sum_hessian":[1.5557E4,1.493E4,6.27E2,9.853E3,5.077E3,5.96E2,3.1E1,8.741E3,1.112E3,2.398E3,2.679E3,5.05E2,9.1E1,2.6E1,5E0],"tree_param":{"num_deleted":"0","num_feature":"3","num_nodes":"15","size_leaf_vector":"1"}},{"base_weights":[2.3819252E-3,-1.2663338E-1,1.3385832E0,-3.4140098E-1,2.8095534E-1,3.402562E-1,2.4634979E0,-4.258229E-2,1.0837132E-1,-4.9110968E-2,1.0250465E-1,1.4085635E-2,7.0371825E-1,1.8509708E-1,5.9837765E-1],"categories":[],"categories_nodes":[],"categories_segments":[],"categories_sizes":[],"default_left":[0,0,0,0,0,0,0,0,0,0,0,0,0,0,0],"id":28,"left_children":[1,3,5,7,9,11,13,-1,-1,-1,-1,-1,-1,-1,-1],"loss_changes":[2.6822192E3,1.2421562E3,1.5377168E3,1.1185105E3,2.813765E3,9.6982E2,1.3775603E3,0E0,0E0,0E0,0E0,0E0,0E0,0E0,0E0],"parents":[2147483647,0,0,1,1,2,2,3,3,4,4,5,5,6,6],"right_children":[2,4,6,8,10,12,14,-1,-1,-1,-1,-1,-1,-1,-1],"split_conditions":[4E0,2E0,1E0,5E0,1E0,4E0,2E0,-4.258229E-2,1.0837132E-1,-4.9110968E-2,1.0250465E-1,1.4085635E-2,7.0371825E-1,1.8509708E-1,5.9837765E-1],"split_indices":[2,1,1,0,2,0,0,0,0,0,0,0,0,0,0],"split_type":[0,0,0,0,0,0,0,0,0,0,0,0,0,0,0],"sum_hessian":[1.5557E4,1.4188E4,1.369E3,9.292E3,4.896E3,7.26E2,6.43E2,8.773E3,5.19E2,2.403E3,2.493E3,7.06E2,2E1,5.49E2,9.4E1],"tree_param":{"num_deleted":"0","num_feature":"3","num_nodes":"15","size_leaf_vector":"1"}},{"base_weights":[2.2479077E-3,-4.9040735E-2,3.1429503E0,-4.325218E-1,2.1343969E-1,2.8435736E0,1.1843652E0,-5.1071245E-2,8.197108E-2,-1.4765418E-2,1.088553E-1,2.1758644E-1,7.339653E-1],"categories":[],"categories_nodes":[],"categories_segments":[],"categories_sizes":[],"default_left":[0,0,0,0,0,0,0,0,0,0,0,0,0],"id":29,"left_children":[1,3,5,7,9,11,-1,-1,-1,-1,-1,-1,-1],"loss_changes":[2.5062737E3,1.5410393E3,6.1751855E2,6.095348E2,2.8722666E3,7.135333E2,0E0,0E0,0E0,0E0,0E0,0E0,0E0],"parents":[2147483647,0,0,1,1,2,2,3,3,4,4,5,5],"right_children":[2,4,6,8,10,12,-1,-1,-1,-1,-1,-1,-1],"split_conditions":[6E0,1E0,9E0,5E0,2E0,2E0,1.1843652E0,-5.1071245E-2,8.197108E-2,-1.4765418E-2,1.088553E-1,2.1758644E-1,7.339653E-1],"split_indices":[2,1,2,0,2,1,0,0,0,0,0,0,0],"split_type":[0,0,0,0,0,0,0,0,0,0,0,0,0],"sum_hessian":[1.5557E4,1.5308E4,2.49E2,6.22E3,9.088E3,2.42E2,7E0,5.855E3,3.65E2,6.434E3,2.654E3,2.12E2,3E1],"tree_param":{"num_deleted":"0","num_feature":"3","num_nodes":"13","size_leaf_vector":"1"}},{"base_weights":[2.168403E-3,-4.412853E-2,2.8371987E0,-2.703746E-1,4.023524E-1,2.3211567E0,7.013355E0,-3.626169E-2,1.3546659E-1,-9.013435E-3,1.7758733E-1,1.6697119E-1,6.4781755E-1,5.145096E-1,1.0807332E0],"categories":[],"categories_nodes":[],"categories_segments":[],"categories_sizes":[],"default_left":[0,0,0,0,0,0,0,0,0,0,0,0,0,0,0],"id":30,"left_children":[1,3,5,7,9,11,13,-1,-1,-1,-1,-1,-1,-1,-1],"loss_changes":[2.0421626E3,1.5465404E3,5.22489E2,1.5235991E3,3.4831538E3,5.957905E2,1.3577466E2,0E0,0E0,0E0,0E0,0E0,0E0,0E0,0E0],"parents":[2147483647,0,0,1,1,2,2,3,3,4,4,5,5,6,6],"right_children":[2,4,6,8,10,12,14,-1,-1,-1,-1,-1,-1,-1,-1],"split_conditions":[6E0,2E0,8E0,5E0,2E0,2E0,9E0,-3.626169E-2,1.3546659E-1,-9.013435E-3,1.7758733E-1,1.6697119E-1,6.4781755E-1,5.145096E-1,1.0807332E0],"split_indices":[2,0,2,1,2,1,2,0,0,0,0,0,0,0,0],"split_type":[0,0,0,0,0,0,0,0,0,0,0,0,0,0,0],"sum_hessian":[1.5557E4,1.5308E4,2.49E2,1.016E4,5.148E3,2.23E2,2.6E1,9.615E3,5.45E2,3.79E3,1.358E3,1.94E2,2.9E1,1.9E1,7E0],"tree_param":{"num_deleted":"0","num_feature":"3","num_nodes":"15","size_leaf_vector":"1"}},{"base_weights":[2.1236986E-3,-6.67997E-2,1.6408072E0,-1.5431371E-1,8.0658776E-1,1.3766257E0,6.5181675E0,-3.067875E-2,4.7837213E-2,-1.100863E-1,3.0120274E-1,1.1007227E-1,6.5545005E-1,5.094307E-1,1.1839179E0],"categories":[],"categories_nodes":[],"categories_segments":[],"categories_sizes":[],"default_left":[0,0,0,0,0,0,0,0,0,0,0,0,0,0,0],"id":31,"left_children":[1,3,5,7,9,11,13,-1,-1,-1,-1,-1,-1,-1,-1],"loss_changes":[1.7572866E3,1.1413551E3,8.002102E2,1.3094103E3,5.72452E3,8.4565393E2,1.8213171E2,0E0,0E0,0E0,0E0,0E0,0E0,0E0,0E0],"parents":[2147483647,0,0,1,1,2,2,3,3,4,4,5,5,6,6],"right_children":[2,4,6,8,10,12,14,-1,-1,-1,-1,-1,-1,-1,-1],"split_conditions":[5E0,4E0,3E0,3E0,1E0,3E0,4E0,-3.067875E-2,4.7837213E-2,-1.100863E-1,3.0120274E-1,1.1007227E-1,6.5545005E-1,5.094307E-1,1.1839179E0],"split_indices":[2,0,1,1,2,0,1,0,0,0,0,0,0,0,0],"split_type":[0,0,0,0,0,0,0,0,0,0,0,0,0,0,0],"sum_hessian":[1.5557E4,1.493E4,6.27E2,1.3571E4,1.359E3,5.96E2,3.1E1,1.0936E4,2.635E3,7.29E2,6.3E2,5.67E2,2.9E1,2.6E1,5E0],"tree_param":{"num_deleted":"0","num_feature":"3","num_nodes":"15","size_leaf_vector":"1"}},{"base_weights":[2.0827327E-3,-1.4584318E-1,6.9660825E-1,-2.4148771E-1,2.5210595E-1,5.073604E-1,5.72471E0,-2.7550027E-2,1.1104578E-1,-6.901775E-2,1.4057142E-1,1.9292261E-2,3.305841E-1,3.7824962E-1,9.4945174E-1],"categories":[],"categories_nodes":[],"categories_segments":[],"categories_sizes":[],"default_left":[0,0,0,0,0,0,0,0,0,0,0,0,0,0,0],"id":32,"left_children":[1,3,5,7,9,11,13,-1,-1,-1,-1,-1,-1,-1,-1],"loss_changes":[1.5985043E3,4.8827774E2,2.5967498E3,4.758634E2,2.7033164E3,2.3171453E3,6.889424E2,0E0,0E0,0E0,0E0,0E0,0E0,0E0,0E0],"parents":[2147483647,0,0,1,1,2,2,3,3,4,4,5,5,6,6],"right_children":[2,4,6,8,10,12,14,-1,-1,-1,-1,-1,-1,-1,-1],"split_conditions":[3E0,3E0,4E0,6E0,1E0,3E0,5E0,-2.7550027E-2,1.1104578E-1,-6.901775E-2,1.4057142E-1,1.9292261E-2,3.305841E-1,3.7824962E-1,9.4945174E-1],"split_indices":[2,0,1,1,2,0,1,0,0,0,0,0,0,0,0],"split_type":[0,0,0,0,0,0,0,0,0,0,0,0,0,0,0],"sum_hessian":[1.5557E4,1.2826E4,2.731E3,1.0341E4,2.485E3,2.633E3,9.8E1,1.0088E4,2.53E2,1.368E3,1.117E3,2.368E3,2.65E2,6.6E1,3.2E1],"tree_param":{"num_deleted":"0","num_feature":"3","num_nodes":"15","size_leaf_vector":"1"}},{"base_weights":[1.9922392E-3,-3.7197758E-2,2.4018228E0,-3.7601042E-1,1.9470794E-1,1.927676E0,6.246529E0,-2.326859E-3,-5.9353467E-2,8.42742E-4,1.3457854E-1,1.3529298E-1,5.5992705E-1,4.5334148E-1,9.748499E-1],"categories":[],"categories_nodes":[],"categories_segments":[],"categories_sizes":[],"default_left":[0,0,0,0,0,0,0,0,0,0,0,0,0,0,0],"id":33,"left_children":[1,3,5,7,9,11,13,-1,-1,-1,-1,-1,-1,-1,-1],"loss_changes":[1.4633091E3,1.202941E3,4.436975E2,4.7732294E2,1.9488821E3,4.6511725E2,1.177865E2,0E0,0E0,0E0,0E0,0E0,0E0,0E0,0E0],"parents":[2147483647,0,0,1,1,2,2,3,3,4,4,5,5,6,6],"right_children":[2,4,6,8,10,12,14,-1,-1,-1,-1,-1,-1,-1,-1],"split_conditions":[6E0,1E0,8E0,1E0,3E0,2E0,9E0,-2.326859E-3,-5.9353467E-2,8.42742E-4,1.3457854E-1,1.3529298E-1,5.5992705E-1,4.5334148E-1,9.748499E-1],"split_indices":[2,1,2,2,2,1,2,0,0,0,0,0,0,0,0],"split_type":[0,0,0,0,0,0,0,0,0,0,0,0,0,0,0],"sum_hessian":[1.5557E4,1.5308E4,2.49E2,6.22E3,9.088E3,2.23E2,2.6E1,2.373E3,3.847E3,7.823E3,1.265E3,1.94E2,2.9E1,1.9E1,7E0],"tree_param":{"num_deleted":"0","num_feature":"3","num_nodes":"15","size_leaf_vector":"1"}},{"base_weights":[1.9342181E-3,-1.9852657E-2,3.6250942E0,-2.0480412E-1,3.488371E-1,3.0926714E0,8.895502E-1,-3.1178106E-2,6.7406334E-2,-5.888517E-3,1.4710784E-1,2.1197131E-1,4.8382035E-1],"categories":[],"categories_nodes":[],"categories_segments":[],"categories_sizes":[],"default_left":[0,0,0,0,0,0,0,0,0,0,0,0,0],"id":34,"left_children":[1,3,5,7,9,11,-1,-1,-1,-1,-1,-1,-1],"loss_changes":[1.228179E3,1.0546935E3,2.3345508E2,9.686008E2,2.3643137E3,1.3580072E2,0E0,0E0,0E0,0E0,0E0,0E0,0E0],"parents":[2147483647,0,0,1,1,2,2,3,3,4,4,5,5],"right_children":[2,4,6,8,10,12,-1,-1,-1,-1,-1,-1,-1],"split_conditions":[7E0,2E0,9E0,4E0,2E0,1E0,8.895502E-1,-3.1178106E-2,6.7406334E-2,-5.888517E-3,1.4710784E-1,2.1197131E-1,4.8382035E-1],"split_indices":[2,0,2,1,2,1,0,0,0,0,0,0,0],"split_type":[0,0,0,0,0,0,0,0,0,0,0,0,0],"sum_hessian":[1.5557E4,1.5465E4,9.2E1,1.0299E4,5.166E3,8.5E1,7E0,9.182E3,1.117E3,3.79E3,1.376E3,5.6E1,2.9E1],"tree_param":{"num_deleted":"0","num_feature":"3","num_nodes":"13","size_leaf_vector":"1"}},{"base_weights":[1.8540658E-3,-8.019026E-2,8.5158044E-1,-3.4699658E-1,9.633618E-2,7.097542E-1,6.5761814E0,-6.541832E-5,-5.9779603E-2,-1.5064019E-2,6.375993E-2,5.807772E-2,6.950798E-1,4.8209023E-1,1.072127E0],"categories":[],"categories_nodes":[],"categories_segments":[],"categories_sizes":[],"default_left":[0,0,0,0,0,0,0,0,0,0,0,0,0,0,0],"id":35,"left_children":[1,3,5,7,9,11,13,-1,-1,-1,-1,-1,-1,-1,-1],"loss_changes":[1.0846978E3,6.6831213E2,1.107633E3,4.907727E2,1.1417164E3,1.0729885E3,1.884148E2,0E0,0E0,0E0,0E0,0E0,0E0,0E0,0E0],"parents":[2147483647,0,0,1,1,2,2,3,3,4,4,5,5,6,6],"right_children":[2,4,6,8,10,12,14,-1,-1,-1,-1,-1,-1,-1,-1],"split_conditions":[4E0,1E0,4E0,1E0,2E0,4E0,5E0,-6.541832E-5,-5.9779603E-2,-1.5064019E-2,6.375993E-2,5.807772E-2,6.950798E-1,4.8209023E-1,1.072127E0],"split_indices":[2,1,1,2,0,0,1,0,0,0,0,0,0,0,0],"split_type":[0,0,0,0,0,0,0,0,0,0,0,0,0,0,0],"sum_hessian":[1.5557E4,1.4188E4,1.369E3,5.649E3,8.539E3,1.337E3,3.2E1,2.373E3,3.276E3,5.864E3,2.675E3,1.311E3,2.6E1,2.4E1,8E0],"tree_param":{"num_deleted":"0","num_feature":"3","num_nodes":"15","size_leaf_vector":"1"}},{"base_weights":[1.8162966E-3,-3.0625738E-2,1.9884294E0,-3.104858E-1,1.609289E-1,1.7595378E0,8.692461E-1,-3.526049E-2,1.172834E-1,-1.0115518E-2,7.960891E-2,1.3260107E-1,5.178644E-1],"categories":[],"categories_nodes":[],"categories_segments":[],"categories_sizes":[],"default_left":[0,0,0,0,0,0,0,0,0,0,0,0,0],"id":36,"left_children":[1,3,5,7,9,11,-1,-1,-1,-1,-1,-1,-1],"loss_changes":[1.0027705E3,8.2074243E2,3.6832953E2,3.8907727E2,1.5130844E3,3.533261E2,0E0,0E0,0E0,0E0,0E0,0E0,0E0],"parents":[2147483647,0,0,1,1,2,2,3,3,4,4,5,5],"right_children":[2,4,6,8,10,12,-1,-1,-1,-1,-1,-1,-1],"split_conditions":[6E0,1E0,3E0,6E0,2E0,8E0,8.692461E-1,-3.526049E-2,1.172834E-1,-1.0115518E-2,7.960891E-2,1.3260107E-1,5.178644E-1],"split_indices":[2,1,1,0,2,2,0,0,0,0,0,0,0],"split_type":[0,0,0,0,0,0,0,0,0,0,0,0,0],"sum_hessian":[1.5557E4,1.5308E4,2.49E2,6.22E3,9.088E3,2.42E2,7E0,6.049E3,1.71E2,6.434E3,2.654E3,2.16E2,2.6E1],"tree_param":{"num_deleted":"0","num_feature":"3","num_nodes":"13","size_leaf_vector":"1"}},{"base_weights":[1.7420908E-3,-1.6139021E-2,2.9753716E0,-1.7172888E-1,2.9402003E-1,2.5093486E0,7.6131964E0,-2.371741E-2,9.978497E-2,-3.8971703E-2,8.862884E-2,2.0650263E-1,6.0813254E-1,5.275233E-1,1.1989472E0],"categories":[],"categories_nodes":[],"categories_segments":[],"categories_sizes":[],"default_left":[0,0,0,0,0,0,0,0,0,0,0,0,0,0,0],"id":37,"left_children":[1,3,5,7,9,11,13,-1,-1,-1,-1,-1,-1,-1,-1],"loss_changes":[8.272948E2,7.464026E2,1.8189984E2,7.8863306E2,2.0927524E3,1.2393329E2,1.8605316E1,0E0,0E0,0E0,0E0,0E0,0E0,0E0,0E0],"parents":[2147483647,0,0,1,1,2,2,3,3,4,4,5,5,6,6],"right_children":[2,4,6,8,10,12,14,-1,-1,-1,-1,-1,-1,-1,-1],"split_conditions":[7E0,2E0,9E0,5E0,1E0,2E0,1E1,-2.371741E-2,9.978497E-2,-3.8971703E-2,8.862884E-2,2.0650263E-1,6.0813254E-1,5.275233E-1,1.1989472E0],"split_indices":[2,0,2,1,2,1,2,0,0,0,0,0,0,0,0],"split_type":[0,0,0,0,0,0,0,0,0,0,0,0,0,0,0],"sum_hessian":[1.5557E4,1.5465E4,9.2E1,1.0299E4,5.166E3,8.5E1,7E0,9.754E3,5.45E2,2.398E3,2.768E3,7.7E1,8E0,6E0,1E0],"tree_param":{"num_deleted":"0","num_feature":"3","num_nodes":"15","size_leaf_vector":"1"}},{"base_weights":[1.7393479E-3,-4.3979514E-2,1.0887244E0,-1.1155863E-1,6.304527E-1,8.6645526E-1,5.2014093E0,-2.2426376E-2,3.561073E-2,-9.0640105E-2,2.4074303E-1,6.39066E-2,5.1428103E-1,4.052609E-1,9.5041114E-1],"categories":[],"categories_nodes":[],"categories_segments":[],"categories_sizes":[],"default_left":[0,0,0,0,0,0,0,0,0,0,0,0,0,0,0],"id":38,"left_children":[1,3,5,7,9,11,13,-1,-1,-1,-1,-1,-1,-1,-1],"loss_changes":[7.7321387E2,6.805885E2,5.695623E2,7.154375E2,3.7162798E3,5.772346E2,1.196579E2,0E0,0E0,0E0,0E0,0E0,0E0,0E0,0E0],"parents":[2147483647,0,0,1,1,2,2,3,3,4,4,5,5,6,6],"right_children":[2,4,6,8,10,12,14,-1,-1,-1,-1,-1,-1,-1,-1],"split_conditions":[5E0,4E0,3E0,3E0,1E0,3E0,4E0,-2.2426376E-2,3.561073E-2,-9.0640105E-2,2.4074303E-1,6.39066E-2,5.1428103E-1,4.052609E-1,9.5041114E-1],"split_indices":[2,0,1,1,2,0,1,0,0,0,0,0,0,0,0],"split_type":[0,0,0,0,0,0,0,0,0,0,0,0,0,0,0],"sum_hessian":[1.5557E4,1.493E4,6.27E2,1.3571E4,1.359E3,5.96E2,3.1E1,1.0936E4,2.635E3,7.29E2,6.3E2,5.67E2,2.9E1,2.6E1,5E0],"tree_param":{"num_deleted":"0","num_feature":"3","num_nodes":"15","size_leaf_vector":"1"}},{"base_weights":[1.7002576E-3,-2.468718E-2,1.6175547E0,-2.7061617E-1,1.4364256E-1,1.2124791E0,4.4401054E0,9.139708E-3,-4.9388774E-2,-4.1065193E-4,1.0566324E-1,9.88973E-2,7.0117676E-1,3.2515058E-1,7.450892E-1],"categories":[],"categories_nodes":[],"categories_segments":[],"categories_sizes":[],"default_left":[0,0,0,0,0,0,0,0,0,0,0,0,0,0,0],"id":39,"left_children":[1,3,5,7,9,11,13,-1,-1,-1,-1,-1,-1,-1,-1],"loss_changes":[6.6340594E2,6.3378796E2,2.8045312E2,5.0287152E2,1.2260504E3,2.7822424E2,8.671057E1,0E0,0E0,0E0,0E0,0E0,0E0,0E0,0E0],"parents":[2147483647,0,0,1,1,2,2,3,3,4,4,5,5,6,6],"right_children":[2,4,6,8,10,12,14,-1,-1,-1,-1,-1,-1,-1,-1],"split_conditions":[6E0,1E0,2E0,1E0,3E0,9E0,3E0,9.139708E-3,-4.9388774E-2,-4.1065193E-4,1.0566324E-1,9.88973E-2,7.0117676E-1,3.2515058E-1,7.450892E-1],"split_indices":[2,1,1,2,2,2,1,0,0,0,0,0,0,0,0],"split_type":[0,0,0,0,0,0,0,0,0,0,0,0,0,0,0],"sum_hessian":[1.5557E4,1.5308E4,2.49E2,6.22E3,9.088E3,2.19E2,3E1,2.373E3,3.847E3,7.823E3,1.265E3,2.12E2,7E0,2.3E1,7E0],"tree_param":{"num_deleted":"0","num_feature":"3","num_nodes":"15","size_leaf_vector":"1"}},{"base_weights":[1.6546373E-3,-1.3165743E-2,2.466282E0,-1.0366841E-1,4.053563E-1,2.2537968E0,1.1007458E0,-1.7383253E-2,5.2176446E-2,-5.4944444E-2,1.3508822E-1,1.5239823E-1,3.640723E-1],"categories":[],"categories_nodes":[],"categories_segments":[],"categories_sizes":[],"default_left":[0,0,0,0,0,0,0,0,0,0,0,0,0],"id":40,"left_children":[1,3,5,7,9,11,-1,-1,-1,-1,-1,-1,-1],"loss_changes":[5.6831506E2,5.858532E2,1.4397467E2,5.5815015E2,2.4834116E3,8.757388E1,0E0,0E0,0E0,0E0,0E0,0E0,0E0],"parents":[2147483647,0,0,1,1,2,2,3,3,4,4,5,5],"right_children":[2,4,6,8,10,12,-1,-1,-1,-1,-1,-1,-1],"split_conditions":[7E0,3E0,1E1,4E0,1E0,1E0,1.1007458E0,-1.7383253E-2,5.2176446E-2,-5.4944444E-2,1.3508822E-1,1.5239823E-1,3.640723E-1],"split_indices":[2,0,2,1,2,1,0,0,0,0,0,0,0],"split_type":[0,0,0,0,0,0,0,0,0,0,0,0,0],"sum_hessian":[1.5557E4,1.5465E4,9.2E1,1.2716E4,2.749E3,9.1E1,1E0,1.1434E4,1.282E3,1.368E3,1.381E3,6.1E1,3E1],"tree_param":{"num_deleted":"0","num_feature":"3","num_nodes":"13","size_leaf_vector":"1"}},{"base_weights":[1.6005546E-3,-1.2912557E-1,2.6444373E-1,-1.7726451E-1,7.758574E-1,-1.0428036E-1,1.2736447E0,2.0170629E-2,-4.024143E-2,-1.3397633E-1,3.3326763E-1,-3.897922E-2,3.9208602E-2,9.2306934E-2,5.5318564E-1],"categories":[],"categories_nodes":[],"categories_segments":[],"categories_sizes":[],"default_left":[0,0,0,0,0,0,0,0,0,0,0,0,0,0,0],"id":41,"left_children":[1,3,5,7,9,11,13,-1,-1,-1,-1,-1,-1,-1,-1],"loss_changes":[5.346143E2,4.5282056E2,1.923232E3,8.41985E2,2.844326E3,5.36699E2,2.0594697E3,0E0,0E0,0E0,0E0,0E0,0E0,0E0,0E0],"parents":[2147483647,0,0,1,1,2,2,3,3,4,4,5,5,6,6],"right_children":[2,4,6,8,10,12,14,-1,-1,-1,-1,-1,-1,-1,-1],"split_conditions":[2E0,5E0,2E0,1E0,1E0,1E0,5E0,2.0170629E-2,-4.024143E-2,-1.3397633E-1,3.3326763E-1,-3.897922E-2,3.9208602E-2,9.2306934E-2,5.5318564E-1],"split_indices":[1,0,2,2,2,2,1,0,0,0,0,0,0,0,0],"split_type":[0,0,0,0,0,0,0,0,0,0,0,0,0,0,0],"sum_hessian":[1.5557E4,1.039E4,5.167E3,9.866E3,5.24E2,3.785E3,1.382E3,3.677E3,6.189E3,2.87E2,2.37E2,2.403E3,1.382E3,1.278E3,1.04E2],"tree_param":{"num_deleted":"0","num_feature":"3","num_nodes":"15","size_leaf_vector":"1"}},{"base_weights":[1.4935033E-3,-5.6696042E-2,6.041577E-1,-8.072087E-2,1.2408644E0,4.8770735E-1,5.307382E0,-1.9862587E-2,1.387845E-2,-1.1419821E-1,4.896414E-1,1.1354727E-2,2.0610674E-1,3.82209E-1,8.843485E-1],"categories":[],"categories_nodes":[],"categories_segments":[],"categories_sizes":[],"default_left":[0,0,0,0,0,0,0,0,0,0,0,0,0,0,0],"id":42,"left_children":[1,3,5,7,9,11,13,-1,-1,-1,-1,-1,-1,-1,-1],"loss_changes":[5.456339E2,4.424233E2,7.4774976E2,3.6059857E2,2.2529297E3,7.8743115E2,1.3952026E2,0E0,0E0,0E0,0E0,0E0,0E0,0E0,0E0],"parents":[2147483647,0,0,1,1,2,2,3,3,4,4,5,5,6,6],"right_children":[2,4,6,8,10,12,14,-1,-1,-1,-1,-1,-1,-1,-1],"split_conditions":[4E0,6E0,4E0,2E0,1E0,2E0,5E0,-1.9862587E-2,1.387845E-2,-1.1419821E-1,4.896414E-1,1.1354727E-2,2.0610674E-1,3.82209E-1,8.843485E-1],"split_indices":[2,0,1,1,2,0,1,0,0,0,0,0,0,0,0],"split_type":[0,0,0,0,0,0,0,0,0,0,0,0,0,0,0],"sum_hessian":[1.5557E4,1.4188E4,1.369E3,1.3931E4,2.57E2,1.337E3,3.2E1,9.063E3,4.868E3,1.56E2,1.01E2,1.081E3,2.56E2,2.4E1,8E0],"tree_param":{"num_deleted":"0","num_feature":"3","num_nodes":"15","size_leaf_vector":"1"}},{"base_weights":[1.4632968E-3,-2.1043232E-2,1.3796673E0,-1.484771E-1,2.3043795E-1,6.212143E-1,2.610604E0,-1.9594673E-2,6.878165E-2,-5.7790666E-3,1.0342969E-1,3.6154833E-2,6.096741E-1,2.2163832E-1,6.620708E-1],"categories":[],"categories_nodes":[],"categories_segments":[],"categories_sizes":[],"default_left":[0,0,0,0,0,0,0,0,0,0,0,0,0,0,0],"id":43,"left_children":[1,3,5,7,9,11,13,-1,-1,-1,-1,-1,-1,-1,-1],"loss_changes":[4.8261615E2,4.906451E2,2.3178018E2,4.0351163E2,1.193058E3,2.195978E2,1.355083E2,0E0,0E0,0E0,0E0,0E0,0E0,0E0,0E0],"parents":[2147483647,0,0,1,1,2,2,3,3,4,4,5,5,6,6],"right_children":[2,4,6,8,10,12,14,-1,-1,-1,-1,-1,-1,-1,-1],"split_conditions":[6E0,2E0,1E0,5E0,2E0,9E0,3E0,-1.9594673E-2,6.878165E-2,-5.7790666E-3,1.0342969E-1,3.6154833E-2,6.096741E-1,2.2163832E-1,6.620708E-1],"split_indices":[2,0,1,1,2,2,1,0,0,0,0,0,0,0,0],"split_type":[0,0,0,0,0,0,0,0,0,0,0,0,0,0,0],"sum_hessian":[1.5557E4,1.5308E4,2.49E2,1.016E4,5.148E3,1.55E2,9.4E1,9.615E3,5.45E2,3.79E3,1.358E3,1.49E2,6E0,8.7E1,7E0],"tree_param":{"num_deleted":"0","num_feature":"3","num_nodes":"15","size_leaf_vector":"1"}},{"base_weights":[1.4247161E-3,-1.992431E-1,1.4075354E-1,1.397957E-1,-4.0026206E-1,-5.5725193E-3,9.824552E-1,3.242672E-2,-8.666555E-2,-4.751801E-2,3.7554124E-1,-1.1791218E-2,5.6512076E-2,4.5166615E-2,3.2263643E-1],"categories":[],"categories_nodes":[],"categories_segments":[],"categories_sizes":[],"default_left":[0,0,0,0,0,0,0,0,0,0,0,0,0,0,0],"id":44,"left_children":[1,3,5,7,9,11,13,-1,-1,-1,-1,-1,-1,-1,-1],"loss_changes":[4.350112E2,4.3460095E2,1.1310101E3,4.410415E2,1.2480585E3,5.0167496E2,1.6183601E3,0E0,0E0,0E0,0E0,0E0,0E0,0E0,0E0],"parents":[2147483647,0,0,1,1,2,2,3,3,4,4,5,5,6,6],"right_children":[2,4,6,8,10,12,14,-1,-1,-1,-1,-1,-1,-1,-1],"split_conditions":[1E0,1E0,3E0,4E0,6E0,3E0,2E0,3.242672E-2,-8.666555E-2,-4.751801E-2,3.7554124E-1,-1.1791218E-2,5.6512076E-2,4.5166615E-2,3.2263643E-1],"split_indices":[1,2,2,0,0,0,0,0,0,0,0,0,0,0,0],"split_type":[0,0,0,0,0,0,0,0,0,0,0,0,0,0,0],"sum_hessian":[1.5557E4,6.375E3,9.182E3,2.373E3,4.002E3,7.823E3,1.359E3,2.006E3,3.67E2,3.932E3,7E1,6.537E3,1.286E3,1.1E3,2.59E2],"tree_param":{"num_deleted":"0","num_feature":"3","num_nodes":"15","size_leaf_vector":"1"}},{"base_weights":[1.3263611E-3,-1.1434876E-2,2.1235197E0,-6.142481E-2,5.046116E-1,1.9250698E0,1.0190452E0,-1.411272E-2,2.8048739E-2,-6.569212E-2,1.8349324E-1,1.636072E-1,4.4084868E-1],"categories":[],"categories_nodes":[],"categories_segments":[],"categories_sizes":[],"default_left":[0,0,0,0,0,0,0,0,0,0,0,0,0],"id":45,"left_children":[1,3,5,7,9,11,-1,-1,-1,-1,-1,-1,-1],"loss_changes":[4.213631E2,3.9900943E2,1.2926462E2,3.8430902E2,2.1119636E3,5.881601E1,0E0,0E0,0E0,0E0,0E0,0E0,0E0],"parents":[2147483647,0,0,1,1,2,2,3,3,4,4,5,5],"right_children":[2,4,6,8,10,12,-1,-1,-1,-1,-1,-1,-1],"split_conditions":[7E0,4E0,1E1,3E0,1E0,2E0,1.0190452E0,-1.411272E-2,2.8048739E-2,-6.569212E-2,1.8349324E-1,1.636072E-1,4.4084868E-1],"split_indices":[2,0,2,1,2,1,0,0,0,0,0,0,0],"split_type":[0,0,0,0,0,0,0,0,0,0,0,0,0],"sum_hessian":[1.5557E4,1.5465E4,9.2E1,1.41E4,1.365E3,9.1E1,1E0,1.1435E4,2.665E3,7.29E2,6.36E2,8.3E1,8E0],"tree_param":{"num_deleted":"0","num_feature":"3","num_nodes":"13","size_leaf_vector":"1"}},{"base_weights":[1.3065359E-3,-3.1209353E-2,7.743853E-1,-6.2462177E-2,6.89065E-1,5.974218E-1,4.0516605E0,-1.3248438E-2,2.3788527E-2,-8.735896E-2,2.764171E-1,4.0803943E-2,4.1631475E-1,3.0808485E-1,7.7450377E-1],"categories":[],"categories_nodes":[],"categories_segments":[],"categories_sizes":[],"default_left":[0,0,0,0,0,0,0,0,0,0,0,0,0,0,0],"id":46,"left_children":[1,3,5,7,9,11,13,-1,-1,-1,-1,-1,-1,-1,-1],"loss_changes":[3.9111096E2,3.3614893E2,3.617931E2,3.01006E2,2.0161152E3,4.0144672E2,9.087714E1,0E0,0E0,0E0,0E0,0E0,0E0,0E0,0E0],"parents":[2147483647,0,0,1,1,2,2,3,3,4,4,5,5,6,6],"right_children":[2,4,6,8,10,12,14,-1,-1,-1,-1,-1,-1,-1,-1],"split_conditions":[5E0,5E0,3E0,3E0,1E0,3E0,4E0,-1.3248438E-2,2.3788527E-2,-8.735896E-2,2.764171E-1,4.0803943E-2,4.1631475E-1,3.0808485E-1,7.7450377E-1],"split_indices":[2,0,1,1,2,0,1,0,0,0,0,0,0,0,0],"split_type":[0,0,0,0,0,0,0,0,0,0,0,0,0,0,0],"sum_hessian":[1.5557E4,1.493E4,6.27E2,1.431E4,6.2E2,5.96E2,3.1E1,1.1605E4,2.705E3,3.54E2,2.66E2,5.67E2,2.9E1,2.6E1,5E0],"tree_param":{"num_deleted":"0","num_feature":"3","num_nodes":"15","size_leaf_vector":"1"}},{"base_weights":[1.2876734E-3,-1.0017553E-2,1.8813452E0,-1.8768536E-1,1.1254385E-1,1.6917831E0,9.66053E-1,1.6729772E-2,-4.0147427E-2,-8.0577703E-4,8.2192324E-2,1.1445127E-1,2.7317503E-1],"categories":[],"categories_nodes":[],"categories_segments":[],"categories_sizes":[],"default_left":[0,0,0,0,0,0,0,0,0,0,0,0,0],"id":47,"left_children":[1,3,5,7,9,11,-1,-1,-1,-1,-1,-1,-1],"loss_changes":[3.3069598E2,3.367966E2,1.2079791E2,4.7924573E2,7.830667E2,4.923465E1,0E0,0E0,0E0,0E0,0E0,0E0,0E0],"parents":[2147483647,0,0,1,1,2,2,3,3,4,4,5,5],"right_children":[2,4,6,8,10,12,-1,-1,-1,-1,-1,-1,-1],"split_conditions":[7E0,1E0,1E1,1E0,3E0,1E0,9.66053E-1,1.6729772E-2,-4.0147427E-2,-8.0577703E-4,8.2192324E-2,1.1445127E-1,2.7317503E-1],"split_indices":[2,1,2,2,2,1,0,0,0,0,0,0,0],"split_type":[0,0,0,0,0,0,0,0,0,0,0,0,0],"sum_hessian":[1.5557E4,1.5465E4,9.2E1,6.313E3,9.152E3,9.1E1,1E0,2.373E3,3.94E3,7.823E3,1.329E3,6.1E1,3E1],"tree_param":{"num_deleted":"0","num_feature":"3","num_nodes":"13","size_leaf_vector":"1"}},{"base_weights":[1.2496935E-3,-1.6107645E-2,1.0641387E0,-1.1631941E-1,1.8165268E-1,9.136549E-1,5.5020636E-1,-1.4347682E-2,1.0021241E-1,-5.6078727E-3,8.44683E-2,6.242898E-2,3.205454E-1],"categories":[],"categories_nodes":[],"categories_segments":[],"categories_sizes":[],"default_left":[0,0,0,0,0,0,0,0,0,0,0,0,0],"id":48,"left_children":[1,3,5,7,9,11,-1,-1,-1,-1,-1,-1,-1],"loss_changes":[2.870455E2,3.0341354E2,1.6193182E2,3.0877417E2,8.116488E2,1.5914842E2,0E0,0E0,0E0,0E0,0E0,0E0,0E0],"parents":[2147483647,0,0,1,1,2,2,3,3,4,4,5,5],"right_children":[2,4,6,8,10,12,-1,-1,-1,-1,-1,-1,-1],"split_conditions":[6E0,2E0,3E0,6E0,2E0,8E0,5.5020636E-1,-1.4347682E-2,1.0021241E-1,-5.6078727E-3,8.44683E-2,6.242898E-2,3.205454E-1],"split_indices":[2,0,1,1,2,2,0,0,0,0,0,0,0],"split_type":[0,0,0,0,0,0,0,0,0,0,0,0,0],"sum_hessian":[1.5557E4,1.5308E4,2.49E2,1.016E4,5.148E3,2.42E2,7E0,9.92E3,2.4E2,3.79E3,1.358E3,2.16E2,2.6E1],"tree_param":{"num_deleted":"0","num_feature":"3","num_nodes":"13","size_leaf_vector":"1"}},{"base_weights":[1.1953029E-3,-1.5607776E-1,1.1039402E-1,1.6115785E-1,-3.44177E-1,-7.162518E-2,5.3182393E-1,2.6977364E-2,-1.0273303E-1,-4.0353786E-2,2.948928E-1,-9.91196E-3,1.818797E-1,9.683873E-3,1.9705746E-1],"categories":[],"categories_nodes":[],"categories_segments":[],"categories_sizes":[],"default_left":[0,0,0,0,0,0,0,0,0,0,0,0,0,0,0],"id":49,"left_children":[1,3,5,7,9,11,13,-1,-1,-1,-1,-1,-1,-1,-1],"loss_changes":[2.672106E2,3.8052277E2,7.0445074E2,3.0673343E2,7.837025E2,3.3355475E2,1.7333728E3,0E0,0E0,0E0,0E0,0E0,0E0,0E0,0E0],"parents":[2147483647,0,0,1,1,2,2,3,3,4,4,5,5,6,6],"right_children":[2,4,6,8,10,12,14,-1,-1,-1,-1,-1,-1,-1,-1],"split_conditions":[1E0,1E0,2E0,5E0,6E0,6E0,2E0,2.6977364E-2,-1.0273303E-1,-4.0353786E-2,2.948928E-1,-9.91196E-3,1.818797E-1,9.683873E-3,1.9705746E-1],"split_indices":[1,2,0,0,0,2,2,0,0,0,0,0,0,0,0],"split_type":[0,0,0,0,0,0,0,0,0,0,0,0,0,0,0],"sum_hessian":[1.5557E4,6.375E3,9.182E3,2.373E3,4.002E3,6.413E3,2.769E3,2.175E3,1.98E2,3.932E3,7E1,6.322E3,9.1E1,2.127E3,6.42E2],"tree_param":{"num_deleted":"0","num_feature":"3","num_nodes":"15","size_leaf_vector":"1"}},{"base_weights":[1.1115997E-3,-2.5150724E-2,6.317856E-1,-5.1976547E-2,5.871771E-1,-5.602205E-2,4.5947647E0,-1.1199515E-2,2.0546168E-2,4.3284696E-2,3.4432265E-1,-7.3681794E-2,1.3097326E-1,3.6291125E-1,7.037548E-1],"categories":[],"categories_nodes":[],"categories_segments":[],"categories_sizes":[],"default_left":[0,0,0,0,0,0,0,0,0,0,0,0,0,0,0],"id":50,"left_children":[1,3,5,7,9,11,13,-1,-1,-1,-1,-1,-1,-1,-1],"loss_changes":[2.5770245E2,2.4538866E2,1.6956846E3,2.2114346E2,2.7487512E2,4.9468893E2,1.914768E2,0E0,0E0,0E0,0E0,0E0,0E0,0E0,0E0],"parents":[2147483647,0,0,1,1,2,2,3,3,4,4,5,5,6,6],"right_children":[2,4,6,8,10,12,14,-1,-1,-1,-1,-1,-1,-1,-1],"split_conditions":[5E0,5E0,2E0,3E0,3E0,1E0,3E0,-1.1199515E-2,2.0546168E-2,4.3284696E-2,3.4432265E-1,-7.3681794E-2,1.3097326E-1,3.6291125E-1,7.037548E-1],"split_indices":[0,2,2,1,1,2,2,0,0,0,0,0,0,0,0],"split_type":[0,0,0,0,0,0,0,0,0,0,0,0,0,0,0],"sum_hessian":[1.5557E4,1.4936E4,6.21E2,1.431E4,6.26E2,5.3E2,9.1E1,1.1605E4,2.705E3,5.95E2,3.1E1,3.54E2,1.76E2,6.7E1,2.4E1],"tree_param":{"num_deleted":"0","num_feature":"3","num_nodes":"15","size_leaf_vector":"1"}},{"base_weights":[1.0982056E-3,-3.5926253E-2,3.8455728E-1,-5.2255463E-2,8.459904E-1,2.93413E-1,4.907274E0,-6.760105E-3,7.333813E-2,1.4319646E-2,6.182451E-1,1.8961743E-2,4.411183E-1,3.634859E-1,8.0234784E-1],"categories":[],"categories_nodes":[],"categories_segments":[],"categories_sizes":[],"default_left":[0,0,0,0,0,0,0,0,0,0,0,0,0,0,0],"id":51,"left_children":[1,3,5,7,9,11,13,-1,-1,-1,-1,-1,-1,-1,-1],"loss_changes":[2.2089641E2,2.0438005E2,5.6330115E2,1.6801453E2,9.667263E2,5.735977E2,7.7893616E1,0E0,0E0,0E0,0E0,0E0,0E0,0E0,0E0],"parents":[2147483647,0,0,1,1,2,2,3,3,4,4,5,5,6,6],"right_children":[2,4,6,8,10,12,14,-1,-1,-1,-1,-1,-1,-1,-1],"split_conditions":[4E0,6E0,4E0,6E0,2E0,4E0,1E0,-6.760105E-3,7.333813E-2,1.4319646E-2,6.182451E-1,1.8961743E-2,4.411183E-1,3.634859E-1,8.0234784E-1],"split_indices":[2,0,0,1,2,1,1,0,0,0,0,0,0,0,0],"split_type":[0,0,0,0,0,0,0,0,0,0,0,0,0,0,0],"sum_hessian":[1.5557E4,1.4188E4,1.369E3,1.3931E4,2.57E2,1.343E3,2.6E1,1.3665E4,2.66E2,2.28E2,2.9E1,1.311E3,3.2E1,2E1,6E0],"tree_param":{"num_deleted":"0","num_feature":"3","num_nodes":"15","size_leaf_vector":"1"}},{"base_weights":[1.1378228E-3,-3.759077E-3,2.8180826E0,-1.4595951E-1,9.475574E-2,2.233679E0,9.006287E-1,1.6727662E-2,-3.3257514E-2,-7.1314834E-3,4.788422E-2,1.8254958E-1,2.923905E-1],"categories":[],"categories_nodes":[],"categories_segments":[],"categories_sizes":[],"default_left":[0,0,0,0,0,0,0,0,0,0,0,0,0],"id":52,"left_children":[1,3,5,7,9,11,-1,-1,-1,-1,-1,-1,-1],"loss_changes":[2.1462227E2,2.1759929E2,7.752586E1,3.7165253E2,5.8532947E2,1.9876404E0,0E0,0E0,0E0,0E0,0E0,0E0,0E0],"parents":[2147483647,0,0,1,1,2,2,3,3,4,4,5,5],"right_children":[2,4,6,8,10,12,-1,-1,-1,-1,-1,-1,-1],"split_conditions":[8E0,1E0,1E1,1E0,2E0,1E0,9.006287E-1,1.6727662E-2,-3.3257514E-2,-7.1314834E-3,4.788422E-2,1.8254958E-1,2.923905E-1],"split_indices":[2,1,2,2,0,1,0,0,0,0,0,0,0],"split_type":[0,0,0,0,0,0,0,0,0,0,0,0,0],"sum_hessian":[1.5557E4,1.5531E4,2.6E1,6.356E3,9.175E3,2.5E1,1E0,2.373E3,3.983E3,6.406E3,2.769E3,1.8E1,7E0],"tree_param":{"num_deleted":"0","num_feature":"3","num_nodes":"13","size_leaf_vector":"1"}},{"base_weights":[1.1140478E-3,-3.3483483E-2,3.5943758E-1,-4.799664E-2,7.503568E-1,2.7651712E-1,4.473721E0,-6.186196E-3,6.618592E-2,-7.455001E-2,3.0454466E-1,1.8293647E-2,3.9886785E-1,3.3203575E-1,7.294709E-1],"categories":[],"categories_nodes":[],"categories_segments":[],"categories_sizes":[],"default_left":[0,0,0,0,0,0,0,0,0,0,0,0,0,0,0],"id":53,"left_children":[1,3,5,7,9,11,13,-1,-1,-1,-1,-1,-1,-1,-1],"loss_changes":[1.9288629E2,1.6145001E2,4.6614978E2,1.37165E2,8.8801685E2,4.6615787E2,6.3626892E1,0E0,0E0,0E0,0E0,0E0,0E0,0E0,0E0],"parents":[2147483647,0,0,1,1,2,2,3,3,4,4,5,5,6,6],"right_children":[2,4,6,8,10,12,14,-1,-1,-1,-1,-1,-1,-1,-1],"split_conditions":[4E0,6E0,4E0,6E0,1E0,4E0,1E0,-6.186196E-3,6.618592E-2,-7.455001E-2,3.0454466E-1,1.8293647E-2,3.9886785E-1,3.3203575E-1,7.294709E-1],"split_indices":[2,0,0,1,2,1,1,0,0,0,0,0,0,0,0],"split_type":[0,0,0,0,0,0,0,0,0,0,0,0,0,0,0],"sum_hessian":[1.5557E4,1.4188E4,1.369E3,1.3931E4,2.57E2,1.343E3,2.6E1,1.3665E4,2.66E2,1.56E2,1.01E2,1.311E3,3.2E1,2E1,6E0],"tree_param":{"num_deleted":"0","num_feature":"3","num_nodes":"15","size_leaf_vector":"1"}},{"base_weights":[1.1163271E-3,-7.319775E-3,1.4040372E0,-8.588211E-2,1.4960839E-1,1.2334979E0,8.5468256E-1,1.5434163E-2,-2.3603207E-2,-3.720208E-2,6.043951E-2,9.9999495E-2,3.275804E-1],"categories":[],"categories_nodes":[],"categories_segments":[],"categories_sizes":[],"default_left":[0,0,0,0,0,0,0,0,0,0,0,0,0],"id":54,"left_children":[1,3,5,7,9,11,-1,-1,-1,-1,-1,-1,-1],"loss_changes":[1.8414207E2,1.9068764E2,1.0274324E2,3.7180563E2,1.2243315E3,4.059758E1,0E0,0E0,0E0,0E0,0E0,0E0,0E0],"parents":[2147483647,0,0,1,1,2,2,3,3,4,4,5,5],"right_children":[2,4,6,8,10,12,-1,-1,-1,-1,-1,-1,-1],"split_conditions":[7E0,2E0,1E1,1E0,1E0,2E0,8.5468256E-1,1.5434163E-2,-2.3603207E-2,-3.720208E-2,6.043951E-2,9.9999495E-2,3.275804E-1],"split_indices":[2,1,2,2,2,1,0,0,0,0,0,0,0],"split_type":[0,0,0,0,0,0,0,0,0,0,0,0,0],"sum_hessian":[1.5557E4,1.5465E4,9.2E1,1.0306E4,5.159E3,9.1E1,1E0,3.964E3,6.342E3,2.403E3,2.756E3,8.3E1,8E0],"tree_param":{"num_deleted":"0","num_feature":"3","num_nodes":"13","size_leaf_vector":"1"}},{"base_weights":[1.0881184E-3,-3.084053E-2,3.3283204E-1,-4.540008E-2,7.813562E-1,-5.03347E-1,1.2905681E0,-6.83249E-3,4.3439854E-2,7.192775E-2,8.119484E-1,-6.1867684E-2,-1.0777635E-2,3.4360293E-2,2.5682274E-1],"categories":[],"categories_nodes":[],"categories_segments":[],"categories_sizes":[],"default_left":[0,0,0,0,0,0,0,0,0,0,0,0,0,0,0],"id":55,"left_children":[1,3,5,7,9,11,13,-1,-1,-1,-1,-1,-1,-1,-1],"loss_changes":[1.648027E2,1.678708E2,1.0945952E3,1.534039E2,1.0804529E2,3.323671E1,7.69823E2,0E0,0E0,0E0,0E0,0E0,0E0,0E0,0E0],"parents":[2147483647,0,0,1,1,2,2,3,3,4,4,5,5,6,6],"right_children":[2,4,6,8,10,12,14,-1,-1,-1,-1,-1,-1,-1,-1],"split_conditions":[4E0,6E0,1E0,5E0,1E1,2E0,1E0,-6.83249E-3,4.3439854E-2,7.192775E-2,8.119484E-1,-6.1867684E-2,-1.0777635E-2,3.4360293E-2,2.5682274E-1],"split_indices":[0,2,2,1,2,1,1,0,0,0,0,0,0,0,0],"split_type":[0,0,0,0,0,0,0,0,0,0,0,0,0,0,0],"sum_hessian":[1.5557E4,1.4192E4,1.365E3,1.3943E4,2.49E2,7.29E2,6.36E2,1.3308E4,6.35E2,2.48E2,1E0,5.64E2,1.65E2,3.66E2,2.7E2],"tree_param":{"num_deleted":"0","num_feature":"3","num_nodes":"15","size_leaf_vector":"1"}},{"base_weights":[1.0525074E-3,-4.4904426E-2,2.168243E-1,-5.169724E-2,8.757828E-1,1.4154622E-1,6.3693695E0,-5.646122E-3,5.4473646E-2,-6.557834E-2,3.726732E-1,8.774527E-3,5.894738E-1,4.9581766E-1,1.0159576E0],"categories":[],"categories_nodes":[],"categories_segments":[],"categories_sizes":[],"default_left":[0,0,0,0,0,0,0,0,0,0,0,0,0,0,0],"id":56,"left_children":[1,3,5,7,9,11,13,-1,-1,-1,-1,-1,-1,-1,-1],"loss_changes":[1.5428613E2,8.026607E1,1.2644292E3,3.6213108E1,4.1288715E2,8.352061E2,1.2613452E2,0E0,0E0,0E0,0E0,0E0,0E0,0E0,0E0],"parents":[2147483647,0,0,1,1,2,2,3,3,4,4,5,5,6,6],"right_children":[2,4,6,8,10,12,14,-1,-1,-1,-1,-1,-1,-1,-1],"split_conditions":[3E0,7E0,5E0,7E0,1E0,5E0,6E0,-5.646122E-3,5.4473646E-2,-6.557834E-2,3.726732E-1,8.774527E-3,5.894738E-1,4.9581766E-1,1.0159576E0],"split_indices":[2,0,1,1,2,0,1,0,0,0,0,0,0,0,0],"split_type":[0,0,0,0,0,0,0,0,0,0,0,0,0,0,0],"sum_hessian":[1.5557E4,1.2826E4,2.731E3,1.2733E4,9.3E1,2.699E3,3.2E1,1.2633E4,1E2,6.1E1,3.2E1,2.675E3,2.4E1,2.5E1,7E0],"tree_param":{"num_deleted":"0","num_feature":"3","num_nodes":"15","size_leaf_vector":"1"}},{"base_weights":[1.1057833E-3,-2.945859E-3,2.3318095E0,-7.050827E-2,1.3259797E-1,1.8284853E0,7.709122E-1,1.6004661E-2,-2.1328859E-2,-3.312402E-2,5.3597506E-2,1.4573888E-1,2.6275483E-1],"categories":[],"categories_nodes":[],"categories_segments":[],"categories_sizes":[],"default_left":[0,0,0,0,0,0,0,0,0,0,0,0,0],"id":57,"left_children":[1,3,5,7,9,11,-1,-1,-1,-1,-1,-1,-1],"loss_changes":[1.4692383E2,1.4224626E2,5.8980347E1,3.4126938E2,9.6693195E2,3.8804016E0,0E0,0E0,0E0,0E0,0E0,0E0,0E0],"parents":[2147483647,0,0,1,1,2,2,3,3,4,4,5,5],"right_children":[2,4,6,8,10,12,-1,-1,-1,-1,-1,-1,-1],"split_conditions":[8E0,2E0,1E1,1E0,1E0,9E0,7.709122E-1,1.6004661E-2,-2.1328859E-2,-3.312402E-2,5.3597506E-2,1.4573888E-1,2.6275483E-1],"split_indices":[2,1,2,2,2,2,0,0,0,0,0,0,0],"split_type":[0,0,0,0,0,0,0,0,0,0,0,0,0],"sum_hessian":[1.5557E4,1.5531E4,2.6E1,1.0365E4,5.166E3,2.5E1,1E0,3.964E3,6.401E3,2.403E3,2.763E3,1.9E1,6E0],"tree_param":{"num_deleted":"0","num_feature":"3","num_nodes":"13","size_leaf_vector":"1"}},{"base_weights":[1.0719595E-3,-1.8184336E-2,4.588979E-1,-3.7432164E-2,4.254128E-1,3.1036696E-1,3.4092686E0,-7.7603976E-3,1.34878075E-2,-1.0164389E-2,3.4962007E-1,1.6963786E-2,2.7986097E-1,2.4326412E-1,5.790914E-1],"categories":[],"categories_nodes":[],"categories_segments":[],"categories_sizes":[],"default_left":[0,0,0,0,0,0,0,0,0,0,0,0,0,0,0],"id":58,"left_children":[1,3,5,7,9,11,13,-1,-1,-1,-1,-1,-1,-1,-1],"loss_changes":[1.3716817E2,1.27501E2,2.7414484E2,9.907142E1,1.005431E3,2.09276E2,5.569223E1,0E0,0E0,0E0,0E0,0E0,0E0,0E0,0E0],"parents":[2147483647,0,0,1,1,2,2,3,3,4,4,5,5,6,6],"right_children":[2,4,6,8,10,12,14,-1,-1,-1,-1,-1,-1,-1,-1],"split_conditions":[5E0,5E0,3E0,3E0,2E0,3E0,1E0,-7.7603976E-3,1.34878075E-2,-1.0164389E-2,3.4962007E-1,1.6963786E-2,2.7986097E-1,2.4326412E-1,5.790914E-1],"split_indices":[2,0,0,1,2,1,1,0,0,0,0,0,0,0,0],"split_type":[0,0,0,0,0,0,0,0,0,0,0,0,0,0,0],"sum_hessian":[1.5557E4,1.493E4,6.27E2,1.431E4,6.2E2,5.98E2,2.9E1,1.1605E4,2.705E3,5.3E2,9E1,5.67E2,3.1E1,2.2E1,7E0],"tree_param":{"num_deleted":"0","num_feature":"3","num_nodes":"15","size_leaf_vector":"1"}},{"base_weights":[1.0588716E-3,-9.562719E-4,3.9181137E0,-1.0547587E-1,7.155416E-2,2.3877911E-1,7.3151857E-1,1.5824698E-2,-2.6208648E-2,-7.6062875E-3,4.1328575E-2],"categories":[],"categories_nodes":[],"categories_segments":[],"categories_sizes":[],"default_left":[0,0,0,0,0,0,0,0,0,0,0],"id":59,"left_children":[1,3,5,7,9,-1,-1,-1,-1,-1,-1],"loss_changes":[1.228097E2,1.1786487E2,2.4121788E1,2.631339E2,4.6322116E2,0E0,0E0,0E0,0E0,0E0,0E0],"parents":[2147483647,0,0,1,1,2,2,3,3,4,4],"right_children":[2,4,6,8,10,-1,-1,-1,-1,-1,-1],"split_conditions":[9E0,1E0,1E1,1E0,2E0,2.3877911E-1,7.3151857E-1,1.5824698E-2,-2.6208648E-2,-7.6062875E-3,4.1328575E-2],"split_indices":[2,1,2,2,0,0,0,0,0,0,0],"split_type":[0,0,0,0,0,0,0,0,0,0,0],"sum_hessian":[1.5557E4,1.555E4,7E0,6.369E3,9.181E3,6E0,1E0,2.373E3,3.996E3,6.412E3,2.769E3],"tree_param":{"num_deleted":"0","num_feature":"3","num_nodes":"11","size_leaf_vector":"1"}},{"base_weights":[1.016901E-3,-4.1420043E-2,2.0026201E-1,-4.737552E-2,7.6579785E-1,1.3281609E-1,5.712496E0,-5.1656715E-3,4.886245E-2,-6.152283E-2,3.337247E-1,4.1475873E-3,2.6646367E-1,4.413993E-1,9.218569E-1],"categories":[],"categories_nodes":[],"categories_segments":[],"categories_sizes":[],"default_left":[0,0,0,0,0,0,0,0,0,0,0,0,0,0,0],"id":60,"left_children":[1,3,5,7,9,11,13,-1,-1,-1,-1,-1,-1,-1,-1],"loss_changes":[1.3155669E2,6.17004E1,1.01493787E3,2.924622E1,3.3586963E2,6.242835E2,1.0954663E2,0E0,0E0,0E0,0E0,0E0,0E0,0E0,0E0],"parents":[2147483647,0,0,1,1,2,2,3,3,4,4,5,5,6,6],"right_children":[2,4,6,8,10,12,14,-1,-1,-1,-1,-1,-1,-1,-1],"split_conditions":[3E0,7E0,5E0,7E0,1E0,4E0,6E0,-5.1656715E-3,4.886245E-2,-6.152283E-2,3.337247E-1,4.1475873E-3,2.6646367E-1,4.413993E-1,9.218569E-1],"split_indices":[2,0,1,1,2,0,1,0,0,0,0,0,0,0,0],"split_type":[0,0,0,0,0,0,0,0,0,0,0,0,0,0,0],"sum_hessian":[1.5557E4,1.2826E4,2.731E3,1.2733E4,9.3E1,2.699E3,3.2E1,1.2633E4,1E2,6.1E1,3.2E1,2.606E3,9.3E1,2.5E1,7E0],"tree_param":{"num_deleted":"0","num_feature":"3","num_nodes":"15","size_leaf_vector":"1"}},{"base_weights":[1.0404967E-3,-2.6114078E-2,2.8227788E-1,-3.6863346E-2,5.544476E-1,1.5150352E-1,2.1404967E0,-4.675088E-3,4.6935346E-2,2.2954762E-3,4.593028E-1,7.1659214E-3,3.1688985E-1,1.1183667E-1,4.484046E-1],"categories":[],"categories_nodes":[],"categories_segments":[],"categories_sizes":[],"default_left":[0,0,0,0,0,0,0,0,0,0,0,0,0,0,0],"id":61,"left_children":[1,3,5,7,9,11,13,-1,-1,-1,-1,-1,-1,-1,-1],"loss_changes":[1.18821976E2,8.85685E1,3.325959E2,6.9754875E1,5.5368555E2,3.0839374E2,2.1057224E2,0E0,0E0,0E0,0E0,0E0,0E0,0E0,0E0],"parents":[2147483647,0,0,1,1,2,2,3,3,4,4,5,5,6,6],"right_children":[2,4,6,8,10,12,14,-1,-1,-1,-1,-1,-1,-1,-1],"split_conditions":[4E0,6E0,3E0,6E0,2E0,4E0,1E0,-4.675088E-3,4.6935346E-2,2.2954762E-3,4.593028E-1,7.1659214E-3,3.1688985E-1,1.1183667E-1,4.484046E-1],"split_indices":[2,0,0,1,2,1,1,0,0,0,0,0,0,0,0],"split_type":[0,0,0,0,0,0,0,0,0,0,0,0,0,0,0],"sum_hessian":[1.5557E4,1.4188E4,1.369E3,1.3931E4,2.57E2,1.28E3,8.9E1,1.3665E4,2.66E2,2.28E2,2.9E1,1.248E3,3.2E1,6.3E1,2.6E1],"tree_param":{"num_deleted":"0","num_feature":"3","num_nodes":"15","size_leaf_vector":"1"}},{"base_weights":[1.0256277E-3,-5.61065E-3,1.1046348E0,-9.9199675E-2,5.9784077E-2,9.6569014E-1,6.9437677E-1,6.3940496E-3,-1.9744499E-2,-1.4200787E-2,2.1360617E-2,7.568653E-2,2.8074238E-1],"categories":[],"categories_nodes":[],"categories_segments":[],"categories_sizes":[],"default_left":[0,0,0,0,0,0,0,0,0,0,0,0,0],"id":62,"left_children":[1,3,5,7,9,11,-1,-1,-1,-1,-1,-1,-1],"loss_changes":[1.1395075E2,9.466138E1,6.874686E1,1.019812E2,2.8265005E2,3.325833E1,0E0,0E0,0E0,0E0,0E0,0E0,0E0],"parents":[2147483647,0,0,1,1,2,2,3,3,4,4,5,5],"right_children":[2,4,6,8,10,12,-1,-1,-1,-1,-1,-1,-1],"split_conditions":[7E0,1E0,1E1,1E0,1E0,2E0,6.9437677E-1,6.3940496E-3,-1.9744499E-2,-1.4200787E-2,2.1360617E-2,7.568653E-2,2.8074238E-1],"split_indices":[2,0,2,2,1,1,0,0,0,0,0,0,0],"split_type":[0,0,0,0,0,0,0,0,0,0,0,0,0],"sum_hessian":[1.5557E4,1.5465E4,9.2E1,6.361E3,9.104E3,9.1E1,1E0,2.391E3,3.97E3,3.938E3,5.166E3,8.3E1,8E0],"tree_param":{"num_deleted":"0","num_feature":"3","num_nodes":"13","size_leaf_vector":"1"}},{"base_weights":[9.902308E-4,-2.3906562E-3,1.94584E0,-3.565155E-2,1.5527375E-1,1.5132508E0,6.596581E-1,-4.0819985E-3,6.648858E-2,9.405152E-3,5.1114243E-1,1.1517731E-1,2.1826039E-1],"categories":[],"categories_nodes":[],"categories_segments":[],"categories_sizes":[],"default_left":[0,0,0,0,0,0,0,0,0,0,0,0,0],"id":63,"left_children":[1,3,5,7,9,11,-1,-1,-1,-1,-1,-1,-1],"loss_changes":[1.0230344E2,8.145626E1,4.4337944E1,4.6469627E1,8.205917E2,3.7769966E0,0E0,0E0,0E0,0E0,0E0,0E0,0E0],"parents":[2147483647,0,0,1,1,2,2,3,3,4,4,5,5],"right_children":[2,4,6,8,10,12,-1,-1,-1,-1,-1,-1,-1],"split_conditions":[8E0,3E0,1E1,7E0,5E0,1E0,6.596581E-1,-4.0819985E-3,6.648858E-2,9.405152E-3,5.1114243E-1,1.1517731E-1,2.1826039E-1],"split_indices":[2,2,2,0,1,1,0,0,0,0,0,0,0],"split_type":[0,0,0,0,0,0,0,0,0,0,0,0,0],"sum_hessian":[1.5557E4,1.5531E4,2.6E1,1.2826E4,2.705E3,2.5E1,1E0,1.2733E4,9.3E1,2.673E3,3.2E1,1.8E1,7E0],"tree_param":{"num_deleted":"0","num_feature":"3","num_nodes":"13","size_leaf_vector":"1"}},{"base_weights":[9.92499E-4,-1.4937753E-2,3.7974027E-1,-2.960895E-2,3.2318535E-1,2.551088E-1,2.8555572E0,-3.8758793E-3,4.499806E-2,-6.1413165E-2,1.5682204E-1,-2.4250902E-2,8.7897815E-2,2.0577347E-1,4.7923526E-1],"categories":[],"categories_nodes":[],"categories_segments":[],"categories_sizes":[],"default_left":[0,0,0,0,0,0,0,0,0,0,0,0,0,0,0],"id":64,"left_children":[1,3,5,7,9,11,13,-1,-1,-1,-1,-1,-1,-1,-1],"loss_changes":[9.3875595E1,7.4077354E1,1.9305017E2,6.281653E1,7.2566547E2,1.8617181E2,3.6495193E1,0E0,0E0,0E0,0E0,0E0,0E0,0E0,0E0],"parents":[2147483647,0,0,1,1,2,2,3,3,4,4,5,5,6,6],"right_children":[2,4,6,8,10,12,14,-1,-1,-1,-1,-1,-1,-1,-1],"split_conditions":[5E0,5E0,3E0,6E0,1E0,1E0,1E0,-3.8758793E-3,4.499806E-2,-6.1413165E-2,1.5682204E-1,-2.4250902E-2,8.7897815E-2,2.0577347E-1,4.7923526E-1],"split_indices":[2,0,0,1,2,1,1,0,0,0,0,0,0,0,0],"split_type":[0,0,0,0,0,0,0,0,0,0,0,0,0,0,0],"sum_hessian":[1.5557E4,1.493E4,6.27E2,1.431E4,6.2E2,5.98E2,2.9E1,1.4043E4,2.67E2,3.54E2,2.66E2,3.33E2,2.65E2,2.2E1,7E0],"tree_param":{"num_deleted":"0","num_feature":"3","num_nodes":"15","size_leaf_vector":"1"}},{"base_weights":[9.500922E-4,-7.572061E-4,3.3196058E0,-4.971035E-2,9.76039E-2,1.9998704E-1,6.278877E-1,1.5716419E-2,-1.7746858E-2,-3.1414688E-2,4.5556094E-2],"categories":[],"categories_nodes":[],"categories_segments":[],"categories_sizes":[],"default_left":[0,0,0,0,0,0,0,0,0,0,0],"id":65,"left_children":[1,3,5,7,9,-1,-1,-1,-1,-1,-1],"loss_changes":[8.815314E1,7.488424E1,1.8686707E1,2.7447623E2,7.6185E2,0E0,0E0,0E0,0E0,0E0,0E0],"parents":[2147483647,0,0,1,1,2,2,3,3,4,4],"right_children":[2,4,6,8,10,-1,-1,-1,-1,-1,-1],"split_conditions":[9E0,2E0,1E1,1E0,1E0,1.9998704E-1,6.278877E-1,1.5716419E-2,-1.7746858E-2,-3.1414688E-2,4.5556094E-2],"split_indices":[2,1,2,2,2,0,0,0,0,0,0],"split_type":[0,0,0,0,0,0,0,0,0,0,0],"sum_hessian":[1.5557E4,1.555E4,7E0,1.0383E4,5.167E3,6E0,1E0,3.964E3,6.419E3,2.403E3,2.764E3],"tree_param":{"num_deleted":"0","num_feature":"3","num_nodes":"11","size_leaf_vector":"1"}},{"base_weights":[9.090457E-4,-8.530692E-3,5.789572E-1,-9.348174E-2,5.0327316E-2,4.707806E-1,3.792452E-1,6.7863637E-3,-1.9305456E-2,-1.2621157E-2,1.841371E-2,4.2342898E-2,5.9649354E-1],"categories":[],"categories_nodes":[],"categories_segments":[],"categories_sizes":[],"default_left":[0,0,0,0,0,0,0,0,0,0,0,0,0],"id":66,"left_children":[1,3,5,7,9,11,-1,-1,-1,-1,-1,-1,-1],"loss_changes":[8.489908E1,7.655047E1,8.512083E1,1.0068024E2,2.1366628E2,6.069244E1,0E0,0E0,0E0,0E0,0E0,0E0,0E0],"parents":[2147483647,0,0,1,1,2,2,3,3,4,4,5,5],"right_children":[2,4,6,8,10,12,-1,-1,-1,-1,-1,-1,-1],"split_conditions":[6E0,1E0,3E0,1E0,1E0,1E1,3.792452E-1,6.7863637E-3,-1.9305456E-2,-1.2621157E-2,1.841371E-2,4.2342898E-2,5.9649354E-1],"split_indices":[2,0,1,2,1,2,0,0,0,0,0,0,0],"split_type":[0,0,0,0,0,0,0,0,0,0,0,0,0],"sum_hessian":[1.5557E4,1.5308E4,2.49E2,6.265E3,9.043E3,2.42E2,7E0,2.391E3,3.874E3,3.899E3,5.144E3,2.41E2,1E0],"tree_param":{"num_deleted":"0","num_feature":"3","num_nodes":"13","size_leaf_vector":"1"}},{"base_weights":[8.831387E-4,-3.182386E-2,1.5444529E-1,-3.6394212E-2,5.8765167E-1,-6.656878E-3,1.6479964E0,-3.950408E-3,3.5297673E-2,-5.6579668E-2,2.7369288E-1,-5.250607E-3,4.4739923E-1,1.22830264E-1,4.5740682E-1],"categories":[],"categories_nodes":[],"categories_segments":[],"categories_sizes":[],"default_left":[0,0,0,0,0,0,0,0,0,0,0,0,0,0,0],"id":67,"left_children":[1,3,5,7,9,11,13,-1,-1,-1,-1,-1,-1,-1,-1],"loss_changes":[7.814586E1,3.6337467E1,6.5736926E2,1.5433445E1,2.3458208E2,5.0704095E2,3.2104413E2,0E0,0E0,0E0,0E0,0E0,0E0,0E0,0E0],"parents":[2147483647,0,0,1,1,2,2,3,3,4,4,5,5,6,6],"right_children":[2,4,6,8,10,12,14,-1,-1,-1,-1,-1,-1,-1,-1],"split_conditions":[3E0,7E0,3E0,7E0,1E0,5E0,5E0,-3.950408E-3,3.5297673E-2,-5.6579668E-2,2.7369288E-1,-5.250607E-3,4.4739923E-1,1.22830264E-1,4.5740682E-1],"split_indices":[2,0,1,1,2,0,1,0,0,0,0,0,0,0,0],"split_type":[0,0,0,0,0,0,0,0,0,0,0,0,0,0,0],"sum_hessian":[1.5557E4,1.2826E4,2.731E3,1.2733E4,9.3E1,2.466E3,2.65E2,1.2633E4,1E2,6.1E1,3.2E1,2.442E3,2.4E1,2.33E2,3.2E1],"tree_param":{"num_deleted":"0","num_feature":"3","num_nodes":"15","size_leaf_vector":"1"}},{"base_weights":[8.765294E-4,-2.0224617E-3,1.6685156E0,-7.90215E-2,5.2078802E-2,1.2965883E0,5.669312E-1,6.422487E-3,-1.642582E-2,-9.0935937E-4,4.0707707E-2,9.900031E-2,1.8626547E-1],"categories":[],"categories_nodes":[],"categories_segments":[],"categories_sizes":[],"default_left":[0,0,0,0,0,0,0,0,0,0,0,0,0],"id":68,"left_children":[1,3,5,7,9,11,-1,-1,-1,-1,-1,-1,-1],"loss_changes":[7.521806E1,6.4706474E1,3.282538E1,7.827566E1,1.9811963E2,2.6682014E0,0E0,0E0,0E0,0E0,0E0,0E0,0E0],"parents":[2147483647,0,0,1,1,2,2,3,3,4,4,5,5],"right_children":[2,4,6,8,10,12,-1,-1,-1,-1,-1,-1,-1],"split_conditions":[8E0,1E0,1E1,1E0,3E0,1E0,5.669312E-1,6.422487E-3,-1.642582E-2,-9.0935937E-4,4.0707707E-2,9.900031E-2,1.8626547E-1],"split_indices":[2,0,2,2,2,1,0,0,0,0,0,0,0],"split_type":[0,0,0,0,0,0,0,0,0,0,0,0,0],"sum_hessian":[1.5557E4,1.5531E4,2.6E1,6.409E3,9.122E3,2.5E1,1E0,2.391E3,4.018E3,7.782E3,1.34E3,1.8E1,7E0],"tree_param":{"num_deleted":"0","num_feature":"3","num_nodes":"13","size_leaf_vector":"1"}},{"base_weights":[8.455736E-4,-4.219164E-3,8.431078E-1,-2.386313E-2,1.9856544E-1,7.351884E-1,5.3858453E-1,-3.179449E-3,3.8720142E-2,-4.2735744E-2,9.155594E-2,5.5783756E-2,2.308776E-1],"categories":[],"categories_nodes":[],"categories_segments":[],"categories_sizes":[],"default_left":[0,0,0,0,0,0,0,0,0,0,0,0,0],"id":69,"left_children":[1,3,5,7,9,11,-1,-1,-1,-1,-1,-1,-1],"loss_changes":[6.637145E1,6.161345E1,4.1633583E1,4.5985817E1,6.134288E2,2.438718E1,0E0,0E0,0E0,0E0,0E0,0E0,0E0],"parents":[2147483647,0,0,1,1,2,2,3,3,4,4,5,5],"right_children":[2,4,6,8,10,12,-1,-1,-1,-1,-1,-1,-1],"split_conditions":[7E0,4E0,1E1,6E0,1E0,2E0,5.3858453E-1,-3.179449E-3,3.8720142E-2,-4.2735744E-2,9.155594E-2,5.5783756E-2,2.308776E-1],"split_indices":[2,0,2,1,2,1,0,0,0,0,0,0,0],"split_type":[0,0,0,0,0,0,0,0,0,0,0,0,0],"sum_hessian":[1.5557E4,1.5465E4,9.2E1,1.41E4,1.365E3,9.1E1,1E0,1.3834E4,2.66E2,7.29E2,6.36E2,8.3E1,8E0],"tree_param":{"num_deleted":"0","num_feature":"3","num_nodes":"13","size_leaf_vector":"1"}},{"base_weights":[8.195185E-4,-1.8888082E-2,2.0492925E-1,-2.6983723E-2,4.1834968E-1,-6.779442E-4,1.0911148E0,-3.3513554E-3,3.0733708E-2,-2.0618946E-3,3.7551987E-1,-3.8848226E-3,4.6858597E-1,2.6097585E-2,2.5127113E-1],"categories":[],"categories_nodes":[],"categories_segments":[],"categories_sizes":[],"default_left":[0,0,0,0,0,0,0,0,0,0,0,0,0,0,0],"id":70,"left_children":[1,3,5,7,9,11,13,-1,-1,-1,-1,-1,-1,-1,-1],"loss_changes":[6.2586124E1,5.023637E1,2.4962314E2,3.0424665E1,3.7798862E2,1.9928267E2,3.038159E2,0E0,0E0,0E0,0E0,0E0,0E0,0E0,0E0],"parents":[2147483647,0,0,1,1,2,2,3,3,4,4,5,5,6,6],"right_children":[2,4,6,8,10,12,14,-1,-1,-1,-1,-1,-1,-1,-1],"split_conditions":[4E0,6E0,2E0,6E0,2E0,5E0,1E0,-3.3513554E-3,3.0733708E-2,-2.0618946E-3,3.7551987E-1,-3.8848226E-3,4.6858597E-1,2.6097585E-2,2.5127113E-1],"split_indices":[2,0,0,1,2,1,1,0,0,0,0,0,0,0,0],"split_type":[0,0,0,0,0,0,0,0,0,0,0,0,0,0,0],"sum_hessian":[1.5557E4,1.4188E4,1.369E3,1.3931E4,2.57E2,1.112E3,2.57E2,1.3665E4,2.66E2,2.28E2,2.9E1,1.104E3,8E0,1.63E2,9.4E1],"tree_param":{"num_deleted":"0","num_feature":"3","num_nodes":"15","size_leaf_vector":"1"}},{"base_weights":[8.110247E-4,-5.917938E-4,2.7276134E0,-2.6188793E-2,1.1851681E-1,1.6548452E-1,5.118496E-1,6.8471185E-3,-8.684936E-3,-3.1452116E-2,5.4708548E-2],"categories":[],"categories_nodes":[],"categories_segments":[],"categories_sizes":[],"default_left":[0,0,0,0,0,0,0,0,0,0,0],"id":71,"left_children":[1,3,5,7,9,-1,-1,-1,-1,-1,-1],"loss_changes":[5.9514214E1,4.7415344E1,1.2048588E1,7.351092E1,5.1072052E2,0E0,0E0,0E0,0E0,0E0,0E0],"parents":[2147483647,0,0,1,1,2,2,3,3,4,4],"right_children":[2,4,6,8,10,-1,-1,-1,-1,-1,-1],"split_conditions":[9E0,3E0,1E1,1E0,1E0,1.6548452E-1,5.118496E-1,6.8471185E-3,-8.684936E-3,-3.1452116E-2,5.4708548E-2],"split_indices":[2,0,2,2,2,0,0,0,0,0,0],"split_type":[0,0,0,0,0,0,0,0,0,0,0],"sum_hessian":[1.5557E4,1.555E4,7E0,1.28E4,2.75E3,6E0,1E0,4.999E3,7.801E3,1.368E3,1.382E3],"tree_param":{"num_deleted":"0","num_feature":"3","num_nodes":"11","size_leaf_vector":"1"}},{"base_weights":[7.7483995E-4,-7.087435E-3,4.82226E-1,-2.3805449E-2,1.6357367E-1,3.859975E-1,3.3448893E-1,-3.0438954E-3,3.1610787E-2,-1.1419962E-2,1.3569342E-1,7.7148997E-3,9.2911534E-2],"categories":[],"categories_nodes":[],"categories_segments":[],"categories_sizes":[],"default_left":[0,0,0,0,0,0,0,0,0,0,0,0,0],"id":72,"left_children":[1,3,5,7,9,11,-1,-1,-1,-1,-1,-1,-1],"loss_changes":[5.8895138E1,4.3682224E1,6.757635E1,3.1450773E1,4.529616E2,4.0689415E1,0E0,0E0,0E0,0E0,0E0,0E0,0E0],"parents":[2147483647,0,0,1,1,2,2,3,3,4,4,5,5],"right_children":[2,4,6,8,10,12,-1,-1,-1,-1,-1,-1,-1],"split_conditions":[6E0,4E0,3E0,6E0,2E0,1E0,3.3448893E-1,-3.0438954E-3,3.1610787E-2,-1.1419962E-2,1.3569342E-1,7.7148997E-3,9.2911534E-2],"split_indices":[2,0,1,1,2,1,0,0,0,0,0,0,0],"split_type":[0,0,0,0,0,0,0,0,0,0,0,0,0],"sum_hessian":[1.5557E4,1.5308E4,2.49E2,1.3943E4,1.365E3,2.42E2,7E0,1.3677E4,2.66E2,1.108E3,2.57E2,1.55E2,8.7E1],"tree_param":{"num_deleted":"0","num_feature":"3","num_nodes":"13","size_leaf_vector":"1"}},{"base_weights":[7.352095E-4,-1.1114736E-2,2.8247216E-1,-1.782186E-2,3.7040254E-1,8.3604805E-2,1.3973427E0,-5.2001434E-3,4.746377E-3,-2.9710605E-4,3.208141E-1,3.1343736E-3,4.677355E-1,6.367458E-2,3.1063995E-1],"categories":[],"categories_nodes":[],"categories_segments":[],"categories_sizes":[],"default_left":[0,0,0,0,0,0,0,0,0,0,0,0,0,0,0],"id":73,"left_children":[1,3,5,7,9,11,13,-1,-1,-1,-1,-1,-1,-1,-1],"loss_changes":[5.194457E1,3.8213295E1,1.3911789E2,3.2746544E1,2.7336996E2,1.2805305E2,1.2151285E2,0E0,0E0,0E0,0E0,0E0,0E0,0E0,0E0],"parents":[2147483647,0,0,1,1,2,2,3,3,4,4,5,5,6,6],"right_children":[2,4,6,8,10,12,14,-1,-1,-1,-1,-1,-1,-1,-1],"split_conditions":[5E0,6E0,2E0,2E0,2E0,4E0,1E0,-5.2001434E-3,4.746377E-3,-2.9710605E-4,3.208141E-1,3.1343736E-3,4.677355E-1,6.367458E-2,3.1063995E-1],"split_indices":[2,0,0,1,2,1,1,0,0,0,0,0,0,0,0],"split_type":[0,0,0,0,0,0,0,0,0,0,0,0,0,0,0],"sum_hessian":[1.5557E4,1.493E4,6.27E2,1.4673E4,2.57E2,5.33E2,9.4E1,9.631E3,5.042E3,2.28E2,2.9E1,5.28E2,5E0,6.6E1,2.8E1],"tree_param":{"num_deleted":"0","num_feature":"3","num_nodes":"15","size_leaf_vector":"1"}},{"base_weights":[7.3658593E-4,-1.6495865E-3,1.3733771E0,-6.327079E-2,4.1646868E-2,1.0525725E0,4.8571473E-1,5.655605E-3,-1.3457273E-2,-1.1961882E-2,1.6486427E-2,7.943993E-2,1.5341626E-1],"categories":[],"categories_nodes":[],"categories_segments":[],"categories_sizes":[],"default_left":[0,0,0,0,0,0,0,0,0,0,0,0,0],"id":74,"left_children":[1,3,5,7,9,11,-1,-1,-1,-1,-1,-1,-1],"loss_changes":[5.0960262E1,4.14417E1,2.5062954E1,5.477392E1,1.8130048E2,2.013937E0,0E0,0E0,0E0,0E0,0E0,0E0,0E0],"parents":[2147483647,0,0,1,1,2,2,3,3,4,4,5,5],"right_children":[2,4,6,8,10,12,-1,-1,-1,-1,-1,-1,-1],"split_conditions":[8E0,1E0,1E1,1E0,1E0,1E0,4.8571473E-1,5.655605E-3,-1.3457273E-2,-1.1961882E-2,1.6486427E-2,7.943993E-2,1.5341626E-1],"split_indices":[2,0,2,2,1,1,0,0,0,0,0,0,0],"split_type":[0,0,0,0,0,0,0,0,0,0,0,0,0],"sum_hessian":[1.5557E4,1.5531E4,2.6E1,6.409E3,9.122E3,2.5E1,1E0,2.391E3,4.018E3,3.951E3,5.171E3,1.8E1,7E0],"tree_param":{"num_deleted":"0","num_feature":"3","num_nodes":"13","size_leaf_vector":"1"}},{"base_weights":[7.088696E-4,-5.20231E-4,2.3898382E0,-1.6008953E-2,1.6071968E-1,1.4128755E-1,4.6142885E-1,-2.0048188E-3,5.8345437E-2,1.068434E-2,2.8226408E-1],"categories":[],"categories_nodes":[],"categories_segments":[],"categories_sizes":[],"default_left":[0,0,0,0,0,0,0,0,0,0,0],"id":75,"left_children":[1,3,5,7,9,-1,-1,-1,-1,-1,-1],"loss_changes":[4.5687004E1,3.8839645E1,1.0866222E1,3.4368553E1,1.9517227E2,0E0,0E0,0E0,0E0,0E0,0E0],"parents":[2147483647,0,0,1,1,2,2,3,3,4,4],"right_children":[2,4,6,8,10,-1,-1,-1,-1,-1,-1],"split_conditions":[9E0,4E0,1E1,7E0,4E0,1.4128755E-1,4.6142885E-1,-2.0048188E-3,5.8345437E-2,1.068434E-2,2.8226408E-1],"split_indices":[2,2,2,0,0,0,0,0,0,0,0],"split_type":[0,0,0,0,0,0,0,0,0,0,0],"sum_hessian":[1.5557E4,1.555E4,7E0,1.4188E4,1.362E3,6E0,1E0,1.4094E4,9.4E1,1.336E3,2.6E1],"tree_param":{"num_deleted":"0","num_feature":"3","num_nodes":"11","size_leaf_vector":"1"}},{"base_weights":[6.991172E-4,-3.3174702E-3,6.686544E-1,-3.6696777E-2,6.335769E-2,5.8062726E-1,4.3835756E-1,1.6622772E-2,-1.6353881E-2,-3.0593624E-2,3.853451E-2,4.234497E-2,1.9831039E-1],"categories":[],"categories_nodes":[],"categories_segments":[],"categories_sizes":[],"default_left":[0,0,0,0,0,0,0,0,0,0,0,0,0],"id":76,"left_children":[1,3,5,7,9,11,-1,-1,-1,-1,-1,-1,-1],"loss_changes":[4.174279E1,3.4423004E1,2.786707E1,2.6532275E2,6.1368317E2,1.9440535E1,0E0,0E0,0E0,0E0,0E0,0E0,0E0],"parents":[2147483647,0,0,1,1,2,2,3,3,4,4,5,5],"right_children":[2,4,6,8,10,12,-1,-1,-1,-1,-1,-1,-1],"split_conditions":[7E0,2E0,1E1,1E0,1E0,2E0,4.3835756E-1,1.6622772E-2,-1.6353881E-2,-3.0593624E-2,3.853451E-2,4.234497E-2,1.9831039E-1],"split_indices":[2,1,2,2,2,1,0,0,0,0,0,0,0],"split_type":[0,0,0,0,0,0,0,0,0,0,0,0,0],"sum_hessian":[1.5557E4,1.5465E4,9.2E1,1.0306E4,5.159E3,9.1E1,1E0,3.964E3,6.342E3,2.403E3,2.756E3,8.3E1,8E0],"tree_param":{"num_deleted":"0","num_feature":"3","num_nodes":"13","size_leaf_vector":"1"}},{"base_weights":[6.733874E-4,-5.626229E-3,3.8643402E-1,-6.113366E-2,3.2831885E-2,3.008947E-1,2.9363862E-1,5.6563225E-3,-1.3377103E-2,-1.09803295E-2,1.4094546E-2,1.7731631E-2,1.4211594E-1],"categories":[],"categories_nodes":[],"categories_segments":[],"categories_sizes":[],"default_left":[0,0,0,0,0,0,0,0,0,0,0,0,0],"id":77,"left_children":[1,3,5,7,9,11,-1,-1,-1,-1,-1,-1,-1],"loss_changes":[3.7810356E1,3.26823E1,5.3646732E1,5.3576805E1,1.3948119E2,3.3389053E1,0E0,0E0,0E0,0E0,0E0,0E0,0E0],"parents":[2147483647,0,0,1,1,2,2,3,3,4,4,5,5],"right_children":[2,4,6,8,10,12,-1,-1,-1,-1,-1,-1,-1],"split_conditions":[6E0,1E0,3E0,1E0,1E0,2E0,2.9363862E-1,5.6563225E-3,-1.3377103E-2,-1.09803295E-2,1.4094546E-2,1.7731631E-2,1.4211594E-1],"split_indices":[2,0,1,2,1,0,0,0,0,0,0,0,0],"split_type":[0,0,0,0,0,0,0,0,0,0,0,0,0],"sum_hessian":[1.5557E4,1.5308E4,2.49E2,6.265E3,9.043E3,2.42E2,7E0,2.391E3,3.874E3,3.899E3,5.144E3,2.19E2,2.3E1],"tree_param":{"num_deleted":"0","num_feature":"3","num_nodes":"13","size_leaf_vector":"1"}},{"base_weights":[6.3491875E-4,-2.1762954E-2,1.0579483E-1,-2.5151223E-2,4.3747073E-1,5.84608E-2,3.9753733E0,-2.7079007E-3,2.1624273E-2,-4.8484344E-2,2.1570468E-1,-1.2704941E-2,6.582244E-2,2.8041285E-1,7.2849977E-1],"categories":[],"categories_nodes":[],"categories_segments":[],"categories_sizes":[],"default_left":[0,0,0,0,0,0,0,0,0,0,0,0,0,0,0],"id":78,"left_children":[1,3,5,7,9,11,13,-1,-1,-1,-1,-1,-1,-1,-1],"loss_changes":[3.664697E1,1.9969902E1,5.0016824E2,5.931695E0,1.5012883E2,3.0049173E2,1.0749249E2,0E0,0E0,0E0,0E0,0E0,0E0,0E0,0E0],"parents":[2147483647,0,0,1,1,2,2,3,3,4,4,5,5,6,6],"right_children":[2,4,6,8,10,12,14,-1,-1,-1,-1,-1,-1,-1,-1],"split_conditions":[3E0,7E0,5E0,7E0,1E0,2E0,6E0,-2.7079007E-3,2.1624273E-2,-4.8484344E-2,2.1570468E-1,-1.2704941E-2,6.582244E-2,2.8041285E-1,7.2849977E-1],"split_indices":[2,0,1,1,2,0,1,0,0,0,0,0,0,0,0],"split_type":[0,0,0,0,0,0,0,0,0,0,0,0,0,0,0],"sum_hessian":[1.5557E4,1.2826E4,2.731E3,1.2733E4,9.3E1,2.699E3,3.2E1,1.2633E4,1E2,6.1E1,3.2E1,2.062E3,6.37E2,2.5E1,7E0],"tree_param":{"num_deleted":"0","num_feature":"3","num_nodes":"15","size_leaf_vector":"1"}},{"base_weights":[6.5164955E-4,-4.465035E-4,2.1352425E0,-1.4027934E-2,1.4093821E-1,1.2511674E-1,4.1618845E-1,-1.9896E-3,3.0290201E-2,9.306836E-3,2.5061622E-1],"categories":[],"categories_nodes":[],"categories_segments":[],"categories_sizes":[],"default_left":[0,0,0,0,0,0,0,0,0,0,0],"id":79,"left_children":[1,3,5,7,9,-1,-1,-1,-1,-1,-1],"loss_changes":[3.6470577E1,2.9863108E1,9.126419E0,2.6394245E1,1.5408958E2,0E0,0E0,0E0,0E0,0E0,0E0],"parents":[2147483647,0,0,1,1,2,2,3,3,4,4],"right_children":[2,4,6,8,10,-1,-1,-1,-1,-1,-1],"split_conditions":[9E0,4E0,1E1,6E0,4E0,1.2511674E-1,4.1618845E-1,-1.9896E-3,3.0290201E-2,9.306836E-3,2.5061622E-1],"split_indices":[2,2,2,0,0,0,0,0,0,0,0],"split_type":[0,0,0,0,0,0,0,0,0,0,0],"sum_hessian":[1.5557E4,1.555E4,7E0,1.4188E4,1.362E3,6E0,1E0,1.3931E4,2.57E2,1.336E3,2.6E1],"tree_param":{"num_deleted":"0","num_feature":"3","num_nodes":"11","size_leaf_vector":"1"}},{"base_weights":[6.39782E-4,-1.2423083E-3,1.083306E0,-9.514743E-3,1.9707204E-1,8.208339E-1,3.953789E-1,-2.869512E-3,7.5808815E-3,-1.4532298E-2,2.1711448E-1,5.798001E-2,1.2906852E-1],"categories":[],"categories_nodes":[],"categories_segments":[],"categories_sizes":[],"default_left":[0,0,0,0,0,0,0,0,0,0,0,0,0],"id":80,"left_children":[1,3,5,7,9,11,-1,-1,-1,-1,-1,-1,-1],"loss_changes":[3.17035E1,2.5482784E1,1.709697E1,2.4404593E1,4.207332E2,2.1961632E0,0E0,0E0,0E0,0E0,0E0,0E0,0E0],"parents":[2147483647,0,0,1,1,2,2,3,3,4,4,5,5],"right_children":[2,4,6,8,10,12,-1,-1,-1,-1,-1,-1,-1],"split_conditions":[8E0,5E0,1E1,3E0,2E0,1E0,3.953789E-1,-2.869512E-3,7.5808815E-3,-1.4532298E-2,2.1711448E-1,5.798001E-2,1.2906852E-1],"split_indices":[2,0,2,1,2,1,0,0,0,0,0,0,0],"split_type":[0,0,0,0,0,0,0,0,0,0,0,0,0],"sum_hessian":[1.5557E4,1.5531E4,2.6E1,1.491E4,6.21E2,2.5E1,1E0,1.2174E4,2.736E3,5.3E2,9.1E1,1.8E1,7E0],"tree_param":{"num_deleted":"0","num_feature":"3","num_nodes":"13","size_leaf_vector":"1"}},{"base_weights":[6.265442E-4,-8.430193E-3,2.159538E-1,-1.1379361E-2,4.5225656E-1,-1.5502958E-1,6.98936E-1,-1.6095041E-3,2.4503417E-2,-4.5264486E-2,2.0890693E-1,-2.1228975E-2,3.2205284E-1,4.627733E-2,2.670002E-1],"categories":[],"categories_nodes":[],"categories_segments":[],"categories_sizes":[],"default_left":[0,0,0,0,0,0,0,0,0,0,0,0,0,0,0],"id":81,"left_children":[1,3,5,7,9,11,13,-1,-1,-1,-1,-1,-1,-1,-1],"loss_changes":[3.0342447E1,2.0291044E1,1.1263236E2,1.794431E1,1.4165526E2,6.949314E1,1.25843765E2,0E0,0E0,0E0,0E0,0E0,0E0,0E0,0E0],"parents":[2147483647,0,0,1,1,2,2,3,3,4,4,5,5,6,6],"right_children":[2,4,6,8,10,12,14,-1,-1,-1,-1,-1,-1,-1,-1],"split_conditions":[5E0,7E0,1E0,6E0,1E0,4E0,2E0,-1.6095041E-3,2.4503417E-2,-4.5264486E-2,2.0890693E-1,-2.1228975E-2,3.2205284E-1,4.627733E-2,2.670002E-1],"split_indices":[2,0,1,1,2,0,0,0,0,0,0,0,0,0,0],"split_type":[0,0,0,0,0,0,0,0,0,0,0,0,0,0,0],"sum_hessian":[1.5557E4,1.493E4,6.27E2,1.4836E4,9.4E1,3.55E2,2.72E2,1.4569E4,2.67E2,6.1E1,3.3E1,3.5E2,5E0,2.44E2,2.8E1],"tree_param":{"num_deleted":"0","num_feature":"3","num_nodes":"15","size_leaf_vector":"1"}},{"base_weights":[6.1536435E-4,-3.6061846E-4,1.897727E0,-4.5926962E-2,3.17246E-2,1.0926264E-1,3.766716E-1,6.3159876E-3,-1.1166685E-2,-9.967313E-3,1.3215276E-2],"categories":[],"categories_nodes":[],"categories_segments":[],"categories_sizes":[],"default_left":[0,0,0,0,0,0,0,0,0,0,0],"id":82,"left_children":[1,3,5,7,9,-1,-1,-1,-1,-1,-1],"loss_changes":[2.8807072E1,2.2737112E1,7.922182E0,4.6090183E1,1.2044017E2,0E0,0E0,0E0,0E0,0E0,0E0],"parents":[2147483647,0,0,1,1,2,2,3,3,4,4],"right_children":[2,4,6,8,10,-1,-1,-1,-1,-1,-1],"split_conditions":[9E0,1E0,1E1,1E0,1E0,1.0926264E-1,3.766716E-1,6.3159876E-3,-1.1166685E-2,-9.967313E-3,1.3215276E-2],"split_indices":[2,0,2,1,1,0,0,0,0,0,0],"split_type":[0,0,0,0,0,0,0,0,0,0,0],"sum_hessian":[1.5557E4,1.555E4,7E0,6.425E3,9.125E3,6E0,1E0,2.416E3,4.009E3,3.953E3,5.172E3],"tree_param":{"num_deleted":"0","num_feature":"3","num_nodes":"11","size_leaf_vector":"1"}},{"base_weights":[5.8496284E-4,-2.6273124E-3,5.3478354E-1,-1.9417625E-2,7.501815E-2,4.628055E-1,3.5783806E-1,6.3467086E-3,-7.311083E-3,-2.8312648E-2,4.2973958E-2,3.229991E-2,1.7162424E-1],"categories":[],"categories_nodes":[],"categories_segments":[],"categories_sizes":[],"default_left":[0,0,0,0,0,0,0,0,0,0,0,0,0],"id":83,"left_children":[1,3,5,7,9,11,-1,-1,-1,-1,-1,-1,-1],"loss_changes":[2.669882E1,2.0164349E1,1.871761E1,5.6599686E1,3.49486E2,1.5567598E1,0E0,0E0,0E0,0E0,0E0,0E0,0E0],"parents":[2147483647,0,0,1,1,2,2,3,3,4,4,5,5],"right_children":[2,4,6,8,10,12,-1,-1,-1,-1,-1,-1,-1],"split_conditions":[7E0,3E0,1E1,1E0,1E0,2E0,3.5783806E-1,6.3467086E-3,-7.311083E-3,-2.8312648E-2,4.2973958E-2,3.229991E-2,1.7162424E-1],"split_indices":[2,0,2,2,1,1,0,0,0,0,0,0,0],"split_type":[0,0,0,0,0,0,0,0,0,0,0,0,0],"sum_hessian":[1.5557E4,1.5465E4,9.2E1,1.2716E4,2.749E3,9.1E1,1E0,4.999E3,7.717E3,1.368E3,1.381E3,8.3E1,8E0],"tree_param":{"num_deleted":"0","num_feature":"3","num_nodes":"13","size_leaf_vector":"1"}},{"base_weights":[5.6342804E-4,-1.8549962E-2,9.030241E-2,2.1200366E-2,-4.397073E-2,-4.5860734E-2,1.3527993E0,2.0399448E-2,-1.437462E-2,-7.778792E-3,3.5967242E-2,-7.868707E-3,3.163764E-1,1.1844832E-1,6.632935E-1],"categories":[],"categories_nodes":[],"categories_segments":[],"categories_sizes":[],"default_left":[0,0,0,0,0,0,0,0,0,0,0,0,0,0,0],"id":84,"left_children":[1,3,5,7,9,11,13,-1,-1,-1,-1,-1,-1,-1,-1],"loss_changes":[2.668701E1,1.2962409E1,4.6970798E2,1.5090622E2,1.0682619E2,2.6017264E2,2.2854614E2,0E0,0E0,0E0,0E0,0E0,0E0,0E0,0E0],"parents":[2147483647,0,0,1,1,2,2,3,3,4,4,5,5,6,6],"right_children":[2,4,6,8,10,12,14,-1,-1,-1,-1,-1,-1,-1,-1],"split_conditions":[3E0,1E0,3E0,1E0,4E0,5E0,6E0,2.0399448E-2,-1.437462E-2,-7.778792E-3,3.5967242E-2,-7.868707E-3,3.163764E-1,1.1844832E-1,6.632935E-1],"split_indices":[2,1,1,2,0,0,1,0,0,0,0,0,0,0,0],"split_type":[0,0,0,0,0,0,0,0,0,0,0,0,0,0,0],"sum_hessian":[1.5557E4,1.2826E4,2.731E3,5.003E3,7.823E3,2.466E3,2.65E2,2.373E3,2.63E3,7.219E3,6.04E2,2.442E3,2.4E1,2.58E2,7E0],"tree_param":{"num_deleted":"0","num_feature":"3","num_nodes":"15","size_leaf_vector":"1"}},{"base_weights":[5.793432E-4,-4.5715417E-3,3.159966E-1,-7.109807E-3,4.019998E-1,-1.0474999E-2,8.4877104E-1,-1.679277E-3,8.997758E-3,-4.2246453E-2,1.8936113E-1,-9.589491E-3,2.1410052E-1,6.869768E-2,2.5224113E-1],"categories":[],"categories_nodes":[],"categories_segments":[],"categories_sizes":[],"default_left":[0,0,0,0,0,0,0,0,0,0,0,0,0,0,0],"id":85,"left_children":[1,3,5,7,9,11,13,-1,-1,-1,-1,-1,-1,-1,-1],"loss_changes":[2.5278183E1,1.5801531E1,4.349282E1,1.4305035E1,1.1762911E2,2.8874874E1,2.3991776E1,0E0,0E0,0E0,0E0,0E0,0E0,0E0,0E0],"parents":[2147483647,0,0,1,1,2,2,3,3,4,4,5,5,6,6],"right_children":[2,4,6,8,10,12,14,-1,-1,-1,-1,-1,-1,-1,-1],"split_conditions":[6E0,7E0,1E0,4E0,1E0,3E0,3E0,-1.679277E-3,8.997758E-3,-4.2246453E-2,1.8936113E-1,-9.589491E-3,2.1410052E-1,6.869768E-2,2.5224113E-1],"split_indices":[2,0,1,1,2,0,1,0,0,0,0,0,0,0,0],"split_type":[0,0,0,0,0,0,0,0,0,0,0,0,0,0,0],"sum_hessian":[1.5557E4,1.5308E4,2.49E2,1.5214E4,9.4E1,1.55E2,9.4E1,1.3835E4,1.379E3,6.1E1,3.3E1,1.5E2,5E0,8.7E1,7E0],"tree_param":{"num_deleted":"0","num_feature":"3","num_nodes":"15","size_leaf_vector":"1"}},{"base_weights":[5.650903E-4,-1.1516477E-2,1.2569268E-1,-1.5705608E-2,2.1474122E-1,4.560228E-2,1.2642493E0,-1.9353656E-3,1.7107323E-2,-4.5862522E-2,1.24909215E-1,-6.623838E-4,2.0208998E-1,4.9216185E-2,3.047559E-1],"categories":[],"categories_nodes":[],"categories_segments":[],"categories_sizes":[],"default_left":[0,0,0,0,0,0,0,0,0,0,0,0,0,0,0],"id":86,"left_children":[1,3,5,7,9,11,13,-1,-1,-1,-1,-1,-1,-1,-1],"loss_changes":[2.3521055E1,1.3452033E1,1.24869156E2,9.496275E0,1.8026912E2,1.3216406E2,1.2241847E2,0E0,0E0,0E0,0E0,0E0,0E0,0E0,0E0],"parents":[2147483647,0,0,1,1,2,2,3,3,4,4,5,5,6,6],"right_children":[2,4,6,8,10,12,14,-1,-1,-1,-1,-1,-1,-1,-1],"split_conditions":[4E0,6E0,3E0,6E0,1E0,4E0,1E0,-1.9353656E-3,1.7107323E-2,-4.5862522E-2,1.24909215E-1,-6.623838E-4,2.0208998E-1,4.9216185E-2,3.047559E-1],"split_indices":[2,0,0,1,2,1,1,0,0,0,0,0,0,0,0],"split_type":[0,0,0,0,0,0,0,0,0,0,0,0,0,0,0],"sum_hessian":[1.5557E4,1.4188E4,1.369E3,1.3931E4,2.57E2,1.28E3,8.9E1,1.3665E4,2.66E2,1.56E2,1.01E2,1.248E3,3.2E1,6.3E1,2.6E1],"tree_param":{"num_deleted":"0","num_feature":"3","num_nodes":"15","size_leaf_vector":"1"}},{"base_weights":[5.503548E-4,-3.26928E-4,1.7058096E0,-6.9370163E-3,1.5860312E-1,9.756339E-2,3.40852E-1,-9.21819E-4,3.494073E-2,7.3615774E-3,1.8304E-1],"categories":[],"categories_nodes":[],"categories_segments":[],"categories_sizes":[],"default_left":[0,0,0,0,0,0,0,0,0,0,0],"id":87,"left_children":[1,3,5,7,9,-1,-1,-1,-1,-1,-1],"loss_changes":[2.327524E1,1.6338074E1,6.6207523E0,1.2140381E1,8.809789E1,0E0,0E0,0E0,0E0,0E0,0E0],"parents":[2147483647,0,0,1,1,2,2,3,3,4,4],"right_children":[2,4,6,8,10,-1,-1,-1,-1,-1,-1],"split_conditions":[9E0,5E0,1E1,7E0,3E0,9.756339E-2,3.40852E-1,-9.21819E-4,3.494073E-2,7.3615774E-3,1.8304E-1],"split_indices":[2,2,2,0,0,0,0,0,0,0,0],"split_type":[0,0,0,0,0,0,0,0,0,0,0],"sum_hessian":[1.5557E4,1.555E4,7E0,1.493E4,6.2E2,6E0,1E0,1.4836E4,9.4E1,5.91E2,2.9E1],"tree_param":{"num_deleted":"0","num_feature":"3","num_nodes":"11","size_leaf_vector":"1"}},{"base_weights":[5.3789053E-4,1.2163734E-4,3.2380944E-1,-1.4548296E-2,6.902355E-2,2.1833575E-3,-3.781521E-3,-5.159493E-3,1.186979E-1],"categories":[],"categories_nodes":[],"categories_segments":[],"categories_sizes":[],"default_left":[0,0,0,0,0,0,0,0,0],"id":88,"left_children":[1,3,-1,5,7,-1,-1,-1,-1],"loss_changes":[2.096624E1,1.5725809E1,0E0,1.0858801E1,3.683259E2,0E0,0E0,0E0,0E0],"parents":[2147483647,0,0,1,1,3,3,4,4],"right_children":[2,4,-1,6,8,-1,-1,-1,-1],"split_conditions":[1E1,3E0,3.2380944E-1,1E0,3E0,2.1833575E-3,-3.781521E-3,-5.159493E-3,1.186979E-1],"split_indices":[2,2,0,1,1,0,0,0,0],"split_type":[0,0,0,0,0,0,0,0,0],"sum_hessian":[1.5557E4,1.5556E4,1E0,1.2826E4,2.73E3,5.003E3,7.823E3,2.465E3,2.65E2],"tree_param":{"num_deleted":"0","num_feature":"3","num_nodes":"9","size_leaf_vector":"1"}},{"base_weights":[5.120818E-4,-9.874849E-4,8.631328E-1,-3.963121E-2,2.6164468E-2,6.597001E-1,3.076191E-1,6.290227E-3,-1.0121821E-2,-4.003818E-3,1.7888417E-2,5.6103744E-2,1.5631333E-1],"categories":[],"categories_nodes":[],"categories_segments":[],"categories_sizes":[],"default_left":[0,0,0,0,0,0,0,0,0,0,0,0,0],"id":89,"left_children":[1,3,5,7,9,11,-1,-1,-1,-1,-1,-1,-1],"loss_changes":[2.0126017E1,1.6298029E1,1.0126261E1,4.0483784E1,9.22448E1,1.4405365E0,0E0,0E0,0E0,0E0,0E0,0E0,0E0],"parents":[2147483647,0,0,1,1,2,2,3,3,4,4,5,5],"right_children":[2,4,6,8,10,12,-1,-1,-1,-1,-1,-1,-1],"split_conditions":[8E0,1E0,1E1,1E0,2E0,2E0,3.076191E-1,6.290227E-3,-1.0121821E-2,-4.003818E-3,1.7888417E-2,5.6103744E-2,1.5631333E-1],"split_indices":[2,0,2,1,1,1,0,0,0,0,0,0,0],"split_type":[0,0,0,0,0,0,0,0,0,0,0,0,0],"sum_hessian":[1.5557E4,1.5531E4,2.6E1,6.409E3,9.122E3,2.5E1,1E0,2.405E3,4.004E3,6.364E3,2.758E3,2.4E1,1E0],"tree_param":{"num_deleted":"0","num_feature":"3","num_nodes":"13","size_leaf_vector":"1"}},{"base_weights":[4.9492455E-4,-3.8259728E-3,2.6508743E-1,-3.740182E-2,1.9436974E-2,-3.4510586E-2,7.5426847E-1,6.898111E-3,-1.0000861E-2,-4.065085E-3,1.5683278E-2,-1.0624985E-2,1.7766795E-1,6.168135E-2,2.17199E-1],"categories":[],"categories_nodes":[],"categories_segments":[],"categories_sizes":[],"default_left":[0,0,0,0,0,0,0,0,0,0,0,0,0,0,0],"id":90,"left_children":[1,3,5,7,9,11,13,-1,-1,-1,-1,-1,-1,-1,-1],"loss_changes":[1.7788118E1,1.1958176E1,3.666545E1,4.17403E1,7.467197E1,2.0458387E1,1.717321E1,0E0,0E0,0E0,0E0,0E0,0E0,0E0,0E0],"parents":[2147483647,0,0,1,1,2,2,3,3,4,4,5,5,6,6],"right_children":[2,4,6,8,10,12,14,-1,-1,-1,-1,-1,-1,-1,-1],"split_conditions":[6E0,1E0,1E0,1E0,2E0,3E0,3E0,6.898111E-3,-1.0000861E-2,-4.065085E-3,1.5683278E-2,-1.0624985E-2,1.7766795E-1,6.168135E-2,2.17199E-1],"split_indices":[2,0,1,1,1,0,1,0,0,0,0,0,0,0,0],"split_type":[0,0,0,0,0,0,0,0,0,0,0,0,0,0,0],"sum_hessian":[1.5557E4,1.5308E4,2.49E2,6.265E3,9.043E3,1.55E2,9.4E1,2.321E3,3.944E3,6.292E3,2.751E3,1.5E2,5E0,8.7E1,7E0],"tree_param":{"num_deleted":"0","num_feature":"3","num_nodes":"15","size_leaf_vector":"1"}},{"base_weights":[4.7465196E-4,-2.8297646E-4,1.4731503E0,-9.004988E-3,9.051446E-2,8.471157E-2,2.9276964E-1,-1.1217115E-3,3.192995E-2,-4.6698693E-3,6.78372E-2],"categories":[],"categories_nodes":[],"categories_segments":[],"categories_sizes":[],"default_left":[0,0,0,0,0,0,0,0,0,0,0],"id":91,"left_children":[1,3,5,7,9,-1,-1,-1,-1,-1,-1],"loss_changes":[1.7359114E1,1.2316216E1,4.8046722E0,1.0308359E1,1.0997369E2,0E0,0E0,0E0,0E0,0E0,0E0],"parents":[2147483647,0,0,1,1,2,2,3,3,4,4],"right_children":[2,4,6,8,10,-1,-1,-1,-1,-1,-1],"split_conditions":[9E0,4E0,1E1,7E0,2E0,8.471157E-2,2.9276964E-1,-1.1217115E-3,3.192995E-2,-4.6698693E-3,6.78372E-2],"split_indices":[2,2,2,0,0,0,0,0,0,0,0],"split_type":[0,0,0,0,0,0,0,0,0,0,0],"sum_hessian":[1.5557E4,1.555E4,7E0,1.4188E4,1.362E3,6E0,1E0,1.4094E4,9.4E1,1.105E3,2.57E2],"tree_param":{"num_deleted":"0","num_feature":"3","num_nodes":"11","size_leaf_vector":"1"}},{"base_weights":[4.574418E-4,-2.0151876E-3,4.1165346E-1,-3.238839E-2,1.9207912E-2,3.5566467E-1,2.781311E-1,6.6791805E-3,-9.212313E-3,-1.6618299E-3,2.2995334E-2,2.4173442E-2,1.3794954E-1],"categories":[],"categories_nodes":[],"categories_segments":[],"categories_sizes":[],"default_left":[0,0,0,0,0,0,0,0,0,0,0,0,0],"id":92,"left_children":[1,3,5,7,9,11,-1,-1,-1,-1,-1,-1,-1],"loss_changes":[1.5819199E1,9.970215E0,1.1349491E1,3.769784E1,6.8748474E1,1.0397896E1,0E0,0E0,0E0,0E0,0E0,0E0,0E0],"parents":[2147483647,0,0,1,1,2,2,3,3,4,4,5,5],"right_children":[2,4,6,8,10,12,-1,-1,-1,-1,-1,-1,-1],"split_conditions":[7E0,1E0,1E1,1E0,3E0,2E0,2.781311E-1,6.6791805E-3,-9.212313E-3,-1.6618299E-3,2.2995334E-2,2.4173442E-2,1.3794954E-1],"split_indices":[2,0,2,2,2,1,0,0,0,0,0,0,0],"split_type":[0,0,0,0,0,0,0,0,0,0,0,0,0],"sum_hessian":[1.5557E4,1.5465E4,9.2E1,6.361E3,9.104E3,9.1E1,1E0,2.391E3,3.97E3,7.782E3,1.322E3,8.3E1,8E0],"tree_param":{"num_deleted":"0","num_feature":"3","num_nodes":"13","size_leaf_vector":"1"}},{"base_weights":[4.4123962E-4,-8.1241515E-4,7.216014E-1,-4.148543E-3,1.8921298E-1,5.461056E-1,2.6422462E-1,3.8657833E-3,-3.3414296E-3,-2.0661123E-1,4.0600824E-1,4.5695007E-2,1.387497E-1],"categories":[],"categories_nodes":[],"categories_segments":[],"categories_sizes":[],"default_left":[0,0,0,0,0,0,0,0,0,0,0,0,0],