{"learner":{"attributes":{},"feature_names":["x_0"],"feature_types":["int"],"gradient_booster":{"model":{"gbtree_model_param":{"num_parallel_tree":"1","num_trees":"100"},"iteration_indptr":[0,1,2,3,4,5,6,7,8,9,10,11,12,13,14,15,16,17,18,19,20,21,22,23,24,25,26,27,28,29,30,31,32,33,34,35,36,37,38,39,40,41,42,43,44,45,46,47,48,49,50,51,52,53,54,55,56,57,58,59,60,61,62,63,64,65,66,67,68,69,70,71,72,73,74,75,76,77,78,79,80,81,82,83,84,85,86,87,88,89,90,91,92,93,94,95,96,97,98,99,100],"tree_info":[0,0,0,0,0,0,0,0,0,0,0,0,0,0,0,0,0,0,0,0,0,0,0,0,0,0,0,0,0,0,0,0,0,0,0,0,0,0,0,0,0,0,0,0,0,0,0,0,0,0,0,0,0,0,0,0,0,0,0,0,0,0,0,0,0,0,0,0,0,0,0,0,0,0,0,0,0,0,0,0,0,0,0,0,0,0,0,0,0,0,0,0,0,0,0,0,0,0,0,0],"trees":[{"base_weights":[1.0691904E-7,-1.5779653E0,1.639536E1,-2.1331384E0,3.553518E-1,1.22767E1,3.4035667E1,-2.5156742E-1,-4.9171332E-2,9.615161E-1,1.7675524E0,2.7674303E0,4.465912E0],"categories":[],"categories_nodes":[],"categories_segments":[],"categories_sizes":[],"default_left":[0,0,0,0,0,0,0,0,0,0,0,0,0],"id":0,"left_children":[1,3,5,7,-1,9,11,-1,-1,-1,-1,-1,-1],"loss_changes":[4.0253175E5,4.0441473E4,9.882806E4,8.040949E3,0E0,1.5765484E4,1.6199656E4,0E0,0E0,0E0,0E0,0E0,0E0],"parents":[2147483647,0,0,1,1,2,2,3,3,5,5,6,6],"right_children":[2,4,6,8,-1,10,12,-1,-1,-1,-1,-1,-1],"split_conditions":[4E0,3E0,6E0,2E0,3.553518E-1,5E0,7E0,-2.5156742E-1,-4.9171332E-2,9.615161E-1,1.7675524E0,2.7674303E0,4.465912E0],"split_indices":[0,0,0,0,0,0,0,0,0,0,0,0,0],"split_type":[0,0,0,0,0,0,0,0,0,0,0,0,0],"sum_hessian":[1.5557E4,1.4192E4,1.365E3,1.2807E4,1.385E3,1.108E3,2.57E2,1.0386E4,2.421E3,7.44E2,3.64E2,1.63E2,9.4E1],"tree_param":{"num_deleted":"0","num_feature":"1","num_nodes":"13","size_leaf_vector":"1"}},{"base_weights":[6.439361E-4,-1.420165E0,1.4763118E1,-1.9198481E0,3.1984225E-1,1.1051492E1,3.0660135E1,-2.2641312E-1,-4.4256218E-2,8.654935E-1,1.5912815E0,2.492375E0,4.0240216E0],"categories":[],"categories_nodes":[],"categories_segments":[],"categories_sizes":[],"default_left":[0,0,0,0,0,0,0,0,0,0,0,0,0],"id":1,"left_children":[1,3,5,7,-1,9,11,-1,-1,-1,-1,-1,-1],"loss_changes":[3.2634462E5,3.2761178E4,8.026034E4,6.513203E3,0E0,1.2782625E4,1.3175469E4,0E0,0E0,0E0,0E0,0E0,0E0],"parents":[2147483647,0,0,1,1,2,2,3,3,5,5,6,6],"right_children":[2,4,6,8,-1,10,12,-1,-1,-1,-1,-1,-1],"split_conditions":[4E0,3E0,6E0,2E0,3.1984225E-1,5E0,7E0,-2.2641312E-1,-4.4256218E-2,8.654935E-1,1.5912815E0,2.492375E0,4.0240216E0],"split_indices":[0,0,0,0,0,0,0,0,0,0,0,0,0],"split_type":[0,0,0,0,0,0,0,0,0,0,0,0,0],"sum_hessian":[1.5557E4,1.4192E4,1.365E3,1.2807E4,1.385E3,1.108E3,2.57E2,1.0386E4,2.421E3,7.44E2,3.64E2,1.63E2,9.4E1],"tree_param":{"num_deleted":"0","num_feature":"1","num_nodes":"13","size_leaf_vector":"1"}},{"base_weights":[1.1593447E-3,-1.2781451E0,1.3293374E1,-1.7278844E0,2.878811E-1,9.948557E0,2.7619379E1,-2.0377398E-1,-3.9832424E-2,7.790603E-1,1.4325893E0,2.5099618E0,4.82477E0],"categories":[],"categories_nodes":[],"categories_segments":[],"categories_sizes":[],"default_left":[0,0,0,0,0,0,0,0,0,0,0,0,0],"id":2,"left_children":[1,3,5,7,-1,9,11,-1,-1,-1,-1,-1,-1],"loss_changes":[2.645775E5,2.6539457E4,6.518103E4,5.275715E3,0E0,1.0364109E4,1.2199422E4,0E0,0E0,0E0,0E0,0E0,0E0],"parents":[2147483647,0,0,1,1,2,2,3,3,5,5,6,6],"right_children":[2,4,6,8,-1,10,12,-1,-1,-1,-1,-1,-1],"split_conditions":[4E0,3E0,6E0,2E0,2.878811E-1,5E0,8E0,-2.0377398E-1,-3.9832424E-2,7.790603E-1,1.4325893E0,2.5099618E0,4.82477E0],"split_indices":[0,0,0,0,0,0,0,0,0,0,0,0,0],"split_type":[0,0,0,0,0,0,0,0,0,0,0,0,0],"sum_hessian":[1.5557E4,1.4192E4,1.365E3,1.2807E4,1.385E3,1.108E3,2.57E2,1.0386E4,2.421E3,7.44E2,3.64E2,2.31E2,2.6E1],"tree_param":{"num_deleted":"0","num_feature":"1","num_nodes":"13","size_leaf_vector":"1"}},{"base_weights":[1.6598451E-3,-1.1503274E0,1.1971025E1,-1.5551151E0,2.5911376E-1,8.955695E0,2.488587E1,-1.8339854E-1,-3.5850834E-2,7.0125884E-1,1.2897228E0,2.2600477E0,4.3601627E0],"categories":[],"categories_nodes":[],"categories_segments":[],"categories_sizes":[],"default_left":[0,0,0,0,0,0,0,0,0,0,0,0,0],"id":3,"left_children":[1,3,5,7,-1,9,11,-1,-1,-1,-1,-1,-1],"loss_changes":[2.1453614E5,2.149931E4,5.2972594E4,4.2733516E3,0E0,8.403195E3,1.005E4,0E0,0E0,0E0,0E0,0E0,0E0],"parents":[2147483647,0,0,1,1,2,2,3,3,5,5,6,6],"right_children":[2,4,6,8,-1,10,12,-1,-1,-1,-1,-1,-1],"split_conditions":[4E0,3E0,6E0,2E0,2.5911376E-1,5E0,8E0,-1.8339854E-1,-3.5850834E-2,7.0125884E-1,1.2897228E0,2.2600477E0,4.3601627E0],"split_indices":[0,0,0,0,0,0,0,0,0,0,0,0,0],"split_type":[0,0,0,0,0,0,0,0,0,0,0,0,0],"sum_hessian":[1.5557E4,1.4192E4,1.365E3,1.2807E4,1.385E3,1.108E3,2.57E2,1.0386E4,2.421E3,7.44E2,3.64E2,2.31E2,2.6E1],"tree_param":{"num_deleted":"0","num_feature":"1","num_nodes":"13","size_leaf_vector":"1"}},{"base_weights":[2.0498715E-3,-1.0352919E0,1.0780227E1,-1.3996208E0,2.3322105E-1,8.061921E0,2.2422943E1,-1.6506046E-1,-3.226724E-2,6.312271E-1,1.161104E0,1.7705647E0,3.0330455E0],"categories":[],"categories_nodes":[],"categories_segments":[],"categories_sizes":[],"default_left":[0,0,0,0,0,0,0,0,0,0,0,0,0],"id":4,"left_children":[1,3,5,7,-1,9,11,-1,-1,-1,-1,-1,-1],"loss_changes":[1.7395977E5,1.7416348E4,4.3051047E4,3.4614238E3,0E0,6.8132812E3,9.086906E3,0E0,0E0,0E0,0E0,0E0,0E0],"parents":[2147483647,0,0,1,1,2,2,3,3,5,5,6,6],"right_children":[2,4,6,8,-1,10,12,-1,-1,-1,-1,-1,-1],"split_conditions":[4E0,3E0,6E0,2E0,2.3322105E-1,5E0,7E0,-1.6506046E-1,-3.226724E-2,6.312271E-1,1.161104E0,1.7705647E0,3.0330455E0],"split_indices":[0,0,0,0,0,0,0,0,0,0,0,0,0],"split_type":[0,0,0,0,0,0,0,0,0,0,0,0,0],"sum_hessian":[1.5557E4,1.4192E4,1.365E3,1.2807E4,1.385E3,1.108E3,2.57E2,1.0386E4,2.421E3,7.44E2,3.64E2,1.63E2,9.4E1],"tree_param":{"num_deleted":"0","num_feature":"1","num_nodes":"13","size_leaf_vector":"1"}},{"base_weights":[2.2712043E-3,-9.3176013E-1,9.707033E0,-1.259674E0,2.0991579E-1,7.2573457E0,2.0199268E1,-1.48556E-1,-2.9041836E-2,5.681891E-1,1.0453117E0,1.8217201E0,3.6482239E0],"categories":[],"categories_nodes":[],"categories_segments":[],"categories_sizes":[],"default_left":[0,0,0,0,0,0,0,0,0,0,0,0,0],"id":5,"left_children":[1,3,5,7,-1,9,11,-1,-1,-1,-1,-1,-1],"loss_changes":[1.4103534E5,1.4108784E4,3.496329E4,2.8037656E3,0E0,5.5241914E3,7.6620703E3,0E0,0E0,0E0,0E0,0E0,0E0],"parents":[2147483647,0,0,1,1,2,2,3,3,5,5,6,6],"right_children":[2,4,6,8,-1,10,12,-1,-1,-1,-1,-1,-1],"split_conditions":[4E0,3E0,6E0,2E0,2.0991579E-1,5E0,8E0,-1.48556E-1,-2.9041836E-2,5.681891E-1,1.0453117E0,1.8217201E0,3.6482239E0],"split_indices":[0,0,0,0,0,0,0,0,0,0,0,0,0],"split_type":[0,0,0,0,0,0,0,0,0,0,0,0,0],"sum_hessian":[1.5557E4,1.4192E4,1.365E3,1.2807E4,1.385E3,1.108E3,2.57E2,1.0386E4,2.421E3,7.44E2,3.64E2,2.31E2,2.6E1],"tree_param":{"num_deleted":"0","num_feature":"1","num_nodes":"13","size_leaf_vector":"1"}},{"base_weights":[2.5014232E-3,-8.3858186E-1,8.741515E0,-1.1337205E0,1.8893933E-1,6.533066E0,1.8200542E1,-1.3370183E-1,-2.6138857E-2,5.114465E-1,9.4106686E-1,1.4135265E0,2.502691E0],"categories":[],"categories_nodes":[],"categories_segments":[],"categories_sizes":[],"default_left":[0,0,0,0,0,0,0,0,0,0,0,0,0],"id":6,"left_children":[1,3,5,7,-1,9,11,-1,-1,-1,-1,-1,-1],"loss_changes":[1.1436235E5,1.1429365E4,2.841654E4,2.2710605E3,0E0,4.478996E3,6.8060156E3,0E0,0E0,0E0,0E0,0E0,0E0],"parents":[2147483647,0,0,1,1,2,2,3,3,5,5,6,6],"right_children":[2,4,6,8,-1,10,12,-1,-1,-1,-1,-1,-1],"split_conditions":[4E0,3E0,6E0,2E0,1.8893933E-1,5E0,7E0,-1.3370183E-1,-2.6138857E-2,5.114465E-1,9.4106686E-1,1.4135265E0,2.502691E0],"split_indices":[0,0,0,0,0,0,0,0,0,0,0,0,0],"split_type":[0,0,0,0,0,0,0,0,0,0,0,0,0],"sum_hessian":[1.5557E4,1.4192E4,1.365E3,1.2807E4,1.385E3,1.108E3,2.57E2,1.0386E4,2.421E3,7.44E2,3.64E2,1.63E2,9.4E1],"tree_param":{"num_deleted":"0","num_feature":"1","num_nodes":"13","size_leaf_vector":"1"}},{"base_weights":[2.5981795E-3,-7.547217E-1,7.871294E0,-1.020361E0,1.7005901E-1,5.881069E0,1.6395666E1,-1.20332934E-1,-2.352606E-2,4.6037045E-1,8.47218E-1,1.467666E0,3.0559137E0],"categories":[],"categories_nodes":[],"categories_segments":[],"categories_sizes":[],"default_left":[0,0,0,0,0,0,0,0,0,0,0,0,0],"id":7,"left_children":[1,3,5,7,-1,9,11,-1,-1,-1,-1,-1,-1],"loss_changes":[9.271792E4,9.258796E3,2.3078344E4,1.8395674E3,0E0,3.6315547E3,5.833047E3,0E0,0E0,0E0,0E0,0E0,0E0],"parents":[2147483647,0,0,1,1,2,2,3,3,5,5,6,6],"right_children":[2,4,6,8,-1,10,12,-1,-1,-1,-1,-1,-1],"split_conditions":[4E0,3E0,6E0,2E0,1.7005901E-1,5E0,8E0,-1.20332934E-1,-2.352606E-2,4.6037045E-1,8.47218E-1,1.467666E0,3.0559137E0],"split_indices":[0,0,0,0,0,0,0,0,0,0,0,0,0],"split_type":[0,0,0,0,0,0,0,0,0,0,0,0,0],"sum_hessian":[1.5557E4,1.4192E4,1.365E3,1.2807E4,1.385E3,1.108E3,2.57E2,1.0386E4,2.421E3,7.44E2,3.64E2,2.31E2,2.6E1],"tree_param":{"num_deleted":"0","num_feature":"1","num_nodes":"13","size_leaf_vector":"1"}},{"base_weights":[2.7148258E-3,-6.792477E-1,7.0884333E0,-9.183361E-1,1.5306537E-1,6.0689874E0,2.0663666E1,-1.083008E-1,-2.1174436E-2,4.1439518E-1,8.7736887E-1,1.9126204E0,3.7259438E0],"categories":[],"categories_nodes":[],"categories_segments":[],"categories_sizes":[],"default_left":[0,0,0,0,0,0,0,0,0,0,0,0,0],"id":8,"left_children":[1,3,5,7,-1,9,11,-1,-1,-1,-1,-1,-1],"loss_changes":[7.518409E4,7.5004434E3,1.877896E4,1.4900557E3,0E0,6.586492E3,1.711332E3,0E0,0E0,0E0,0E0,0E0,0E0],"parents":[2147483647,0,0,1,1,2,2,3,3,5,5,6,6],"right_children":[2,4,6,8,-1,10,12,-1,-1,-1,-1,-1,-1],"split_conditions":[4E0,3E0,7E0,2E0,1.5306537E-1,5E0,9E0,-1.083008E-1,-2.1174436E-2,4.1439518E-1,8.7736887E-1,1.9126204E0,3.7259438E0],"split_indices":[0,0,0,0,0,0,0,0,0,0,0,0,0],"split_type":[0,0,0,0,0,0,0,0,0,0,0,0,0],"sum_hessian":[1.5557E4,1.4192E4,1.365E3,1.2807E4,1.385E3,1.271E3,9.4E1,1.0386E4,2.421E3,7.44E2,5.27E2,8.8E1,6E0],"tree_param":{"num_deleted":"0","num_feature":"1","num_nodes":"13","size_leaf_vector":"1"}},{"base_weights":[2.8903189E-3,-6.113213E-1,6.384663E0,-8.265126E-1,1.377699E-1,4.728161E0,1.34803095E1,-9.747176E-2,-1.9057866E-2,3.730113E-1,6.752318E-1,1.2038298E0,2.5371664E0],"categories":[],"categories_nodes":[],"categories_segments":[],"categories_sizes":[],"default_left":[0,0,0,0,0,0,0,0,0,0,0,0,0],"id":9,"left_children":[1,3,5,7,-1,9,11,-1,-1,-1,-1,-1,-1],"loss_changes":[6.0987508E4,6.076025E3,1.5992168E4,1.2069512E3,0E0,2.2152227E3,4.1186133E3,0E0,0E0,0E0,0E0,0E0,0E0],"parents":[2147483647,0,0,1,1,2,2,3,3,5,5,6,6],"right_children":[2,4,6,8,-1,10,12,-1,-1,-1,-1,-1,-1],"split_conditions":[4E0,3E0,6E0,2E0,1.377699E-1,5E0,8E0,-9.747176E-2,-1.9057866E-2,3.730113E-1,6.752318E-1,1.2038298E0,2.5371664E0],"split_indices":[0,0,0,0,0,0,0,0,0,0,0,0,0],"split_type":[0,0,0,0,0,0,0,0,0,0,0,0,0],"sum_hessian":[1.5557E4,1.4192E4,1.365E3,1.2807E4,1.385E3,1.108E3,2.57E2,1.0386E4,2.421E3,7.44E2,3.64E2,2.31E2,2.6E1],"tree_param":{"num_deleted":"0","num_feature":"1","num_nodes":"13","size_leaf_vector":"1"}},{"base_weights":[2.9104797E-3,-5.501876E-1,5.749703E0,-7.4387044E-1,1.2400285E-1,4.897436E0,1.710058E1,-8.772552E-2,-1.7152878E-2,3.357602E-1,7.060844E-1,1.5745143E0,3.1891057E0],"categories":[],"categories_nodes":[],"categories_segments":[],"categories_sizes":[],"default_left":[0,0,0,0,0,0,0,0,0,0,0,0,0],"id":10,"left_children":[1,3,5,7,-1,9,11,-1,-1,-1,-1,-1,-1],"loss_changes":[4.9454887E4,4.9221196E3,1.3130898E4,9.776333E2,0E0,4.2136914E3,1.4023867E3,0E0,0E0,0E0,0E0,0E0,0E0],"parents":[2147483647,0,0,1,1,2,2,3,3,5,5,6,6],"right_children":[2,4,6,8,-1,10,12,-1,-1,-1,-1,-1,-1],"split_conditions":[4E0,3E0,7E0,2E0,1.2400285E-1,5E0,9E0,-8.772552E-2,-1.7152878E-2,3.357602E-1,7.060844E-1,1.5745143E0,3.1891057E0],"split_indices":[0,0,0,0,0,0,0,0,0,0,0,0,0],"split_type":[0,0,0,0,0,0,0,0,0,0,0,0,0],"sum_hessian":[1.5557E4,1.4192E4,1.365E3,1.2807E4,1.385E3,1.271E3,9.4E1,1.0386E4,2.421E3,7.44E2,5.27E2,8.8E1,6E0],"tree_param":{"num_deleted":"0","num_feature":"1","num_nodes":"13","size_leaf_vector":"1"}},{"base_weights":[2.9937897E-3,-4.9516752E-1,5.1789827E0,-6.694916E-1,1.1161151E-1,3.799283E0,1.1089478E1,-7.895382E-2,-1.5438308E-2,3.0222926E-1,5.374786E-1,9.882075E-1,2.105347E0],"categories":[],"categories_nodes":[],"categories_segments":[],"categories_sizes":[],"default_left":[0,0,0,0,0,0,0,0,0,0,0,0,0],"id":11,"left_children":[1,3,5,7,-1,9,11,-1,-1,-1,-1,-1,-1],"loss_changes":[4.0118516E4,3.987353E3,1.1097199E4,7.918862E2,0E0,1.3413389E3,2.89583E3,0E0,0E0,0E0,0E0,0E0,0E0],"parents":[2147483647,0,0,1,1,2,2,3,3,5,5,6,6],"right_children":[2,4,6,8,-1,10,12,-1,-1,-1,-1,-1,-1],"split_conditions":[4E0,3E0,6E0,2E0,1.1161151E-1,5E0,8E0,-7.895382E-2,-1.5438308E-2,3.0222926E-1,5.374786E-1,9.882075E-1,2.105347E0],"split_indices":[0,0,0,0,0,0,0,0,0,0,0,0,0],"split_type":[0,0,0,0,0,0,0,0,0,0,0,0,0],"sum_hessian":[1.5557E4,1.4192E4,1.365E3,1.2807E4,1.385E3,1.108E3,2.57E2,1.0386E4,2.421E3,7.44E2,3.64E2,2.31E2,2.6E1],"tree_param":{"num_deleted":"0","num_feature":"1","num_nodes":"13","size_leaf_vector":"1"}},{"base_weights":[2.948369E-3,-4.4564956E-1,4.663964E0,-6.025498E-1,1.0045842E-1,3.951296E0,1.4157118E1,-7.105919E-2,-1.3895112E-2,2.7204692E-1,5.680491E-1,1.2960175E0,2.7352953E0],"categories":[],"categories_nodes":[],"categories_segments":[],"categories_sizes":[],"default_left":[0,0,0,0,0,0,0,0,0,0,0,0,0],"id":12,"left_children":[1,3,5,7,-1,9,11,-1,-1,-1,-1,-1,-1],"loss_changes":[3.2532643E4,3.2301096E3,9.185689E3,6.4143066E2,0E0,2.691791E3,1.1459941E3,0E0,0E0,0E0,0E0,0E0,0E0],"parents":[2147483647,0,0,1,1,2,2,3,3,5,5,6,6],"right_children":[2,4,6,8,-1,10,12,-1,-1,-1,-1,-1,-1],"split_conditions":[4E0,3E0,7E0,2E0,1.0045842E-1,5E0,9E0,-7.105919E-2,-1.3895112E-2,2.7204692E-1,5.680491E-1,1.2960175E0,2.7352953E0],"split_indices":[0,0,0,0,0,0,0,0,0,0,0,0,0],"split_type":[0,0,0,0,0,0,0,0,0,0,0,0,0],"sum_hessian":[1.5557E4,1.4192E4,1.365E3,1.2807E4,1.385E3,1.271E3,9.4E1,1.0386E4,2.421E3,7.44E2,5.27E2,8.8E1,6E0],"tree_param":{"num_deleted":"0","num_feature":"1","num_nodes":"13","size_leaf_vector":"1"}},{"base_weights":[2.9675919E-3,-4.0108356E-1,4.2011337E0,-5.423015E-1,9.0419814E-2,3.0511556E0,9.127974E0,-6.395396E-2,-1.2506182E-2,2.4487875E-1,4.2722875E-1,8.119159E-1,1.7458242E0],"categories":[],"categories_nodes":[],"categories_segments":[],"categories_sizes":[],"default_left":[0,0,0,0,0,0,0,0,0,0,0,0,0],"id":13,"left_children":[1,3,5,7,-1,9,11,-1,-1,-1,-1,-1,-1],"loss_changes":[2.6392312E4,2.6166743E3,7.711578E3,5.195615E2,0E0,8.0528516E2,2.0264082E3,0E0,0E0,0E0,0E0,0E0,0E0],"parents":[2147483647,0,0,1,1,2,2,3,3,5,5,6,6],"right_children":[2,4,6,8,-1,10,12,-1,-1,-1,-1,-1,-1],"split_conditions":[4E0,3E0,6E0,2E0,9.0419814E-2,5E0,8E0,-6.395396E-2,-1.2506182E-2,2.4487875E-1,4.2722875E-1,8.119159E-1,1.7458242E0],"split_indices":[0,0,0,0,0,0,0,0,0,0,0,0,0],"split_type":[0,0,0,0,0,0,0,0,0,0,0,0,0],"sum_hessian":[1.5557E4,1.4192E4,1.365E3,1.2807E4,1.385E3,1.108E3,2.57E2,1.0386E4,2.421E3,7.44E2,3.64E2,2.31E2,2.6E1],"tree_param":{"num_deleted":"0","num_feature":"1","num_nodes":"13","size_leaf_vector":"1"}},{"base_weights":[2.879339E-3,-3.6097422E-1,3.783385E0,-4.880773E-1,8.138435E-2,3.1872962E0,1.1724876E1,-5.755918E-2,-1.1256075E-2,2.2042374E-1,4.5683405E-1,1.0666059E0,2.3511996E0],"categories":[],"categories_nodes":[],"categories_segments":[],"categories_sizes":[],"default_left":[0,0,0,0,0,0,0,0,0,0,0,0,0],"id":14,"left_children":[1,3,5,7,-1,9,11,-1,-1,-1,-1,-1,-1],"loss_changes":[2.140218E4,2.1197383E3,6.429047E3,4.208462E2,0E0,1.7168574E3,9.3485645E2,0E0,0E0,0E0,0E0,0E0,0E0],"parents":[2147483647,0,0,1,1,2,2,3,3,5,5,6,6],"right_children":[2,4,6,8,-1,10,12,-1,-1,-1,-1,-1,-1],"split_conditions":[4E0,3E0,7E0,2E0,8.138435E-2,5E0,9E0,-5.755918E-2,-1.1256075E-2,2.2042374E-1,4.5683405E-1,1.0666059E0,2.3511996E0],"split_indices":[0,0,0,0,0,0,0,0,0,0,0,0,0],"split_type":[0,0,0,0,0,0,0,0,0,0,0,0,0],"sum_hessian":[1.5557E4,1.4192E4,1.365E3,1.2807E4,1.385E3,1.271E3,9.4E1,1.0386E4,2.421E3,7.44E2,5.27E2,8.8E1,6E0],"tree_param":{"num_deleted":"0","num_feature":"1","num_nodes":"13","size_leaf_vector":"1"}},{"base_weights":[2.8554176E-3,-3.248759E-1,3.408044E0,-4.3927497E-1,7.325181E-2,2.4488256E0,7.5179873E0,-5.1803816E-2,-1.0130942E-2,1.9841096E-1,3.3906466E-1,6.67715E-1,1.4464513E0],"categories":[],"categories_nodes":[],"categories_segments":[],"categories_sizes":[],"default_left":[0,0,0,0,0,0,0,0,0,0,0,0,0],"id":15,"left_children":[1,3,5,7,-1,9,11,-1,-1,-1,-1,-1,-1],"loss_changes":[1.7363633E4,1.7171765E3,5.3668174E3,3.4088672E2,0E0,4.786587E2,1.4103691E3,0E0,0E0,0E0,0E0,0E0,0E0],"parents":[2147483647,0,0,1,1,2,2,3,3,5,5,6,6],"right_children":[2,4,6,8,-1,10,12,-1,-1,-1,-1,-1,-1],"split_conditions":[4E0,3E0,6E0,2E0,7.325181E-2,5E0,8E0,-5.1803816E-2,-1.0130942E-2,1.9841096E-1,3.3906466E-1,6.67715E-1,1.4464513E0],"split_indices":[0,0,0,0,0,0,0,0,0,0,0,0,0],"split_type":[0,0,0,0,0,0,0,0,0,0,0,0,0],"sum_hessian":[1.5557E4,1.4192E4,1.365E3,1.2807E4,1.385E3,1.108E3,2.57E2,1.0386E4,2.421E3,7.44E2,3.64E2,2.31E2,2.6E1],"tree_param":{"num_deleted":"0","num_feature":"1","num_nodes":"13","size_leaf_vector":"1"}},{"base_weights":[2.741027E-3,-2.9238752E-1,3.0691807E0,-3.953523E-1,6.593192E-2,2.5704546E0,9.714553E0,-4.6623934E-2,-9.118272E-3,2.2044276E-1,5.0299287E-1,8.776231E-1,2.0256865E0],"categories":[],"categories_nodes":[],"categories_segments":[],"categories_sizes":[],"default_left":[0,0,0,0,0,0,0,0,0,0,0,0,0],"id":16,"left_children":[1,3,5,7,-1,9,11,-1,-1,-1,-1,-1,-1],"loss_changes":[1.4080792E4,1.3910654E3,4.502254E3,2.761194E2,0E0,1.1340098E3,7.6196875E2,0E0,0E0,0E0,0E0,0E0,0E0],"parents":[2147483647,0,0,1,1,2,2,3,3,5,5,6,6],"right_children":[2,4,6,8,-1,10,12,-1,-1,-1,-1,-1,-1],"split_conditions":[4E0,3E0,7E0,2E0,6.593192E-2,6E0,9E0,-4.6623934E-2,-9.118272E-3,2.2044276E-1,5.0299287E-1,8.776231E-1,2.0256865E0],"split_indices":[0,0,0,0,0,0,0,0,0,0,0,0,0],"split_type":[0,0,0,0,0,0,0,0,0,0,0,0,0],"sum_hessian":[1.5557E4,1.4192E4,1.365E3,1.2807E4,1.385E3,1.271E3,9.4E1,1.0386E4,2.421E3,1.108E3,1.63E2,8.8E1,6E0],"tree_param":{"num_deleted":"0","num_feature":"1","num_nodes":"13","size_leaf_vector":"1"}},{"base_weights":[2.7007312E-3,-2.63148E-1,2.7649179E0,-3.558214E-1,5.93435E-2,2.3139782E0,8.773658E0,-4.1961987E-2,-8.206816E-3,1.565818E-1,3.3652383E-1,7.908467E-1,1.8520559E0],"categories":[],"categories_nodes":[],"categories_segments":[],"categories_sizes":[],"default_left":[0,0,0,0,0,0,0,0,0,0,0,0,0],"id":17,"left_children":[1,3,5,7,-1,9,11,-1,-1,-1,-1,-1,-1],"loss_changes":[1.1425464E4,1.1268864E3,3.6809834E3,2.2365771E2,0E0,9.9517236E2,6.546592E2,0E0,0E0,0E0,0E0,0E0,0E0],"parents":[2147483647,0,0,1,1,2,2,3,3,5,5,6,6],"right_children":[2,4,6,8,-1,10,12,-1,-1,-1,-1,-1,-1],"split_conditions":[4E0,3E0,7E0,2E0,5.93435E-2,5E0,9E0,-4.1961987E-2,-8.206816E-3,1.565818E-1,3.3652383E-1,7.908467E-1,1.8520559E0],"split_indices":[0,0,0,0,0,0,0,0,0,0,0,0,0],"split_type":[0,0,0,0,0,0,0,0,0,0,0,0,0],"sum_hessian":[1.5557E4,1.4192E4,1.365E3,1.2807E4,1.385E3,1.271E3,9.4E1,1.0386E4,2.421E3,7.44E2,5.27E2,8.8E1,6E0],"tree_param":{"num_deleted":"0","num_feature":"1","num_nodes":"13","size_leaf_vector":"1"}},{"base_weights":[2.6328596E-3,-2.3683253E-1,2.490722E0,-3.2024318E-1,5.341345E-2,1.768682E0,5.58472E0,-3.7766192E-2,-7.3864707E-3,1.4094463E-1,2.497071E-1,5.2473265E-1,1.6933085E0],"categories":[],"categories_nodes":[],"categories_segments":[],"categories_sizes":[],"default_left":[0,0,0,0,0,0,0,0,0,0,0,0,0],"id":18,"left_children":[1,3,5,7,-1,9,11,-1,-1,-1,-1,-1,-1],"loss_changes":[9.270222E3,9.128781E2,3.041753E3,1.811637E2,0E0,2.8666528E2,8.989956E2,0E0,0E0,0E0,0E0,0E0,0E0],"parents":[2147483647,0,0,1,1,2,2,3,3,5,5,6,6],"right_children":[2,4,6,8,-1,10,12,-1,-1,-1,-1,-1,-1],"split_conditions":[4E0,3E0,6E0,2E0,5.341345E-2,5E0,9E0,-3.7766192E-2,-7.3864707E-3,1.4094463E-1,2.497071E-1,5.2473265E-1,1.6933085E0],"split_indices":[0,0,0,0,0,0,0,0,0,0,0,0,0],"split_type":[0,0,0,0,0,0,0,0,0,0,0,0,0],"sum_hessian":[1.5557E4,1.4192E4,1.365E3,1.2807E4,1.385E3,1.108E3,2.57E2,1.0386E4,2.421E3,7.44E2,3.64E2,2.51E2,6E0],"tree_param":{"num_deleted":"0","num_feature":"1","num_nodes":"13","size_leaf_vector":"1"}},{"base_weights":[2.5377953E-3,-2.131487E-1,2.2435596E0,-2.882224E-1,4.8075967E-2,1.8618306E0,7.331095E0,-3.3989936E-2,-6.6481307E-3,1.268691E-1,2.6952153E-1,6.6076666E-1,1.5481676E0],"categories":[],"categories_nodes":[],"categories_segments":[],"categories_sizes":[],"default_left":[0,0,0,0,0,0,0,0,0,0,0,0,0],"id":19,"left_children":[1,3,5,7,-1,9,11,-1,-1,-1,-1,-1,-1],"loss_changes":[7.520565E3,7.395124E2,2.6392056E3,1.4674316E2,0E0,6.2534717E2,4.5785693E2,0E0,0E0,0E0,0E0,0E0,0E0],"parents":[2147483647,0,0,1,1,2,2,3,3,5,5,6,6],"right_children":[2,4,6,8,-1,10,12,-1,-1,-1,-1,-1,-1],"split_conditions":[4E0,3E0,7E0,2E0,4.8075967E-2,5E0,9E0,-3.3989936E-2,-6.6481307E-3,1.268691E-1,2.6952153E-1,6.6076666E-1,1.5481676E0],"split_indices":[0,0,0,0,0,0,0,0,0,0,0,0,0],"split_type":[0,0,0,0,0,0,0,0,0,0,0,0,0],"sum_hessian":[1.5557E4,1.4192E4,1.365E3,1.2807E4,1.385E3,1.271E3,9.4E1,1.0386E4,2.421E3,7.44E2,5.27E2,8.8E1,6E0],"tree_param":{"num_deleted":"0","num_feature":"1","num_nodes":"13","size_leaf_vector":"1"}},{"base_weights":[2.4519146E-3,-1.9183333E-1,2.0211108E0,-2.5940335E-1,4.327182E-2,1.675959E0,6.6212378E0,-3.059127E-2,-5.9835995E-3,1.4185898E-1,3.4061208E-1,5.9543246E-1,1.4154676E0],"categories":[],"categories_nodes":[],"categories_segments":[],"categories_sizes":[],"default_left":[0,0,0,0,0,0,0,0,0,0,0,0,0],"id":20,"left_children":[1,3,5,7,-1,9,11,-1,-1,-1,-1,-1,-1],"loss_changes":[6.1021675E3,5.9907025E2,2.1577593E3,1.18862305E2,0E0,5.6157764E2,3.930127E2,0E0,0E0,0E0,0E0,0E0,0E0],"parents":[2147483647,0,0,1,1,2,2,3,3,5,5,6,6],"right_children":[2,4,6,8,-1,10,12,-1,-1,-1,-1,-1,-1],"split_conditions":[4E0,3E0,7E0,2E0,4.327182E-2,6E0,9E0,-3.059127E-2,-5.9835995E-3,1.4185898E-1,3.4061208E-1,5.9543246E-1,1.4154676E0],"split_indices":[0,0,0,0,0,0,0,0,0,0,0,0,0],"split_type":[0,0,0,0,0,0,0,0,0,0,0,0,0],"sum_hessian":[1.5557E4,1.4192E4,1.365E3,1.2807E4,1.385E3,1.271E3,9.4E1,1.0386E4,2.421E3,1.108E3,1.63E2,8.8E1,6E0],"tree_param":{"num_deleted":"0","num_feature":"1","num_nodes":"13","size_leaf_vector":"1"}},{"base_weights":[2.3673961E-3,-1.1415773E-1,2.8006527E0,-2.3346585E-1,6.0331297E-1,2.223256E0,5.9802814E0,-2.7532434E-2,-5.3854873E-3,3.894774E-2,1.00032344E-1,1.8377952E-1,3.0675852E-1,5.365583E-1,1.2941419E0],"categories":[],"categories_nodes":[],"categories_segments":[],"categories_sizes":[],"default_left":[0,0,0,0,0,0,0,0,0,0,0,0,0,0,0],"id":21,"left_children":[1,3,5,7,9,11,13,-1,-1,-1,-1,-1,-1,-1,-1],"loss_changes":[5.0733247E3,1.2787491E3,1.1286382E3,9.627893E1,1.804367E2,1.6620312E2,3.3706714E2,0E0,0E0,0E0,0E0,0E0,0E0,0E0,0E0],"parents":[2147483647,0,0,1,1,2,2,3,3,4,4,5,5,6,6],"right_children":[2,4,6,8,10,12,14,-1,-1,-1,-1,-1,-1,-1,-1],"split_conditions":[5E0,3E0,7E0,2E0,4E0,6E0,9E0,-2.7532434E-2,-5.3854873E-3,3.894774E-2,1.00032344E-1,1.8377952E-1,3.0675852E-1,5.365583E-1,1.2941419E0],"split_indices":[0,0,0,0,0,0,0,0,0,0,0,0,0,0,0],"split_type":[0,0,0,0,0,0,0,0,0,0,0,0,0,0,0],"sum_hessian":[1.5557E4,1.4936E4,6.21E2,1.2807E4,2.129E3,5.27E2,9.4E1,1.0386E4,2.421E3,1.385E3,7.44E2,3.64E2,1.63E2,8.8E1,6E0],"tree_param":{"num_deleted":"0","num_feature":"1","num_nodes":"15","size_leaf_vector":"1"}},{"base_weights":[2.2866484E-3,-1.02734886E-1,2.5243194E0,-2.1012186E-1,5.4304683E-1,2.00186E0,5.401522E0,-2.477946E-2,-4.84717E-3,3.505579E-2,9.0042494E-2,1.6545199E-1,2.7626967E-1,4.835051E-1,1.1832153E0],"categories":[],"categories_nodes":[],"categories_segments":[],"categories_sizes":[],"default_left":[0,0,0,0,0,0,0,0,0,0,0,0,0,0,0],"id":22,"left_children":[1,3,5,7,9,11,13,-1,-1,-1,-1,-1,-1,-1,-1],"loss_changes":[4.121072E3,1.0359734E3,9.241907E2,7.7986145E1,1.4620996E2,1.3496313E2,2.8885376E2,0E0,0E0,0E0,0E0,0E0,0E0,0E0,0E0],"parents":[2147483647,0,0,1,1,2,2,3,3,4,4,5,5,6,6],"right_children":[2,4,6,8,10,12,14,-1,-1,-1,-1,-1,-1,-1,-1],"split_conditions":[5E0,3E0,7E0,2E0,4E0,6E0,9E0,-2.477946E-2,-4.84717E-3,3.505579E-2,9.0042494E-2,1.6545199E-1,2.7626967E-1,4.835051E-1,1.1832153E0],"split_indices":[0,0,0,0,0,0,0,0,0,0,0,0,0,0,0],"split_type":[0,0,0,0,0,0,0,0,0,0,0,0,0,0,0],"sum_hessian":[1.5557E4,1.4936E4,6.21E2,1.2807E4,2.129E3,5.27E2,9.4E1,1.0386E4,2.421E3,1.385E3,7.44E2,3.64E2,1.63E2,8.8E1,6E0],"tree_param":{"num_deleted":"0","num_feature":"1","num_nodes":"15","size_leaf_vector":"1"}},{"base_weights":[2.199707E-3,-9.2454955E-2,2.2752776E0,-1.8911196E-1,4.8880112E-1,1.8025111E0,4.8789144E0,-2.2301752E-2,-4.362641E-3,3.1552758E-2,8.1050366E-2,1.4895222E-1,2.4881116E-1,4.3569785E-1,1.0817968E0],"categories":[],"categories_nodes":[],"categories_segments":[],"categories_sizes":[],"default_left":[0,0,0,0,0,0,0,0,0,0,0,0,0,0,0],"id":23,"left_children":[1,3,5,7,9,11,13,-1,-1,-1,-1,-1,-1,-1,-1],"loss_changes":[3.3476294E3,8.392901E2,7.568335E2,6.316916E1,1.1847586E2,1.0959485E2,2.4734766E2,0E0,0E0,0E0,0E0,0E0,0E0,0E0,0E0],"parents":[2147483647,0,0,1,1,2,2,3,3,4,4,5,5,6,6],"right_children":[2,4,6,8,10,12,14,-1,-1,-1,-1,-1,-1,-1,-1],"split_conditions":[5E0,3E0,7E0,2E0,4E0,6E0,9E0,-2.2301752E-2,-4.362641E-3,3.1552758E-2,8.1050366E-2,1.4895222E-1,2.4881116E-1,4.3569785E-1,1.0817968E0],"split_indices":[0,0,0,0,0,0,0,0,0,0,0,0,0,0,0],"split_type":[0,0,0,0,0,0,0,0,0,0,0,0,0,0,0],"sum_hessian":[1.5557E4,1.4936E4,6.21E2,1.2807E4,2.129E3,5.27E2,9.4E1,1.0386E4,2.421E3,1.385E3,7.44E2,3.64E2,1.63E2,8.8E1,6E0],"tree_param":{"num_deleted":"0","num_feature":"1","num_nodes":"15","size_leaf_vector":"1"}},{"base_weights":[2.1083509E-3,-8.3203696E-2,2.0508285E0,-1.7020287E-1,4.39974E-1,1.8344761E0,6.7506523E0,-2.0071791E-2,-3.9265626E-3,2.8399754E-2,7.295626E-2,1.3409777E-1,2.602978E-1,5.382505E-1,9.890715E-1],"categories":[],"categories_nodes":[],"categories_segments":[],"categories_sizes":[],"default_left":[0,0,0,0,0,0,0,0,0,0,0,0,0,0,0],"id":24,"left_children":[1,3,5,7,9,11,13,-1,-1,-1,-1,-1,-1,-1,-1],"loss_changes":[2.719406E3,6.7994775E2,6.2007715E2,5.1167236E1,9.600278E1,2.2254541E2,6.2756958E1,0E0,0E0,0E0,0E0,0E0,0E0,0E0,0E0],"parents":[2147483647,0,0,1,1,2,2,3,3,4,4,5,5,6,6],"right_children":[2,4,6,8,10,12,14,-1,-1,-1,-1,-1,-1,-1,-1],"split_conditions":[5E0,3E0,8E0,2E0,4E0,6E0,9E0,-2.0071791E-2,-3.9265626E-3,2.8399754E-2,7.295626E-2,1.3409777E-1,2.602978E-1,5.382505E-1,9.890715E-1],"split_indices":[0,0,0,0,0,0,0,0,0,0,0,0,0,0,0],"split_type":[0,0,0,0,0,0,0,0,0,0,0,0,0,0,0],"sum_hessian":[1.5557E4,1.4936E4,6.21E2,1.2807E4,2.129E3,5.95E2,2.6E1,1.0386E4,2.421E3,1.385E3,7.44E2,3.64E2,2.31E2,2E1,6E0],"tree_param":{"num_deleted":"0","num_feature":"1","num_nodes":"15","size_leaf_vector":"1"}},{"base_weights":[2.025975E-3,-7.487817E-2,1.8488349E0,-1.5318446E-1,3.9602414E-1,1.4502095E0,4.0448914E0,-1.8064806E-2,-3.534073E-3,2.5561808E-2,6.567044E-2,1.207247E-1,1.9821064E-1,3.6063388E-1,9.0429366E-1],"categories":[],"categories_nodes":[],"categories_segments":[],"categories_sizes":[],"default_left":[0,0,0,0,0,0,0,0,0,0,0,0,0,0,0],"id":25,"left_children":[1,3,5,7,9,11,13,-1,-1,-1,-1,-1,-1,-1,-1],"loss_changes":[2.2097983E3,5.508568E2,5.386355E2,4.1445587E1,7.779245E1,6.5841064E1,1.7561914E2,0E0,0E0,0E0,0E0,0E0,0E0,0E0,0E0],"parents":[2147483647,0,0,1,1,2,2,3,3,4,4,5,5,6,6],"right_children":[2,4,6,8,10,12,14,-1,-1,-1,-1,-1,-1,-1,-1],"split_conditions":[5E0,3E0,7E0,2E0,4E0,6E0,9E0,-1.8064806E-2,-3.534073E-3,2.5561808E-2,6.567044E-2,1.207247E-1,1.9821064E-1,3.6063388E-1,9.0429366E-1],"split_indices":[0,0,0,0,0,0,0,0,0,0,0,0,0,0,0],"split_type":[0,0,0,0,0,0,0,0,0,0,0,0,0,0,0],"sum_hessian":[1.5557E4,1.4936E4,6.21E2,1.2807E4,2.129E3,5.27E2,9.4E1,1.0386E4,2.421E3,1.385E3,7.44E2,3.64E2,1.63E2,8.8E1,6E0],"tree_param":{"num_deleted":"0","num_feature":"1","num_nodes":"15","size_leaf_vector":"1"}},{"base_weights":[1.9296685E-3,-6.7385666E-2,1.6664975E0,-1.378677E-1,3.564647E-1,1.4826035E0,5.664063E0,-1.6258499E-2,-3.1808112E-3,2.3007471E-2,5.911225E-2,1.0868522E-1,2.0988391E-1,4.9270734E-1,1.24129E0],"categories":[],"categories_nodes":[],"categories_segments":[],"categories_sizes":[],"default_left":[0,0,0,0,0,0,0,0,0,0,0,0,0,0,0],"id":26,"left_children":[1,3,5,7,9,11,13,-1,-1,-1,-1,-1,-1,-1,-1],"loss_changes":[1.7951953E3,4.462746E2,4.4885205E2,3.357106E1,6.3036438E1,1.4306897E2,7.313403E1,0E0,0E0,0E0,0E0,0E0,0E0,0E0,0E0],"parents":[2147483647,0,0,1,1,2,2,3,3,4,4,5,5,6,6],"right_children":[2,4,6,8,10,12,14,-1,-1,-1,-1,-1,-1,-1,-1],"split_conditions":[5E0,3E0,8E0,2E0,4E0,6E0,1E1,-1.6258499E-2,-3.1808112E-3,2.3007471E-2,5.911225E-2,1.0868522E-1,2.0988391E-1,4.9270734E-1,1.24129E0],"split_indices":[0,0,0,0,0,0,0,0,0,0,0,0,0,0,0],"split_type":[0,0,0,0,0,0,0,0,0,0,0,0,0,0,0],"sum_hessian":[1.5557E4,1.4936E4,6.21E2,1.2807E4,2.129E3,5.95E2,2.6E1,1.0386E4,2.421E3,1.385E3,7.44E2,3.64E2,2.31E2,2.5E1,1E0],"tree_param":{"num_deleted":"0","num_feature":"1","num_nodes":"15","size_leaf_vector":"1"}},{"base_weights":[1.8726457E-3,-6.0642924E-2,1.5031478E0,-1.2408246E-1,3.2085672E-1,1.1660718E0,3.3607583E0,-1.4632806E-2,-2.8628684E-3,2.0708391E-2,5.320893E-2,9.784654E-2,1.5765004E-1,2.978675E-1,7.7385646E-1],"categories":[],"categories_nodes":[],"categories_segments":[],"categories_sizes":[],"default_left":[0,0,0,0,0,0,0,0,0,0,0,0,0,0,0],"id":27,"left_children":[1,3,5,7,9,11,13,-1,-1,-1,-1,-1,-1,-1,-1],"loss_changes":[1.4602572E3,3.6154752E2,3.8555017E2,2.7192657E1,5.1079086E1,3.9112915E1,1.3585461E2,0E0,0E0,0E0,0E0,0E0,0E0,0E0,0E0],"parents":[2147483647,0,0,1,1,2,2,3,3,4,4,5,5,6,6],"right_children":[2,4,6,8,10,12,14,-1,-1,-1,-1,-1,-1,-1,-1],"split_conditions":[5E0,3E0,7E0,2E0,4E0,6E0,9E0,-1.4632806E-2,-2.8628684E-3,2.0708391E-2,5.320893E-2,9.784654E-2,1.5765004E-1,2.978675E-1,7.7385646E-1],"split_indices":[0,0,0,0,0,0,0,0,0,0,0,0,0,0,0],"split_type":[0,0,0,0,0,0,0,0,0,0,0,0,0,0,0],"sum_hessian":[1.5557E4,1.4936E4,6.21E2,1.2807E4,2.129E3,5.27E2,9.4E1,1.0386E4,2.421E3,1.385E3,7.44E2,3.64E2,1.63E2,8.8E1,6E0],"tree_param":{"num_deleted":"0","num_feature":"1","num_nodes":"15","size_leaf_vector":"1"}},{"base_weights":[1.7742864E-3,-5.4574877E-2,1.3549666E0,-1.1167557E-1,2.888055E-1,1.1980184E0,4.7692695E0,-1.3169666E-2,-2.5766937E-3,1.863903E-2,4.7895145E-2,1.04994826E-1,2.313715E-1,4.0753704E-1,1.1405327E0],"categories":[],"categories_nodes":[],"categories_segments":[],"categories_sizes":[],"default_left":[0,0,0,0,0,0,0,0,0,0,0,0,0,0,0],"id":28,"left_children":[1,3,5,7,9,11,13,-1,-1,-1,-1,-1,-1,-1,-1],"loss_changes":[1.1863911E3,2.9290585E2,3.2759668E2,2.2026154E1,4.1390015E1,9.603082E1,7.784747E1,0E0,0E0,0E0,0E0,0E0,0E0,0E0,0E0],"parents":[2147483647,0,0,1,1,2,2,3,3,4,4,5,5,6,6],"right_children":[2,4,6,8,10,12,14,-1,-1,-1,-1,-1,-1,-1,-1],"split_conditions":[5E0,3E0,8E0,2E0,4E0,7E0,1E1,-1.3169666E-2,-2.5766937E-3,1.863903E-2,4.7895145E-2,1.04994826E-1,2.313715E-1,4.0753704E-1,1.1405327E0],"split_indices":[0,0,0,0,0,0,0,0,0,0,0,0,0,0,0],"split_type":[0,0,0,0,0,0,0,0,0,0,0,0,0,0,0],"sum_hessian":[1.5557E4,1.4936E4,6.21E2,1.2807E4,2.129E3,5.95E2,2.6E1,1.0386E4,2.421E3,1.385E3,7.44E2,5.27E2,6.8E1,2.5E1,1E0],"tree_param":{"num_deleted":"0","num_feature":"1","num_nodes":"15","size_leaf_vector":"1"}},{"base_weights":[1.7211768E-3,-4.9114022E-2,1.2224988E0,-1.00509256E-1,2.5995606E-1,1.07878E0,4.349679E0,-1.1852826E-2,-2.319141E-3,1.6776465E-2,4.311203E-2,7.761785E-2,1.550206E-1,3.6835083E-1,1.083506E0],"categories":[],"categories_nodes":[],"categories_segments":[],"categories_sizes":[],"default_left":[0,0,0,0,0,0,0,0,0,0,0,0,0,0,0],"id":29,"left_children":[1,3,5,7,9,11,13,-1,-1,-1,-1,-1,-1,-1,-1],"loss_changes":[9.6556573E2,2.3729637E2,2.748559E2,1.7841232E1,3.3538803E1,8.3818726E1,7.673901E1,0E0,0E0,0E0,0E0,0E0,0E0,0E0,0E0],"parents":[2147483647,0,0,1,1,2,2,3,3,4,4,5,5,6,6],"right_children":[2,4,6,8,10,12,14,-1,-1,-1,-1,-1,-1,-1,-1],"split_conditions":[5E0,3E0,8E0,2E0,4E0,6E0,1E1,-1.1852826E-2,-2.319141E-3,1.6776465E-2,4.311203E-2,7.761785E-2,1.550206E-1,3.6835083E-1,1.083506E0],"split_indices":[0,0,0,0,0,0,0,0,0,0,0,0,0,0,0],"split_type":[0,0,0,0,0,0,0,0,0,0,0,0,0,0,0],"sum_hessian":[1.5557E4,1.4936E4,6.21E2,1.2807E4,2.129E3,5.95E2,2.6E1,1.0386E4,2.421E3,1.385E3,7.44E2,3.64E2,2.31E2,2.5E1,1E0],"tree_param":{"num_deleted":"0","num_feature":"1","num_nodes":"15","size_leaf_vector":"1"}},{"base_weights":[1.6602733E-3,-4.4199567E-2,1.1029574E0,-9.045945E-2,2.339886E-1,9.712926E-1,3.9684844E0,-1.06676575E-2,-2.087327E-3,1.5100019E-2,3.8806636E-2,8.437858E-2,1.9329204E-1,3.3293256E-1,1.0293308E0],"categories":[],"categories_nodes":[],"categories_segments":[],"categories_sizes":[],"default_left":[0,0,0,0,0,0,0,0,0,0,0,0,0,0,0],"id":30,"left_children":[1,3,5,7,9,11,13,-1,-1,-1,-1,-1,-1,-1,-1],"loss_changes":[7.8581036E2,1.922447E2,2.3081903E2,1.4451447E1,2.7177002E1,7.144708E1,7.487955E1,0E0,0E0,0E0,0E0,0E0,0E0,0E0,0E0],"parents":[2147483647,0,0,1,1,2,2,3,3,4,4,5,5,6,6],"right_children":[2,4,6,8,10,12,14,-1,-1,-1,-1,-1,-1,-1,-1],"split_conditions":[5E0,3E0,8E0,2E0,4E0,7E0,1E1,-1.06676575E-2,-2.087327E-3,1.5100019E-2,3.8806636E-2,8.437858E-2,1.9329204E-1,3.3293256E-1,1.0293308E0],"split_indices":[0,0,0,0,0,0,0,0,0,0,0,0,0,0,0],"split_type":[0,0,0,0,0,0,0,0,0,0,0,0,0,0,0],"sum_hessian":[1.5557E4,1.4936E4,6.21E2,1.2807E4,2.129E3,5.95E2,2.6E1,1.0386E4,2.421E3,1.385E3,7.44E2,5.27E2,6.8E1,2.5E1,1E0],"tree_param":{"num_deleted":"0","num_feature":"1","num_nodes":"15","size_leaf_vector":"1"}},{"base_weights":[1.6022791E-3,-3.977686E-2,9.952978E-1,-8.141449E-2,2.1061495E-1,8.7462884E-1,3.6220913E0,-9.600994E-3,-1.8786778E-3,1.359111E-2,3.4931153E-2,6.146254E-2,1.279916E-1,3.009199E-1,9.7786444E-1],"categories":[],"categories_nodes":[],"categories_segments":[],"categories_sizes":[],"default_left":[0,0,0,0,0,0,0,0,0,0,0,0,0,0,0],"id":31,"left_children":[1,3,5,7,9,11,13,-1,-1,-1,-1,-1,-1,-1,-1],"loss_changes":[6.397576E2,1.5574615E2,1.9398895E2,1.1705727E1,2.202182E1,6.2017426E1,7.245331E1,0E0,0E0,0E0,0E0,0E0,0E0,0E0,0E0],"parents":[2147483647,0,0,1,1,2,2,3,3,4,4,5,5,6,6],"right_children":[2,4,6,8,10,12,14,-1,-1,-1,-1,-1,-1,-1,-1],"split_conditions":[5E0,3E0,8E0,2E0,4E0,6E0,1E1,-9.600994E-3,-1.8786778E-3,1.359111E-2,3.4931153E-2,6.146254E-2,1.279916E-1,3.009199E-1,9.7786444E-1],"split_indices":[0,0,0,0,0,0,0,0,0,0,0,0,0,0,0],"split_type":[0,0,0,0,0,0,0,0,0,0,0,0,0,0,0],"sum_hessian":[1.5557E4,1.4936E4,6.21E2,1.2807E4,2.129E3,5.95E2,2.6E1,1.0386E4,2.421E3,1.385E3,7.44E2,3.64E2,2.31E2,2.5E1,1E0],"tree_param":{"num_deleted":"0","num_feature":"1","num_nodes":"15","size_leaf_vector":"1"}},{"base_weights":[1.538816E-3,-3.5796702E-2,8.98129E-1,-7.327393E-2,1.8957612E-1,6.776823E-1,2.1138947E0,-8.640987E-3,-1.6908813E-3,1.223296E-2,3.1442724E-2,5.5333138E-2,9.503066E-2,1.9387296E-1,9.289711E-1],"categories":[],"categories_nodes":[],"categories_segments":[],"categories_sizes":[],"default_left":[0,0,0,0,0,0,0,0,0,0,0,0,0,0,0],"id":32,"left_children":[1,3,5,7,9,11,13,-1,-1,-1,-1,-1,-1,-1,-1],"loss_changes":[5.208309E2,1.26176994E2,1.6527066E2,9.481689E0,1.7844597E1,1.7373932E1,1.0140033E2,0E0,0E0,0E0,0E0,0E0,0E0,0E0,0E0],"parents":[2147483647,0,0,1,1,2,2,3,3,4,4,5,5,6,6],"right_children":[2,4,6,8,10,12,14,-1,-1,-1,-1,-1,-1,-1,-1],"split_conditions":[5E0,3E0,7E0,2E0,4E0,6E0,1E1,-8.640987E-3,-1.6908813E-3,1.223296E-2,3.1442724E-2,5.5333138E-2,9.503066E-2,1.9387296E-1,9.289711E-1],"split_indices":[0,0,0,0,0,0,0,0,0,0,0,0,0,0,0],"split_type":[0,0,0,0,0,0,0,0,0,0,0,0,0,0,0],"sum_hessian":[1.5557E4,1.4936E4,6.21E2,1.2807E4,2.129E3,5.27E2,9.4E1,1.0386E4,2.421E3,1.385E3,7.44E2,3.64E2,1.63E2,9.3E1,1E0],"tree_param":{"num_deleted":"0","num_feature":"1","num_nodes":"15","size_leaf_vector":"1"}},{"base_weights":[1.4689122E-3,-3.221478E-2,8.103625E-1,-6.594734E-2,1.7063916E-1,7.0558E-1,3.0933268E0,-7.7769714E-3,-1.5218648E-3,1.1010565E-2,2.8302679E-2,6.1019845E-2,1.4252307E-1,2.5334373E-1,8.825226E-1],"categories":[],"categories_nodes":[],"categories_segments":[],"categories_sizes":[],"default_left":[0,0,0,0,0,0,0,0,0,0,0,0,0,0,0],"id":33,"left_children":[1,3,5,7,9,11,13,-1,-1,-1,-1,-1,-1,-1,-1],"loss_changes":[4.2392752E2,1.022219E2,1.4660901E2,7.6801987E0,1.4459694E1,4.004062E1,6.4291046E1,0E0,0E0,0E0,0E0,0E0,0E0,0E0,0E0],"parents":[2147483647,0,0,1,1,2,2,3,3,4,4,5,5,6,6],"right_children":[2,4,6,8,10,12,14,-1,-1,-1,-1,-1,-1,-1,-1],"split_conditions":[5E0,3E0,8E0,2E0,4E0,7E0,1E1,-7.7769714E-3,-1.5218648E-3,1.1010565E-2,2.8302679E-2,6.1019845E-2,1.4252307E-1,2.5334373E-1,8.825226E-1],"split_indices":[0,0,0,0,0,0,0,0,0,0,0,0,0,0,0],"split_type":[0,0,0,0,0,0,0,0,0,0,0,0,0,0,0],"sum_hessian":[1.5557E4,1.4936E4,6.21E2,1.2807E4,2.129E3,5.95E2,2.6E1,1.0386E4,2.421E3,1.385E3,7.44E2,5.27E2,6.8E1,2.5E1,1E0],"tree_param":{"num_deleted":"0","num_feature":"1","num_nodes":"15","size_leaf_vector":"1"}},{"base_weights":[1.4099932E-3,-2.8991332E-2,7.314794E-1,-5.9353344E-2,1.5359348E-1,6.353633E-1,2.8260622E0,-6.9993488E-3,-1.369745E-3,9.910295E-3,2.5476163E-2,4.372962E-2,9.442388E-2,2.2898367E-1,8.383965E-1],"categories":[],"categories_nodes":[],"categories_segments":[],"categories_sizes":[],"default_left":[0,0,0,0,0,0,0,0,0,0,0,0,0,0,0],"id":34,"left_children":[1,3,5,7,9,11,13,-1,-1,-1,-1,-1,-1,-1,-1],"loss_changes":[3.453322E2,8.28145E1,1.2342743E2,6.2209816E0,1.1716816E1,3.604921E1,6.1269928E1,0E0,0E0,0E0,0E0,0E0,0E0,0E0,0E0],"parents":[2147483647,0,0,1,1,2,2,3,3,4,4,5,5,6,6],"right_children":[2,4,6,8,10,12,14,-1,-1,-1,-1,-1,-1,-1,-1],"split_conditions":[5E0,3E0,8E0,2E0,4E0,6E0,1E1,-6.9993488E-3,-1.369745E-3,9.910295E-3,2.5476163E-2,4.372962E-2,9.442388E-2,2.2898367E-1,8.383965E-1],"split_indices":[0,0,0,0,0,0,0,0,0,0,0,0,0,0,0],"split_type":[0,0,0,0,0,0,0,0,0,0,0,0,0,0,0],"sum_hessian":[1.5557E4,1.4936E4,6.21E2,1.2807E4,2.129E3,5.95E2,2.6E1,1.0386E4,2.421E3,1.385E3,7.44E2,3.64E2,2.31E2,2.5E1,1E0],"tree_param":{"num_deleted":"0","num_feature":"1","num_nodes":"15","size_leaf_vector":"1"}},{"base_weights":[1.3482122E-3,-2.6090391E-2,6.6026956E-1,-5.3418666E-2,1.3825077E-1,6.1440194E-1,4.6022916E0,-6.2994817E-3,-1.2328301E-3,8.919999E-3,2.2931939E-2,4.8999745E-2,1.345539E-1,2.714418E-1,7.964768E-1],"categories":[],"categories_nodes":[],"categories_segments":[],"categories_sizes":[],"default_left":[0,0,0,0,0,0,0,0,0,0,0,0,0,0,0],"id":35,"left_children":[1,3,5,7,9,11,13,-1,-1,-1,-1,-1,-1,-1,-1],"loss_changes":[2.8130402E2,6.709185E1,1.0963675E2,5.0390053E0,9.494228E0,5.5370056E1,2.2815811E1,0E0,0E0,0E0,0E0,0E0,0E0,0E0,0E0],"parents":[2147483647,0,0,1,1,2,2,3,3,4,4,5,5,6,6],"right_children":[2,4,6,8,10,12,14,-1,-1,-1,-1,-1,-1,-1,-1],"split_conditions":[5E0,3E0,9E0,2E0,4E0,7E0,1E1,-6.2994817E-3,-1.2328301E-3,8.919999E-3,2.2931939E-2,4.8999745E-2,1.345539E-1,2.714418E-1,7.964768E-1],"split_indices":[0,0,0,0,0,0,0,0,0,0,0,0,0,0,0],"split_type":[0,0,0,0,0,0,0,0,0,0,0,0,0,0,0],"sum_hessian":[1.5557E4,1.4936E4,6.21E2,1.2807E4,2.129E3,6.15E2,6E0,1.0386E4,2.421E3,1.385E3,7.44E2,5.27E2,8.8E1,5E0,1E0],"tree_param":{"num_deleted":"0","num_feature":"1","num_nodes":"15","size_leaf_vector":"1"}},{"base_weights":[1.2953853E-3,-1.46956E-2,9.4965494E-1,-4.8077382E-2,1.5674329E-1,8.944666E-1,7.5665283E-1,-5.6695943E-3,-1.1095948E-3,8.028624E-3,2.5215602E-2,7.763578E-2,1.9139583E-1],"categories":[],"categories_nodes":[],"categories_segments":[],"categories_sizes":[],"default_left":[0,0,0,0,0,0,0,0,0,0,0,0,0],"id":36,"left_children":[1,3,5,7,9,11,-1,-1,-1,-1,-1,-1,-1],"loss_changes":[2.3595418E2,8.757417E1,8.744693E1,4.0816174E0,1.8173435E1,2.9459702E1,0E0,0E0,0E0,0E0,0E0,0E0,0E0],"parents":[2147483647,0,0,1,1,2,2,3,3,4,4,5,5],"right_children":[2,4,6,8,10,12,-1,-1,-1,-1,-1,-1,-1],"split_conditions":[6E0,3E0,1E1,2E0,4E0,8E0,7.5665283E-1,-5.6695943E-3,-1.1095948E-3,8.028624E-3,2.5215602E-2,7.763578E-2,1.9139583E-1],"split_indices":[0,0,0,0,0,0,0,0,0,0,0,0,0],"split_type":[0,0,0,0,0,0,0,0,0,0,0,0,0],"sum_hessian":[1.5557E4,1.53E4,2.57E2,1.2807E4,2.493E3,2.56E2,1E0,1.0386E4,2.421E3,1.385E3,1.108E3,2.31E2,2.5E1],"tree_param":{"num_deleted":"0","num_feature":"1","num_nodes":"13","size_leaf_vector":"1"}},{"base_weights":[1.233504E-3,-1.3224266E-2,8.5866416E-1,-4.3270174E-2,1.4108256E-1,8.060659E-1,7.188202E-1,-5.1026894E-3,-9.986806E-4,7.2263516E-3,2.2696363E-2,6.990557E-2,1.7299241E-1],"categories":[],"categories_nodes":[],"categories_segments":[],"categories_sizes":[],"default_left":[0,0,0,0,0,0,0,0,0,0,0,0,0],"id":37,"left_children":[1,3,5,7,9,11,-1,-1,-1,-1,-1,-1,-1],"loss_changes":[1.9287665E2,7.094595E1,8.009979E1,3.3061275E0,1.4723766E1,2.4198303E1,0E0,0E0,0E0,0E0,0E0,0E0,0E0],"parents":[2147483647,0,0,1,1,2,2,3,3,4,4,5,5],"right_children":[2,4,6,8,10,12,-1,-1,-1,-1,-1,-1,-1],"split_conditions":[6E0,3E0,1E1,2E0,4E0,8E0,7.188202E-1,-5.1026894E-3,-9.986806E-4,7.2263516E-3,2.2696363E-2,6.990557E-2,1.7299241E-1],"split_indices":[0,0,0,0,0,0,0,0,0,0,0,0,0],"split_type":[0,0,0,0,0,0,0,0,0,0,0,0,0],"sum_hessian":[1.5557E4,1.53E4,2.57E2,1.2807E4,2.493E3,2.56E2,1E0,1.0386E4,2.421E3,1.385E3,1.108E3,2.31E2,2.5E1],"tree_param":{"num_deleted":"0","num_feature":"1","num_nodes":"13","size_leaf_vector":"1"}},{"base_weights":[1.1735109E-3,-1.9448757E-2,4.9640444E-1,-3.8943622E-2,9.778582E-2,4.7521093E-1,6.8287927E-1,-4.5924694E-3,-8.988483E-4,6.5042265E-3,1.5857078E-2,3.6251284E-2,1.1031832E-1],"categories":[],"categories_nodes":[],"categories_segments":[],"categories_sizes":[],"default_left":[0,0,0,0,0,0,0,0,0,0,0,0,0],"id":38,"left_children":[1,3,5,7,9,11,-1,-1,-1,-1,-1,-1,-1],"loss_changes":[1.5890018E2,3.4141907E1,8.0230774E1,2.6779823E0,4.229059E0,4.3549072E1,0E0,0E0,0E0,0E0,0E0,0E0,0E0],"parents":[2147483647,0,0,1,1,2,2,3,3,4,4,5,5],"right_children":[2,4,6,8,10,12,-1,-1,-1,-1,-1,-1,-1],"split_conditions":[5E0,3E0,1E1,2E0,4E0,7E0,6.8287927E-1,-4.5924694E-3,-8.988483E-4,6.5042265E-3,1.5857078E-2,3.6251284E-2,1.1031832E-1],"split_indices":[0,0,0,0,0,0,0,0,0,0,0,0,0],"split_type":[0,0,0,0,0,0,0,0,0,0,0,0,0],"sum_hessian":[1.5557E4,1.4936E4,6.21E2,1.2807E4,2.129E3,6.2E2,1E0,1.0386E4,2.421E3,1.385E3,7.44E2,5.27E2,9.3E1],"tree_param":{"num_deleted":"0","num_feature":"1","num_nodes":"13","size_leaf_vector":"1"}},{"base_weights":[1.1106004E-3,-1.0862916E-2,7.112101E-1,-3.5049688E-2,1.1335322E-1,6.6349214E-1,6.4873546E-1,-4.133267E-3,-8.0900156E-4,5.8542895E-3,1.8175157E-2,5.7164747E-2,1.4575107E-1],"categories":[],"categories_nodes":[],"categories_segments":[],"categories_sizes":[],"default_left":[0,0,0,0,0,0,0,0,0,0,0,0,0],"id":39,"left_children":[1,3,5,7,9,11,-1,-1,-1,-1,-1,-1,-1],"loss_changes":[1.3228786E2,4.5974106E1,6.680705E1,2.1691751E0,9.339207E0,1.7908913E1,0E0,0E0,0E0,0E0,0E0,0E0,0E0],"parents":[2147483647,0,0,1,1,2,2,3,3,4,4,5,5],"right_children":[2,4,6,8,10,12,-1,-1,-1,-1,-1,-1,-1],"split_conditions":[6E0,3E0,1E1,2E0,4E0,8E0,6.4873546E-1,-4.133267E-3,-8.0900156E-4,5.8542895E-3,1.8175157E-2,5.7164747E-2,1.4575107E-1],"split_indices":[0,0,0,0,0,0,0,0,0,0,0,0,0],"split_type":[0,0,0,0,0,0,0,0,0,0,0,0,0],"sum_hessian":[1.5557E4,1.53E4,2.57E2,1.2807E4,2.493E3,2.56E2,1E0,1.0386E4,2.421E3,1.385E3,1.108E3,2.31E2,2.5E1],"tree_param":{"num_deleted":"0","num_feature":"1","num_nodes":"13","size_leaf_vector":"1"}},{"base_weights":[1.055517E-3,-9.7753685E-3,6.4339006E-1,-3.1545114E-2,1.0202764E-1,5.979326E-1,6.162987E-1,-3.71998E-3,-7.2813954E-4,7.786291E-3,2.4276417E-2,5.147293E-2,1.3173646E-1],"categories":[],"categories_nodes":[],"categories_segments":[],"categories_sizes":[],"default_left":[0,0,0,0,0,0,0,0,0,0,0,0,0],"id":40,"left_children":[1,3,5,7,9,11,-1,-1,-1,-1,-1,-1,-1],"loss_changes":[1.082441E2,3.7244675E1,6.104902E1,1.7570324E0,8.462837E0,1.4705704E1,0E0,0E0,0E0,0E0,0E0,0E0,0E0],"parents":[2147483647,0,0,1,1,2,2,3,3,4,4,5,5],"right_children":[2,4,6,8,10,12,-1,-1,-1,-1,-1,-1,-1],"split_conditions":[6E0,3E0,1E1,2E0,5E0,8E0,6.162987E-1,-3.71998E-3,-7.2813954E-4,7.786291E-3,2.4276417E-2,5.147293E-2,1.3173646E-1],"split_indices":[0,0,0,0,0,0,0,0,0,0,0,0,0],"split_type":[0,0,0,0,0,0,0,0,0,0,0,0,0],"sum_hessian":[1.5557E4,1.53E4,2.57E2,1.2807E4,2.493E3,2.56E2,1E0,1.0386E4,2.421E3,2.129E3,3.64E2,2.31E2,2.5E1],"tree_param":{"num_deleted":"0","num_feature":"1","num_nodes":"13","size_leaf_vector":"1"}},{"base_weights":[1.0030961E-3,-8.796058E-3,5.821498E-1,-2.1234611E-2,1.5040068E-1,5.3885204E-1,5.8548355E-1,-2.8390954E-3,4.4912337E-3,1.1680829E-2,2.1855393E-2,3.620102E-2,8.4165215E-2],"categories":[],"categories_nodes":[],"categories_segments":[],"categories_sizes":[],"default_left":[0,0,0,0,0,0,0,0,0,0,0,0,0],"id":41,"left_children":[1,3,5,7,9,11,-1,-1,-1,-1,-1,-1,-1],"loss_changes":[8.860397E1,3.0301888E1,5.5745323E1,6.7198186E0,2.5134506E0,1.3457077E1,0E0,0E0,0E0,0E0,0E0,0E0,0E0],"parents":[2147483647,0,0,1,1,2,2,3,3,4,4,5,5],"right_children":[2,4,6,8,10,12,-1,-1,-1,-1,-1,-1,-1],"split_conditions":[6E0,4E0,1E1,3E0,5E0,7E0,5.8548355E-1,-2.8390954E-3,4.4912337E-3,1.1680829E-2,2.1855393E-2,3.620102E-2,8.4165215E-2],"split_indices":[0,0,0,0,0,0,0,0,0,0,0,0,0],"split_type":[0,0,0,0,0,0,0,0,0,0,0,0,0],"sum_hessian":[1.5557E4,1.53E4,2.57E2,1.4192E4,1.108E3,2.56E2,1E0,1.2807E4,1.385E3,7.44E2,3.64E2,1.63E2,9.3E1],"tree_param":{"num_deleted":"0","num_feature":"1","num_nodes":"13","size_leaf_vector":"1"}},{"base_weights":[9.5040083E-4,-7.9141725E-3,5.266709E-1,-1.9111045E-2,1.3539071E-1,4.854354E-1,5.5620956E-1,-2.555208E-3,4.0424247E-3,1.0514337E-2,1.9675752E-2,4.1337475E-2,1.1097673E-1],"categories":[],"categories_nodes":[],"categories_segments":[],"categories_sizes":[],"default_left":[0,0,0,0,0,0,0,0,0,0,0,0,0],"id":42,"left_children":[1,3,5,7,9,11,-1,-1,-1,-1,-1,-1,-1],"loss_changes":[7.250893E1,2.455406E1,5.0870613E1,5.4436083E0,2.037819E0,1.1103615E1,0E0,0E0,0E0,0E0,0E0,0E0,0E0],"parents":[2147483647,0,0,1,1,2,2,3,3,4,4,5,5],"right_children":[2,4,6,8,10,12,-1,-1,-1,-1,-1,-1,-1],"split_conditions":[6E0,4E0,1E1,3E0,5E0,8E0,5.5620956E-1,-2.555208E-3,4.0424247E-3,1.0514337E-2,1.9675752E-2,4.1337475E-2,1.1097673E-1],"split_indices":[0,0,0,0,0,0,0,0,0,0,0,0,0],"split_type":[0,0,0,0,0,0,0,0,0,0,0,0,0],"sum_hessian":[1.5557E4,1.53E4,2.57E2,1.4192E4,1.108E3,2.56E2,1E0,1.2807E4,1.385E3,7.44E2,3.64E2,2.31E2,2.5E1],"tree_param":{"num_deleted":"0","num_feature":"1","num_nodes":"13","size_leaf_vector":"1"}},{"base_weights":[9.0290105E-4,-4.3166455E-4,2.9657974E0,-1.1622717E-2,2.7093387E-1,1.6987674E-1,5.2839893E-1,-2.2997088E-3,5.6778486E-3,2.1095661E-2,6.2370986E-2],"categories":[],"categories_nodes":[],"categories_segments":[],"categories_sizes":[],"default_left":[0,0,0,0,0,0,0,0,0,0,0],"id":43,"left_children":[1,3,5,7,9,-1,-1,-1,-1,-1,-1],"loss_changes":[6.1561897E1,4.7232487E1,1.1584263E1,1.16226E1,1.2902084E1,0E0,0E0,0E0,0E0,0E0,0E0],"parents":[2147483647,0,0,1,1,2,2,3,3,4,4],"right_children":[2,4,6,8,10,-1,-1,-1,-1,-1,-1],"split_conditions":[9E0,5E0,1E1,3E0,7E0,1.6987674E-1,5.2839893E-1,-2.2997088E-3,5.6778486E-3,2.1095661E-2,6.2370986E-2],"split_indices":[0,0,0,0,0,0,0,0,0,0,0],"split_type":[0,0,0,0,0,0,0,0,0,0,0],"sum_hessian":[1.5557E4,1.5551E4,6E0,1.4936E4,6.15E2,5E0,1E0,1.2807E4,2.129E3,5.27E2,8.8E1],"tree_param":{"num_deleted":"0","num_feature":"1","num_nodes":"11","size_leaf_vector":"1"}},{"base_weights":[8.631022E-4,-3.8288714E-4,2.7689722E0,-1.0460208E-2,2.4397641E-1,1.557204E-1,5.0197905E-1,-2.0697543E-3,5.1103286E-3,1.899013E-2,5.6204032E-2],"categories":[],"categories_nodes":[],"categories_segments":[],"categories_sizes":[],"default_left":[0,0,0,0,0,0,0,0,0,0,0],"id":44,"left_children":[1,3,5,7,9,-1,-1,-1,-1,-1,-1],"loss_changes":[5.3661137E1,3.8299152E1,1.1275455E1,9.415043E0,1.0488064E1,0E0,0E0,0E0,0E0,0E0,0E0],"parents":[2147483647,0,0,1,1,2,2,3,3,4,4],"right_children":[2,4,6,8,10,-1,-1,-1,-1,-1,-1],"split_conditions":[9E0,5E0,1E1,3E0,7E0,1.557204E-1,5.0197905E-1,-2.0697543E-3,5.1103286E-3,1.899013E-2,5.6204032E-2],"split_indices":[0,0,0,0,0,0,0,0,0,0,0],"split_type":[0,0,0,0,0,0,0,0,0,0,0],"sum_hessian":[1.5557E4,1.5551E4,6E0,1.4936E4,6.15E2,5E0,1E0,1.2807E4,2.129E3,5.27E2,8.8E1],"tree_param":{"num_deleted":"0","num_feature":"1","num_nodes":"11","size_leaf_vector":"1"}},{"base_weights":[8.240828E-4,-3.3957887E-4,2.5860302E0,-1.4309818E-2,1.454545E-1,1.4274344E-1,4.7688028E-1,-2.371735E-3,1.1361404E-3,1.2008068E-2,5.0646614E-2],"categories":[],"categories_nodes":[],"categories_segments":[],"categories_sizes":[],"default_left":[0,0,0,0,0,0,0,0,0,0,0],"id":45,"left_children":[1,3,5,7,9,-1,-1,-1,-1,-1,-1],"loss_changes":[4.680409E1,3.1678055E1,1.0895504E1,3.4279184E0,1.2397112E1,0E0,0E0,0E0,0E0,0E0,0E0],"parents":[2147483647,0,0,1,1,2,2,3,3,4,4],"right_children":[2,4,6,8,10,-1,-1,-1,-1,-1,-1],"split_conditions":[9E0,4E0,1E1,2E0,7E0,1.4274344E-1,4.7688028E-1,-2.371735E-3,1.1361404E-3,1.2008068E-2,5.0646614E-2],"split_indices":[0,0,0,0,0,0,0,0,0,0,0],"split_type":[0,0,0,0,0,0,0,0,0,0,0],"sum_hessian":[1.5557E4,1.5551E4,6E0,1.4192E4,1.359E3,5E0,1E0,1.0386E4,3.806E3,1.271E3,8.8E1],"tree_param":{"num_deleted":"0","num_feature":"1","num_nodes":"11","size_leaf_vector":"1"}},{"base_weights":[7.85435E-4,2.0306461E-4,4.5303613E-1,-5.460413E-3,3.3738858E-1,-1.2878927E-3,8.948676E-3,3.1292852E-2,1.3084793E-1],"categories":[],"categories_nodes":[],"categories_segments":[],"categories_sizes":[],"default_left":[0,0,0,0,0,0,0,0,0],"id":46,"left_children":[1,3,-1,5,7,-1,-1,-1,-1],"loss_changes":[4.1039387E1,2.9710154E1,0E0,1.0778669E1,5.6950417E0,0E0,0E0,0E0,0E0],"parents":[2147483647,0,0,1,1,3,3,4,4],"right_children":[2,4,-1,6,8,-1,-1,-1,-1],"split_conditions":[1E1,6E0,4.5303613E-1,4E0,9E0,-1.2878927E-3,8.948676E-3,3.1292852E-2,1.3084793E-1],"split_indices":[0,0,0,0,0,0,0,0,0],"split_type":[0,0,0,0,0,0,0,0,0],"sum_hessian":[1.5557E4,1.5556E4,1E0,1.53E4,2.56E2,1.4192E4,1.108E3,2.51E2,5E0],"tree_param":{"num_deleted":"0","num_feature":"1","num_nodes":"9","size_leaf_vector":"1"}},{"base_weights":[7.4695394E-4,1.9370191E-4,4.3038446E-1,-7.8745205E-3,1.9425948E-1,-1.5631662E-3,3.8773995E-3,1.4313199E-2,4.793771E-2],"categories":[],"categories_nodes":[],"categories_segments":[],"categories_sizes":[],"default_left":[0,0,0,0,0,0,0,0,0],"id":47,"left_children":[1,3,-1,5,7,-1,-1,-1,-1],"loss_changes":[3.7038055E1,2.436015E1,0E0,5.4056954E0,8.983919E0,0E0,0E0,0E0,0E0],"parents":[2147483647,0,0,1,1,3,3,4,4],"right_children":[2,4,-1,6,8,-1,-1,-1,-1],"split_conditions":[1E1,5E0,4.3038446E-1,3E0,7E0,-1.5631662E-3,3.8773995E-3,1.4313199E-2,4.793771E-2],"split_indices":[0,0,0,0,0,0,0,0,0],"split_type":[0,0,0,0,0,0,0,0,0],"sum_hessian":[1.5557E4,1.5556E4,1E0,1.4936E4,6.2E2,1.2807E4,2.129E3,5.27E2,9.3E1],"tree_param":{"num_deleted":"0","num_feature":"1","num_nodes":"9","size_leaf_vector":"1"}},{"base_weights":[7.040734E-4,1.7848345E-4,4.0886536E-1,-4.4854833E-3,2.778562E-1,-1.0558959E-3,7.3247002E-3,2.307511E-2,6.874921E-2],"categories":[],"categories_nodes":[],"categories_segments":[],"categories_sizes":[],"default_left":[0,0,0,0,0,0,0,0,0],"id":48,"left_children":[1,3,-1,5,7,-1,-1,-1,-1],"loss_changes":[3.342696E1,2.01488E1,0E0,7.224473E0,4.800419E0,0E0,0E0,0E0,0E0],"parents":[2147483647,0,0,1,1,3,3,4,4],"right_children":[2,4,-1,6,8,-1,-1,-1,-1],"split_conditions":[1E1,6E0,4.0886536E-1,4E0,8E0,-1.0558959E-3,7.3247002E-3,2.307511E-2,6.874921E-2],"split_indices":[0,0,0,0,0,0,0,0,0],"split_type":[0,0,0,0,0,0,0,0,0],"sum_hessian":[1.5557E4,1.5556E4,1E0,1.53E4,2.56E2,1.4192E4,1.108E3,2.31E2,2.5E1],"tree_param":{"num_deleted":"0","num_feature":"1","num_nodes":"9","size_leaf_vector":"1"}},{"base_weights":[6.662347E-4,1.6692415E-4,3.88422E-1,-6.448555E-3,1.592897E-1,-1.7439267E-3,1.8637571E-3,1.1667351E-2,3.969712E-2],"categories":[],"categories_nodes":[],"categories_segments":[],"categories_sizes":[],"default_left":[0,0,0,0,0,0,0,0,0],"id":49,"left_children":[1,3,-1,5,7,-1,-1,-1,-1],"loss_changes":[3.0167858E1,1.6377468E1,0E0,4.11867E0,6.243843E0,0E0,0E0,0E0,0E0],"parents":[2147483647,0,0,1,1,3,3,4,4],"right_children":[2,4,-1,6,8,-1,-1,-1,-1],"split_conditions":[1E1,5E0,3.88422E-1,2E0,7E0,-1.7439267E-3,1.8637571E-3,1.1667351E-2,3.969712E-2],"split_indices":[0,0,0,0,0,0,0,0,0],"split_type":[0,0,0,0,0,0,0,0,0],"sum_hessian":[1.5557E4,1.5556E4,1E0,1.4936E4,6.2E2,1.0386E4,4.55E3,5.27E2,9.3E1],"tree_param":{"num_deleted":"0","num_feature":"1","num_nodes":"9","size_leaf_vector":"1"}},{"base_weights":[6.279005E-4,1.5355504E-4,3.69001E-1,-3.6845736E-3,2.2866349E-1,-1.1950945E-3,3.8769064E-3,2.077451E-2,1.0691261E-1],"categories":[],"categories_nodes":[],"categories_segments":[],"categories_sizes":[],"default_left":[0,0,0,0,0,0,0,0,0],"id":50,"left_children":[1,3,-1,5,7,-1,-1,-1,-1],"loss_changes":[2.7226582E1,1.3645118E1,0E0,5.370159E0,4.2962475E0,0E0,0E0,0E0,0E0],"parents":[2147483647,0,0,1,1,3,3,4,4],"right_children":[2,4,-1,6,8,-1,-1,-1,-1],"split_conditions":[1E1,6E0,3.69001E-1,3E0,9E0,-1.1950945E-3,3.8769064E-3,2.077451E-2,1.0691261E-1],"split_indices":[0,0,0,0,0,0,0,0,0],"split_type":[0,0,0,0,0,0,0,0,0],"sum_hessian":[1.5557E4,1.5556E4,1E0,1.53E4,2.56E2,1.2807E4,2.493E3,2.51E2,5E0],"tree_param":{"num_deleted":"0","num_feature":"1","num_nodes":"9","size_leaf_vector":"1"}},{"base_weights":[5.972311E-4,1.4660308E-4,3.5055086E-1,-5.33155E-3,1.3191314E-1,-1.4500527E-3,1.5596488E-3,1.1359802E-2,5.466784E-2],"categories":[],"categories_nodes":[],"categories_segments":[],"categories_sizes":[],"default_left":[0,0,0,0,0,0,0,0,0],"id":51,"left_children":[1,3,-1,5,7,-1,-1,-1,-1],"loss_changes":[2.4571964E1,1.1230325E1,0E0,2.8664675E0,4.655308E0,0E0,0E0,0E0,0E0],"parents":[2147483647,0,0,1,1,3,3,4,4],"right_children":[2,4,-1,6,8,-1,-1,-1,-1],"split_conditions":[1E1,5E0,3.5055086E-1,2E0,8E0,-1.4500527E-3,1.5596488E-3,1.1359802E-2,5.466784E-2],"split_indices":[0,0,0,0,0,0,0,0,0],"split_type":[0,0,0,0,0,0,0,0,0],"sum_hessian":[1.5557E4,1.5556E4,1E0,1.4936E4,6.2E2,1.0386E4,4.55E3,5.95E2,2.5E1],"tree_param":{"num_deleted":"0","num_feature":"1","num_nodes":"9","size_leaf_vector":"1"}},{"base_weights":[5.6427496E-4,1.3617797E-4,3.3302346E-1,-3.0656864E-3,1.9076493E-1,-7.3838397E-4,5.2200877E-3,1.7230043E-2,9.3448006E-2],"categories":[],"categories_nodes":[],"categories_segments":[],"categories_sizes":[],"default_left":[0,0,0,0,0,0,0,0,0],"id":52,"left_children":[1,3,-1,5,7,-1,-1,-1,-1],"loss_changes":[2.2176258E1,9.496071E0,0E0,3.651961E0,3.3681984E0,0E0,0E0,0E0,0E0],"parents":[2147483647,0,0,1,1,3,3,4,4],"right_children":[2,4,-1,6,8,-1,-1,-1,-1],"split_conditions":[1E1,6E0,3.3302346E-1,4E0,9E0,-7.3838397E-4,5.2200877E-3,1.7230043E-2,9.3448006E-2],"split_indices":[0,0,0,0,0,0,0,0,0],"split_type":[0,0,0,0,0,0,0,0,0],"sum_hessian":[1.5557E4,1.5556E4,1E0,1.53E4,2.56E2,1.4192E4,1.108E3,2.51E2,5E0],"tree_param":{"num_deleted":"0","num_feature":"1","num_nodes":"9","size_leaf_vector":"1"}},{"base_weights":[5.366383E-4,1.2994617E-4,3.163723E-1,-1.6241944E-3,2.8870335E-1,-6.645485E-4,5.4404736E-3,2.471737E-2,8.5660934E-2],"categories":[],"categories_nodes":[],"categories_segments":[],"categories_sizes":[],"default_left":[0,0,0,0,0,0,0,0,0],"id":53,"left_children":[1,3,-1,5,7,-1,-1,-1,-1],"loss_changes":[2.0014069E1,7.8753963E0,0E0,4.3509645E0,2.0052538E0,0E0,0E0,0E0,0E0],"parents":[2147483647,0,0,1,1,3,3,4,4],"right_children":[2,4,-1,6,8,-1,-1,-1,-1],"split_conditions":[1E1,7E0,3.163723E-1,4E0,9E0,-6.645485E-4,5.4404736E-3,2.471737E-2,8.5660934E-2],"split_indices":[0,0,0,0,0,0,0,0,0],"split_type":[0,0,0,0,0,0,0,0,0],"sum_hessian":[1.5557E4,1.5556E4,1E0,1.5463E4,9.3E1,1.4192E4,1.271E3,8.8E1,5E0],"tree_param":{"num_deleted":"0","num_feature":"1","num_nodes":"9","size_leaf_vector":"1"}},{"base_weights":[5.107149E-4,1.2435764E-4,3.0055353E-1,-2.5364007E-3,1.5853734E-1,-8.4720954E-4,2.7947528E-3,1.4298714E-2,7.852237E-2],"categories":[],"categories_nodes":[],"categories_segments":[],"categories_sizes":[],"default_left":[0,0,0,0,0,0,0,0,0],"id":54,"left_children":[1,3,-1,5,7,-1,-1,-1,-1],"loss_changes":[1.8062664E1,6.557657E0,0E0,2.7688503E0,2.3922167E0,0E0,0E0,0E0,0E0],"parents":[2147483647,0,0,1,1,3,3,4,4],"right_children":[2,4,-1,6,8,-1,-1,-1,-1],"split_conditions":[1E1,6E0,3.0055353E-1,3E0,9E0,-8.4720954E-4,2.7947528E-3,1.4298714E-2,7.852237E-2],"split_indices":[0,0,0,0,0,0,0,0,0],"split_type":[0,0,0,0,0,0,0,0,0],"sum_hessian":[1.5557E4,1.5556E4,1E0,1.53E4,2.56E2,1.2807E4,2.493E3,2.51E2,5E0],"tree_param":{"num_deleted":"0","num_feature":"1","num_nodes":"9","size_leaf_vector":"1"}},{"base_weights":[4.8502596E-4,1.17986514E-4,2.855259E-1,-1.3611099E-3,2.4344383E-1,-5.489243E-4,4.4701747E-3,2.0859538E-2,7.197889E-2],"categories":[],"categories_nodes":[],"categories_segments":[],"categories_sizes":[],"default_left":[0,0,0,0,0,0,0,0,0],"id":55,"left_children":[1,3,-1,5,7,-1,-1,-1,-1],"loss_changes":[1.6301565E1,5.5993333E0,0E0,2.9407809E0,1.4102454E0,0E0,0E0,0E0,0E0],"parents":[2147483647,0,0,1,1,3,3,4,4],"right_children":[2,4,-1,6,8,-1,-1,-1,-1],"split_conditions":[1E1,7E0,2.855259E-1,4E0,9E0,-5.489243E-4,4.4701747E-3,2.0859538E-2,7.197889E-2],"split_indices":[0,0,0,0,0,0,0,0,0],"split_type":[0,0,0,0,0,0,0,0,0],"sum_hessian":[1.5557E4,1.5556E4,1E0,1.5463E4,9.3E1,1.4192E4,1.271E3,8.8E1,5E0],"tree_param":{"num_deleted":"0","num_feature":"1","num_nodes":"9","size_leaf_vector":"1"}},{"base_weights":[4.6107237E-4,1.12384674E-4,2.7124977E-1,-1.2247738E-3,2.2008799E-1,-1.0251817E-3,1.7240199E-3,1.8797098E-2,6.598091E-2],"categories":[],"categories_nodes":[],"categories_segments":[],"categories_sizes":[],"default_left":[0,0,0,0,0,0,0,0,0],"id":56,"left_children":[1,3,-1,5,7,-1,-1,-1,-1],"loss_changes":[1.4712176E1,4.5762405E0,0E0,2.5777798E0,1.2034931E0,0E0,0E0,0E0,0E0],"parents":[2147483647,0,0,1,1,3,3,4,4],"right_children":[2,4,-1,6,8,-1,-1,-1,-1],"split_conditions":[1E1,7E0,2.7124977E-1,2E0,9E0,-1.0251817E-3,1.7240199E-3,1.8797098E-2,6.598091E-2],"split_indices":[0,0,0,0,0,0,0,0,0],"split_type":[0,0,0,0,0,0,0,0,0],"sum_hessian":[1.5557E4,1.5556E4,1E0,1.5463E4,9.3E1,1.0386E4,5.077E3,8.8E1,5E0],"tree_param":{"num_deleted":"0","num_feature":"1","num_nodes":"9","size_leaf_vector":"1"}},{"base_weights":[4.378494E-4,1.06595966E-4,2.576874E-1,-3.1818852E-3,7.920472E-2,-9.226734E-4,1.0615308E-3,6.750874E-3,3.4426615E-2],"categories":[],"categories_nodes":[],"categories_segments":[],"categories_sizes":[],"default_left":[0,0,0,0,0,0,0,0,0],"id":57,"left_children":[1,3,-1,5,7,-1,-1,-1,-1],"loss_changes":[1.327775E1,4.046825E0,0E0,1.2458729E0,1.9019537E0,0E0,0E0,0E0,0E0],"parents":[2147483647,0,0,1,1,3,3,4,4],"right_children":[2,4,-1,6,8,-1,-1,-1,-1],"split_conditions":[1E1,5E0,2.576874E-1,2E0,8E0,-9.226734E-4,1.0615308E-3,6.750874E-3,3.4426615E-2],"split_indices":[0,0,0,0,0,0,0,0,0],"split_type":[0,0,0,0,0,0,0,0,0],"sum_hessian":[1.5557E4,1.5556E4,1E0,1.4936E4,6.2E2,1.0386E4,4.55E3,5.95E2,2.5E1],"tree_param":{"num_deleted":"0","num_feature":"1","num_nodes":"9","size_leaf_vector":"1"}},{"base_weights":[4.133302E-4,9.8639466E-5,2.4480286E-1,-1.8050103E-3,1.1343578E-1,-6.0231047E-4,1.9857842E-3,1.0196887E-2,5.761401E-2],"categories":[],"categories_nodes":[],"categories_segments":[],"categories_sizes":[],"default_left":[0,0,0,0,0,0,0,0,0],"id":58,"left_children":[1,3,-1,5,7,-1,-1,-1,-1],"loss_changes":[1.1983181E1,3.356693E0,0E0,1.3982629E0,1.3048398E0,0E0,0E0,0E0,0E0],"parents":[2147483647,0,0,1,1,3,3,4,4],"right_children":[2,4,-1,6,8,-1,-1,-1,-1],"split_conditions":[1E1,6E0,2.4480286E-1,3E0,9E0,-6.0231047E-4,1.9857842E-3,1.0196887E-2,5.761401E-2],"split_indices":[0,0,0,0,0,0,0,0,0],"split_type":[0,0,0,0,0,0,0,0,0],"sum_hessian":[1.5557E4,1.5556E4,1E0,1.53E4,2.56E2,1.2807E4,2.493E3,2.51E2,5E0],"tree_param":{"num_deleted":"0","num_feature":"1","num_nodes":"9","size_leaf_vector":"1"}},{"base_weights":[3.9220916E-4,9.325302E-5,2.3256265E-1,-9.5370784E-4,1.7232846E-1,-3.9122437E-4,3.205844E-3,1.4640585E-2,5.2812576E-2],"categories":[],"categories_nodes":[],"categories_segments":[],"categories_sizes":[],"default_left":[0,0,0,0,0,0,0,0,0],"id":59,"left_children":[1,3,-1,5,7,-1,-1,-1,-1],"loss_changes":[1.0814817E1,2.8054576E0,0E0,1.5104575E0,7.896595E-1,0E0,0E0,0E0,0E0],"parents":[2147483647,0,0,1,1,3,3,4,4],"right_children":[2,4,-1,6,8,-1,-1,-1,-1],"split_conditions":[1E1,7E0,2.3256265E-1,4E0,9E0,-3.9122437E-4,3.205844E-3,1.4640585E-2,5.2812576E-2],"split_indices":[0,0,0,0,0,0,0,0,0],"split_type":[0,0,0,0,0,0,0,0,0],"sum_hessian":[1.5557E4,1.5556E4,1E0,1.5463E4,9.3E1,1.4192E4,1.271E3,8.8E1,5E0],"tree_param":{"num_deleted":"0","num_feature":"1","num_nodes":"9","size_leaf_vector":"1"}},{"base_weights":[3.724028E-4,8.839426E-5,2.2093467E-1,-2.418259E-3,6.0381133E-2,-7.31071E-4,8.748585E-4,5.109954E-3,2.708215E-2],"categories":[],"categories_nodes":[],"categories_segments":[],"categories_sizes":[],"default_left":[0,0,0,0,0,0,0,0,0],"id":60,"left_children":[1,3,-1,5,7,-1,-1,-1,-1],"loss_changes":[9.76039E0,2.351322E0,0E0,8.161207E-1,1.1991122E0,0E0,0E0,0E0,0E0],"parents":[2147483647,0,0,1,1,3,3,4,4],"right_children":[2,4,-1,6,8,-1,-1,-1,-1],"split_conditions":[1E1,5E0,2.2093467E-1,2E0,8E0,-7.31071E-4,8.748585E-4,5.109954E-3,2.708215E-2],"split_indices":[0,0,0,0,0,0,0,0,0],"split_type":[0,0,0,0,0,0,0,0,0],"sum_hessian":[1.5557E4,1.5556E4,1E0,1.4936E4,6.2E2,1.0386E4,4.55E3,5.95E2,2.5E1],"tree_param":{"num_deleted":"0","num_feature":"1","num_nodes":"9","size_leaf_vector":"1"}},{"base_weights":[3.5146088E-4,8.1652426E-5,2.0988809E-1,-7.9872843E-4,1.449128E-1,-4.602179E-4,1.7536009E-3,1.21938465E-2,4.615466E-2],"categories":[],"categories_nodes":[],"categories_segments":[],"categories_sizes":[],"default_left":[0,0,0,0,0,0,0,0,0],"id":61,"left_children":[1,3,-1,5,7,-1,-1,-1,-1],"loss_changes":[8.808784E0,1.9837356E0,0E0,1.0784669E0,6.2751794E-1,0E0,0E0,0E0,0E0],"parents":[2147483647,0,0,1,1,3,3,4,4],"right_children":[2,4,-1,6,8,-1,-1,-1,-1],"split_conditions":[1E1,7E0,2.0988809E-1,3E0,9E0,-4.602179E-4,1.7536009E-3,1.21938465E-2,4.615466E-2],"split_indices":[0,0,0,0,0,0,0,0,0],"split_type":[0,0,0,0,0,0,0,0,0],"sum_hessian":[1.5557E4,1.5556E4,1E0,1.5463E4,9.3E1,1.2807E4,2.656E3,8.8E1,5E0],"tree_param":{"num_deleted":"0","num_feature":"1","num_nodes":"9","size_leaf_vector":"1"}},{"base_weights":[3.3361441E-4,7.7296136E-5,1.9939385E-1,-1.2797035E-3,8.086864E-2,-6.119536E-4,8.948703E-4,7.2399797E-3,4.2308174E-2],"categories":[],"categories_nodes":[],"categories_segments":[],"categories_sizes":[],"default_left":[0,0,0,0,0,0,0,0,0],"id":62,"left_children":[1,3,-1,5,7,-1,-1,-1,-1],"loss_changes":[7.9499426E0,1.7056767E0,0E0,7.575121E-1,7.14193E-1,0E0,0E0,0E0,0E0],"parents":[2147483647,0,0,1,1,3,3,4,4],"right_children":[2,4,-1,6,8,-1,-1,-1,-1],"split_conditions":[1E1,6E0,1.9939385E-1,2E0,9E0,-6.119536E-4,8.948703E-4,7.2399797E-3,4.2308174E-2],"split_indices":[0,0,0,0,0,0,0,0,0],"split_type":[0,0,0,0,0,0,0,0,0],"sum_hessian":[1.5557E4,1.5556E4,1E0,1.53E4,2.56E2,1.0386E4,4.914E3,2.51E2,5E0],"tree_param":{"num_deleted":"0","num_feature":"1","num_nodes":"9","size_leaf_vector":"1"}},{"base_weights":[3.1629056E-4,7.278821E-5,1.8942414E-1,-1.8788661E-3,4.7016084E-2,-5.5076415E-4,6.4037024E-4,3.9704186E-3,2.1281904E-2],"categories":[],"categories_nodes":[],"categories_segments":[],"categories_sizes":[],"default_left":[0,0,0,0,0,0,0,0,0],"id":63,"left_children":[1,3,-1,5,7,-1,-1,-1,-1],"loss_changes":[7.1748266E0,1.4253753E0,0E0,4.489755E-1,7.4441004E-1,0E0,0E0,0E0,0E0],"parents":[2147483647,0,0,1,1,3,3,4,4],"right_children":[2,4,-1,6,8,-1,-1,-1,-1],"split_conditions":[1E1,5E0,1.8942414E-1,2E0,8E0,-5.5076415E-4,6.4037024E-4,3.9704186E-3,2.1281904E-2],"split_indices":[0,0,0,0,0,0,0,0,0],"split_type":[0,0,0,0,0,0,0,0,0],"sum_hessian":[1.5557E4,1.5556E4,1E0,1.4936E4,6.2E2,1.0386E4,4.55E3,5.95E2,2.5E1],"tree_param":{"num_deleted":"0","num_feature":"1","num_nodes":"9","size_leaf_vector":"1"}},{"base_weights":[2.9845687E-4,6.7129404E-5,1.7995301E-1,-6.222665E-4,1.1347937E-1,-2.5374227E-4,2.0747571E-3,9.490436E-3,3.700956E-2],"categories":[],"categories_nodes":[],"categories_segments":[],"categories_sizes":[],"default_left":[0,0,0,0,0,0,0,0,0],"id":64,"left_children":[1,3,-1,5,7,-1,-1,-1,-1],"loss_changes":[6.4753013E0,1.2164091E0,0E0,6.329411E-1,4.1294146E-1,0E0,0E0,0E0,0E0],"parents":[2147483647,0,0,1,1,3,3,4,4],"right_children":[2,4,-1,6,8,-1,-1,-1,-1],"split_conditions":[1E1,7E0,1.7995301E-1,4E0,9E0,-2.5374227E-4,2.0747571E-3,9.490436E-3,3.700956E-2],"split_indices":[0,0,0,0,0,0,0,0,0],"split_type":[0,0,0,0,0,0,0,0,0],"sum_hessian":[1.5557E4,1.5556E4,1E0,1.5463E4,9.3E1,1.4192E4,1.271E3,8.8E1,5E0],"tree_param":{"num_deleted":"0","num_feature":"1","num_nodes":"9","size_leaf_vector":"1"}},{"base_weights":[2.8322855E-4,6.346752E-5,1.7095529E-1,-9.776591E-4,6.2048744E-2,-4.703213E-4,6.895851E-4,5.5202404E-3,3.3925377E-2],"categories":[],"categories_nodes":[],"categories_segments":[],"categories_sizes":[],"default_left":[0,0,0,0,0,0,0,0,0],"id":65,"left_children":[1,3,-1,5,7,-1,-1,-1,-1],"loss_changes":[5.843956E0,1.0040243E0,0E0,4.488595E-1,4.690175E-1,0E0,0E0,0E0,0E0],"parents":[2147483647,0,0,1,1,3,3,4,4],"right_children":[2,4,-1,6,8,-1,-1,-1,-1],"split_conditions":[1E1,6E0,1.7095529E-1,2E0,9E0,-4.703213E-4,6.895851E-4,5.5202404E-3,3.3925377E-2],"split_indices":[0,0,0,0,0,0,0,0,0],"split_type":[0,0,0,0,0,0,0,0,0],"sum_hessian":[1.5557E4,1.5556E4,1E0,1.53E4,2.56E2,1.0386E4,4.914E3,2.51E2,5E0],"tree_param":{"num_deleted":"0","num_feature":"1","num_nodes":"9","size_leaf_vector":"1"}},{"base_weights":[2.684513E-4,5.967805E-5,1.6240768E-1,-5.214049E-4,9.565337E-2,-2.9845856E-4,1.135249E-3,8.006218E-3,3.1098047E-2],"categories":[],"categories_nodes":[],"categories_segments":[],"categories_sizes":[],"default_left":[0,0,0,0,0,0,0,0,0],"id":66,"left_children":[1,3,-1,5,7,-1,-1,-1,-1],"loss_changes":[5.2741857E0,8.6420804E-1,0E0,4.5231795E-1,2.9067957E-1,0E0,0E0,0E0,0E0],"parents":[2147483647,0,0,1,1,3,3,4,4],"right_children":[2,4,-1,6,8,-1,-1,-1,-1],"split_conditions":[1E1,7E0,1.6240768E-1,3E0,9E0,-2.9845856E-4,1.135249E-3,8.006218E-3,3.1098047E-2],"split_indices":[0,0,0,0,0,0,0,0,0],"split_type":[0,0,0,0,0,0,0,0,0],"sum_hessian":[1.5557E4,1.5556E4,1E0,1.5463E4,9.3E1,1.2807E4,2.656E3,8.8E1,5E0],"tree_param":{"num_deleted":"0","num_feature":"1","num_nodes":"9","size_leaf_vector":"1"}},{"base_weights":[2.5463614E-4,5.6301487E-5,1.5428734E-1,-1.3421533E-3,3.369344E-2,-3.934507E-4,4.5748145E-4,2.8343797E-3,1.55027835E-2],"categories":[],"categories_nodes":[],"categories_segments":[],"categories_sizes":[],"default_left":[0,0,0,0,0,0,0,0,0],"id":67,"left_children":[1,3,-1,5,7,-1,-1,-1,-1],"loss_changes":[4.759957E0,7.318468E-1,0E0,2.2913474E-1,3.986944E-1,0E0,0E0,0E0,0E0],"parents":[2147483647,0,0,1,1,3,3,4,4],"right_children":[2,4,-1,6,8,-1,-1,-1,-1],"split_conditions":[1E1,5E0,1.5428734E-1,2E0,8E0,-3.934507E-4,4.5748145E-4,2.8343797E-3,1.55027835E-2],"split_indices":[0,0,0,0,0,0,0,0,0],"split_type":[0,0,0,0,0,0,0,0,0],"sum_hessian":[1.5557E4,1.5556E4,1E0,1.4936E4,6.2E2,1.0386E4,4.55E3,5.95E2,2.5E1],"tree_param":{"num_deleted":"0","num_feature":"1","num_nodes":"9","size_leaf_vector":"1"}},{"base_weights":[2.4027113E-4,5.185323E-5,1.4657287E-1,-4.3613047E-4,8.032981E-2,-1.8006703E-4,1.4789774E-3,6.6495747E-3,2.7214685E-2],"categories":[],"categories_nodes":[],"categories_segments":[],"categories_sizes":[],"default_left":[0,0,0,0,0,0,0,0,0],"id":68,"left_children":[1,3,-1,5,7,-1,-1,-1,-1],"loss_changes":[4.295865E0,6.094702E-1,0E0,3.2131216E-1,2.3134279E-1,0E0,0E0,0E0,0E0],"parents":[2147483647,0,0,1,1,3,3,4,4],"right_children":[2,4,-1,6,8,-1,-1,-1,-1],"split_conditions":[1E1,7E0,1.4657287E-1,4E0,9E0,-1.8006703E-4,1.4789774E-3,6.6495747E-3,2.7214685E-2],"split_indices":[0,0,0,0,0,0,0,0,0],"split_type":[0,0,0,0,0,0,0,0,0],"sum_hessian":[1.5557E4,1.5556E4,1E0,1.5463E4,9.3E1,1.4192E4,1.271E3,8.8E1,5E0],"tree_param":{"num_deleted":"0","num_feature":"1","num_nodes":"9","size_leaf_vector":"1"}},{"base_weights":[2.2795296E-4,4.8956135E-5,1.3924408E-1,-6.914756E-4,4.4131823E-2,-3.3610445E-4,4.950336E-4,3.906773E-3,2.494685E-2],"categories":[],"categories_nodes":[],"categories_segments":[],"categories_sizes":[],"default_left":[0,0,0,0,0,0,0,0,0],"id":69,"left_children":[1,3,-1,5,7,-1,-1,-1,-1],"loss_changes":[3.8770115E0,5.078165E-1,0E0,2.3046812E-1,2.574938E-1,0E0,0E0,0E0,0E0],"parents":[2147483647,0,0,1,1,3,3,4,4],"right_children":[2,4,-1,6,8,-1,-1,-1,-1],"split_conditions":[1E1,6E0,1.3924408E-1,2E0,9E0,-3.3610445E-4,4.950336E-4,3.906773E-3,2.494685E-2],"split_indices":[0,0,0,0,0,0,0,0,0],"split_type":[0,0,0,0,0,0,0,0,0],"sum_hessian":[1.5557E4,1.5556E4,1E0,1.53E4,2.56E2,1.0386E4,4.914E3,2.51E2,5E0],"tree_param":{"num_deleted":"0","num_feature":"1","num_nodes":"9","size_leaf_vector":"1"}},{"base_weights":[2.1598244E-4,4.593542E-5,1.3228188E-1,-3.6515202E-4,6.7673706E-2,-1.507386E-4,1.2380203E-3,5.6059076E-3,2.286784E-2],"categories":[],"categories_nodes":[],"categories_segments":[],"categories_sizes":[],"default_left":[0,0,0,0,0,0,0,0,0],"id":70,"left_children":[1,3,-1,5,7,-1,-1,-1,-1],"loss_changes":[3.499006E0,4.3252373E-1,0E0,2.251463E-1,1.629614E-1,0E0,0E0,0E0,0E0],"parents":[2147483647,0,0,1,1,3,3,4,4],"right_children":[2,4,-1,6,8,-1,-1,-1,-1],"split_conditions":[1E1,7E0,1.3228188E-1,4E0,9E0,-1.507386E-4,1.2380203E-3,5.6059076E-3,2.286784E-2],"split_indices":[0,0,0,0,0,0,0,0,0],"split_type":[0,0,0,0,0,0,0,0,0],"sum_hessian":[1.5557E4,1.5556E4,1E0,1.5463E4,9.3E1,1.4192E4,1.271E3,8.8E1,5E0],"tree_param":{"num_deleted":"0","num_feature":"1","num_nodes":"9","size_leaf_vector":"1"}},{"base_weights":[2.0477627E-4,4.3231354E-5,1.2566796E-1,-9.460411E-4,2.383827E-2,-2.8742483E-4,3.4550214E-4,1.9897332E-3,1.1325983E-2],"categories":[],"categories_nodes":[],"categories_segments":[],"categories_sizes":[],"default_left":[0,0,0,0,0,0,0,0,0],"id":71,"left_children":[1,3,-1,5,7,-1,-1,-1,-1],"loss_changes":[3.1578636E0,3.6623085E-1,0E0,1.2676771E-1,2.1658978E-1,0E0,0E0,0E0,0E0],"parents":[2147483647,0,0,1,1,3,3,4,4],"right_children":[2,4,-1,6,8,-1,-1,-1,-1],"split_conditions":[1E1,5E0,1.2566796E-1,2E0,8E0,-2.8742483E-4,3.4550214E-4,1.9897332E-3,1.1325983E-2],"split_indices":[0,0,0,0,0,0,0,0,0],"split_type":[0,0,0,0,0,0,0,0,0],"sum_hessian":[1.5557E4,1.5556E4,1E0,1.4936E4,6.2E2,1.0386E4,4.55E3,5.95E2,2.5E1],"tree_param":{"num_deleted":"0","num_feature":"1","num_nodes":"9","size_leaf_vector":"1"}},{"base_weights":[1.9324015E-4,3.9772618E-5,1.19384386E-1,-3.049805E-4,5.6754902E-2,-2.5868512E-4,4.3626243E-4,4.6447925E-3,2.001826E-2],"categories":[],"categories_nodes":[],"categories_segments":[],"categories_sizes":[],"default_left":[0,0,0,0,0,0,0,0,0],"id":72,"left_children":[1,3,-1,5,7,-1,-1,-1,-1],"loss_changes":[2.8499699E0,3.0419892E-1,0E0,1.6471635E-1,1.2966272E-1,0E0,0E0,0E0,0E0],"parents":[2147483647,0,0,1,1,3,3,4,4],"right_children":[2,4,-1,6,8,-1,-1,-1,-1],"split_conditions":[1E1,7E0,1.19384386E-1,2E0,9E0,-2.5868512E-4,4.3626243E-4,4.6447925E-3,2.001826E-2],"split_indices":[0,0,0,0,0,0,0,0,0],"split_type":[0,0,0,0,0,0,0,0,0],"sum_hessian":[1.5557E4,1.5556E4,1E0,1.5463E4,9.3E1,1.0386E4,5.077E3,8.8E1,5E0],"tree_param":{"num_deleted":"0","num_feature":"1","num_nodes":"9","size_leaf_vector":"1"}},{"base_weights":[1.8316973E-4,3.737557E-5,1.13415144E-1,-8.044447E-4,2.0285737E-2,-2.328191E-4,2.6734627E-4,1.8663061E-3,1.8349966E-2],"categories":[],"categories_nodes":[],"categories_segments":[],"categories_sizes":[],"default_left":[0,0,0,0,0,0,0,0,0],"id":73,"left_children":[1,3,-1,5,7,-1,-1,-1,-1],"loss_changes":[2.572099E0,2.6519287E-1,0E0,7.916409E-2,1.610432E-1,0E0,0E0,0E0,0E0],"parents":[2147483647,0,0,1,1,3,3,4,4],"right_children":[2,4,-1,6,8,-1,-1,-1,-1],"split_conditions":[1E1,5E0,1.13415144E-1,2E0,9E0,-2.328191E-4,2.6734627E-4,1.8663061E-3,1.8349966E-2],"split_indices":[0,0,0,0,0,0,0,0,0],"split_type":[0,0,0,0,0,0,0,0,0],"sum_hessian":[1.5557E4,1.5556E4,1E0,1.4936E4,6.2E2,1.0386E4,4.55E3,6.15E2,5E0],"tree_param":{"num_deleted":"0","num_feature":"1","num_nodes":"9","size_leaf_vector":"1"}},{"base_weights":[1.7349396E-4,3.4989695E-5,1.0774422E-1,-4.574737E-4,2.935463E-2,-1.5104892E-4,4.950498E-4,2.5932086E-3,1.6820908E-2],"categories":[],"categories_nodes":[],"categories_segments":[],"categories_sizes":[],"default_left":[0,0,0,0,0,0,0,0,0],"id":74,"left_children":[1,3,-1,5,7,-1,-1,-1,-1],"loss_changes":[2.321314E0,2.2463863E-1,0E0,8.714174E-2,1.1777352E-1,0E0,0E0,0E0,0E0],"parents":[2147483647,0,0,1,1,3,3,4,4],"right_children":[2,4,-1,6,8,-1,-1,-1,-1],"split_conditions":[1E1,6E0,1.0774422E-1,3E0,9E0,-1.5104892E-4,4.950498E-4,2.5932086E-3,1.6820908E-2],"split_indices":[0,0,0,0,0,0,0,0,0],"split_type":[0,0,0,0,0,0,0,0,0],"sum_hessian":[1.5557E4,1.5556E4,1E0,1.53E4,2.56E2,1.2807E4,2.493E3,2.51E2,5E0],"tree_param":{"num_deleted":"0","num_feature":"1","num_nodes":"9","size_leaf_vector":"1"}},{"base_weights":[1.6433609E-4,3.275689E-5,1.02357104E-1,-2.4237628E-4,4.5294743E-2,-9.800181E-5,7.988435E-4,3.7444555E-3,1.5419006E-2],"categories":[],"categories_nodes":[],"categories_segments":[],"categories_sizes":[],"default_left":[0,0,0,0,0,0,0,0,0],"id":75,"left_children":[1,3,-1,5,7,-1,-1,-1,-1],"loss_changes":[2.094992E0,1.9374344E-1,0E0,9.389581E-2,7.4582204E-2,0E0,0E0,0E0,0E0],"parents":[2147483647,0,0,1,1,3,3,4,4],"right_children":[2,4,-1,6,8,-1,-1,-1,-1],"split_conditions":[1E1,7E0,1.02357104E-1,4E0,9E0,-9.800181E-5,7.988435E-4,3.7444555E-3,1.5419006E-2],"split_indices":[0,0,0,0,0,0,0,0,0],"split_type":[0,0,0,0,0,0,0,0,0],"sum_hessian":[1.5557E4,1.5556E4,1E0,1.5463E4,9.3E1,1.4192E4,1.271E3,8.8E1,5E0],"tree_param":{"num_deleted":"0","num_feature":"1","num_nodes":"9","size_leaf_vector":"1"}},{"base_weights":[1.5574042E-4,3.0740073E-5,9.723931E-2,-1.0129299E-4,7.890408E-2,-6.116778E-5,1.2690183E-3,5.7307654E-3,1.4134089E-2],"categories":[],"categories_nodes":[],"categories_segments":[],"categories_sizes":[],"default_left":[0,0,0,0,0,0,0,0,0],"id":76,"left_children":[1,3,-1,5,7,-1,-1,-1,-1],"loss_changes":[1.8907337E0,1.6201684E-1,0E0,1.0140959E-1,2.6958823E-2,0E0,0E0,0E0,0E0],"parents":[2147483647,0,0,1,1,3,3,4,4],"right_children":[2,4,-1,6,8,-1,-1,-1,-1],"split_conditions":[1E1,8E0,9.723931E-2,5E0,9E0,-6.116778E-5,1.2690183E-3,5.7307654E-3,1.4134089E-2],"split_indices":[0,0,0,0,0,0,0,0,0],"split_type":[0,0,0,0,0,0,0,0,0],"sum_hessian":[1.5557E4,1.5556E4,1E0,1.5531E4,2.5E1,1.4936E4,5.95E2,2E1,5E0],"tree_param":{"num_deleted":"0","num_feature":"1","num_nodes":"9","size_leaf_vector":"1"}},{"base_weights":[1.4778561E-4,2.90351E-5,9.237748E-2,-2.0225045E-4,3.807766E-2,-1.785206E-4,3.0357097E-4,3.1482482E-3,1.2955983E-2],"categories":[],"categories_nodes":[],"categories_segments":[],"categories_sizes":[],"default_left":[0,0,0,0,0,0,0,0,0],"id":77,"left_children":[1,3,-1,5,7,-1,-1,-1,-1],"loss_changes":[1.7063929E0,1.369108E-1,0E0,7.926686E-2,5.2635208E-2,0E0,0E0,0E0,0E0],"parents":[2147483647,0,0,1,1,3,3,4,4],"right_children":[2,4,-1,6,8,-1,-1,-1,-1],"split_conditions":[1E1,7E0,9.237748E-2,2E0,9E0,-1.785206E-4,3.0357097E-4,3.1482482E-3,1.2955983E-2],"split_indices":[0,0,0,0,0,0,0,0,0],"split_type":[0,0,0,0,0,0,0,0,0],"sum_hessian":[1.5557E4,1.5556E4,1E0,1.5463E4,9.3E1,1.0386E4,5.077E3,8.8E1,5E0],"tree_param":{"num_deleted":"0","num_feature":"1","num_nodes":"9","size_leaf_vector":"1"}},{"base_weights":[1.4001378E-4,2.7200722E-5,8.775864E-2,-8.4686355E-5,6.686577E-2,-7.716104E-5,7.191133E-4,4.885356E-3,1.1876425E-2],"categories":[],"categories_nodes":[],"categories_segments":[],"categories_sizes":[],"default_left":[0,0,0,0,0,0,0,0,0],"id":78,"left_children":[1,3,-1,5,7,-1,-1,-1,-1],"loss_changes":[1.5400223E0,1.1634671E-1,0E0,7.763347E-2,1.8502913E-2,0E0,0E0,0E0,0E0],"parents":[2147483647,0,0,1,1,3,3,4,4],"right_children":[2,4,-1,6,8,-1,-1,-1,-1],"split_conditions":[1E1,8E0,8.775864E-2,4E0,9E0,-7.716104E-5,7.191133E-4,4.885356E-3,1.1876425E-2],"split_indices":[0,0,0,0,0,0,0,0,0],"split_type":[0,0,0,0,0,0,0,0,0],"sum_hessian":[1.5557E4,1.5556E4,1E0,1.5531E4,2.5E1,1.4192E4,1.339E3,2E1,5E0],"tree_param":{"num_deleted":"0","num_feature":"1","num_nodes":"9","size_leaf_vector":"1"}},{"base_weights":[1.3278569E-4,2.5613414E-5,8.337059E-2,-3.0589703E-4,1.976264E-2,-1.5295489E-4,2.2801412E-4,1.5075931E-3,6.0822414E-3],"categories":[],"categories_nodes":[],"categories_segments":[],"categories_sizes":[],"default_left":[0,0,0,0,0,0,0,0,0],"id":79,"left_children":[1,3,-1,5,7,-1,-1,-1,-1],"loss_changes":[1.3898671E0,1.0179598E-1,0E0,4.842213E-2,4.8538916E-2,0E0,0E0,0E0,0E0],"parents":[2147483647,0,0,1,1,3,3,4,4],"right_children":[2,4,-1,6,8,-1,-1,-1,-1],"split_conditions":[1E1,6E0,8.337059E-2,2E0,8E0,-1.5295489E-4,2.2801412E-4,1.5075931E-3,6.0822414E-3],"split_indices":[0,0,0,0,0,0,0,0,0],"split_type":[0,0,0,0,0,0,0,0,0],"sum_hessian":[1.5557E4,1.5556E4,1E0,1.53E4,2.56E2,1.0386E4,4.914E3,2.31E2,2.5E1],"tree_param":{"num_deleted":"0","num_feature":"1","num_nodes":"9","size_leaf_vector":"1"}},{"base_weights":[1.2537734E-4,2.3563856E-5,7.920189E-2,-2.7529756E-4,1.7816775E-2,-1.3766087E-4,2.0521886E-4,1.5698903E-3,1.0379791E-2],"categories":[],"categories_nodes":[],"categories_segments":[],"categories_sizes":[],"default_left":[0,0,0,0,0,0,0,0,0],"id":80,"left_children":[1,3,-1,5,7,-1,-1,-1,-1],"loss_changes":[1.2543519E0,8.273243E-2,0E0,3.922368E-2,4.5169406E-2,0E0,0E0,0E0,0E0],"parents":[2147483647,0,0,1,1,3,3,4,4],"right_children":[2,4,-1,6,8,-1,-1,-1,-1],"split_conditions":[1E1,6E0,7.920189E-2,2E0,9E0,-1.3766087E-4,2.0521886E-4,1.5698903E-3,1.0379791E-2],"split_indices":[0,0,0,0,0,0,0,0,0],"split_type":[0,0,0,0,0,0,0,0,0],"sum_hessian":[1.5557E4,1.5556E4,1E0,1.53E4,2.56E2,1.0386E4,4.914E3,2.51E2,5E0],"tree_param":{"num_deleted":"0","num_feature":"1","num_nodes":"9","size_leaf_vector":"1"}},{"base_weights":[1.18692675E-4,2.1969763E-5,7.524186E-2,-1.4517446E-4,2.751874E-2,-8.8191846E-5,3.4063356E-4,2.2650044E-3,9.515127E-3],"categories":[],"categories_nodes":[],"categories_segments":[],"categories_sizes":[],"default_left":[0,0,0,0,0,0,0,0,0],"id":81,"left_children":[1,3,-1,5,7,-1,-1,-1,-1],"loss_changes":[1.1320555E0,7.150281E-2,0E0,4.046539E-2,2.8797343E-2,0E0,0E0,0E0,0E0],"parents":[2147483647,0,0,1,1,3,3,4,4],"right_children":[2,4,-1,6,8,-1,-1,-1,-1],"split_conditions":[1E1,7E0,7.524186E-2,3E0,9E0,-8.8191846E-5,3.4063356E-4,2.2650044E-3,9.515127E-3],"split_indices":[0,0,0,0,0,0,0,0,0],"split_type":[0,0,0,0,0,0,0,0,0],"sum_hessian":[1.5557E4,1.5556E4,1E0,1.5463E4,9.3E1,1.2807E4,2.656E3,8.8E1,5E0],"tree_param":{"num_deleted":"0","num_feature":"1","num_nodes":"9","size_leaf_vector":"1"}},{"base_weights":[1.1242885E-4,2.0542007E-5,7.14798E-2,-3.8409332E-4,9.75326E-3,-1.1507778E-4,1.3658377E-4,8.059745E-4,4.81987E-3],"categories":[],"categories_nodes":[],"categories_segments":[],"categories_sizes":[],"default_left":[0,0,0,0,0,0,0,0,0],"id":82,"left_children":[1,3,-1,5,7,-1,-1,-1,-1],"loss_changes":[1.0216821E0,6.127035E-2,0E0,2.0041723E-2,4.004354E-2,0E0,0E0,0E0,0E0],"parents":[2147483647,0,0,1,1,3,3,4,4],"right_children":[2,4,-1,6,8,-1,-1,-1,-1],"split_conditions":[1E1,5E0,7.14798E-2,2E0,8E0,-1.1507778E-4,1.3658377E-4,8.059745E-4,4.81987E-3],"split_indices":[0,0,0,0,0,0,0,0,0],"split_type":[0,0,0,0,0,0,0,0,0],"sum_hessian":[1.5557E4,1.5556E4,1E0,1.4936E4,6.2E2,1.0386E4,4.55E3,5.95E2,2.5E1],"tree_param":{"num_deleted":"0","num_feature":"1","num_nodes":"9","size_leaf_vector":"1"}},{"base_weights":[1.061455E-4,1.8852956E-5,6.7905806E-2,-1.2100967E-4,2.3027541E-2,-7.262357E-5,2.7965123E-4,1.8711904E-3,8.320491E-3],"categories":[],"categories_nodes":[],"categories_segments":[],"categories_sizes":[],"default_left":[0,0,0,0,0,0,0,0,0],"id":83,"left_children":[1,3,-1,5,7,-1,-1,-1,-1],"loss_changes":[9.2206997E-1,5.006608E-2,0E0,2.7307745E-2,2.2855226E-2,0E0,0E0,0E0,0E0],"parents":[2147483647,0,0,1,1,3,3,4,4],"right_children":[2,4,-1,6,8,-1,-1,-1,-1],"split_conditions":[1E1,7E0,6.7905806E-2,3E0,9E0,-7.262357E-5,2.7965123E-4,1.8711904E-3,8.320491E-3],"split_indices":[0,0,0,0,0,0,0,0,0],"split_type":[0,0,0,0,0,0,0,0,0],"sum_hessian":[1.5557E4,1.5556E4,1E0,1.5463E4,9.3E1,1.2807E4,2.656E3,8.8E1,5E0],"tree_param":{"num_deleted":"0","num_feature":"1","num_nodes":"9","size_leaf_vector":"1"}},{"base_weights":[1.0057312E-4,1.7645412E-5,6.4510345E-2,-3.2320217E-4,8.216072E-3,-9.630946E-5,1.1373307E-4,6.7928876E-4,4.0523824E-3],"categories":[],"categories_nodes":[],"categories_segments":[],"categories_sizes":[],"default_left":[0,0,0,0,0,0,0,0,0],"id":84,"left_children":[1,3,-1,5,7,-1,-1,-1,-1],"loss_changes":[8.321644E-1,4.3475352E-2,0E0,1.3960974E-2,2.8278224E-2,0E0,0E0,0E0,0E0],"parents":[2147483647,0,0,1,1,3,3,4,4],"right_children":[2,4,-1,6,8,-1,-1,-1,-1],"split_conditions":[1E1,5E0,6.4510345E-2,2E0,8E0,-9.630946E-5,1.1373307E-4,6.7928876E-4,4.0523824E-3],"split_indices":[0,0,0,0,0,0,0,0,0],"split_type":[0,0,0,0,0,0,0,0,0],"sum_hessian":[1.5557E4,1.5556E4,1E0,1.4936E4,6.2E2,1.0386E4,4.55E3,5.95E2,2.5E1],"tree_param":{"num_deleted":"0","num_feature":"1","num_nodes":"9","size_leaf_vector":"1"}},{"base_weights":[9.497192E-5,1.6190808E-5,6.128464E-2,-1.8046952E-4,1.1724687E-2,-8.6679436E-5,1.2699956E-4,1.0221784E-3,7.289251E-3],"categories":[],"categories_nodes":[],"categories_segments":[],"categories_sizes":[],"default_left":[0,0,0,0,0,0,0,0,0],"id":85,"left_children":[1,3,-1,5,7,-1,-1,-1,-1],"loss_changes":[7.510251E-1,3.5823613E-2,0E0,1.5233097E-2,2.2880744E-2,0E0,0E0,0E0,0E0],"parents":[2147483647,0,0,1,1,3,3,4,4],"right_children":[2,4,-1,6,8,-1,-1,-1,-1],"split_conditions":[1E1,6E0,6.128464E-2,2E0,9E0,-8.6679436E-5,1.2699956E-4,1.0221784E-3,7.289251E-3],"split_indices":[0,0,0,0,0,0,0,0,0],"split_type":[0,0,0,0,0,0,0,0,0],"sum_hessian":[1.5557E4,1.5556E4,1E0,1.53E4,2.56E2,1.0386E4,4.914E3,2.51E2,5E0],"tree_param":{"num_deleted":"0","num_feature":"1","num_nodes":"9","size_leaf_vector":"1"}},{"base_weights":[8.9940324E-5,1.5098395E-5,5.8220293E-2,-4.253002E-5,3.444085E-2,-3.9634204E-5,3.7050046E-4,2.35494E-3,6.682078E-3],"categories":[],"categories_nodes":[],"categories_segments":[],"categories_sizes":[],"default_left":[0,0,0,0,0,0,0,0,0],"id":86,"left_children":[1,3,-1,5,7,-1,-1,-1,-1],"loss_changes":[6.7779815E-1,3.0865021E-2,0E0,2.0595703E-2,7.5956825E-3,0E0,0E0,0E0,0E0],"parents":[2147483647,0,0,1,1,3,3,4,4],"right_children":[2,4,-1,6,8,-1,-1,-1,-1],"split_conditions":[1E1,8E0,5.8220293E-2,4E0,9E0,-3.9634204E-5,3.7050046E-4,2.35494E-3,6.682078E-3],"split_indices":[0,0,0,0,0,0,0,0,0],"split_type":[0,0,0,0,0,0,0,0,0],"sum_hessian":[1.5557E4,1.5556E4,1E0,1.5531E4,2.5E1,1.4192E4,1.339E3,2E1,5E0],"tree_param":{"num_deleted":"0","num_feature":"1","num_nodes":"9","size_leaf_vector":"1"}},{"base_weights":[8.531879E-5,1.4218923E-5,5.5309296E-2,-8.778065E-5,1.6794084E-2,-7.404929E-5,1.2473534E-4,1.3608269E-3,6.1251326E-3],"categories":[],"categories_nodes":[],"categories_segments":[],"categories_sizes":[],"default_left":[0,0,0,0,0,0,0,0,0],"id":87,"left_children":[1,3,-1,5,7,-1,-1,-1,-1],"loss_changes":[6.117135E-1,2.6627885E-2,0E0,1.3477154E-2,1.2479935E-2,0E0,0E0,0E0,0E0],"parents":[2147483647,0,0,1,1,3,3,4,4],"right_children":[2,4,-1,6,8,-1,-1,-1,-1],"split_conditions":[1E1,7E0,5.5309296E-2,2E0,9E0,-7.404929E-5,1.2473534E-4,1.3608269E-3,6.1251326E-3],"split_indices":[0,0,0,0,0,0,0,0,0],"split_type":[0,0,0,0,0,0,0,0,0],"sum_hessian":[1.5557E4,1.5556E4,1E0,1.5463E4,9.3E1,1.0386E4,5.077E3,8.8E1,5E0],"tree_param":{"num_deleted":"0","num_feature":"1","num_nodes":"9","size_leaf_vector":"1"}},{"base_weights":[8.082538E-5,1.3280742E-5,5.254364E-2,-2.3661091E-4,6.0239383E-3,-6.664508E-5,7.444884E-5,5.5259577E-4,5.6145987E-3],"categories":[],"categories_nodes":[],"categories_segments":[],"categories_sizes":[],"default_left":[0,0,0,0,0,0,0,0,0],"id":88,"left_children":[1,3,-1,5,7,-1,-1,-1,-1],"loss_changes":[5.5206794E-1,2.3368243E-2,0E0,6.2996615E-3,1.5189789E-2,0E0,0E0,0E0,0E0],"parents":[2147483647,0,0,1,1,3,3,4,4],"right_children":[2,4,-1,6,8,-1,-1,-1,-1],"split_conditions":[1E1,5E0,5.254364E-2,2E0,9E0,-6.664508E-5,7.444884E-5,5.5259577E-4,5.6145987E-3],"split_indices":[0,0,0,0,0,0,0,0,0],"split_type":[0,0,0,0,0,0,0,0,0],"sum_hessian":[1.5557E4,1.5556E4,1E0,1.4936E4,6.2E2,1.0386E4,4.55E3,6.15E2,5E0],"tree_param":{"num_deleted":"0","num_feature":"1","num_nodes":"9","size_leaf_vector":"1"}},{"base_weights":[7.651387E-5,1.2346444E-5,4.9916457E-2,-3.385852E-5,2.7614007E-2,-2.1293034E-5,4.4541105E-4,1.9484021E-3,5.1466627E-3],"categories":[],"categories_nodes":[],"categories_segments":[],"categories_sizes":[],"default_left":[0,0,0,0,0,0,0,0,0],"id":89,"left_children":[1,3,-1,5,7,-1,-1,-1,-1],"loss_changes":[4.9824187E-1,1.98413E-2,0E0,1.2483531E-2,4.0391814E-3,0E0,0E0,0E0,0E0],"parents":[2147483647,0,0,1,1,3,3,4,4],"right_children":[2,4,-1,6,8,-1,-1,-1,-1],"split_conditions":[1E1,8E0,4.9916457E-2,5E0,9E0,-2.1293034E-5,4.4541105E-4,1.9484021E-3,5.1466627E-3],"split_indices":[0,0,0,0,0,0,0,0,0],"split_type":[0,0,0,0,0,0,0,0,0],"sum_hessian":[1.5557E4,1.5556E4,1E0,1.5531E4,2.5E1,1.4936E4,5.95E2,2E1,5E0],"tree_param":{"num_deleted":"0","num_feature":"1","num_nodes":"9","size_leaf_vector":"1"}},{"base_weights":[7.2505354E-5,1.1546456E-5,4.74205E-2,-6.96265E-5,1.3365238E-2,-4.1337527E-5,1.5874318E-4,1.0935751E-3,4.7175093E-3],"categories":[],"categories_nodes":[],"categories_segments":[],"categories_sizes":[],"default_left":[0,0,0,0,0,0,0,0,0],"id":90,"left_children":[1,3,-1,5,7,-1,-1,-1,-1],"loss_changes":[4.496611E-1,1.6864074E-2,0E0,8.809133E-3,7.2053205E-3,0E0,0E0,0E0,0E0],"parents":[2147483647,0,0,1,1,3,3,4,4],"right_children":[2,4,-1,6,8,-1,-1,-1,-1],"split_conditions":[1E1,7E0,4.74205E-2,3E0,9E0,-4.1337527E-5,1.5874318E-4,1.0935751E-3,4.7175093E-3],"split_indices":[0,0,0,0,0,0,0,0,0],"split_type":[0,0,0,0,0,0,0,0,0],"sum_hessian":[1.5557E4,1.5556E4,1E0,1.5463E4,9.3E1,1.2807E4,2.656E3,8.8E1,5E0],"tree_param":{"num_deleted":"0","num_feature":"1","num_nodes":"9","size_leaf_vector":"1"}},{"base_weights":[6.869472E-5,1.0784002E-5,4.5049287E-2,-1.1341225E-4,7.40501E-3,-5.371875E-5,7.821863E-5,6.5222697E-4,4.3245954E-3],"categories":[],"categories_nodes":[],"categories_segments":[],"categories_sizes":[],"default_left":[0,0,0,0,0,0,0,0,0],"id":91,"left_children":[1,3,-1,5,7,-1,-1,-1,-1],"loss_changes":[4.0581605E-1,1.42873805E-2,0E0,5.807648E-3,7.84897E-3,0E0,0E0,0E0,0E0],"parents":[2147483647,0,0,1,1,3,3,4,4],"right_children":[2,4,-1,6,8,-1,-1,-1,-1],"split_conditions":[1E1,6E0,4.5049287E-2,2E0,9E0,-5.371875E-5,7.821863E-5,6.5222697E-4,4.3245954E-3],"split_indices":[0,0,0,0,0,0,0,0,0],"split_type":[0,0,0,0,0,0,0,0,0],"sum_hessian":[1.5557E4,1.5556E4,1E0,1.53E4,2.56E2,1.0386E4,4.914E3,2.51E2,5E0],"tree_param":{"num_deleted":"0","num_feature":"1","num_nodes":"9","size_leaf_vector":"1"}},{"base_weights":[6.50458E-5,1.0030758E-5,4.279671E-2,-2.6849953E-5,2.2041615E-2,-2.4575404E-5,2.2917562E-4,1.5963599E-3,3.9641066E-3],"categories":[],"categories_nodes":[],"categories_segments":[],"categories_sizes":[],"default_left":[0,0,0,0,0,0,0,0,0],"id":92,"left_children":[1,3,-1,5,7,-1,-1,-1,-1],"loss_changes":[3.662474E-1,1.2641283E-2,0E0,7.883866E-3,2.1483991E-3,0E0,0E0,0E0,0E0],"parents":[2147483647,0,0,1,1,3,3,4,4],"right_children":[2,4,-1,6,8,-1,-1,-1,-1],"split_conditions":[1E1,8E0,4.279671E-2,4E0,9E0,-2.4575404E-5,2.2917562E-4,1.5963599E-3,3.9641066E-3],"split_indices":[0,0,0,0,0,0,0,0,0],"split_type":[0,0,0,0,0,0,0,0,0],"sum_hessian":[1.5557E4,1.5556E4,1E0,1.5531E4,2.5E1,1.4192E4,1.339E3,2E1,5E0],"tree_param":{"num_deleted":"0","num_feature":"1","num_nodes":"9","size_leaf_vector":"1"}},{"base_weights":[6.170612E-5,9.441603E-6,4.0657043E-2,-5.4527056E-5,1.0532866E-2,-3.187095E-5,1.2189781E-4,8.6750503E-4,3.6334991E-3],"categories":[],"categories_nodes":[],"categories_segments":[],"categories_sizes":[],"default_left":[0,0,0,0,0,0,0,0,0],"id":93,"left_children":[1,3,-1,5,7,-1,-1,-1,-1],"loss_changes":[3.305412E-1,1.047307E-2,0E0,5.2030613E-3,4.1907383E-3,0E0,0E0,0E0,0E0],"parents":[2147483647,0,0,1,1,3,3,4,4],"right_children":[2,4,-1,6,8,-1,-1,-1,-1],"split_conditions":[1E1,7E0,4.0657043E-2,3E0,9E0,-3.187095E-5,1.2189781E-4,8.6750503E-4,3.6334991E-3],"split_indices":[0,0,0,0,0,0,0,0,0],"split_type":[0,0,0,0,0,0,0,0,0],"sum_hessian":[1.5557E4,1.5556E4,1E0,1.5463E4,9.3E1,1.2807E4,2.656E3,8.8E1,5E0],"tree_param":{"num_deleted":"0","num_feature":"1","num_nodes":"9","size_leaf_vector":"1"}},{"base_weights":[5.843591E-5,8.784604E-6,3.8624194E-2,-2.248364E-5,1.8687615E-2,-1.4339423E-5,3.0078247E-4,1.3620285E-3,3.3308666E-3],"categories":[],"categories_nodes":[],"categories_segments":[],"categories_sizes":[],"default_left":[0,0,0,0,0,0,0,0,0],"id":94,"left_children":[1,3,-1,5,7,-1,-1,-1,-1],"loss_changes":[2.9831368E-1,9.086553E-3,0E0,5.691299E-3,1.4726575E-3,0E0,0E0,0E0,0E0],"parents":[2147483647,0,0,1,1,3,3,4,4],"right_children":[2,4,-1,6,8,-1,-1,-1,-1],"split_conditions":[1E1,8E0,3.8624194E-2,5E0,9E0,-1.4339423E-5,3.0078247E-4,1.3620285E-3,3.3308666E-3],"split_indices":[0,0,0,0,0,0,0,0,0],"split_type":[0,0,0,0,0,0,0,0,0],"sum_hessian":[1.5557E4,1.5556E4,1E0,1.5531E4,2.5E1,1.4936E4,5.95E2,2E1,5E0],"tree_param":{"num_deleted":"0","num_feature":"1","num_nodes":"9","size_leaf_vector":"1"}},{"base_weights":[5.5361797E-5,8.193266E-6,3.669281E-2,-8.220944E-5,5.3904643E-3,-4.12695E-5,6.162312E-5,4.0662868E-4,1.6998878E-3],"categories":[],"categories_nodes":[],"categories_segments":[],"categories_sizes":[],"default_left":[0,0,0,0,0,0,0,0,0],"id":95,"left_children":[1,3,-1,5,7,-1,-1,-1,-1],"loss_changes":[2.6922584E-1,7.5700413E-3,0E0,3.5321005E-3,3.8813795E-3,0E0,0E0,0E0,0E0],"parents":[2147483647,0,0,1,1,3,3,4,4],"right_children":[2,4,-1,6,8,-1,-1,-1,-1],"split_conditions":[1E1,6E0,3.669281E-2,2E0,8E0,-4.12695E-5,6.162312E-5,4.0662868E-4,1.6998878E-3],"split_indices":[0,0,0,0,0,0,0,0,0],"split_type":[0,0,0,0,0,0,0,0,0],"sum_hessian":[1.5557E4,1.5556E4,1E0,1.53E4,2.56E2,1.0386E4,4.914E3,2.31E2,2.5E1],"tree_param":{"num_deleted":"0","num_feature":"1","num_nodes":"9","size_leaf_vector":"1"}},{"base_weights":[5.233912E-5,7.528805E-6,3.4858324E-2,-4.1639556E-5,8.096168E-3,-3.7142945E-5,6.329507E-5,6.588368E-4,2.9112499E-3],"categories":[],"categories_nodes":[],"categories_segments":[],"categories_sizes":[],"default_left":[0,0,0,0,0,0,0,0,0],"id":96,"left_children":[1,3,-1,5,7,-1,-1,-1,-1],"loss_changes":[2.4297878E-1,6.1874357E-3,0E0,3.4405584E-3,2.7869064E-3,0E0,0E0,0E0,0E0],"parents":[2147483647,0,0,1,1,3,3,4,4],"right_children":[2,4,-1,6,8,-1,-1,-1,-1],"split_conditions":[1E1,7E0,3.4858324E-2,2E0,9E0,-3.7142945E-5,6.329507E-5,6.588368E-4,2.9112499E-3],"split_indices":[0,0,0,0,0,0,0,0,0],"split_type":[0,0,0,0,0,0,0,0,0],"sum_hessian":[1.5557E4,1.5556E4,1E0,1.5463E4,9.3E1,1.0386E4,5.077E3,8.8E1,5E0],"tree_param":{"num_deleted":"0","num_feature":"1","num_nodes":"9","size_leaf_vector":"1"}},{"base_weights":[4.9605103E-5,7.035319E-6,3.3115387E-2,-6.904668E-5,4.536699E-3,-3.342901E-5,4.915133E-5,3.9913846E-4,2.6683807E-3],"categories":[],"categories_nodes":[],"categories_segments":[],"categories_sizes":[],"default_left":[0,0,0,0,0,0,0,0,0],"id":97,"left_children":[1,3,-1,5,7,-1,-1,-1,-1],"loss_changes":[2.1928826E-1,5.361658E-3,0E0,2.2751912E-3,2.9973215E-3,0E0,0E0,0E0,0E0],"parents":[2147483647,0,0,1,1,3,3,4,4],"right_children":[2,4,-1,6,8,-1,-1,-1,-1],"split_conditions":[1E1,6E0,3.3115387E-2,2E0,9E0,-3.342901E-5,4.915133E-5,3.9913846E-4,2.6683807E-3],"split_indices":[0,0,0,0,0,0,0,0,0],"split_type":[0,0,0,0,0,0,0,0,0],"sum_hessian":[1.5557E4,1.5556E4,1E0,1.53E4,2.56E2,1.0386E4,4.914E3,2.51E2,5E0],"tree_param":{"num_deleted":"0","num_feature":"1","num_nodes":"9","size_leaf_vector":"1"}},{"base_weights":[4.6945996E-5,6.5044424E-6,3.145981E-2,-1.603876E-5,1.3473217E-2,-1.5476235E-5,1.4533043E-4,9.6929644E-4,2.4458568E-3],"categories":[],"categories_nodes":[],"categories_segments":[],"categories_sizes":[],"default_left":[0,0,0,0,0,0,0,0,0],"id":98,"left_children":[1,3,-1,5,7,-1,-1,-1,-1],"loss_changes":[1.9791028E-1,4.723055E-3,0E0,3.1661517E-3,8.4263645E-4,0E0,0E0,0E0,0E0],"parents":[2147483647,0,0,1,1,3,3,4,4],"right_children":[2,4,-1,6,8,-1,-1,-1,-1],"split_conditions":[1E1,8E0,3.145981E-2,4E0,9E0,-1.5476235E-5,1.4533043E-4,9.6929644E-4,2.4458568E-3],"split_indices":[0,0,0,0,0,0,0,0,0],"split_type":[0,0,0,0,0,0,0,0,0],"sum_hessian":[1.5557E4,1.5556E4,1E0,1.5531E4,2.5E1,1.4192E4,1.339E3,2E1,5E0],"tree_param":{"num_deleted":"0","num_feature":"1","num_nodes":"9","size_leaf_vector":"1"}},{"base_weights":[4.4516462E-5,6.097227E-6,2.9886628E-2,-9.683486E-5,2.4819274E-3,-2.8538958E-5,3.3353528E-5,2.0513374E-4,1.2256916E-3],"categories":[],"categories_nodes":[],"categories_segments":[],"categories_sizes":[],"default_left":[0,0,0,0,0,0,0,0,0],"id":99,"left_children":[1,3,-1,5,7,-1,-1,-1,-1],"loss_changes":[1.7861184E-1,3.964823E-3,0E0,1.2122076E-3,2.5886532E-3,0E0,0E0,0E0,0E0],"parents":[2147483647,0,0,1,1,3,3,4,4],"right_children":[2,4,-1,6,8,-1,-1,-1,-1],"split_conditions":[1E1,5E0,2.9886628E-2,2E0,8E0,-2.8538958E-5,3.3353528E-5,2.0513374E-4,1.2256916E-3],"split_indices":[0,0,0,0,0,0,0,0,0],"split_type":[0,0,0,0,0,0,0,0,0],"sum_hessian":[1.5557E4,1.5556E4,1E0,1.4936E4,6.2E2,1.0386E4,4.55E3,5.95E2,2.5E1],"tree_param":{"num_deleted":"0","num_feature":"1","num_nodes":"9","size_leaf_vector":"1"}}]},"name":"gbtree"},"learner_model_param":{"base_score":"2.5159163E0","boost_from_average":"1","num_class":"0","num_feature":"1","num_target":"1"},"objective":{"name":"reg:squarederror","reg_loss_param":{"scale_pos_weight":"1"}}},"version":[2,1,0]}