{"learner":{"attributes":{},"feature_names":["x_0","x_1","x_2","x_3","x_4","x_5"],"feature_types":["int","int","int","int","int","int"],"gradient_booster":{"model":{"gbtree_model_param":{"num_parallel_tree":"1","num_trees":"100"},"iteration_indptr":[0,1,2,3,4,5,6,7,8,9,10,11,12,13,14,15,16,17,18,19,20,21,22,23,24,25,26,27,28,29,30,31,32,33,34,35,36,37,38,39,40,41,42,43,44,45,46,47,48,49,50,51,52,53,54,55,56,57,58,59,60,61,62,63,64,65,66,67,68,69,70,71,72,73,74,75,76,77,78,79,80,81,82,83,84,85,86,87,88,89,90,91,92,93,94,95,96,97,98,99,100],"tree_info":[0,0,0,0,0,0,0,0,0,0,0,0,0,0,0,0,0,0,0,0,0,0,0,0,0,0,0,0,0,0,0,0,0,0,0,0,0,0,0,0,0,0,0,0,0,0,0,0,0,0,0,0,0,0,0,0,0,0,0,0,0,0,0,0,0,0,0,0,0,0,0,0,0,0,0,0,0,0,0,0,0,0,0,0,0,0,0,0,0,0,0,0,0,0,0,0,0,0,0,0],"trees":[{"base_weights":[-9.605397E-8,-2.6155837E0,1.22532015E1,-4.8792592E-1,-3.312841E-1,8.411884E0,2.543826E1,-1.6899203E-1,1.943873E-1,7.114047E-1,1.8140554E0,2.217339E0,4.481261E0],"categories":[],"categories_nodes":[],"categories_segments":[],"categories_sizes":[],"default_left":[0,0,0,0,0,0,0,0,0,0,0,0,0],"id":0,"left_children":[1,3,5,-1,7,9,11,-1,-1,-1,-1,-1,-1],"loss_changes":[4.9865466E5,6.629983E4,1.384096E5,0E0,1.9733846E4,2.6651203E4,3.80345E4,0E0,0E0,0E0,0E0,0E0,0E0],"parents":[2147483647,0,0,1,1,2,2,4,4,5,5,6,6],"right_children":[2,4,6,-1,8,10,12,-1,-1,-1,-1,-1,-1],"split_conditions":[3E0,1E0,5E0,-4.8792592E-1,2E0,3E0,7E0,-1.6899203E-1,1.943873E-1,7.114047E-1,1.8140554E0,2.217339E0,4.481261E0],"split_indices":[5,5,5,0,5,4,5,0,0,0,0,0,0],"split_type":[0,0,0,0,0,0,0,0,0,0,0,0,0],"sum_hessian":[1.5557E4,1.2821E4,2.736E3,6.439E3,6.382E3,2.12E3,6.16E2,3.996E3,2.386E3,1.872E3,2.48E2,5.29E2,8.7E1],"tree_param":{"num_deleted":"0","num_feature":"6","num_nodes":"13","size_leaf_vector":"1"}},{"base_weights":[5.63044E-4,-1.5726864E0,1.6667395E1,-3.2924485E0,3.1732175E0,1.3250185E1,3.1112078E1,-4.391409E-1,-1.5209706E-1,2.0700656E-1,9.6382153E-1,1.1372064E0,1.9902083E0,2.8500154E0,5.0574374E0],"categories":[],"categories_nodes":[],"categories_segments":[],"categories_sizes":[],"default_left":[0,0,0,0,0,0,0,0,0,0,0,0,0,0,0],"id":1,"left_children":[1,3,5,7,9,11,13,-1,-1,-1,-1,-1,-1,-1,-1],"loss_changes":[4.079738E5,1.1604711E5,6.582956E4,2.0309953E4,2.6952797E4,1.3353641E4,1.1572141E4,0E0,0E0,0E0,0E0,0E0,0E0,0E0,0E0],"parents":[2147483647,0,0,1,1,2,2,3,3,4,4,5,5,6,6],"right_children":[2,4,6,8,10,12,14,-1,-1,-1,-1,-1,-1,-1,-1],"split_conditions":[4E0,2E0,6E0,1E0,3E0,2E0,8E0,-4.391409E-1,-1.5209706E-1,2.0700656E-1,9.6382153E-1,1.1372064E0,1.9902083E0,2.8500154E0,5.0574374E0],"split_indices":[5,5,5,5,4,4,5,0,0,0,0,0,0,0,0],"split_type":[0,0,0,0,0,0,0,0,0,0,0,0,0,0,0],"sum_hessian":[1.5557E4,1.4216E4,1.341E3,1.0435E4,3.781E3,1.086E3,2.55E2,6.439E3,3.996E3,3.231E3,5.5E2,8.49E2,2.37E2,2.27E2,2.8E1],"tree_param":{"num_deleted":"0","num_feature":"6","num_nodes":"15","size_leaf_vector":"1"}},{"base_weights":[1.2532956E-3,-2.1466088E0,1.0063324E1,-3.952336E-1,-3.244203E-1,6.9155364E0,2.0867855E1,-1.0848787E-1,3.2078633E-1,5.8257425E-1,1.5085291E0,1.8172804E0,3.6862283E0],"categories":[],"categories_nodes":[],"categories_segments":[],"categories_sizes":[],"default_left":[0,0,0,0,0,0,0,0,0,0,0,0,0],"id":2,"left_children":[1,3,5,-1,7,9,11,-1,-1,-1,-1,-1,-1],"loss_changes":[3.362602E5,4.2187914E4,9.294206E4,0E0,1.7149205E4,1.8796125E4,2.5926406E4,0E0,0E0,0E0,0E0,0E0,0E0],"parents":[2147483647,0,0,1,1,2,2,4,4,5,5,6,6],"right_children":[2,4,6,-1,8,10,12,-1,-1,-1,-1,-1,-1],"split_conditions":[3E0,1E0,5E0,-3.952336E-1,3E0,3E0,7E0,-1.0848787E-1,3.2078633E-1,5.8257425E-1,1.5085291E0,1.8172804E0,3.6862283E0],"split_indices":[5,5,5,0,4,4,5,0,0,0,0,0,0],"split_type":[0,0,0,0,0,0,0,0,0,0,0,0,0],"sum_hessian":[1.5557E4,1.2821E4,2.736E3,6.439E3,6.382E3,2.12E3,6.16E2,5.252E3,1.13E3,1.872E3,2.48E2,5.29E2,8.7E1],"tree_param":{"num_deleted":"0","num_feature":"6","num_nodes":"13","size_leaf_vector":"1"}},{"base_weights":[1.604379E-3,-1.2905483E0,1.3690527E1,-2.7090404E0,2.623961E0,1.0876322E1,2.5586426E1,-3.557164E-1,-1.341859E-1,2.0446053E-1,1.112792E0,9.228697E-1,1.6714998E0,2.3369699E0,4.2132215E0],"categories":[],"categories_nodes":[],"categories_segments":[],"categories_sizes":[],"default_left":[0,0,0,0,0,0,0,0,0,0,0,0,0,0,0],"id":3,"left_children":[1,3,5,7,9,11,13,-1,-1,-1,-1,-1,-1,-1,-1],"loss_changes":[2.7521034E5,7.894986E4,4.464853E4,1.2096164E4,1.861047E4,1.0302633E4,8.404844E3,0E0,0E0,0E0,0E0,0E0,0E0,0E0,0E0],"parents":[2147483647,0,0,1,1,2,2,3,3,4,4,5,5,6,6],"right_children":[2,4,6,8,10,12,14,-1,-1,-1,-1,-1,-1,-1,-1],"split_conditions":[4E0,2E0,6E0,1E0,4E0,2E0,8E0,-3.557164E-1,-1.341859E-1,2.0446053E-1,1.112792E0,9.228697E-1,1.6714998E0,2.3369699E0,4.2132215E0],"split_indices":[5,5,5,5,4,4,5,0,0,0,0,0,0,0,0],"split_type":[0,0,0,0,0,0,0,0,0,0,0,0,0,0,0],"sum_hessian":[1.5557E4,1.4216E4,1.341E3,1.0435E4,3.781E3,1.086E3,2.55E2,6.439E3,3.996E3,3.541E3,2.4E2,8.49E2,2.37E2,2.27E2,2.8E1],"tree_param":{"num_deleted":"0","num_feature":"6","num_nodes":"15","size_leaf_vector":"1"}},{"base_weights":[2.0849E-3,-1.761315E0,8.263068E0,-3.201503E-1,-3.0799055E-1,5.6836963E0,1.7116528E1,-9.7208805E-2,2.776724E-1,4.1500616E-1,1.0078328E0,1.489353E0,3.0310538E0],"categories":[],"categories_nodes":[],"categories_segments":[],"categories_sizes":[],"default_left":[0,0,0,0,0,0,0,0,0,0,0,0,0],"id":4,"left_children":[1,3,5,-1,7,9,11,-1,-1,-1,-1,-1,-1],"loss_changes":[2.2665444E5,2.6836223E4,6.2405844E4,0E0,1.3078603E4,1.4253203E4,1.7645344E4,0E0,0E0,0E0,0E0,0E0,0E0],"parents":[2147483647,0,0,1,1,2,2,4,4,5,5,6,6],"right_children":[2,4,6,-1,8,10,12,-1,-1,-1,-1,-1,-1],"split_conditions":[3E0,1E0,5E0,-3.201503E-1,3E0,2E0,7E0,-9.7208805E-2,2.776724E-1,4.1500616E-1,1.0078328E0,1.489353E0,3.0310538E0],"split_indices":[5,5,5,0,4,4,5,0,0,0,0,0,0],"split_type":[0,0,0,0,0,0,0,0,0,0,0,0,0],"sum_hessian":[1.5557E4,1.2821E4,2.736E3,6.439E3,6.382E3,2.12E3,6.16E2,5.252E3,1.13E3,1.573E3,5.47E2,5.29E2,8.7E1],"tree_param":{"num_deleted":"0","num_feature":"6","num_nodes":"13","size_leaf_vector":"1"}},{"base_weights":[2.2495133E-3,-1.0590792E0,1.1245847E1,-2.2306578E0,2.1740396E0,8.927485E0,2.1045898E1,-2.881402E-1,-1.1816155E-1,8.989605E-2,5.1770884E-1,8.089849E-1,1.8229407E0,1.9161209E0,3.5137742E0],"categories":[],"categories_nodes":[],"categories_segments":[],"categories_sizes":[],"default_left":[0,0,0,0,0,0,0,0,0,0,0,0,0,0,0],"id":5,"left_children":[1,3,5,7,9,11,13,-1,-1,-1,-1,-1,-1,-1,-1],"loss_changes":[1.8566789E5,5.3856766E4,3.0302453E4,7.1208164E3,1.4477094E4,8.322023E3,6.125758E3,0E0,0E0,0E0,0E0,0E0,0E0,0E0,0E0],"parents":[2147483647,0,0,1,1,2,2,3,3,4,4,5,5,6,6],"right_children":[2,4,6,8,10,12,14,-1,-1,-1,-1,-1,-1,-1,-1],"split_conditions":[4E0,2E0,6E0,1E0,2E0,3E0,8E0,-2.881402E-1,-1.1816155E-1,8.989605E-2,5.1770884E-1,8.089849E-1,1.8229407E0,1.9161209E0,3.5137742E0],"split_indices":[5,5,5,5,4,4,5,0,0,0,0,0,0,0,0],"split_type":[0,0,0,0,0,0,0,0,0,0,0,0,0,0,0],"sum_hessian":[1.5557E4,1.4216E4,1.341E3,1.0435E4,3.781E3,1.086E3,2.55E2,6.439E3,3.996E3,2.655E3,1.126E3,9.98E2,8.8E1,2.27E2,2.8E1],"tree_param":{"num_deleted":"0","num_feature":"6","num_nodes":"15","size_leaf_vector":"1"}},{"base_weights":[2.5557433E-3,-1.4453554E0,6.7855716E0,-2.007631E0,1.013527E0,4.670637E0,1.4044876E1,-2.5933066E-1,-1.06348336E-1,5.4495435E-2,7.2391933E-1,4.1642848E-1,1.486238E0,1.221415E0,2.4911237E0],"categories":[],"categories_nodes":[],"categories_segments":[],"categories_sizes":[],"default_left":[0,0,0,0,0,0,0,0,0,0,0,0,0,0,0],"id":6,"left_children":[1,3,5,7,9,11,13,-1,-1,-1,-1,-1,-1,-1,-1],"loss_changes":[1.5280811E5,1.7729338E4,4.1955445E4,5.7679766E3,6.9593574E3,1.088377E4,1.1969914E4,0E0,0E0,0E0,0E0,0E0,0E0,0E0,0E0],"parents":[2147483647,0,0,1,1,2,2,3,3,4,4,5,5,6,6],"right_children":[2,4,6,8,10,12,14,-1,-1,-1,-1,-1,-1,-1,-1],"split_conditions":[3E0,2E0,5E0,1E0,4E0,4E0,7E0,-2.5933066E-1,-1.06348336E-1,5.4495435E-2,7.2391933E-1,4.1642848E-1,1.486238E0,1.221415E0,2.4911237E0],"split_indices":[5,5,5,5,4,4,5,0,0,0,0,0,0,0,0],"split_type":[0,0,0,0,0,0,0,0,0,0,0,0,0,0,0],"sum_hessian":[1.5557E4,1.2821E4,2.736E3,1.0435E4,2.386E3,2.12E3,6.16E2,6.439E3,3.996E3,2.22E3,1.66E2,2.021E3,9.9E1,5.29E2,8.7E1],"tree_param":{"num_deleted":"0","num_feature":"6","num_nodes":"15","size_leaf_vector":"1"}},{"base_weights":[2.6876787E-3,-8.692037E-1,9.239407E0,-1.8069029E0,1.7185006E0,7.3291664E0,1.7314373E1,-2.3340161E-1,-9.571616E-2,1.0177082E-1,5.826019E-1,6.020606E-1,1.1971802E0,1.570887E0,2.933991E0],"categories":[],"categories_nodes":[],"categories_segments":[],"categories_sizes":[],"default_left":[0,0,0,0,0,0,0,0,0,0,0,0,0,0,0],"id":7,"left_children":[1,3,5,7,9,11,13,-1,-1,-1,-1,-1,-1,-1,-1],"loss_changes":[1.2530307E5,3.4500492E4,2.0573617E4,4.6721523E3,1.0880623E4,6.531629E3,4.481711E3,0E0,0E0,0E0,0E0,0E0,0E0,0E0,0E0],"parents":[2147483647,0,0,1,1,2,2,3,3,4,4,5,5,6,6],"right_children":[2,4,6,8,10,12,14,-1,-1,-1,-1,-1,-1,-1,-1],"split_conditions":[4E0,2E0,6E0,1E0,3E0,2E0,8E0,-2.3340161E-1,-9.571616E-2,1.0177082E-1,5.826019E-1,6.020606E-1,1.1971802E0,1.570887E0,2.933991E0],"split_indices":[5,5,5,5,4,4,5,0,0,0,0,0,0,0,0],"split_type":[0,0,0,0,0,0,0,0,0,0,0,0,0,0,0],"sum_hessian":[1.5557E4,1.4216E4,1.341E3,1.0435E4,3.781E3,1.086E3,2.55E2,6.439E3,3.996E3,3.231E3,5.5E2,8.49E2,2.37E2,2.27E2,2.8E1],"tree_param":{"num_deleted":"0","num_feature":"6","num_nodes":"15","size_leaf_vector":"1"}},{"base_weights":[2.8469563E-3,-1.1866354E0,5.5752034E0,-1.6262441E0,7.358376E-1,4.5389185E0,1.56005335E1,-2.1006508E-1,-8.614694E-2,3.2379165E-2,6.586402E-1,3.4261888E-1,7.904061E-1,1.4144872E0,2.650709E0],"categories":[],"categories_nodes":[],"categories_segments":[],"categories_sizes":[],"default_left":[0,0,0,0,0,0,0,0,0,0,0,0,0,0,0],"id":8,"left_children":[1,3,5,7,9,11,13,-1,-1,-1,-1,-1,-1,-1,-1],"loss_changes":[1.0312846E5,1.0837527E4,2.8364156E4,3.7845176E3,5.7522114E3,9.266754E3,3.689379E3,0E0,0E0,0E0,0E0,0E0,0E0,0E0,0E0],"parents":[2147483647,0,0,1,1,2,2,3,3,4,4,5,5,6,6],"right_children":[2,4,6,8,10,12,14,-1,-1,-1,-1,-1,-1,-1,-1],"split_conditions":[3E0,2E0,6E0,1E0,4E0,2E0,8E0,-2.1006508E-1,-8.614694E-2,3.2379165E-2,6.586402E-1,3.4261888E-1,7.904061E-1,1.4144872E0,2.650709E0],"split_indices":[5,5,5,5,3,4,5,0,0,0,0,0,0,0,0],"split_type":[0,0,0,0,0,0,0,0,0,0,0,0,0,0,0],"sum_hessian":[1.5557E4,1.2821E4,2.736E3,1.0435E4,2.386E3,2.481E3,2.55E2,6.439E3,3.996E3,2.23E3,1.56E2,1.866E3,6.15E2,2.27E2,2.8E1],"tree_param":{"num_deleted":"0","num_feature":"6","num_nodes":"15","size_leaf_vector":"1"}},{"base_weights":[2.9217338E-3,-7.207347E-1,7.669256E0,-1.4636481E0,1.3294411E0,6.1579704E0,1.4056359E1,-1.8906182E-1,-7.7534415E-2,7.077644E-2,5.227906E-1,5.4899937E-1,1.3586633E0,1.2736589E0,2.3947785E0],"categories":[],"categories_nodes":[],"categories_segments":[],"categories_sizes":[],"default_left":[0,0,0,0,0,0,0,0,0,0,0,0,0,0,0],"id":9,"left_children":[1,3,5,7,9,11,13,-1,-1,-1,-1,-1,-1,-1,-1],"loss_changes":[8.631808E4,2.1655902E4,1.2867414E4,3.0655215E3,9.162298E3,5.319293E3,3.036914E3,0E0,0E0,0E0,0E0,0E0,0E0,0E0,0E0],"parents":[2147483647,0,0,1,1,2,2,3,3,4,4,5,5,6,6],"right_children":[2,4,6,8,10,12,14,-1,-1,-1,-1,-1,-1,-1,-1],"split_conditions":[4E0,2E0,6E0,1E0,3E0,3E0,8E0,-1.8906182E-1,-7.7534415E-2,7.077644E-2,5.227906E-1,5.4899937E-1,1.3586633E0,1.2736589E0,2.3947785E0],"split_indices":[5,5,5,5,3,4,5,0,0,0,0,0,0,0,0],"split_type":[0,0,0,0,0,0,0,0,0,0,0,0,0,0,0],"sum_hessian":[1.5557E4,1.4216E4,1.341E3,1.0435E4,3.781E3,1.086E3,2.55E2,6.439E3,3.996E3,3.262E3,5.19E2,9.98E2,8.8E1,2.27E2,2.8E1],"tree_param":{"num_deleted":"0","num_feature":"6","num_nodes":"15","size_leaf_vector":"1"}},{"base_weights":[3.0089929E-3,-6.486382E-1,6.906485E0,-1.3173088E0,1.196654E0,5.5439277E0,1.2665053E1,-1.7015857E-1,-6.978291E-2,1.8693777E-2,3.5751897E-1,4.941543E-1,1.2243235E0,1.1468517E0,2.1635585E0],"categories":[],"categories_nodes":[],"categories_segments":[],"categories_sizes":[],"default_left":[0,0,0,0,0,0,0,0,0,0,0,0,0,0,0],"id":10,"left_children":[1,3,5,7,9,11,13,-1,-1,-1,-1,-1,-1,-1,-1],"loss_changes":[6.999418E4,1.7543828E4,1.0459625E4,2.4831191E3,9.082357E3,4.3261523E3,2.499668E3,0E0,0E0,0E0,0E0,0E0,0E0,0E0,0E0],"parents":[2147483647,0,0,1,1,2,2,3,3,4,4,5,5,6,6],"right_children":[2,4,6,8,10,12,14,-1,-1,-1,-1,-1,-1,-1,-1],"split_conditions":[4E0,2E0,6E0,1E0,2E0,3E0,8E0,-1.7015857E-1,-6.978291E-2,1.8693777E-2,3.5751897E-1,4.941543E-1,1.2243235E0,1.1468517E0,2.1635585E0],"split_indices":[5,5,5,5,4,4,5,0,0,0,0,0,0,0,0],"split_type":[0,0,0,0,0,0,0,0,0,0,0,0,0,0,0],"sum_hessian":[1.5557E4,1.4216E4,1.341E3,1.0435E4,3.781E3,1.086E3,2.55E2,6.439E3,3.996E3,2.655E3,1.126E3,9.98E2,8.8E1,2.27E2,2.8E1],"tree_param":{"num_deleted":"0","num_feature":"6","num_nodes":"15","size_leaf_vector":"1"}},{"base_weights":[3.0400862E-3,-8.906001E-1,4.1894674E0,-1.5314536E-1,-2.4388438E-1,2.824669E0,8.87431E0,-6.0900655E-2,3.6605608E-1,2.4233606E-1,1.0910877E0,7.741397E-1,1.5596691E0],"categories":[],"categories_nodes":[],"categories_segments":[],"categories_sizes":[],"default_left":[0,0,0,0,0,0,0,0,0,0,0,0,0],"id":11,"left_children":[1,3,5,-1,7,9,11,-1,-1,-1,-1,-1,-1],"loss_changes":[5.820869E4,5.313703E3,1.7474941E4,0E0,9.101831E3,6.856338E3,4.578254E3,0E0,0E0,0E0,0E0,0E0,0E0],"parents":[2147483647,0,0,1,1,2,2,4,4,5,5,6,6],"right_children":[2,4,6,-1,8,10,12,-1,-1,-1,-1,-1,-1],"split_conditions":[3E0,1E0,5E0,-1.5314536E-1,4E0,4E0,7E0,-6.0900655E-2,3.6605608E-1,2.4233606E-1,1.0910877E0,7.741397E-1,1.5596691E0],"split_indices":[5,5,5,0,4,4,5,0,0,0,0,0,0],"split_type":[0,0,0,0,0,0,0,0,0,0,0,0,0],"sum_hessian":[1.5557E4,1.2821E4,2.736E3,6.439E3,6.382E3,2.12E3,6.16E2,5.837E3,5.45E2,2.021E3,9.9E1,5.29E2,8.7E1],"tree_param":{"num_deleted":"0","num_feature":"6","num_nodes":"13","size_leaf_vector":"1"}},{"base_weights":[2.9815366E-3,-8.015282E-1,3.7718604E0,-1.0832968E0,4.3070403E-1,2.5428305E0,7.9906616E0,-1.378332E-1,-6.076627E-2,8.051345E-3,5.404236E-1,1.9165559E-1,7.7341527E-1,6.968718E-1,1.4054745E0],"categories":[],"categories_nodes":[],"categories_segments":[],"categories_sizes":[],"default_left":[0,0,0,0,0,0,0,0,0,0,0,0,0,0,0],"id":12,"left_children":[1,3,5,7,9,11,13,-1,-1,-1,-1,-1,-1,-1,-1],"loss_changes":[4.717643E4,4.4523203E3,1.4171117E4,1.4636348E3,4.156965E3,6.880958E3,3.7256992E3,0E0,0E0,0E0,0E0,0E0,0E0,0E0,0E0],"parents":[2147483647,0,0,1,1,2,2,3,3,4,4,5,5,6,6],"right_children":[2,4,6,8,10,12,14,-1,-1,-1,-1,-1,-1,-1,-1],"split_conditions":[3E0,2E0,5E0,1E0,4E0,3E0,7E0,-1.378332E-1,-6.076627E-2,8.051345E-3,5.404236E-1,1.9165559E-1,7.7341527E-1,6.968718E-1,1.4054745E0],"split_indices":[5,5,5,5,3,3,5,0,0,0,0,0,0,0,0],"split_type":[0,0,0,0,0,0,0,0,0,0,0,0,0,0,0],"sum_hessian":[1.5557E4,1.2821E4,2.736E3,1.0435E4,2.386E3,2.12E3,6.16E2,6.439E3,3.996E3,2.23E3,1.56E2,1.893E3,2.27E2,5.29E2,8.7E1],"tree_param":{"num_deleted":"0","num_feature":"6","num_nodes":"15","size_leaf_vector":"1"}},{"base_weights":[2.9030445E-3,-4.84792E-1,5.1694884E0,-9.7498614E-1,8.679713E-1,4.1593494E0,9.43844E0,-1.24822475E-1,-4.9192403E-2,-2.3734625E-3,2.9686838E-1,3.2051516E-1,7.549722E-1,8.2652944E-1,1.8000631E0],"categories":[],"categories_nodes":[],"categories_segments":[],"categories_sizes":[],"default_left":[0,0,0,0,0,0,0,0,0,0,0,0,0,0,0],"id":13,"left_children":[1,3,5,7,9,11,13,-1,-1,-1,-1,-1,-1,-1,-1],"loss_changes":[3.9204277E4,9.428375E3,5.7477617E3,1.3768467E3,7.0845796E3,3.4923418E3,2.422662E3,0E0,0E0,0E0,0E0,0E0,0E0,0E0,0E0],"parents":[2147483647,0,0,1,1,2,2,3,3,4,4,5,5,6,6],"right_children":[2,4,6,8,10,12,14,-1,-1,-1,-1,-1,-1,-1,-1],"split_conditions":[4E0,2E0,6E0,2E0,2E0,2E0,2E0,-1.24822475E-1,-4.9192403E-2,-2.3734625E-3,2.9686838E-1,3.2051516E-1,7.549722E-1,8.2652944E-1,1.8000631E0],"split_indices":[5,5,5,4,4,4,4,0,0,0,0,0,0,0,0],"split_type":[0,0,0,0,0,0,0,0,0,0,0,0,0,0,0],"sum_hessian":[1.5557E4,1.4216E4,1.341E3,1.0435E4,3.781E3,1.086E3,2.55E2,6.664E3,3.771E3,2.655E3,1.126E3,8.49E2,2.37E2,2.26E2,2.9E1],"tree_param":{"num_deleted":"0","num_feature":"6","num_nodes":"15","size_leaf_vector":"1"}},{"base_weights":[2.8585016E-3,-6.590215E-1,3.1035607E0,-1.1437846E0,-1.698261E-1,2.093058E0,6.572236E0,-1.1156148E-1,-1.191022E-1,-4.9223896E-2,3.2778224E-1,1.5208066E-1,6.837582E-1,6.0947925E-1,1.7190491E0],"categories":[],"categories_nodes":[],"categories_segments":[],"categories_sizes":[],"default_left":[0,0,0,0,0,0,0,0,0,0,0,0,0,0,0],"id":14,"left_children":[1,3,5,7,9,11,13,-1,-1,-1,-1,-1,-1,-1,-1],"loss_changes":[3.1931615E4,3.0404658E3,9.579719E3,7.2402344E0,7.0967407E3,5.748245E3,3.0231836E3,0E0,0E0,0E0,0E0,0E0,0E0,0E0,0E0],"parents":[2147483647,0,0,1,1,2,2,3,3,4,4,5,5,6,6],"right_children":[2,4,6,8,10,12,14,-1,-1,-1,-1,-1,-1,-1,-1],"split_conditions":[3E0,1E0,5E0,2E0,4E0,3E0,3E0,-1.1156148E-1,-1.191022E-1,-4.9223896E-2,3.2778224E-1,1.5208066E-1,6.837582E-1,6.0947925E-1,1.7190491E0],"split_indices":[5,5,5,4,4,3,4,0,0,0,0,0,0,0,0],"split_type":[0,0,0,0,0,0,0,0,0,0,0,0,0,0,0],"sum_hessian":[1.5557E4,1.2821E4,2.736E3,6.439E3,6.382E3,2.12E3,6.16E2,4.049E3,2.39E3,5.837E3,5.45E2,1.893E3,2.27E2,5.91E2,2.5E1],"tree_param":{"num_deleted":"0","num_feature":"6","num_nodes":"15","size_leaf_vector":"1"}},{"base_weights":[2.7791471E-3,-3.9788342E-1,4.247352E0,-8.0178744E-1,7.1674913E-1,3.7595716E0,1.1155501E1,-9.609666E-2,-1.6946454E-2,3.932291E-2,5.9029573E-1,2.8727612E-1,7.1422774E-1,9.74578E-1,2.6075735E0],"categories":[],"categories_nodes":[],"categories_segments":[],"categories_sizes":[],"default_left":[0,0,0,0,0,0,0,0,0,0,0,0,0,0,0],"id":15,"left_children":[1,3,5,7,9,11,13,-1,-1,-1,-1,-1,-1,-1,-1],"loss_changes":[2.6460268E4,6.401134E3,4.4801465E3,1.0502476E3,6.343279E3,3.744254E3,1.5968086E3,0E0,0E0,0E0,0E0,0E0,0E0,0E0,0E0],"parents":[2147483647,0,0,1,1,2,2,3,3,4,4,5,5,6,6],"right_children":[2,4,6,8,10,12,14,-1,-1,-1,-1,-1,-1,-1,-1],"split_conditions":[4E0,2E0,7E0,3E0,4E0,2E0,9E0,-9.609666E-2,-1.6946454E-2,3.932291E-2,5.9029573E-1,2.8727612E-1,7.1422774E-1,9.74578E-1,2.6075735E0],"split_indices":[5,5,5,3,3,4,5,0,0,0,0,0,0,0,0],"split_type":[0,0,0,0,0,0,0,0,0,0,0,0,0,0,0],"sum_hessian":[1.5557E4,1.4216E4,1.341E3,1.0435E4,3.781E3,1.254E3,8.7E1,8.336E3,2.099E3,3.56E3,2.21E2,9.95E2,2.59E2,8.1E1,6E0],"tree_param":{"num_deleted":"0","num_feature":"6","num_nodes":"15","size_leaf_vector":"1"}},{"base_weights":[2.8290793E-3,-5.418867E-1,2.5546534E0,-8.7531704E-1,7.072695E-2,1.7091824E0,5.456905E0,-1.1612488E-1,1.2128519E-2,-9.883269E-2,1.259519E-1,1.3545291E-1,8.863183E-1,4.5770976E-1,1.0069588E0],"categories":[],"categories_nodes":[],"categories_segments":[],"categories_sizes":[],"default_left":[0,0,0,0,0,0,0,0,0,0,0,0,0,0,0],"id":16,"left_children":[1,3,5,7,9,11,13,-1,-1,-1,-1,-1,-1,-1,-1],"loss_changes":[2.16273E4,2.6191345E3,6.7066406E3,2.366166E3,5.6919014E3,5.3693755E3,2.4578652E3,0E0,0E0,0E0,0E0,0E0,0E0,0E0,0E0],"parents":[2147483647,0,0,1,1,2,2,3,3,4,4,5,5,6,6],"right_children":[2,4,6,8,10,12,14,-1,-1,-1,-1,-1,-1,-1,-1],"split_conditions":[3E0,2E0,5E0,3E0,1E0,4E0,2E0,-1.1612488E-1,1.2128519E-2,-9.883269E-2,1.259519E-1,1.3545291E-1,8.863183E-1,4.5770976E-1,1.0069588E0],"split_indices":[5,4,5,3,5,4,4,0,0,0,0,0,0,0,0],"split_type":[0,0,0,0,0,0,0,0,0,0,0,0,0,0,0],"sum_hessian":[1.5557E4,1.2821E4,2.736E3,8.302E3,4.519E3,2.12E3,6.16E2,6.451E3,1.851E3,2.39E3,2.129E3,2.021E3,9.9E1,5.19E2,9.7E1],"tree_param":{"num_deleted":"0","num_feature":"6","num_nodes":"15","size_leaf_vector":"1"}},{"base_weights":[2.7010213E-3,-3.2639176E-1,3.4890714E0,-6.60684E-1,5.961361E-1,3.0588858E0,9.584457E0,-8.085084E-2,-8.521694E-3,4.0058102E-2,8.6137885E-1,2.6110834E-1,8.691312E-1,8.284071E-1,2.344835E0],"categories":[],"categories_nodes":[],"categories_segments":[],"categories_sizes":[],"default_left":[0,0,0,0,0,0,0,0,0,0,0,0,0,0,0],"id":17,"left_children":[1,3,5,7,9,11,13,-1,-1,-1,-1,-1,-1,-1,-1],"loss_changes":[1.7851443E4,4.38483E3,3.4896045E3,8.8770166E2,5.926319E3,3.1426836E3,1.3922534E3,0E0,0E0,0E0,0E0,0E0,0E0,0E0,0E0],"parents":[2147483647,0,0,1,1,2,2,3,3,4,4,5,5,6,6],"right_children":[2,4,6,8,10,12,14,-1,-1,-1,-1,-1,-1,-1,-1],"split_conditions":[4E0,2E0,7E0,3E0,5E0,3E0,9E0,-8.085084E-2,-8.521694E-3,4.0058102E-2,8.6137885E-1,2.6110834E-1,8.691312E-1,8.284071E-1,2.344835E0],"split_indices":[5,5,5,4,4,3,5,0,0,0,0,0,0,0,0],"split_type":[0,0,0,0,0,0,0,0,0,0,0,0,0,0,0],"sum_hessian":[1.5557E4,1.4216E4,1.341E3,1.0435E4,3.781E3,1.254E3,8.7E1,8.302E3,2.133E3,3.692E3,8.9E1,1.163E3,9.1E1,8.1E1,6E0],"tree_param":{"num_deleted":"0","num_feature":"6","num_nodes":"15","size_leaf_vector":"1"}},{"base_weights":[2.7597025E-3,-4.4549087E-1,2.1026742E0,-6.366974E-1,3.6179084E-1,1.673864E0,6.2519097E0,-8.029088E-2,6.481992E-2,-9.155554E-2,1.9820236E-1,1.2112345E-1,5.8178014E-1,5.292484E-1,1.330317E0],"categories":[],"categories_nodes":[],"categories_segments":[],"categories_sizes":[],"default_left":[0,0,0,0,0,0,0,0,0,0,0,0,0,0,0],"id":18,"left_children":[1,3,5,7,9,11,13,-1,-1,-1,-1,-1,-1,-1,-1],"loss_changes":[1.4645493E4,1.9794028E3,4.8593E3,2.214543E3,5.084748E3,4.7512134E3,1.6614746E3,0E0,0E0,0E0,0E0,0E0,0E0,0E0,0E0],"parents":[2147483647,0,0,1,1,2,2,3,3,4,4,5,5,6,6],"right_children":[2,4,6,8,10,12,14,-1,-1,-1,-1,-1,-1,-1,-1],"split_conditions":[3E0,3E0,6E0,4E0,1E0,3E0,2E0,-8.029088E-2,6.481992E-2,-9.155554E-2,1.9820236E-1,1.2112345E-1,5.8178014E-1,5.292484E-1,1.330317E0],"split_indices":[5,3,5,4,5,3,4,0,0,0,0,0,0,0,0],"split_type":[0,0,0,0,0,0,0,0,0,0,0,0,0,0,0],"sum_hessian":[1.5557E4,1.2821E4,2.736E3,1.0366E4,2.455E3,2.481E3,2.55E2,9.179E3,1.187E3,1.373E3,1.082E3,2.233E3,2.48E2,2.26E2,2.9E1],"tree_param":{"num_deleted":"0","num_feature":"6","num_nodes":"15","size_leaf_vector":"1"}},{"base_weights":[2.6542442E-3,-2.706776E-1,2.8982997E0,-5.465271E-1,4.9056923E-1,2.4856207E0,8.228638E0,-6.338976E-2,1.9408122E-2,2.4149558E-3,3.2255563E-1,2.0776732E-1,7.90104E-1,6.307749E-1,1.3157656E0],"categories":[],"categories_nodes":[],"categories_segments":[],"categories_sizes":[],"default_left":[0,0,0,0,0,0,0,0,0,0,0,0,0,0,0],"id":19,"left_children":[1,3,5,7,9,11,13,-1,-1,-1,-1,-1,-1,-1,-1],"loss_changes":[1.2314509E4,2.9856892E3,2.9315693E3,6.754087E2,4.8244365E3,2.7384653E3,8.259419E2,0E0,0E0,0E0,0E0,0E0,0E0,0E0,0E0],"parents":[2147483647,0,0,1,1,2,2,3,3,4,4,5,5,6,6],"right_children":[2,4,6,8,10,12,14,-1,-1,-1,-1,-1,-1,-1,-1],"split_conditions":[4E0,2E0,3E0,4E0,3E0,7E0,5E0,-6.338976E-2,1.9408122E-2,2.4149558E-3,3.2255563E-1,2.0776732E-1,7.90104E-1,6.307749E-1,1.3157656E0],"split_indices":[5,5,4,3,4,5,5,0,0,0,0,0,0,0,0],"split_type":[0,0,0,0,0,0,0,0,0,0,0,0,0,0,0],"sum_hessian":[1.5557E4,1.4216E4,1.341E3,1.0435E4,3.781E3,1.246E3,9.5E1,9.334E3,1.101E3,3.231E3,5.5E2,1.16E3,8.6E1,7E1,2.5E1],"tree_param":{"num_deleted":"0","num_feature":"6","num_nodes":"15","size_leaf_vector":"1"}},{"base_weights":[2.5961252E-3,-2.4359007E-1,2.6106637E0,-5.571582E-1,3.531225E-1,2.2378588E0,7.42605E0,-7.400134E-2,8.638917E-2,-7.51666E-2,1.4062311E-1,2.0249808E-1,1.1108907E0,5.685858E-1,1.1892496E0],"categories":[],"categories_nodes":[],"categories_segments":[],"categories_sizes":[],"default_left":[0,0,0,0,0,0,0,0,0,0,0,0,0,0,0],"id":20,"left_children":[1,3,5,7,9,11,13,-1,-1,-1,-1,-1,-1,-1,-1],"loss_changes":[9.989966E3,2.6603398E3,2.39254E3,2.4224082E3,5.6996943E3,2.3324019E3,6.785386E2,0E0,0E0,0E0,0E0,0E0,0E0,0E0,0E0],"parents":[2147483647,0,0,1,1,2,2,3,3,4,4,5,5,6,6],"right_children":[2,4,6,8,10,12,14,-1,-1,-1,-1,-1,-1,-1,-1],"split_conditions":[4E0,2E0,3E0,4E0,1E0,8E0,5E0,-7.400134E-2,8.638917E-2,-7.51666E-2,1.4062311E-1,2.0249808E-1,1.1108907E0,5.685858E-1,1.1892496E0],"split_indices":[5,4,4,3,5,5,5,0,0,0,0,0,0,0,0],"split_type":[0,0,0,0,0,0,0,0,0,0,0,0,0,0,0],"sum_hessian":[1.5557E4,1.4216E4,1.341E3,9.319E3,4.897E3,1.246E3,9.5E1,8.257E3,1.062E3,2.39E3,2.507E3,1.218E3,2.8E1,7E1,2.5E1],"tree_param":{"num_deleted":"0","num_feature":"6","num_nodes":"15","size_leaf_vector":"1"}},{"base_weights":[2.5389115E-3,-3.401512E-1,1.6079353E0,-5.8654344E-1,1.1470559E-1,1.3905174E0,8.061106E0,-7.027807E-2,1.15769625E-1,-6.932148E-2,1.0324641E-1,1.2628078E-2,2.6235488E-1,6.134817E-1,1.1834985E0],"categories":[],"categories_nodes":[],"categories_segments":[],"categories_sizes":[],"default_left":[0,0,0,0,0,0,0,0,0,0,0,0,0,0,0],"id":21,"left_children":[1,3,5,7,9,11,13,-1,-1,-1,-1,-1,-1,-1,-1],"loss_changes":[8.559834E3,1.4370696E3,3.8288975E3,1.6870488E3,3.3418062E3,4.129045E3,5.743872E2,0E0,0E0,0E0,0E0,0E0,0E0,0E0,0E0],"parents":[2147483647,0,0,1,1,2,2,3,3,4,4,5,5,6,6],"right_children":[2,4,6,8,10,12,14,-1,-1,-1,-1,-1,-1,-1,-1],"split_conditions":[3E0,2E0,4E0,5E0,1E0,1E0,5E0,-7.027807E-2,1.15769625E-1,-6.932148E-2,1.0324641E-1,1.2628078E-2,2.6235488E-1,6.134817E-1,1.1834985E0],"split_indices":[5,3,3,4,5,4,3,0,0,0,0,0,0,0,0],"split_type":[0,0,0,0,0,0,0,0,0,0,0,0,0,0,0],"sum_hessian":[1.5557E4,1.2821E4,2.736E3,8.316E3,4.505E3,2.648E3,8.8E1,7.797E3,5.19E2,2.396E3,2.109E3,1.308E3,1.34E3,6E1,2.8E1],"tree_param":{"num_deleted":"0","num_feature":"6","num_nodes":"15","size_leaf_vector":"1"}},{"base_weights":[2.4232757E-3,-1.3986486E-1,3.4482367E0,-4.204052E-1,5.0975996E-1,3.2608829E0,1.930893E0,-4.9621247E-2,2.2148525E-2,9.27836E-3,3.3106253E-1,2.5339553E-1,7.0402706E-1],"categories":[],"categories_nodes":[],"categories_segments":[],"categories_sizes":[],"default_left":[0,0,0,0,0,0,0,0,0,0,0,0,0],"id":22,"left_children":[1,3,5,7,9,11,-1,-1,-1,-1,-1,-1,-1],"loss_changes":[7.6285435E3,2.7233333E3,1.7704883E3,5.079253E2,5.2633936E3,1.6607856E3,0E0,0E0,0E0,0E0,0E0,0E0,0E0],"parents":[2147483647,0,0,1,1,2,2,3,3,4,4,5,5],"right_children":[2,4,6,8,10,12,-1,-1,-1,-1,-1,-1,-1],"split_conditions":[5E0,2E0,9E0,4E0,3E0,2E0,1.930893E0,-4.9621247E-2,2.2148525E-2,9.27836E-3,3.3106253E-1,2.5339553E-1,7.0402706E-1],"split_indices":[5,5,5,2,3,4,0,0,0,0,0,0,0],"split_type":[0,0,0,0,0,0,0,0,0,0,0,0,0],"sum_hessian":[1.5557E4,1.4941E4,6.16E2,1.0435E4,4.506E3,6.1E2,6E0,9.333E3,1.102E3,3.923E3,5.83E2,5.13E2,9.7E1],"tree_param":{"num_deleted":"0","num_feature":"6","num_nodes":"13","size_leaf_vector":"1"}},{"base_weights":[2.3867432E-3,-1.2585741E-1,3.1080947E0,-6.1957264E-1,2.0994307E-1,2.936362E0,1.7653879E0,-8.11372E-2,8.1468605E-2,-2.1904182E-2,1.3188908E-1,2.281053E-1,6.343428E-1],"categories":[],"categories_nodes":[],"categories_segments":[],"categories_sizes":[],"default_left":[0,0,0,0,0,0,0,0,0,0,0,0,0],"id":23,"left_children":[1,3,5,7,9,11,-1,-1,-1,-1,-1,-1,-1],"loss_changes":[6.196969E3,2.4773616E3,1.4894185E3,1.6646792E3,4.2313584E3,1.3496982E3,0E0,0E0,0E0,0E0,0E0,0E0,0E0],"parents":[2147483647,0,0,1,1,2,2,3,3,4,4,5,5],"right_children":[2,4,6,8,10,12,-1,-1,-1,-1,-1,-1,-1],"split_conditions":[5E0,1E0,9E0,4E0,2E0,2E0,1.7653879E0,-8.11372E-2,8.1468605E-2,-2.1904182E-2,1.3188908E-1,2.281053E-1,6.343428E-1],"split_indices":[5,4,5,2,5,4,0,0,0,0,0,0,0],"split_type":[0,0,0,0,0,0,0,0,0,0,0,0,0],"sum_hessian":[1.5557E4,1.4941E4,6.16E2,6.048E3,8.893E3,6.1E2,6E0,5.335E3,7.13E2,6.413E3,2.48E3,5.13E2,9.7E1],"tree_param":{"num_deleted":"0","num_feature":"6","num_nodes":"13","size_leaf_vector":"1"}},{"base_weights":[2.3240743E-3,-1.7484713E-1,1.8792545E0,-4.4355154E-1,3.3648401E-1,1.6845678E0,1.0058275E1,-6.8192385E-2,4.2646114E-2,-5.6406584E-2,1.1948885E-1,1.3359886E-1,6.2392133E-1,8.4863275E-1,1.3516834E0],"categories":[],"categories_nodes":[],"categories_segments":[],"categories_sizes":[],"default_left":[0,0,0,0,0,0,0,0,0,0,0,0,0,0,0],"id":24,"left_children":[1,3,5,7,9,11,13,-1,-1,-1,-1,-1,-1,-1,-1],"loss_changes":[5.1739546E3,1.9535215E3,2.1199849E3,1.9331367E3,3.7870042E3,2.074668E3,5.3828613E1,0E0,0E0,0E0,0E0,0E0,0E0,0E0,0E0],"parents":[2147483647,0,0,1,1,2,2,3,3,4,4,5,5,6,6],"right_children":[2,4,6,8,10,12,14,-1,-1,-1,-1,-1,-1,-1,-1],"split_conditions":[4E0,2E0,4E0,3E0,1E0,3E0,5E0,-6.8192385E-2,4.2646114E-2,-5.6406584E-2,1.1948885E-1,1.3359886E-1,6.2392133E-1,8.4863275E-1,1.3516834E0],"split_indices":[5,4,4,2,5,3,4,0,0,0,0,0,0,0,0],"split_type":[0,0,0,0,0,0,0,0,0,0,0,0,0,0,0],"sum_hessian":[1.5557E4,1.4216E4,1.341E3,9.319E3,4.897E3,1.311E3,3E1,7.315E3,2.004E3,2.39E3,2.507E3,1.219E3,9.2E1,2.3E1,7E0],"tree_param":{"num_deleted":"0","num_feature":"6","num_nodes":"15","size_leaf_vector":"1"}},{"base_weights":[2.2842442E-3,-1.0663993E-1,2.640117E0,-3.9131767E-1,4.5140144E-1,2.4824367E0,1.6026176E0,-5.6935877E-2,9.999073E-2,-7.2296932E-3,1.9995697E-1,2.1915162E-1,8.943863E-1],"categories":[],"categories_nodes":[],"categories_segments":[],"categories_sizes":[],"default_left":[0,0,0,0,0,0,0,0,0,0,0,0,0],"id":25,"left_children":[1,3,5,7,9,11,-1,-1,-1,-1,-1,-1,-1],"loss_changes":[4.4704644E3,2.3738918E3,1.2625269E3,2.4515134E3,4.0929275E3,1.1289341E3,0E0,0E0,0E0,0E0,0E0,0E0,0E0],"parents":[2147483647,0,0,1,1,2,2,3,3,4,4,5,5],"right_children":[2,4,6,8,10,12,-1,-1,-1,-1,-1,-1,-1],"split_conditions":[5E0,2E0,9E0,4E0,2E0,3E0,1.6026176E0,-5.6935877E-2,9.999073E-2,-7.2296932E-3,1.9995697E-1,2.1915162E-1,8.943863E-1],"split_indices":[5,3,5,4,5,4,0,0,0,0,0,0,0],"split_type":[0,0,0,0,0,0,0,0,0,0,0,0,0],"sum_hessian":[1.5557E4,1.4941E4,6.16E2,9.894E3,5.047E3,6.1E2,6E0,8.772E3,1.122E3,3.772E3,1.275E3,5.85E2,2.5E1],"tree_param":{"num_deleted":"0","num_feature":"6","num_nodes":"13","size_leaf_vector":"1"}},{"base_weights":[2.2455712E-3,-2.2839808E-1,1.0827391E0,-2.9646492E-1,1.1418376E0,8.669271E-1,6.4841695E0,-4.0240105E-2,6.2093336E-2,-6.6264085E-2,4.0818658E-1,6.648093E-2,6.636847E-1,4.7493815E-1,1.0125241E0],"categories":[],"categories_nodes":[],"categories_segments":[],"categories_sizes":[],"default_left":[0,0,0,0,0,0,0,0,0,0,0,0,0,0,0],"id":26,"left_children":[1,3,5,7,9,11,13,-1,-1,-1,-1,-1,-1,-1,-1],"loss_changes":[3.8774404E3,1.1962161E3,3.1848818E3,1.1874694E3,3.2229717E3,3.0662012E3,6.151426E2,0E0,0E0,0E0,0E0,0E0,0E0,0E0,0E0],"parents":[2147483647,0,0,1,1,2,2,3,3,4,4,5,5,6,6],"right_children":[2,4,6,8,10,12,14,-1,-1,-1,-1,-1,-1,-1,-1],"split_conditions":[3E0,5E0,4E0,4E0,1E0,4E0,5E0,-4.0240105E-2,6.2093336E-2,-6.6264085E-2,4.0818658E-1,6.648093E-2,6.636847E-1,4.7493815E-1,1.0125241E0],"split_indices":[5,3,4,2,5,3,4,0,0,0,0,0,0,0,0],"split_type":[0,0,0,0,0,0,0,0,0,0,0,0,0,0,0],"sum_hessian":[1.5557E4,1.2821E4,2.736E3,1.2215E4,6.06E2,2.632E3,1.04E2,1.0951E4,1.264E3,3.76E2,2.3E2,2.544E3,8.8E1,7.2E1,3.2E1],"tree_param":{"num_deleted":"0","num_feature":"6","num_nodes":"15","size_leaf_vector":"1"}},{"base_weights":[2.1869976E-3,-5.848046E-2,3.628718E0,3.9126718E-1,-3.7061894E-1,2.9243526E0,8.837457E0,-9.121141E-3,1.2672223E-1,-7.0033394E-2,-1.1591941E-2,2.5414455E-1,1.4595517E0,7.1067446E-1,1.2708572E0],"categories":[],"categories_nodes":[],"categories_segments":[],"categories_sizes":[],"default_left":[0,0,0,0,0,0,0,0,0,0,0,0,0,0,0],"id":27,"left_children":[1,3,5,7,9,11,13,-1,-1,-1,-1,-1,-1,-1,-1],"loss_changes":[3.423165E3,2.1484343E3,9.133828E2,2.650003E3,7.5857825E2,9.773633E2,1.10677E2,0E0,0E0,0E0,0E0,0E0,0E0,0E0,0E0],"parents":[2147483647,0,0,1,1,2,2,3,3,4,4,5,5,6,6],"right_children":[2,4,6,8,10,12,14,-1,-1,-1,-1,-1,-1,-1,-1],"split_conditions":[6E0,1E0,2E0,2E0,1E0,9E0,3E0,-9.121141E-3,1.2672223E-1,-7.0033394E-2,-1.1591941E-2,2.5414455E-1,1.4595517E0,7.1067446E-1,1.2708572E0],"split_indices":[5,0,4,5,4,5,4,0,0,0,0,0,0,0,0],"split_type":[0,0,0,0,0,0,0,0,0,0,0,0,0,0,0],"sum_hessian":[1.5557E4,1.5302E4,2.55E2,6.269E3,9.033E3,2.26E2,2.9E1,4.043E3,2.226E3,3.936E3,5.097E3,2.2E2,6E0,2.2E1,7E0],"tree_param":{"num_deleted":"0","num_feature":"6","num_nodes":"15","size_leaf_vector":"1"}},{"base_weights":[2.208112E-3,-8.574458E-2,2.1321707E0,-3.382349E-1,4.0919945E-1,1.8592011E0,7.602756E0,-4.4534985E-2,1.479056E-1,-4.164723E-2,1.1553253E-1,6.9897264E-2,3.3552977E-1,5.524723E-1,1.3344473E0],"categories":[],"categories_nodes":[],"categories_segments":[],"categories_sizes":[],"default_left":[0,0,0,0,0,0,0,0,0,0,0,0,0,0,0],"id":28,"left_children":[1,3,5,7,9,11,13,-1,-1,-1,-1,-1,-1,-1,-1],"loss_changes":[2.9147551E3,1.8674188E3,9.072334E2,1.9268093E3,3.110327E3,1.0200491E3,2.7228833E2,0E0,0E0,0E0,0E0,0E0,0E0,0E0,0E0],"parents":[2147483647,0,0,1,1,2,2,3,3,4,4,5,5,6,6],"right_children":[2,4,6,8,10,12,14,-1,-1,-1,-1,-1,-1,-1,-1],"split_conditions":[5E0,2E0,8E0,5E0,1E0,1E0,9E0,-4.4534985E-2,1.479056E-1,-4.164723E-2,1.1553253E-1,6.9897264E-2,3.3552977E-1,5.524723E-1,1.3344473E0],"split_indices":[5,3,5,4,5,4,5,0,0,0,0,0,0,0,0],"split_type":[0,0,0,0,0,0,0,0,0,0,0,0,0,0,0],"sum_hessian":[1.5557E4,1.4941E4,6.16E2,9.894E3,5.047E3,5.88E2,2.8E1,9.344E3,5.5E2,2.396E3,2.651E3,3.32E2,2.56E2,2.2E1,6E0],"tree_param":{"num_deleted":"0","num_feature":"6","num_nodes":"15","size_leaf_vector":"1"}},{"base_weights":[2.1460224E-3,-1.8113247E-1,8.607484E-1,-2.410856E-1,1.0257353E0,6.670922E-1,5.70871E0,-3.883382E-2,3.533047E-2,-5.2980077E-2,3.5599837E-1,1.0365836E-2,2.4545579E-1,4.1845188E-1,8.9074147E-1],"categories":[],"categories_nodes":[],"categories_segments":[],"categories_sizes":[],"default_left":[0,0,0,0,0,0,0,0,0,0,0,0,0,0,0],"id":29,"left_children":[1,3,5,7,9,11,13,-1,-1,-1,-1,-1,-1,-1,-1],"loss_changes":[2.4484148E3,9.279896E2,2.5657908E3,1.0693486E3,2.3947495E3,2.6514893E3,4.7464746E2,0E0,0E0,0E0,0E0,0E0,0E0,0E0,0E0],"parents":[2147483647,0,0,1,1,2,2,3,3,4,4,5,5,6,6],"right_children":[2,4,6,8,10,12,14,-1,-1,-1,-1,-1,-1,-1,-1],"split_conditions":[3E0,5E0,4E0,3E0,1E0,2E0,5E0,-3.883382E-2,3.533047E-2,-5.2980077E-2,3.5599837E-1,1.0365836E-2,2.4545579E-1,4.1845188E-1,8.9074147E-1],"split_indices":[5,3,4,2,5,3,4,0,0,0,0,0,0,0,0],"split_type":[0,0,0,0,0,0,0,0,0,0,0,0,0,0,0],"sum_hessian":[1.5557E4,1.2821E4,2.736E3,1.2215E4,6.06E2,2.632E3,1.04E2,9.79E3,2.425E3,3.76E2,2.3E2,2.002E3,6.3E2,7.2E1,3.2E1],"tree_param":{"num_deleted":"0","num_feature":"6","num_nodes":"15","size_leaf_vector":"1"}},{"base_weights":[2.0512508E-3,-4.8332278E-2,3.0138369E0,-4.6637523E-1,2.393139E-1,2.3869622E0,7.6567273E0,-6.205001E-2,7.156821E-2,-3.4808196E-2,7.021407E-2,2.0656018E-1,1.2191777E0,6.0764605E-1,1.1242903E0],"categories":[],"categories_nodes":[],"categories_segments":[],"categories_sizes":[],"default_left":[0,0,0,0,0,0,0,0,0,0,0,0,0,0,0],"id":30,"left_children":[1,3,5,7,9,11,13,-1,-1,-1,-1,-1,-1,-1,-1],"loss_changes":[2.360985E3,1.8402738E3,7.268142E2,1.1369104E3,2.46495E3,6.900665E2,1.0169641E2,0E0,0E0,0E0,0E0,0E0,0E0,0E0,0E0],"parents":[2147483647,0,0,1,1,2,2,3,3,4,4,5,5,6,6],"right_children":[2,4,6,8,10,12,14,-1,-1,-1,-1,-1,-1,-1,-1],"split_conditions":[6E0,1E0,2E0,4E0,1E0,9E0,3E0,-6.205001E-2,7.156821E-2,-3.4808196E-2,7.021407E-2,2.0656018E-1,1.2191777E0,6.0764605E-1,1.1242903E0],"split_indices":[5,4,4,2,5,5,4,0,0,0,0,0,0,0,0],"split_type":[0,0,0,0,0,0,0,0,0,0,0,0,0,0,0],"sum_hessian":[1.5557E4,1.5302E4,2.55E2,6.237E3,9.065E3,2.26E2,2.9E1,5.518E3,7.19E2,3.995E3,5.07E3,2.2E2,6E0,2.2E1,7E0],"tree_param":{"num_deleted":"0","num_feature":"6","num_nodes":"15","size_leaf_vector":"1"}},{"base_weights":[2.0519393E-3,-1.0732172E-1,1.1607429E0,-3.2442042E-1,3.057994E-1,8.922482E-1,4.75706E0,-5.200118E-2,3.8943034E-2,-3.777843E-2,9.573715E-2,7.2358556E-2,7.501159E-1,3.2236E-1,7.719993E-1],"categories":[],"categories_nodes":[],"categories_segments":[],"categories_sizes":[],"default_left":[0,0,0,0,0,0,0,0,0,0,0,0,0,0,0],"id":31,"left_children":[1,3,5,7,9,11,13,-1,-1,-1,-1,-1,-1,-1,-1],"loss_changes":[1.9717938E3,1.2751943E3,1.2915796E3,1.3014893E3,2.181951E3,1.3879182E3,3.976631E2,0E0,0E0,0E0,0E0,0E0,0E0,0E0,0E0],"parents":[2147483647,0,0,1,1,2,2,3,3,4,4,5,5,6,6],"right_children":[2,4,6,8,10,12,14,-1,-1,-1,-1,-1,-1,-1,-1],"split_conditions":[4E0,2E0,3E0,3E0,1E0,4E0,1E0,-5.200118E-2,3.8943034E-2,-3.777843E-2,9.573715E-2,7.2358556E-2,7.501159E-1,3.2236E-1,7.719993E-1],"split_indices":[5,4,3,2,5,4,4,0,0,0,0,0,0,0,0],"split_type":[0,0,0,0,0,0,0,0,0,0,0,0,0,0,0],"sum_hessian":[1.5557E4,1.4216E4,1.341E3,9.319E3,4.897E3,1.249E3,9.2E1,7.315E3,2.004E3,2.39E3,2.507E3,1.219E3,3E1,6.2E1,3E1],"tree_param":{"num_deleted":"0","num_feature":"6","num_nodes":"15","size_leaf_vector":"1"}},{"base_weights":[1.9728215E-3,-4.2182814E-2,2.6414716E0,-2.7417058E-1,4.1994143E-1,2.0728164E0,6.856248E0,-4.0569063E-2,7.83718E-2,2.1394917E-3,1.5392981E-1,1.7779915E-1,1.1084749E0,5.426022E-1,1.0111116E0],"categories":[],"categories_nodes":[],"categories_segments":[],"categories_sizes":[],"default_left":[0,0,0,0,0,0,0,0,0,0,0,0,0,0,0],"id":32,"left_children":[1,3,5,7,9,11,13,-1,-1,-1,-1,-1,-1,-1,-1],"loss_changes":[1.8133768E3,1.6407063E3,5.9935754E2,1.4179497E3,2.2818486E3,5.834175E2,8.4792725E1,0E0,0E0,0E0,0E0,0E0,0E0,0E0,0E0],"parents":[2147483647,0,0,1,1,2,2,3,3,4,4,5,5,6,6],"right_children":[2,4,6,8,10,12,14,-1,-1,-1,-1,-1,-1,-1,-1],"split_conditions":[6E0,2E0,2E0,4E0,2E0,9E0,3E0,-4.0569063E-2,7.83718E-2,2.1394917E-3,1.5392981E-1,1.7779915E-1,1.1084749E0,5.426022E-1,1.0111116E0],"split_indices":[5,3,4,4,5,5,4,0,0,0,0,0,0,0,0],"split_type":[0,0,0,0,0,0,0,0,0,0,0,0,0,0,0],"sum_hessian":[1.5557E4,1.5302E4,2.55E2,1.0188E4,5.114E3,2.26E2,2.9E1,9.062E3,1.126E3,3.772E3,1.342E3,2.2E2,6E0,2.2E1,7E0],"tree_param":{"num_deleted":"0","num_feature":"6","num_nodes":"15","size_leaf_vector":"1"}},{"base_weights":[1.970535E-3,3.8720694E-1,-2.6951435E-1,1.01133615E-1,1.4550133E0,-5.085711E-1,-8.249154E-2,-2.9135782E-2,4.6253804E-2,1.2212016E-1,6.3265055E-1,-4.568309E-3,-8.234867E-2,-2.379313E-2,3.346067E-2],"categories":[],"categories_nodes":[],"categories_segments":[],"categories_sizes":[],"default_left":[0,0,0,0,0,0,0,0,0,0,0,0,0,0,0],"id":33,"left_children":[1,3,5,7,9,11,13,-1,-1,-1,-1,-1,-1,-1,-1],"loss_changes":[1.6272511E3,1.9646416E3,4.0801764E2,7.198722E2,1.5401914E3,5.8391943E2,3.321575E2,0E0,0E0,0E0,0E0,0E0,0E0,0E0,0E0],"parents":[2147483647,0,0,1,1,2,2,3,3,4,4,5,5,6,6],"right_children":[2,4,6,8,10,12,14,-1,-1,-1,-1,-1,-1,-1,-1],"split_conditions":[1E0,3E0,1E0,1E0,4E0,1E0,2E0,-2.9135782E-2,4.6253804E-2,1.2212016E-1,6.3265055E-1,-4.568309E-3,-8.234867E-2,-2.379313E-2,3.346067E-2],"split_indices":[0,5,4,5,3,5,3,0,0,0,0,0,0,0,0],"split_type":[0,0,0,0,0,0,0,0,0,0,0,0,0,0,0],"sum_hessian":[1.5557E4,6.431E3,9.126E3,5.073E3,1.358E3,4.005E3,5.121E3,2.432E3,2.641E3,1.297E3,6.1E1,1.622E3,2.383E3,3.731E3,1.39E3],"tree_param":{"num_deleted":"0","num_feature":"6","num_nodes":"15","size_leaf_vector":"1"}},{"base_weights":[1.8181484E-3,-6.009683E-2,1.5012213E0,-1.5258893E-1,8.7811166E-1,1.0927095E0,3.9445176E0,-3.161434E-2,5.350364E-2,-4.066462E-2,2.5042778E-1,8.3116256E-2,5.752188E-1,3.3744323E-1,1.0059158E0],"categories":[],"categories_nodes":[],"categories_segments":[],"categories_sizes":[],"default_left":[0,0,0,0,0,0,0,0,0,0,0,0,0,0,0],"id":34,"left_children":[1,3,5,7,9,11,13,-1,-1,-1,-1,-1,-1,-1,-1],"loss_changes":[1.4444252E3,1.296754E3,6.115271E2,1.5299069E3,2.8026748E3,6.4111523E2,2.7281226E2,0E0,0E0,0E0,0E0,0E0,0E0,0E0,0E0],"parents":[2147483647,0,0,1,1,2,2,3,3,4,4,5,5,6,6],"right_children":[2,4,6,8,10,12,14,-1,-1,-1,-1,-1,-1,-1,-1],"split_conditions":[5E0,4E0,7E0,3E0,1E0,3E0,9E0,-3.161434E-2,5.350364E-2,-4.066462E-2,2.5042778E-1,8.3116256E-2,5.752188E-1,3.3744323E-1,1.0059158E0],"split_indices":[5,3,5,2,5,3,5,0,0,0,0,0,0,0,0],"split_type":[0,0,0,0,0,0,0,0,0,0,0,0,0,0,0],"sum_hessian":[1.5557E4,1.4941E4,6.16E2,1.3601E4,1.34E3,5.29E2,8.7E1,1.0988E4,2.613E3,7.49E2,5.91E2,5.02E2,2.7E1,8.1E1,6E0],"tree_param":{"num_deleted":"0","num_feature":"6","num_nodes":"15","size_leaf_vector":"1"}},{"base_weights":[1.779851E-3,-3.422117E-1,2.4227697E-1,-4.3225718E-1,1.1311667E0,3.837872E-2,1.4051853E0,-6.337392E-2,2.780872E-2,3.6657903E-2,4.7014448E-1,-2.3668522E-2,3.278486E-2,8.308474E-2,3.6703938E-1],"categories":[],"categories_nodes":[],"categories_segments":[],"categories_sizes":[],"default_left":[0,0,0,0,0,0,0,0,0,0,0,0,0,0,0],"id":35,"left_children":[1,3,5,7,9,11,13,-1,-1,-1,-1,-1,-1,-1,-1],"loss_changes":[1.2871802E3,8.4984906E2,2.171208E3,8.637722E2,1.0055692E3,6.2049786E2,1.7741096E3,0E0,0E0,0E0,0E0,0E0,0E0,0E0,0E0],"parents":[2147483647,0,0,1,1,2,2,3,3,4,4,5,5,6,6],"right_children":[2,4,6,8,10,12,14,-1,-1,-1,-1,-1,-1,-1,-1],"split_conditions":[1E0,5E0,3E0,3E0,2E0,1E0,2E0,-6.337392E-2,2.780872E-2,3.6657903E-2,4.7014448E-1,-2.3668522E-2,3.278486E-2,8.308474E-2,3.6703938E-1],"split_indices":[4,3,5,2,5,5,3,0,0,0,0,0,0,0,0],"split_type":[0,0,0,0,0,0,0,0,0,0,0,0,0,0,0],"sum_hessian":[1.5557E4,6.401E3,9.156E3,6.033E3,3.68E2,7.791E3,1.365E3,4.7E3,1.333E3,3.04E2,6.4E1,3.995E3,3.796E3,1.09E3,2.75E2],"tree_param":{"num_deleted":"0","num_feature":"6","num_nodes":"15","size_leaf_vector":"1"}},{"base_weights":[1.6616464E-3,-3.405365E-2,2.1366208E0,-1.6577983E-1,5.614826E-1,1.6293064E0,5.9040785E0,-3.226714E-2,4.8791718E-2,-4.1020285E-2,1.5181597E-1,1.1015546E-1,5.3407735E-1,4.584255E-1,8.960562E-1],"categories":[],"categories_nodes":[],"categories_segments":[],"categories_sizes":[],"default_left":[0,0,0,0,0,0,0,0,0,0,0,0,0,0,0],"id":36,"left_children":[1,3,5,7,9,11,13,-1,-1,-1,-1,-1,-1,-1,-1],"loss_changes":[1.1863811E3,1.2005784E3,4.7966943E2,1.2854338E3,2.5774438E3,4.3874933E2,7.994299E1,0E0,0E0,0E0,0E0,0E0,0E0,0E0,0E0],"parents":[2147483647,0,0,1,1,2,2,3,3,4,4,5,5,6,6],"right_children":[2,4,6,8,10,12,14,-1,-1,-1,-1,-1,-1,-1,-1],"split_conditions":[6E0,3E0,2E0,3E0,1E0,8E0,3E0,-3.226714E-2,4.8791718E-2,-4.1020285E-2,1.5181597E-1,1.1015546E-1,5.3407735E-1,4.584255E-1,8.960562E-1],"split_indices":[5,4,4,3,5,5,4,0,0,0,0,0,0,0,0],"split_type":[0,0,0,0,0,0,0,0,0,0,0,0,0,0,0],"sum_hessian":[1.5557E4,1.5302E4,2.55E2,1.2531E4,2.771E3,2.26E2,2.9E1,1.0106E4,2.425E3,1.375E3,1.396E3,1.99E2,2.7E1,2.2E1,7E0],"tree_param":{"num_deleted":"0","num_feature":"6","num_nodes":"15","size_leaf_vector":"1"}},{"base_weights":[1.632136E-3,3.1660637E-1,-2.2033739E-1,-2.8808467E-2,9.011777E-1,-3.311127E-1,3.949097E-2,-2.1038702E-2,2.4526685E-2,6.279924E-2,4.3537736E-1,-1.2178564E-3,-5.5596948E-2,-6.0215364E-3,9.7460896E-2],"categories":[],"categories_nodes":[],"categories_segments":[],"categories_sizes":[],"default_left":[0,0,0,0,0,0,0,0,0,0,0,0,0,0,0],"id":37,"left_children":[1,3,5,7,9,11,13,-1,-1,-1,-1,-1,-1,-1,-1],"loss_changes":[1.0878022E3,1.298773E3,2.6271158E2,2.0130609E2,2.2505674E3,4.588943E2,2.5450296E2,0E0,0E0,0E0,0E0,0E0,0E0,0E0,0E0],"parents":[2147483647,0,0,1,1,2,2,3,3,4,4,5,5,6,6],"right_children":[2,4,6,8,10,12,14,-1,-1,-1,-1,-1,-1,-1,-1],"split_conditions":[1E0,2E0,2E0,1E0,4E0,1E0,3E0,-2.1038702E-2,2.4526685E-2,6.279924E-2,4.3537736E-1,-1.2178564E-3,-5.5596948E-2,-6.0215364E-3,9.7460896E-2],"split_indices":[0,5,4,5,2,5,5,0,0,0,0,0,0,0,0],"split_type":[0,0,0,0,0,0,0,0,0,0,0,0,0,0,0],"sum_hessian":[1.5557E4,6.431E3,9.126E3,4.043E3,2.388E3,6.398E3,2.728E3,2.432E3,1.611E3,2.214E3,1.74E2,2.646E3,3.752E3,2.466E3,2.62E2],"tree_param":{"num_deleted":"0","num_feature":"6","num_nodes":"15","size_leaf_vector":"1"}},{"base_weights":[1.5033893E-3,-4.9458575E-2,1.235656E0,-1.0560731E-1,1.1932781E0,1.0415276E0,5.6082845E0,-3.0917063E-2,2.7848413E-2,-7.237274E-2,3.8486317E-1,8.295249E-2,5.128701E-1,4.2822266E-1,9.3147725E-1],"categories":[],"categories_nodes":[],"categories_segments":[],"categories_sizes":[],"default_left":[0,0,0,0,0,0,0,0,0,0,0,0,0,0,0],"id":38,"left_children":[1,3,5,7,9,11,13,-1,-1,-1,-1,-1,-1,-1,-1],"loss_changes":[9.7857916E2,1.0427502E3,5.1789996E2,1.1179246E3,3.2911367E3,5.087088E2,8.7902466E1,0E0,0E0,0E0,0E0,0E0,0E0,0E0,0E0],"parents":[2147483647,0,0,1,1,2,2,3,3,4,4,5,5,6,6],"right_children":[2,4,6,8,10,12,14,-1,-1,-1,-1,-1,-1,-1,-1],"split_conditions":[5E0,5E0,3E0,2E0,1E0,3E0,4E0,-3.0917063E-2,2.7848413E-2,-7.237274E-2,3.8486317E-1,8.295249E-2,5.128701E-1,4.2822266E-1,9.3147725E-1],"split_indices":[5,4,4,3,5,3,4,0,0,0,0,0,0,0,0],"split_type":[0,0,0,0,0,0,0,0,0,0,0,0,0,0,0],"sum_hessian":[1.5557E4,1.4941E4,6.16E2,1.4296E4,6.45E2,5.91E2,2.5E1,9.344E3,4.952E3,3.75E2,2.7E2,5.63E2,2.8E1,2E1,5E0],"tree_param":{"num_deleted":"0","num_feature":"6","num_nodes":"15","size_leaf_vector":"1"}},{"base_weights":[1.4986675E-3,-2.899029E-1,2.052282E-1,-4.0351635E-1,5.604001E-1,3.6220215E-2,1.1691409E0,-5.4005355E-2,5.7030935E-2,3.45672E-2,1.314379E-1,-7.252376E-3,5.9367564E-2,6.545534E-2,3.1990176E-1],"categories":[],"categories_nodes":[],"categories_segments":[],"categories_sizes":[],"default_left":[0,0,0,0,0,0,0,0,0,0,0,0,0,0,0],"id":39,"left_children":[1,3,5,7,9,11,13,-1,-1,-1,-1,-1,-1,-1,-1],"loss_changes":[9.236928E2,6.1869696E2,1.4917148E3,7.5128546E2,1.2178053E2,4.7239343E2,1.4247603E3,0E0,0E0,0E0,0E0,0E0,0E0,0E0,0E0],"parents":[2147483647,0,0,1,1,2,2,3,3,4,4,5,5,6,6],"right_children":[2,4,6,8,10,12,14,-1,-1,-1,-1,-1,-1,-1,-1],"split_conditions":[1E0,4E0,3E0,4E0,2E0,3E0,2E0,-5.4005355E-2,5.7030935E-2,3.45672E-2,1.314379E-1,-7.252376E-3,5.9367564E-2,6.545534E-2,3.1990176E-1],"split_indices":[4,1,5,2,5,3,3,0,0,0,0,0,0,0,0],"split_type":[0,0,0,0,0,0,0,0,0,0,0,0,0,0,0],"sum_hessian":[1.5557E4,6.401E3,9.156E3,5.647E3,7.54E2,7.791E3,1.365E3,4.953E3,6.94E2,5.88E2,1.66E2,6.52E3,1.271E3,1.09E3,2.75E2],"tree_param":{"num_deleted":"0","num_feature":"6","num_nodes":"15","size_leaf_vector":"1"}},{"base_weights":[1.387785E-3,-1.6791137E-2,3.1973505E0,-1.2747206E-1,4.9957734E-1,2.6891515E0,8.693773E-1,-2.7623309E-2,4.790022E-2,-5.72629E-4,2.140448E-1,2.2428429E-1,6.5371495E-1],"categories":[],"categories_nodes":[],"categories_segments":[],"categories_sizes":[],"default_left":[0,0,0,0,0,0,0,0,0,0,0,0,0],"id":40,"left_children":[1,3,5,7,9,11,-1,-1,-1,-1,-1,-1,-1],"loss_changes":[9.039603E2,8.8426434E2,2.224295E2,1.149622E3,2.264388E3,1.2616443E2,0E0,0E0,0E0,0E0,0E0,0E0,0E0],"parents":[2147483647,0,0,1,1,2,2,3,3,4,4,5,5],"right_children":[2,4,6,8,10,12,-1,-1,-1,-1,-1,-1,-1],"split_conditions":[7E0,3E0,9E0,3E0,2E0,2E0,8.693773E-1,-2.7623309E-2,4.790022E-2,-5.72629E-4,2.140448E-1,2.2428429E-1,6.5371495E-1],"split_indices":[5,2,5,4,5,4,0,0,0,0,0,0,0],"split_type":[0,0,0,0,0,0,0,0,0,0,0,0,0],"sum_hessian":[1.5557E4,1.547E4,8.7E1,1.274E4,2.73E3,8.1E1,6E0,1.0231E4,2.509E3,2.088E3,6.42E2,7.4E1,7E0],"tree_param":{"num_deleted":"0","num_feature":"6","num_nodes":"13","size_leaf_vector":"1"}},{"base_weights":[1.3763574E-3,-4.662424E-2,1.1295017E0,-2.1992417E-1,2.9054514E-1,-3.8184145E-1,3.3250494E0,-4.7033567E-2,2.0555452E-2,-2.3611474E-3,1.1257424E-1,-3.6150154E-2,-6.425269E-2,2.775842E-1,7.5851136E-1],"categories":[],"categories_nodes":[],"categories_segments":[],"categories_sizes":[],"default_left":[0,0,0,0,0,0,0,0,0,0,0,0,0,0,0],"id":41,"left_children":[1,3,5,7,9,11,13,-1,-1,-1,-1,-1,-1,-1,-1],"loss_changes":[8.425291E2,8.7209454E2,2.108343E3,1.0504148E3,1.32952E3,1.7667007E0,5.849165E2,0E0,0E0,0E0,0E0,0E0,0E0,0E0,0E0],"parents":[2147483647,0,0,1,1,2,2,3,3,4,4,5,5,6,6],"right_children":[2,4,6,8,10,12,14,-1,-1,-1,-1,-1,-1,-1,-1],"split_conditions":[5E0,2E0,1E0,2E0,2E0,3E0,3E0,-4.7033567E-2,2.0555452E-2,-2.3611474E-3,1.1257424E-1,-3.6150154E-2,-6.425269E-2,2.775842E-1,7.5851136E-1],"split_indices":[3,4,5,2,5,2,5,0,0,0,0,0,0,0,0],"split_type":[0,0,0,0,0,0,0,0,0,0,0,0,0,0,0],"sum_hessian":[1.5557E4,1.4923E4,6.34E2,9.857E3,5.066E3,3.76E2,2.58E2,6.205E3,3.652E3,3.682E3,1.384E3,3.51E2,2.5E1,2.3E2,2.8E1],"tree_param":{"num_deleted":"0","num_feature":"6","num_nodes":"15","size_leaf_vector":"1"}},{"base_weights":[1.304244E-3,-2.764149E-2,1.7315983E0,-1.9049594E-1,2.967674E-1,1.3203444E0,4.7856994E0,-2.9203132E-2,6.427799E-2,-2.0585671E-2,7.397587E-2,1.10314846E-1,7.9889095E-1,3.666143E-1,7.406212E-1],"categories":[],"categories_nodes":[],"categories_segments":[],"categories_sizes":[],"default_left":[0,0,0,0,0,0,0,0,0,0,0,0,0,0,0],"id":42,"left_children":[1,3,5,7,9,11,13,-1,-1,-1,-1,-1,-1,-1,-1],"loss_changes":[7.792645E2,8.085359E2,3.152201E2,8.622482E2,1.1390485E3,3.1997046E2,6.086206E1,0E0,0E0,0E0,0E0,0E0,0E0,0E0,0E0],"parents":[2147483647,0,0,1,1,2,2,3,3,4,4,5,5,6,6],"right_children":[2,4,6,8,10,12,14,-1,-1,-1,-1,-1,-1,-1,-1],"split_conditions":[6E0,2E0,2E0,4E0,1E0,9E0,3E0,-2.9203132E-2,6.427799E-2,-2.0585671E-2,7.397587E-2,1.10314846E-1,7.9889095E-1,3.666143E-1,7.406212E-1],"split_indices":[5,3,4,2,5,5,4,0,0,0,0,0,0,0,0],"split_type":[0,0,0,0,0,0,0,0,0,0,0,0,0,0,0],"sum_hessian":[1.5557E4,1.5302E4,2.55E2,1.0188E4,5.114E3,2.26E2,2.9E1,9.082E3,1.106E3,2.396E3,2.718E3,2.2E2,6E0,2.2E1,7E0],"tree_param":{"num_deleted":"0","num_feature":"6","num_nodes":"15","size_leaf_vector":"1"}},{"base_weights":[1.3091346E-3,-4.3520834E-2,1.0362133E0,-1.5109025E-1,4.4776517E-1,-6.6521114E-1,3.3930373E0,-2.889419E-2,4.004344E-2,-3.0310601E-2,1.2084545E-1,-7.590283E-2,-2.1305462E-2,2.3061004E-1,5.319027E-1],"categories":[],"categories_nodes":[],"categories_segments":[],"categories_sizes":[],"default_left":[0,0,0,0,0,0,0,0,0,0,0,0,0,0,0],"id":43,"left_children":[1,3,5,7,9,11,13,-1,-1,-1,-1,-1,-1,-1,-1],"loss_changes":[7.218542E2,7.881801E2,2.5926902E3,9.303254E2,1.5305564E3,1.5788208E1,5.55053E2,0E0,0E0,0E0,0E0,0E0,0E0,0E0,0E0],"parents":[2147483647,0,0,1,1,2,2,3,3,4,4,5,5,6,6],"right_children":[2,4,6,8,10,12,14,-1,-1,-1,-1,-1,-1,-1,-1],"split_conditions":[5E0,3E0,1E0,3E0,1E0,2E0,2E0,-2.889419E-2,4.004344E-2,-3.0310601E-2,1.2084545E-1,-7.590283E-2,-2.1305462E-2,2.3061004E-1,5.319027E-1],"split_indices":[4,3,5,2,5,3,5,0,0,0,0,0,0,0,0],"split_type":[0,0,0,0,0,0,0,0,0,0,0,0,0,0,0],"sum_hessian":[1.5557E4,1.4912E4,6.45E2,1.2234E4,2.678E3,3.75E2,2.7E2,9.788E3,2.446E3,1.348E3,1.33E3,3.1E2,6.5E1,1.74E2,9.6E1],"tree_param":{"num_deleted":"0","num_feature":"6","num_nodes":"15","size_leaf_vector":"1"}},{"base_weights":[1.2275644E-3,-6.4129286E-2,6.9360995E-1,-1.333258E-1,5.927998E-1,5.7444644E-1,5.714542E0,-3.102299E-2,1.7993327E-2,1.7540691E-2,1.1083969E-1,4.7075044E-2,6.11985E-1,4.6240136E-1,8.2718086E-1],"categories":[],"categories_nodes":[],"categories_segments":[],"categories_sizes":[],"default_left":[0,0,0,0,0,0,0,0,0,0,0,0,0,0,0],"id":44,"left_children":[1,3,5,7,9,11,13,-1,-1,-1,-1,-1,-1,-1,-1],"loss_changes":[7.0407404E2,6.463441E2,7.996516E2,7.1288226E2,2.9141046E2,7.515665E2,4.820294E1,0E0,0E0,0E0,0E0,0E0,0E0,0E0,0E0],"parents":[2147483647,0,0,1,1,2,2,3,3,4,4,5,5,6,6],"right_children":[2,4,6,8,10,12,14,-1,-1,-1,-1,-1,-1,-1,-1],"split_conditions":[4E0,4E0,4E0,2E0,1E0,4E0,5E0,-3.102299E-2,1.7993327E-2,1.7540691E-2,1.1083969E-1,4.7075044E-2,6.11985E-1,4.6240136E-1,8.2718086E-1],"split_indices":[5,1,4,4,5,3,4,0,0,0,0,0,0,0,0],"split_type":[0,0,0,0,0,0,0,0,0,0,0,0,0,0,0],"sum_hessian":[1.5557E4,1.4216E4,1.341E3,1.2862E4,1.354E3,1.311E3,3E1,8.22E3,4.642E3,7.49E2,6.05E2,1.288E3,2.3E1,2.3E1,7E0],"tree_param":{"num_deleted":"0","num_feature":"6","num_nodes":"15","size_leaf_vector":"1"}},{"base_weights":[1.2374853E-3,-1.4263092E-2,2.7263305E0,-2.6493818E-1,1.6051807E-1,2.4899037E0,1.1647729E0,-3.4347177E-2,9.641277E-2,5.1078647E-3,7.905885E-2,2.1594504E-1,5.4832E-1],"categories":[],"categories_nodes":[],"categories_segments":[],"categories_sizes":[],"default_left":[0,0,0,0,0,0,0,0,0,0,0,0,0],"id":45,"left_children":[1,3,5,7,9,11,-1,-1,-1,-1,-1,-1,-1],"loss_changes":[6.572168E2,6.778778E2,1.5661292E2,6.1383105E2,6.285492E2,7.421484E1,0E0,0E0,0E0,0E0,0E0,0E0,0E0],"parents":[2147483647,0,0,1,1,2,2,3,3,4,4,5,5],"right_children":[2,4,6,8,10,12,-1,-1,-1,-1,-1,-1,-1],"split_conditions":[7E0,1E0,1E1,5E0,3E0,2E0,1.1647729E0,-3.4347177E-2,9.641277E-2,5.1078647E-3,7.905885E-2,2.1594504E-1,5.4832E-1],"split_indices":[5,3,5,4,5,4,0,0,0,0,0,0,0],"split_type":[0,0,0,0,0,0,0,0,0,0,0,0,0],"sum_hessian":[1.5557E4,1.547E4,8.7E1,6.355E3,9.115E3,8.6E1,1E0,5.974E3,3.81E2,7.767E3,1.348E3,7.9E1,7E0],"tree_param":{"num_deleted":"0","num_feature":"6","num_nodes":"13","size_leaf_vector":"1"}},{"base_weights":[1.2471257E-3,-2.3950665E-1,1.6956691E-1,-3.4428605E-1,5.4464376E-1,3.6075924E-2,9.3090826E-1,8.056626E-3,-5.8935177E-2,3.6152314E-2,1.1872391E-1,-9.99664E-3,3.2596435E-2,4.938341E-2,2.6552454E-1],"categories":[],"categories_nodes":[],"categories_segments":[],"categories_sizes":[],"default_left":[0,0,0,0,0,0,0,0,0,0,0,0,0,0,0],"id":46,"left_children":[1,3,5,7,9,11,13,-1,-1,-1,-1,-1,-1,-1,-1],"loss_changes":[6.305072E2,5.2619385E2,9.306127E2,5.880988E2,8.84135E1,3.0732642E2,1.0281929E3,0E0,0E0,0E0,0E0,0E0,0E0,0E0,0E0],"parents":[2147483647,0,0,1,1,2,2,3,3,4,4,5,5,6,6],"right_children":[2,4,6,8,10,12,14,-1,-1,-1,-1,-1,-1,-1,-1],"split_conditions":[1E0,4E0,3E0,1E0,2E0,2E0,2E0,8.056626E-3,-5.8935177E-2,3.6152314E-2,1.1872391E-1,-9.99664E-3,3.2596435E-2,4.938341E-2,2.6552454E-1],"split_indices":[4,1,5,5,5,3,3,0,0,0,0,0,0,0,0],"split_type":[0,0,0,0,0,0,0,0,0,0,0,0,0,0,0],"sum_hessian":[1.5557E4,6.401E3,9.156E3,5.647E3,7.54E2,7.791E3,1.365E3,2.066E3,3.581E3,5.88E2,1.66E2,5.303E3,2.488E3,1.09E3,2.75E2],"tree_param":{"num_deleted":"0","num_feature":"6","num_nodes":"15","size_leaf_vector":"1"}},{"base_weights":[1.1507791E-3,-4.0186383E-2,9.726699E-1,-1.9477464E-1,2.6310787E-1,-2.959641E-1,2.815536E0,-3.5044633E-2,3.8501505E-2,-1.3312075E-3,1.0101217E-1,-2.3485504E-2,-3.6820743E-2,2.3483334E-1,6.4399606E-1],"categories":[],"categories_nodes":[],"categories_segments":[],"categories_sizes":[],"default_left":[0,0,0,0,0,0,0,0,0,0,0,0,0,0,0],"id":47,"left_children":[1,3,5,7,9,11,13,-1,-1,-1,-1,-1,-1,-1,-1],"loss_changes":[6.248459E2,6.997739E2,1.4854143E3,8.9241394E2,1.0405142E3,1.577877E0,4.234519E2,0E0,0E0,0E0,0E0,0E0,0E0,0E0,0E0],"parents":[2147483647,0,0,1,1,2,2,3,3,4,4,5,5,6,6],"right_children":[2,4,6,8,10,12,14,-1,-1,-1,-1,-1,-1,-1,-1],"split_conditions":[5E0,2E0,1E0,3E0,2E0,1E0,3E0,-3.5044633E-2,3.8501505E-2,-1.3312075E-3,1.0101217E-1,-2.3485504E-2,-3.6820743E-2,2.3483334E-1,6.4399606E-1],"split_indices":[3,2,5,4,5,4,5,0,0,0,0,0,0,0,0],"split_type":[0,0,0,0,0,0,0,0,0,0,0,0,0,0,0],"sum_hessian":[1.5557E4,1.4923E4,6.34E2,9.885E3,5.038E3,3.76E2,2.58E2,7.793E3,2.092E3,3.678E3,1.36E3,2.06E2,1.7E2,2.3E2,2.8E1],"tree_param":{"num_deleted":"0","num_feature":"6","num_nodes":"15","size_leaf_vector":"1"}},{"base_weights":[1.0949065E-3,-3.7640363E-2,9.391521E-1,-1.0090451E-1,5.932172E-1,7.8263235E-1,4.466865E0,-1.7443096E-2,5.7033956E-2,-6.1256092E-2,2.0034938E-1,6.0445655E-2,4.2208582E-1,3.2956845E-1,7.8215206E-1],"categories":[],"categories_nodes":[],"categories_segments":[],"categories_sizes":[],"default_left":[0,0,0,0,0,0,0,0,0,0,0,0,0,0,0],"id":48,"left_children":[1,3,5,7,9,11,13,-1,-1,-1,-1,-1,-1,-1,-1],"loss_changes":[5.6534924E2,5.9640497E2,3.371848E2,6.7037885E2,2.317282E3,3.6011313E2,7.637433E1,0E0,0E0,0E0,0E0,0E0,0E0,0E0,0E0],"parents":[2147483647,0,0,1,1,2,2,3,3,4,4,5,5,6,6],"right_children":[2,4,6,8,10,12,14,-1,-1,-1,-1,-1,-1,-1,-1],"split_conditions":[5E0,4E0,3E0,4E0,1E0,3E0,4E0,-1.7443096E-2,5.7033956E-2,-6.1256092E-2,2.0034938E-1,6.0445655E-2,4.2208582E-1,3.2956845E-1,7.8215206E-1],"split_indices":[5,2,4,1,5,3,4,0,0,0,0,0,0,0,0],"split_type":[0,0,0,0,0,0,0,0,0,0,0,0,0,0,0],"sum_hessian":[1.5557E4,1.4941E4,6.16E2,1.358E4,1.361E3,5.91E2,2.5E1,1.224E4,1.34E3,7.34E2,6.27E2,5.63E2,2.8E1,2E1,5E0],"tree_param":{"num_deleted":"0","num_feature":"6","num_nodes":"15","size_leaf_vector":"1"}},{"base_weights":[1.099346E-3,-5.684353E-2,6.129426E-1,-9.9700175E-2,8.766158E-1,-2.84232E-1,1.7390196E0,-2.5975341E-2,1.9326264E-2,-5.379799E-2,2.859119E-1,-2.5180072E-2,-6.3389026E-2,1.2962943E-1,3.9264014E-1],"categories":[],"categories_nodes":[],"categories_segments":[],"categories_sizes":[],"default_left":[0,0,0,0,0,0,0,0,0,0,0,0,0,0,0],"id":49,"left_children":[1,3,5,7,9,11,13,-1,-1,-1,-1,-1,-1,-1,-1],"loss_changes":[5.515964E2,5.686775E2,1.3603414E3,6.3728046E2,1.7515088E3,8.345276E0,5.730503E2,0E0,0E0,0E0,0E0,0E0,0E0,0E0,0E0],"parents":[2147483647,0,0,1,1,2,2,3,3,4,4,5,5,6,6],"right_children":[2,4,6,8,10,12,14,-1,-1,-1,-1,-1,-1,-1,-1],"split_conditions":[4E0,5E0,1E0,2E0,1E0,3E0,6E0,-2.5975341E-2,1.9326264E-2,-5.379799E-2,2.859119E-1,-2.5180072E-2,-6.3389026E-2,1.2962943E-1,3.9264014E-1],"split_indices":[3,2,5,4,5,2,3,0,0,0,0,0,0,0,0],"split_type":[0,0,0,0,0,0,0,0,0,0,0,0,0,0,0],"sum_hessian":[1.5557E4,1.4212E4,1.345E3,1.3589E4,6.23E2,7.49E2,5.96E2,8.788E3,4.801E3,3.64E2,2.59E2,6.87E2,6.2E1,4.97E2,9.9E1],"tree_param":{"num_deleted":"0","num_feature":"6","num_nodes":"15","size_leaf_vector":"1"}},{"base_weights":[1.0317643E-3,-1.3058554E-2,2.4781942E0,-2.3457535E-1,1.4139228E-1,2.0616693E0,7.003456E0,-2.805475E-2,1.3907638E-1,-1.1997699E-3,5.0039332E-2,1.7337464E-1,4.8782402E-1,4.4723335E-1,1.1095097E0],"categories":[],"categories_nodes":[],"categories_segments":[],"categories_sizes":[],"default_left":[0,0,0,0,0,0,0,0,0,0,0,0,0,0,0],"id":50,"left_children":[1,3,5,7,9,11,13,-1,-1,-1,-1,-1,-1,-1,-1],"loss_changes":[5.430689E2,5.2934955E2,1.5143097E2,4.753125E2,5.0199817E2,6.727908E1,2.2874115E1,0E0,0E0,0E0,0E0,0E0,0E0,0E0,0E0],"parents":[2147483647,0,0,1,1,2,2,3,3,4,4,5,5,6,6],"right_children":[2,4,6,8,10,12,14,-1,-1,-1,-1,-1,-1,-1,-1],"split_conditions":[7E0,1E0,9E0,6E0,2E0,2E0,1E1,-2.805475E-2,1.3907638E-1,-1.1997699E-3,5.0039332E-2,1.7337464E-1,4.8782402E-1,4.4723335E-1,1.1095097E0],"split_indices":[5,3,5,4,2,4,5,0,0,0,0,0,0,0,0],"split_type":[0,0,0,0,0,0,0,0,0,0,0,0,0,0,0],"sum_hessian":[1.5557E4,1.547E4,8.7E1,6.355E3,9.115E3,8.1E1,6E0,6.181E3,1.74E2,6.387E3,2.728E3,7.4E1,7E0,5E0,1E0],"tree_param":{"num_deleted":"0","num_feature":"6","num_nodes":"15","size_leaf_vector":"1"}},{"base_weights":[1.0814505E-3,-2.1240439E-1,1.5033723E-1,1.5068196E-1,-4.366423E-1,7.232138E-2,1.2244486E0,3.6341198E-2,-4.5884438E-2,-5.4973133E-2,2.1500042E-1,-1.925736E-3,5.6513615E-2,7.951823E-2,3.3966523E-1],"categories":[],"categories_nodes":[],"categories_segments":[],"categories_sizes":[],"default_left":[0,0,0,0,0,0,0,0,0,0,0,0,0,0,0],"id":51,"left_children":[1,3,5,7,9,11,13,-1,-1,-1,-1,-1,-1,-1,-1],"loss_changes":[4.9577197E2,5.2130206E2,7.6724713E2,3.1719653E2,1.1589814E3,3.8534235E2,5.7542035E2,0E0,0E0,0E0,0E0,0E0,0E0,0E0,0E0],"parents":[2147483647,0,0,1,1,2,2,3,3,4,4,5,5,6,6],"right_children":[2,4,6,8,10,12,14,-1,-1,-1,-1,-1,-1,-1,-1],"split_conditions":[1E0,1E0,4E0,3E0,5E0,3E0,2E0,3.6341198E-2,-4.5884438E-2,-5.4973133E-2,2.1500042E-1,-1.925736E-3,5.6513615E-2,7.951823E-2,3.3966523E-1],"split_indices":[4,5,5,2,2,3,3,0,0,0,0,0,0,0,0],"split_type":[0,0,0,0,0,0,0,0,0,0,0,0,0,0,0],"sum_hessian":[1.5557E4,6.401E3,9.156E3,2.444E3,3.957E3,8.537E3,6.19E2,1.812E3,6.32E2,3.792E3,1.65E2,7.2E3,1.337E3,5.18E2,1.01E2],"tree_param":{"num_deleted":"0","num_feature":"6","num_nodes":"15","size_leaf_vector":"1"}},{"base_weights":[1.0134936E-3,-3.521774E-2,8.40125E-1,-5.936257E-2,1.3475888E0,2.0588666E-1,1.7291838E0,-1.5041661E-2,3.4531403E-2,1.0168675E-1,3.8051274E-1,2.4243405E-2,-2.968275E-2,1.2929378E-1,2.4491477E-1],"categories":[],"categories_nodes":[],"categories_segments":[],"categories_sizes":[],"default_left":[0,0,0,0,0,0,0,0,0,0,0,0,0,0,0],"id":52,"left_children":[1,3,5,7,9,11,13,-1,-1,-1,-1,-1,-1,-1,-1],"loss_changes":[4.730246E2,4.9805658E2,3.627796E2,5.4023535E2,2.0419736E2,6.99854E0,8.10072E1,0E0,0E0,0E0,0E0,0E0,0E0,0E0,0E0],"parents":[2147483647,0,0,1,1,2,2,3,3,4,4,5,5,6,6],"right_children":[2,4,6,8,10,12,14,-1,-1,-1,-1,-1,-1,-1,-1],"split_conditions":[5E0,6E0,1E0,3E0,2E0,3E0,1E0,-1.5041661E-2,3.4531403E-2,1.0168675E-1,3.8051274E-1,2.4243405E-2,-2.968275E-2,1.2929378E-1,2.4491477E-1],"split_indices":[1,5,5,2,4,2,2,0,0,0,0,0,0,0,0],"split_type":[0,0,0,0,0,0,0,0,0,0,0,0,0,0,0],"sum_hessian":[1.5557E4,1.4914E4,6.43E2,1.4659E4,2.55E2,3.76E2,2.67E2,1.1967E4,2.692E3,2.26E2,2.9E1,3.51E2,2.5E1,1.68E2,9.9E1],"tree_param":{"num_deleted":"0","num_feature":"6","num_nodes":"15","size_leaf_vector":"1"}},{"base_weights":[9.680503E-4,-3.312023E-2,8.0212164E-1,-2.5019202E-1,1.1420225E-1,2.5337738E-1,3.9576244E0,1.6583197E-2,-4.955101E-2,4.278377E-3,1.0685333E-1,-2.6057616E-2,1.4190829E-1,2.9018635E-1,6.223921E-1],"categories":[],"categories_nodes":[],"categories_segments":[],"categories_sizes":[],"default_left":[0,0,0,0,0,0,0,0,0,0,0,0,0,0,0],"id":53,"left_children":[1,3,5,7,9,11,13,-1,-1,-1,-1,-1,-1,-1,-1],"loss_changes":[4.2491476E2,4.772914E2,1.0985404E3,6.1590137E2,6.059371E2,3.2509195E2,2.0684998E2,0E0,0E0,0E0,0E0,0E0,0E0,0E0,0E0],"parents":[2147483647,0,0,1,1,2,2,3,3,4,4,5,5,6,6],"right_children":[2,4,6,8,10,12,14,-1,-1,-1,-1,-1,-1,-1,-1],"split_conditions":[5E0,1E0,2E0,1E0,4E0,1E0,6E0,1.6583197E-2,-4.955101E-2,4.278377E-3,1.0685333E-1,-2.6057616E-2,1.4190829E-1,2.9018635E-1,6.223921E-1],"split_indices":[3,4,5,5,5,5,3,0,0,0,0,0,0,0,0],"split_type":[0,0,0,0,0,0,0,0,0,0,0,0,0,0,0],"sum_hessian":[1.5557E4,1.4923E4,6.34E2,6.033E3,8.89E3,5.41E2,9.3E1,2.238E3,3.795E3,8.272E3,6.18E2,3.76E2,1.65E2,6.5E1,2.8E1],"tree_param":{"num_deleted":"0","num_feature":"6","num_nodes":"15","size_leaf_vector":"1"}},{"base_weights":[9.4239984E-4,-3.3144183E-2,7.8783447E-1,-1.612557E-1,2.1777393E-1,-7.3081565E-1,2.8919842E0,1.49902245E-2,-3.5053957E-2,-2.6929846E-3,8.801133E-2,-8.2200915E-2,-2.9002784E-2,1.878948E-1,4.7190925E-1],"categories":[],"categories_nodes":[],"categories_segments":[],"categories_sizes":[],"default_left":[0,0,0,0,0,0,0,0,0,0,0,0,0,0,0],"id":54,"left_children":[1,3,5,7,9,11,13,-1,-1,-1,-1,-1,-1,-1,-1],"loss_changes":[4.1732996E2,4.79421E2,2.0663853E3,5.8154443E2,8.170536E2,1.4875656E1,4.9273413E2,0E0,0E0,0E0,0E0,0E0,0E0,0E0,0E0],"parents":[2147483647,0,0,1,1,2,2,3,3,4,4,5,5,6,6],"right_children":[2,4,6,8,10,12,14,-1,-1,-1,-1,-1,-1,-1,-1],"split_conditions":[5E0,2E0,1E0,1E0,2E0,2E0,6E0,1.49902245E-2,-3.5053957E-2,-2.6929846E-3,8.801133E-2,-8.2200915E-2,-2.9002784E-2,1.878948E-1,4.7190925E-1],"split_indices":[4,2,5,5,5,3,4,0,0,0,0,0,0,0,0],"split_type":[0,0,0,0,0,0,0,0,0,0,0,0,0,0,0],"sum_hessian":[1.5557E4,1.4912E4,6.45E2,9.872E3,5.04E3,3.75E2,2.7E2,3.734E3,6.138E3,3.681E3,1.359E3,3.1E2,6.5E1,1.75E2,9.5E1],"tree_param":{"num_deleted":"0","num_feature":"6","num_nodes":"15","size_leaf_vector":"1"}},{"base_weights":[8.8757253E-4,-1.1441158E-2,2.1683524E0,-2.1256931E-1,1.2879382E-1,1.770732E0,6.516426E0,-2.71456E-2,7.090551E-2,3.8580855E-3,6.481752E-2,1.5108225E-1,3.9860436E-1,4.0827346E-1,1.0559288E0],"categories":[],"categories_nodes":[],"categories_segments":[],"categories_sizes":[],"default_left":[0,0,0,0,0,0,0,0,0,0,0,0,0,0,0],"id":55,"left_children":[1,3,5,7,9,11,13,-1,-1,-1,-1,-1,-1,-1,-1],"loss_changes":[4.157671E2,4.3639008E2,1.4060278E2,3.451415E2,4.2710452E2,4.1191833E1,2.5762817E1,0E0,0E0,0E0,0E0,0E0,0E0,0E0,0E0],"parents":[2147483647,0,0,1,1,2,2,3,3,4,4,5,5,6,6],"right_children":[2,4,6,8,10,12,14,-1,-1,-1,-1,-1,-1,-1,-1],"split_conditions":[7E0,1E0,9E0,5E0,3E0,2E0,1E1,-2.71456E-2,7.090551E-2,3.8580855E-3,6.481752E-2,1.5108225E-1,3.9860436E-1,4.0827346E-1,1.0559288E0],"split_indices":[5,3,5,4,5,4,5,0,0,0,0,0,0,0,0],"split_type":[0,0,0,0,0,0,0,0,0,0,0,0,0,0,0],"sum_hessian":[1.5557E4,1.547E4,8.7E1,6.355E3,9.115E3,8.1E1,6E0,5.974E3,3.81E2,7.767E3,1.348E3,7.4E1,7E0,5E0,1E0],"tree_param":{"num_deleted":"0","num_feature":"6","num_nodes":"15","size_leaf_vector":"1"}},{"base_weights":[9.3547354E-4,-5.045136E-2,5.284964E-1,-1.824938E-1,1.9898139E-1,1.19270876E-1,1.0132917E0,-2.6382906E-2,4.3851998E-2,-4.4004973E-3,8.2843184E-2,1.6742071E-2,-3.508621E-2,7.656248E-2,2.3713969E-1],"categories":[],"categories_nodes":[],"categories_segments":[],"categories_sizes":[],"default_left":[0,0,0,0,0,0,0,0,0,0,0,0,0,0,0],"id":56,"left_children":[1,3,5,7,9,11,13,-1,-1,-1,-1,-1,-1,-1,-1],"loss_changes":[4.2179913E2,4.6699884E2,2.7385657E2,4.6839673E2,7.507047E2,1.7036362E1,2.1076245E2,0E0,0E0,0E0,0E0,0E0,0E0,0E0,0E0],"parents":[2147483647,0,0,1,1,2,2,3,3,4,4,5,5,6,6],"right_children":[2,4,6,8,10,12,14,-1,-1,-1,-1,-1,-1,-1,-1],"split_conditions":[4E0,2E0,1E0,4E0,2E0,3E0,6E0,-2.6382906E-2,4.3851998E-2,-4.4004973E-3,8.2843184E-2,1.6742071E-2,-3.508621E-2,7.656248E-2,2.3713969E-1],"split_indices":[1,4,5,2,5,2,1,0,0,0,0,0,0,0,0],"split_type":[0,0,0,0,0,0,0,0,0,0,0,0,0,0,0],"sum_hessian":[1.5557E4,1.4177E4,1.38E3,9.27E3,4.907E3,7.49E2,6.31E2,8.197E3,1.073E3,3.541E3,1.366E3,6.8E2,6.9E1,5.35E2,9.6E1],"tree_param":{"num_deleted":"0","num_feature":"6","num_nodes":"15","size_leaf_vector":"1"}},{"base_weights":[8.6703466E-4,-4.7956582E-2,5.164162E-1,-1.3383318E-1,3.233571E-1,-2.8521365E-1,1.5226239E0,-2.4839593E-2,2.9842531E-2,7.0100212E-3,5.687181E-2,-2.674844E-2,-9.532457E-2,1.15372576E-1,3.3445105E-1],"categories":[],"categories_nodes":[],"categories_segments":[],"categories_sizes":[],"default_left":[0,0,0,0,0,0,0,0,0,0,0,0,0,0,0],"id":57,"left_children":[1,3,5,7,9,11,13,-1,-1,-1,-1,-1,-1,-1,-1],"loss_changes":[3.916348E2,4.5325546E2,1.0861261E3,5.717412E2,1.6587225E2,8.627811E0,3.9737964E2,0E0,0E0,0E0,0E0,0E0,0E0,0E0,0E0],"parents":[2147483647,0,0,1,1,2,2,3,3,4,4,5,5,6,6],"right_children":[2,4,6,8,10,12,14,-1,-1,-1,-1,-1,-1,-1,-1],"split_conditions":[4E0,3E0,1E0,3E0,1E0,4E0,6E0,-2.4839593E-2,2.9842531E-2,7.0100212E-3,5.687181E-2,-2.674844E-2,-9.532457E-2,1.15372576E-1,3.3445105E-1],"split_indices":[3,1,5,4,2,2,3,0,0,0,0,0,0,0,0],"split_type":[0,0,0,0,0,0,0,0,0,0,0,0,0,0,0],"sum_hessian":[1.5557E4,1.4212E4,1.345E3,1.1543E4,2.669E3,7.49E2,5.96E2,9.125E3,2.418E3,1.314E3,1.355E3,7.31E2,1.8E1,4.97E2,9.9E1],"tree_param":{"num_deleted":"0","num_feature":"6","num_nodes":"15","size_leaf_vector":"1"}},{"base_weights":[8.058141E-4,-5.910803E-3,3.5976424E0,-1.15468346E-1,2.1531394E-1,3.007777E0,1.0056934E0,-1.8344171E-2,4.4767786E-2,-1.070255E-3,8.3670236E-2,2.5313413E-1,3.8824487E-1],"categories":[],"categories_nodes":[],"categories_segments":[],"categories_sizes":[],"default_left":[0,0,0,0,0,0,0,0,0,0,0,0,0],"id":58,"left_children":[1,3,5,7,9,11,-1,-1,-1,-1,-1,-1,-1],"loss_changes":[3.7588034E2,3.7642294E2,8.024423E1,3.9768546E2,7.2245306E2,1.8404999E0,0E0,0E0,0E0,0E0,0E0,0E0,0E0],"parents":[2147483647,0,0,1,1,2,2,3,3,4,4,5,5],"right_children":[2,4,6,8,10,12,-1,-1,-1,-1,-1,-1,-1],"split_conditions":[8E0,2E0,1E1,4E0,2E0,1E0,1.0056934E0,-1.8344171E-2,4.4767786E-2,-1.070255E-3,8.3670236E-2,2.5313413E-1,3.8824487E-1],"split_indices":[5,3,5,1,5,4,0,0,0,0,0,0,0],"split_type":[0,0,0,0,0,0,0,0,0,0,0,0,0],"sum_hessian":[1.5557E4,1.5529E4,2.8E1,1.0386E4,5.143E3,2.7E1,1E0,9.268E3,1.118E3,3.772E3,1.371E3,2E1,7E0],"tree_param":{"num_deleted":"0","num_feature":"6","num_nodes":"13","size_leaf_vector":"1"}},{"base_weights":[8.381307E-4,-3.012223E-2,7.506094E-1,-1.4592415E-1,1.968766E-1,6.0660887E-1,3.6494272E0,-1.9897245E-2,7.663069E-2,-5.206003E-4,7.961437E-2,4.6311315E-2,3.6960313E-1,2.478416E-1,5.976295E-1],"categories":[],"categories_nodes":[],"categories_segments":[],"categories_sizes":[],"default_left":[0,0,0,0,0,0,0,0,0,0,0,0,0,0,0],"id":59,"left_children":[1,3,5,7,9,11,13,-1,-1,-1,-1,-1,-1,-1,-1],"loss_changes":[3.611734E2,3.9280756E2,2.5534143E2,4.789944E2,6.113243E2,2.5940308E2,6.420712E1,0E0,0E0,0E0,0E0,0E0,0E0,0E0,0E0],"parents":[2147483647,0,0,1,1,2,2,3,3,4,4,5,5,6,6],"right_children":[2,4,6,8,10,12,14,-1,-1,-1,-1,-1,-1,-1,-1],"split_conditions":[5E0,2E0,3E0,5E0,2E0,3E0,1E0,-1.9897245E-2,7.663069E-2,-5.206003E-4,7.961437E-2,4.6311315E-2,3.6960313E-1,2.478416E-1,5.976295E-1],"split_indices":[5,2,3,4,5,4,4,0,0,0,0,0,0,0,0],"split_type":[0,0,0,0,0,0,0,0,0,0,0,0,0,0,0],"sum_hessian":[1.5557E4,1.4941E4,6.16E2,9.894E3,5.047E3,5.88E2,2.8E1,9.351E3,5.43E2,3.775E3,1.272E3,5.63E2,2.5E1,2E1,8E0],"tree_param":{"num_deleted":"0","num_feature":"6","num_nodes":"15","size_leaf_vector":"1"}},{"base_weights":[8.442079E-4,-1.702566E-1,1.20944075E-1,1.0766109E-1,-3.4271908E-1,-3.4353E-3,4.130774E-1,2.5030335E-2,-6.878384E-2,-4.2018753E-2,4.0973902E-1,-7.064982E-3,7.412472E-2,-2.4298122E-2,1.0429362E-1],"categories":[],"categories_nodes":[],"categories_segments":[],"categories_sizes":[],"default_left":[0,0,0,0,0,0,0,0,0,0,0,0,0,0,0],"id":60,"left_children":[1,3,5,7,9,11,13,-1,-1,-1,-1,-1,-1,-1,-1],"loss_changes":[3.1972482E2,3.0760608E2,3.3217932E2,2.7908597E2,1.3638367E3,3.2104532E2,1.1283558E3,0E0,0E0,0E0,0E0,0E0,0E0,0E0,0E0],"parents":[2147483647,0,0,1,1,2,2,3,3,4,4,5,5,6,6],"right_children":[2,4,6,8,10,12,14,-1,-1,-1,-1,-1,-1,-1,-1],"split_conditions":[1E0,1E0,2E0,4E0,6E0,5E0,1E0,2.5030335E-2,-6.878384E-2,-4.2018753E-2,4.0973902E-1,-7.064982E-3,7.412472E-2,-2.4298122E-2,1.0429362E-1],"split_indices":[3,5,2,4,4,3,5,0,0,0,0,0,0,0,0],"split_type":[0,0,0,0,0,0,0,0,0,0,0,0,0,0,0],"sum_hessian":[1.5557E4,6.416E3,9.141E3,2.457E3,3.959E3,6.412E3,2.729E3,2.084E3,3.73E2,3.892E3,6.7E1,5.882E3,5.3E2,1.337E3,1.392E3],"tree_param":{"num_deleted":"0","num_feature":"6","num_nodes":"15","size_leaf_vector":"1"}},{"base_weights":[7.900498E-4,-1.8011037E-2,1.124666E0,-4.8355836E-2,6.9115824E-1,9.902267E-1,5.7654047E0,-1.2646412E-2,2.9440358E-2,-5.033902E-2,2.3727778E-1,6.971281E-2,3.1163794E-1,3.5423252E-1,9.551941E-1],"categories":[],"categories_nodes":[],"categories_segments":[],"categories_sizes":[],"default_left":[0,0,0,0,0,0,0,0,0,0,0,0,0,0,0],"id":61,"left_children":[1,3,5,7,9,11,13,-1,-1,-1,-1,-1,-1,-1,-1],"loss_changes":[3.2876224E2,3.2934784E2,1.5400879E2,3.929482E2,1.2627057E3,1.5362056E2,2.5088333E1,0E0,0E0,0E0,0E0,0E0,0E0,0E0,0E0],"parents":[2147483647,0,0,1,1,2,2,3,3,4,4,5,5,6,6],"right_children":[2,4,6,8,10,12,14,-1,-1,-1,-1,-1,-1,-1,-1],"split_conditions":[6E0,5E0,9E0,3E0,1E0,2E0,1E1,-1.2646412E-2,2.9440358E-2,-5.033902E-2,2.3727778E-1,6.971281E-2,3.1163794E-1,3.5423252E-1,9.551941E-1],"split_indices":[5,2,5,1,5,4,5,0,0,0,0,0,0,0,0],"split_type":[0,0,0,0,0,0,0,0,0,0,0,0,0,0,0],"sum_hessian":[1.5557E4,1.5302E4,2.55E2,1.4675E4,6.27E2,2.49E2,6E0,1.1952E4,2.723E3,3.67E2,2.6E2,2.2E2,2.9E1,5E0,1E0],"tree_param":{"num_deleted":"0","num_feature":"6","num_nodes":"15","size_leaf_vector":"1"}},{"base_weights":[8.3277596E-4,-1.7668502E-1,1.2494199E-1,1.5837556E-1,-3.8361943E-1,3.0732075E-2,6.6224706E-1,3.0158961E-2,-6.533422E-2,-5.163374E-2,9.648287E-2,-7.3104585E-3,2.5199318E-2,4.5021653E-2,3.204345E-1],"categories":[],"categories_nodes":[],"categories_segments":[],"categories_sizes":[],"default_left":[0,0,0,0,0,0,0,0,0,0,0,0,0,0,0],"id":62,"left_children":[1,3,5,7,9,11,13,-1,-1,-1,-1,-1,-1,-1,-1],"loss_changes":[3.427896E2,4.4394708E2,4.6350208E2,2.8442682E2,7.088347E2,1.7903972E2,7.3483466E2,0E0,0E0,0E0,0E0,0E0,0E0,0E0,0E0],"parents":[2147483647,0,0,1,1,2,2,3,3,4,4,5,5,6,6],"right_children":[2,4,6,8,10,12,14,-1,-1,-1,-1,-1,-1,-1,-1],"split_conditions":[1E0,1E0,3E0,4E0,4E0,2E0,4E0,3.0158961E-2,-6.533422E-2,-5.163374E-2,9.648287E-2,-7.3104585E-3,2.5199318E-2,4.5021653E-2,3.204345E-1],"split_indices":[4,5,5,2,2,3,4,0,0,0,0,0,0,0,0],"split_type":[0,0,0,0,0,0,0,0,0,0,0,0,0,0,0],"sum_hessian":[1.5557E4,6.401E3,9.156E3,2.444E3,3.957E3,7.791E3,1.365E3,2.078E3,3.66E2,3.603E3,3.54E2,5.303E3,2.488E3,1.261E3,1.04E2],"tree_param":{"num_deleted":"0","num_feature":"6","num_nodes":"15","size_leaf_vector":"1"}},{"base_weights":[7.7477394E-4,-5.114542E-3,3.1545782E0,-1.69652E-1,1.0963066E-1,2.61723E0,9.1001624E-1,1.4252362E-2,-3.634797E-2,2.7661163E-3,5.7953257E-2,2.2064357E-1,3.3684117E-1],"categories":[],"categories_nodes":[],"categories_segments":[],"categories_sizes":[],"default_left":[0,0,0,0,0,0,0,0,0,0,0,0,0],"id":63,"left_children":[1,3,5,7,9,11,-1,-1,-1,-1,-1,-1,-1],"loss_changes":[2.8898645E2,2.9322318E2,6.8833374E1,3.8615515E2,3.5242023E2,1.2080994E0,0E0,0E0,0E0,0E0,0E0,0E0,0E0],"parents":[2147483647,0,0,1,1,2,2,3,3,4,4,5,5],"right_children":[2,4,6,8,10,12,-1,-1,-1,-1,-1,-1,-1],"split_conditions":[8E0,1E0,1E1,1E0,3E0,1E0,9.1001624E-1,1.4252362E-2,-3.634797E-2,2.7661163E-3,5.7953257E-2,2.2064357E-1,3.3684117E-1],"split_indices":[5,4,5,5,5,4,0,0,0,0,0,0,0],"split_type":[0,0,0,0,0,0,0,0,0,0,0,0,0],"sum_hessian":[1.5557E4,1.5529E4,2.8E1,6.38E3,9.149E3,2.7E1,1E0,2.444E3,3.936E3,7.791E3,1.358E3,2E1,7E0],"tree_param":{"num_deleted":"0","num_feature":"6","num_nodes":"13","size_leaf_vector":"1"}},{"base_weights":[7.9416216E-4,-2.7437245E-2,6.546306E-1,-9.852438E-2,2.9669106E-1,5.2465007E-2,1.4992641E0,-1.8910037E-2,2.6433874E-2,-2.6635904E-2,8.6882494E-2,8.321184E-3,-3.6581762E-2,1.3166144E-1,2.9043987E-1],"categories":[],"categories_nodes":[],"categories_segments":[],"categories_sizes":[],"default_left":[0,0,0,0,0,0,0,0,0,0,0,0,0,0,0],"id":64,"left_children":[1,3,5,7,9,11,13,-1,-1,-1,-1,-1,-1,-1,-1],"loss_changes":[2.8719876E2,3.4369098E2,3.274657E2,4.0210812E2,8.64533E2,4.878986E0,6.495758E1,0E0,0E0,0E0,0E0,0E0,0E0,0E0,0E0],"parents":[2147483647,0,0,1,1,2,2,3,3,4,4,5,5,6,6],"right_children":[2,4,6,8,10,12,14,-1,-1,-1,-1,-1,-1,-1,-1],"split_conditions":[5E0,3E0,1E0,3E0,1E0,3E0,7E0,-1.8910037E-2,2.6433874E-2,-2.6635904E-2,8.6882494E-2,8.321184E-3,-3.6581762E-2,1.3166144E-1,2.9043987E-1],"split_indices":[1,3,5,2,5,2,1,0,0,0,0,0,0,0,0],"split_type":[0,0,0,0,0,0,0,0,0,0,0,0,0,0,0],"sum_hessian":[1.5557E4,1.4914E4,6.43E2,1.2232E4,2.682E3,3.76E2,2.67E2,9.789E3,2.443E3,1.352E3,1.33E3,3.51E2,2.5E1,2.38E2,2.9E1],"tree_param":{"num_deleted":"0","num_feature":"6","num_nodes":"15","size_leaf_vector":"1"}},{"base_weights":[7.443956E-4,-2.655404E-2,6.618343E-1,-9.125851E-2,2.629193E-1,3.9986134E-1,2.0621033E0,-1.8209318E-2,2.6297135E-2,4.733102E-3,4.7942262E-2,3.3048216E-2,6.2998277E-1,1.0515505E-1,3.822181E-1],"categories":[],"categories_nodes":[],"categories_segments":[],"categories_sizes":[],"default_left":[0,0,0,0,0,0,0,0,0,0,0,0,0,0,0],"id":65,"left_children":[1,3,5,7,9,11,13,-1,-1,-1,-1,-1,-1,-1,-1],"loss_changes":[2.8078848E2,2.7989093E2,2.2551114E2,3.9301764E2,1.2740161E2,2.1118149E2,1.6850995E2,0E0,0E0,0E0,0E0,0E0,0E0,0E0,0E0],"parents":[2147483647,0,0,1,1,2,2,3,3,4,4,5,5,6,6],"right_children":[2,4,6,8,10,12,14,-1,-1,-1,-1,-1,-1,-1,-1],"split_conditions":[5E0,3E0,2E0,3E0,1E0,4E0,1E0,-1.8209318E-2,2.6297135E-2,4.733102E-3,4.7942262E-2,3.3048216E-2,6.2998277E-1,1.0515505E-1,3.822181E-1],"split_indices":[5,1,3,4,5,4,4,0,0,0,0,0,0,0,0],"split_type":[0,0,0,0,0,0,0,0,0,0,0,0,0,0,0],"sum_hessian":[1.5557E4,1.4941E4,6.16E2,1.2212E4,2.729E3,5.2E2,9.6E1,9.72E3,2.492E3,1.368E3,1.361E3,5.15E2,5E0,6.2E1,3.4E1],"tree_param":{"num_deleted":"0","num_feature":"6","num_nodes":"15","size_leaf_vector":"1"}},{"base_weights":[7.4783515E-4,-1.5606533E-1,1.1081887E-1,1.045935E-1,-3.178187E-1,3.692367E-2,5.282058E-1,2.3404365E-2,-6.173535E-2,-4.308713E-2,2.1744719E-1,1.1246194E-3,7.4722916E-2,2.8540203E-2,3.4622574E-1],"categories":[],"categories_nodes":[],"categories_segments":[],"categories_sizes":[],"default_left":[0,0,0,0,0,0,0,0,0,0,0,0,0,0,0],"id":66,"left_children":[1,3,5,7,9,11,13,-1,-1,-1,-1,-1,-1,-1,-1],"loss_changes":[2.6855753E2,2.7058963E2,2.819462E2,2.2985973E2,1.1167058E3,1.4167099E2,9.785603E2,0E0,0E0,0E0,0E0,0E0,0E0,0E0,0E0],"parents":[2147483647,0,0,1,1,2,2,3,3,4,4,5,5,6,6],"right_children":[2,4,6,8,10,12,14,-1,-1,-1,-1,-1,-1,-1,-1],"split_conditions":[1E0,1E0,3E0,4E0,5E0,6E0,3E0,2.3404365E-2,-6.173535E-2,-4.308713E-2,2.1744719E-1,1.1246194E-3,7.4722916E-2,2.8540203E-2,3.4622574E-1],"split_indices":[3,5,5,4,4,3,2,0,0,0,0,0,0,0,0],"split_type":[0,0,0,0,0,0,0,0,0,0,0,0,0,0,0],"sum_hessian":[1.5557E4,6.416E3,9.141E3,2.457E3,3.959E3,7.767E3,1.374E3,2.084E3,3.73E2,3.788E3,1.71E2,7.497E3,2.7E2,1.27E3,1.04E2],"tree_param":{"num_deleted":"0","num_feature":"6","num_nodes":"15","size_leaf_vector":"1"}},{"base_weights":[7.107705E-4,-2.580373E-2,6.3744134E-1,-1.9822066E-1,9.126904E-2,4.4909072E-1,9.031957E-1,1.0301923E-2,-3.761522E-2,-3.7620596E-3,3.8152E-2,4.8172187E-2,-1.0993167E-2,6.0171958E-2,1.4753293E-1],"categories":[],"categories_nodes":[],"categories_segments":[],"categories_sizes":[],"default_left":[0,0,0,0,0,0,0,0,0,0,0,0,0,0,0],"id":67,"left_children":[1,3,5,7,9,11,13,-1,-1,-1,-1,-1,-1,-1,-1],"loss_changes":[2.626758E2,3.0152634E2,3.0728592E1,3.2383688E2,3.328542E2,6.7293625E0,4.344081E1,0E0,0E0,0E0,0E0,0E0,0E0,0E0,0E0],"parents":[2147483647,0,0,1,1,2,2,3,3,4,4,5,5,6,6],"right_children":[2,4,6,8,10,12,14,-1,-1,-1,-1,-1,-1,-1,-1],"split_conditions":[5E0,1E0,1E0,1E0,2E0,3E0,6E0,1.0301923E-2,-3.761522E-2,-3.7620596E-3,3.8152E-2,4.8172187E-2,-1.0993167E-2,6.0171958E-2,1.4753293E-1],"split_indices":[0,4,5,5,3,2,0,0,0,0,0,0,0,0,0],"split_type":[0,0,0,0,0,0,0,0,0,0,0,0,0,0,0],"sum_hessian":[1.5557E4,1.4936E4,6.21E2,6.04E3,8.896E3,3.65E2,2.56E2,2.243E3,3.797E3,6.161E3,2.735E3,3.45E2,2E1,1.69E2,8.7E1],"tree_param":{"num_deleted":"0","num_feature":"6","num_nodes":"15","size_leaf_vector":"1"}},{"base_weights":[6.5586035E-4,-9.266987E-3,1.7451527E0,-1.0081969E-1,1.7487371E-1,1.5657077E0,8.678436E-1,-1.6523331E-2,4.2450592E-2,-1.54468E-3,7.020017E-2,1.14290535E-1,2.4157946E-1],"categories":[],"categories_nodes":[],"categories_segments":[],"categories_sizes":[],"default_left":[0,0,0,0,0,0,0,0,0,0,0,0,0],"id":68,"left_children":[1,3,5,7,9,11,-1,-1,-1,-1,-1,-1,-1],"loss_changes":[2.6933102E2,2.6083667E2,9.589673E1,3.4975333E2,5.154717E2,2.8508392E1,0E0,0E0,0E0,0E0,0E0,0E0,0E0],"parents":[2147483647,0,0,1,1,2,2,3,3,4,4,5,5],"right_children":[2,4,6,8,10,12,-1,-1,-1,-1,-1,-1,-1],"split_conditions":[7E0,2E0,1E1,4E0,2E0,8E0,8.678436E-1,-1.6523331E-2,4.2450592E-2,-1.54468E-3,7.020017E-2,1.14290535E-1,2.4157946E-1],"split_indices":[5,2,5,4,5,5,0,0,0,0,0,0,0],"split_type":[0,0,0,0,0,0,0,0,0,0,0,0,0],"sum_hessian":[1.5557E4,1.547E4,8.7E1,1.0333E4,5.137E3,8.6E1,1E0,9.205E3,1.128E3,3.775E3,1.362E3,5.9E1,2.7E1],"tree_param":{"num_deleted":"0","num_feature":"6","num_nodes":"13","size_leaf_vector":"1"}},{"base_weights":[6.750201E-4,-3.845149E-2,4.1517645E-1,-1.04158565E-1,2.4614577E-1,3.3703738E-1,4.6922703E0,-1.4072274E-2,5.7415623E-2,3.501483E-3,4.684646E-2,2.4725173E-2,4.059511E-1,5.1567036E-1,1.8960826E-1],"categories":[],"categories_nodes":[],"categories_segments":[],"categories_sizes":[],"default_left":[0,0,0,0,0,0,0,0,0,0,0,0,0,0,0],"id":69,"left_children":[1,3,5,7,9,11,13,-1,-1,-1,-1,-1,-1,-1,-1],"loss_changes":[2.5233553E2,2.658843E2,4.469258E2,2.865689E2,1.2516826E2,4.3983875E2,2.1389893E1,0E0,0E0,0E0,0E0,0E0,0E0,0E0,0E0],"parents":[2147483647,0,0,1,1,2,2,3,3,4,4,5,5,6,6],"right_children":[2,4,6,8,10,12,14,-1,-1,-1,-1,-1,-1,-1,-1],"split_conditions":[4E0,3E0,4E0,5E0,1E0,4E0,1E0,-1.4072274E-2,5.7415623E-2,3.501483E-3,4.684646E-2,2.4725173E-2,4.059511E-1,5.1567036E-1,1.8960826E-1],"split_indices":[5,1,3,0,5,4,1,0,0,0,0,0,0,0,0],"split_type":[0,0,0,0,0,0,0,0,0,0,0,0,0,0,0],"sum_hessian":[1.5557E4,1.4216E4,1.341E3,1.155E4,2.666E3,1.318E3,2.3E1,1.096E4,5.9E2,1.368E3,1.298E3,1.288E3,3E1,1.9E1,4E0],"tree_param":{"num_deleted":"0","num_feature":"6","num_nodes":"15","size_leaf_vector":"1"}},{"base_weights":[6.86588E-4,-3.839187E-2,4.1333252E-1,-8.474031E-2,4.051E-1,-2.6885715E-1,1.2696624E0,-1.6699092E-2,2.4525596E-2,-8.072856E-3,2.3669124E-1,-1.6354669E-2,-3.7151318E-2,6.529606E-2,2.1408878E-1],"categories":[],"categories_nodes":[],"categories_segments":[],"categories_sizes":[],"default_left":[0,0,0,0,0,0,0,0,0,0,0,0,0,0,0],"id":70,"left_children":[1,3,5,7,9,11,13,-1,-1,-1,-1,-1,-1,-1,-1],"loss_changes":[2.5089742E2,2.921848E2,7.866468E2,3.4933643E2,1.2821166E3,8.047306E0,3.1936188E2,0E0,0E0,0E0,0E0,0E0,0E0,0E0,0E0],"parents":[2147483647,0,0,1,1,2,2,3,3,4,4,5,5,6,6],"right_children":[2,4,6,8,10,12,14,-1,-1,-1,-1,-1,-1,-1,-1],"split_conditions":[4E0,4E0,1E0,3E0,2E0,1E0,1E0,-1.6699092E-2,2.4525596E-2,-8.072856E-3,2.3669124E-1,-1.6354669E-2,-3.7151318E-2,6.529606E-2,2.1408878E-1],"split_indices":[3,2,5,1,5,4,4,0,0,0,0,0,0,0,0],"split_type":[0,0,0,0,0,0,0,0,0,0,0,0,0,0,0],"sum_hessian":[1.5557E4,1.4212E4,1.345E3,1.2868E4,1.344E3,7.49E2,5.96E2,1.0301E4,2.567E3,1.078E3,2.66E2,3.71E2,3.78E2,3.5E2,2.46E2],"tree_param":{"num_deleted":"0","num_feature":"6","num_nodes":"15","size_leaf_vector":"1"}},{"base_weights":[6.476451E-4,-1.5078078E-2,9.4068706E-1,-4.098727E-2,5.9042895E-1,8.1434906E-1,4.7553712E-1,-2.099239E-2,7.2353417E-3,-4.3135468E-2,2.0288427E-1,6.95011E-2,4.8407483E-1],"categories":[],"categories_nodes":[],"categories_segments":[],"categories_sizes":[],"default_left":[0,0,0,0,0,0,0,0,0,0,0,0,0],"id":71,"left_children":[1,3,5,7,9,11,-1,-1,-1,-1,-1,-1,-1],"loss_changes":[2.3000496E2,2.4010072E2,1.19504E2,2.8102234E2,9.238766E2,1.1628076E2,0E0,0E0,0E0,0E0,0E0,0E0,0E0],"parents":[2147483647,0,0,1,1,2,2,3,3,4,4,5,5],"right_children":[2,4,6,8,10,12,-1,-1,-1,-1,-1,-1,-1],"split_conditions":[6E0,5E0,3E0,1E0,1E0,9E0,4.7553712E-1,-2.099239E-2,7.2353417E-3,-4.3135468E-2,2.0288427E-1,6.95011E-2,4.8407483E-1],"split_indices":[5,2,4,3,5,5,0,0,0,0,0,0,0],"split_type":[0,0,0,0,0,0,0,0,0,0,0,0,0],"sum_hessian":[1.5557E4,1.5302E4,2.55E2,1.4675E4,6.27E2,2.48E2,7E0,5.892E3,8.783E3,3.67E2,2.6E2,2.42E2,6E0],"tree_param":{"num_deleted":"0","num_feature":"6","num_nodes":"13","size_leaf_vector":"1"}},{"base_weights":[6.5838575E-4,-1.3976918E-1,9.883647E-2,1.5021148E-1,-3.1886545E-1,5.233901E-2,7.38992E-1,3.4027845E-2,-3.9440405E-2,-3.7138768E-2,2.6036748E-1,-1.6155776E-3,4.1736882E-2,4.019881E-2,2.446502E-1],"categories":[],"categories_nodes":[],"categories_segments":[],"categories_sizes":[],"default_left":[0,0,0,0,0,0,0,0,0,0,0,0,0,0,0],"id":72,"left_children":[1,3,5,7,9,11,13,-1,-1,-1,-1,-1,-1,-1,-1],"loss_changes":[2.1451054E2,3.3253223E2,2.725249E2,2.5322455E2,6.085134E2,2.1347925E2,3.5578778E2,0E0,0E0,0E0,0E0,0E0,0E0,0E0,0E0],"parents":[2147483647,0,0,1,1,2,2,3,3,4,4,5,5,6,6],"right_children":[2,4,6,8,10,12,14,-1,-1,-1,-1,-1,-1,-1,-1],"split_conditions":[1E0,1E0,4E0,3E0,6E0,3E0,2E0,3.4027845E-2,-3.9440405E-2,-3.7138768E-2,2.6036748E-1,-1.6155776E-3,4.1736882E-2,4.019881E-2,2.446502E-1],"split_indices":[4,5,5,2,3,2,3,0,0,0,0,0,0,0,0],"split_type":[0,0,0,0,0,0,0,0,0,0,0,0,0,0,0],"sum_hessian":[1.5557E4,6.401E3,9.156E3,2.444E3,3.957E3,8.537E3,6.19E2,1.812E3,6.32E2,3.888E3,6.9E1,7.189E3,1.348E3,5.18E2,1.01E2],"tree_param":{"num_deleted":"0","num_feature":"6","num_nodes":"15","size_leaf_vector":"1"}},{"base_weights":[6.274125E-4,-2.3330912E-2,5.554998E-1,-1.1645787E-1,1.5720348E-1,2.714651E-3,1.331039E0,1.3571473E-2,-2.708909E-2,-1.812554E-2,4.4354405E-2,2.6273148E-3,-3.7862804E-2,9.480653E-2,1.964954E-1],"categories":[],"categories_nodes":[],"categories_segments":[],"categories_sizes":[],"default_left":[0,0,0,0,0,0,0,0,0,0,0,0,0,0,0],"id":73,"left_children":[1,3,5,7,9,11,13,-1,-1,-1,-1,-1,-1,-1,-1],"loss_changes":[2.0683809E2,2.5077852E2,2.7608337E2,3.8324353E2,4.9201843E2,3.396863E0,6.3200134E1,0E0,0E0,0E0,0E0,0E0,0E0,0E0,0E0],"parents":[2147483647,0,0,1,1,2,2,3,3,4,4,5,5,6,6],"right_children":[2,4,6,8,10,12,14,-1,-1,-1,-1,-1,-1,-1,-1],"split_conditions":[5E0,2E0,1E0,1E0,1E0,3E0,1E0,1.3571473E-2,-2.708909E-2,-1.812554E-2,4.4354405E-2,2.6273148E-3,-3.7862804E-2,9.480653E-2,1.964954E-1],"split_indices":[1,4,5,5,5,3,2,0,0,0,0,0,0,0,0],"split_type":[0,0,0,0,0,0,0,0,0,0,0,0,0,0,0],"sum_hessian":[1.5557E4,1.4914E4,6.43E2,9.839E3,5.075E3,3.76E2,2.67E2,3.737E3,6.102E3,2.326E3,2.749E3,3.55E2,2.1E1,1.68E2,9.9E1],"tree_param":{"num_deleted":"0","num_feature":"6","num_nodes":"15","size_leaf_vector":"1"}},{"base_weights":[5.8194E-4,-2.270311E-2,5.5975914E-1,-1.1256618E-1,1.5314981E-1,3.6220124E-1,8.3892804E-1,-1.7727515E-2,3.9202217E-2,-1.5236144E-2,4.1534554E-2,3.9034672E-2,-1.1877615E-2,5.3344406E-2,1.3373199E-1],"categories":[],"categories_nodes":[],"categories_segments":[],"categories_sizes":[],"default_left":[0,0,0,0,0,0,0,0,0,0,0,0,0,0,0],"id":74,"left_children":[1,3,5,7,9,11,13,-1,-1,-1,-1,-1,-1,-1,-1],"loss_changes":[2.0258516E2,2.3606194E2,3.4000687E1,3.2286115E2,4.0474734E2,5.0010223E0,3.8415054E1,0E0,0E0,0E0,0E0,0E0,0E0,0E0,0E0],"parents":[2147483647,0,0,1,1,2,2,3,3,4,4,5,5,6,6],"right_children":[2,4,6,8,10,12,14,-1,-1,-1,-1,-1,-1,-1,-1],"split_conditions":[5E0,2E0,1E0,4E0,1E0,3E0,1E0,-1.7727515E-2,3.9202217E-2,-1.5236144E-2,4.1534554E-2,3.9034672E-2,-1.1877615E-2,5.3344406E-2,1.3373199E-1],"split_indices":[0,2,5,4,5,2,1,0,0,0,0,0,0,0,0],"split_type":[0,0,0,0,0,0,0,0,0,0,0,0,0,0,0],"sum_hessian":[1.5557E4,1.4936E4,6.21E2,9.885E3,5.051E3,3.65E2,2.56E2,8.762E3,1.123E3,2.333E3,2.718E3,3.45E2,2E1,1.6E2,9.6E1],"tree_param":{"num_deleted":"0","num_feature":"6","num_nodes":"15","size_leaf_vector":"1"}},{"base_weights":[5.4058153E-4,-2.2853686E-2,5.670829E-1,-4.7918294E-2,5.4194516E-1,4.4890472E-1,2.9477677E0,-1.1035583E-2,2.1994608E-2,9.7106695E-3,3.1010994E-1,3.41929E-2,2.7521893E-1,2.093261E-1,4.6140876E-1],"categories":[],"categories_nodes":[],"categories_segments":[],"categories_sizes":[],"default_left":[0,0,0,0,0,0,0,0,0,0,0,0,0,0,0],"id":75,"left_children":[1,3,5,7,9,11,13,-1,-1,-1,-1,-1,-1,-1,-1],"loss_changes":[2.0621625E2,2.1155182E2,1.722666E2,2.3932259E2,7.225895E2,1.4418588E2,3.1634064E1,0E0,0E0,0E0,0E0,0E0,0E0,0E0,0E0],"parents":[2147483647,0,0,1,1,2,2,3,3,4,4,5,5,6,6],"right_children":[2,4,6,8,10,12,14,-1,-1,-1,-1,-1,-1,-1,-1],"split_conditions":[5E0,5E0,3E0,3E0,2E0,3E0,1E0,-1.1035583E-2,2.1994608E-2,9.7106695E-3,3.1010994E-1,3.41929E-2,2.7521893E-1,2.093261E-1,4.6140876E-1],"split_indices":[5,3,3,1,5,4,4,0,0,0,0,0,0,0,0],"split_type":[0,0,0,0,0,0,0,0,0,0,0,0,0,0,0],"sum_hessian":[1.5557E4,1.4941E4,6.16E2,1.4307E4,6.34E2,5.88E2,2.8E1,1.1603E4,2.704E3,5.41E2,9.3E1,5.63E2,2.5E1,2E1,8E0],"tree_param":{"num_deleted":"0","num_feature":"6","num_nodes":"15","size_leaf_vector":"1"}},{"base_weights":[5.7082693E-4,-1.3274385E-1,9.41477E-2,1.2591562E-1,-2.932621E-1,-9.267411E-3,3.37044E-1,2.457375E-2,-5.4241218E-2,-3.575218E-2,3.389919E-1,-1.254434E-2,2.2737954E-2,-1.9339671E-2,8.462993E-2],"categories":[],"categories_nodes":[],"categories_segments":[],"categories_sizes":[],"default_left":[0,0,0,0,0,0,0,0,0,0,0,0,0,0,0],"id":76,"left_children":[1,3,5,7,9,11,13,-1,-1,-1,-1,-1,-1,-1,-1],"loss_changes":[1.941012E2,2.6646796E2,2.296424E2,1.969707E2,9.3846533E2,1.7633917E2,7.376178E2,0E0,0E0,0E0,0E0,0E0,0E0,0E0,0E0],"parents":[2147483647,0,0,1,1,2,2,3,3,4,4,5,5,6,6],"right_children":[2,4,6,8,10,12,14,-1,-1,-1,-1,-1,-1,-1,-1],"split_conditions":[1E0,1E0,2E0,4E0,6E0,2E0,1E0,2.457375E-2,-5.4241218E-2,-3.575218E-2,3.389919E-1,-1.254434E-2,2.2737954E-2,-1.9339671E-2,8.462993E-2],"split_indices":[3,5,2,4,4,4,5,0,0,0,0,0,0,0,0],"split_type":[0,0,0,0,0,0,0,0,0,0,0,0,0,0,0],"sum_hessian":[1.5557E4,6.416E3,9.141E3,2.457E3,3.959E3,6.412E3,2.729E3,2.084E3,3.73E2,3.892E3,6.7E1,4.301E3,2.111E3,1.337E3,1.392E3],"tree_param":{"num_deleted":"0","num_feature":"6","num_nodes":"15","size_leaf_vector":"1"}},{"base_weights":[5.361867E-4,-8.038631E-3,1.5080414E0,-4.3231893E-2,3.553905E-1,1.3405426E0,8.0402225E-1,-1.4048739E-2,1.4159041E-2,1.7044725E-2,5.692814E-2,9.705019E-2,2.0856102E-1],"categories":[],"categories_nodes":[],"categories_segments":[],"categories_sizes":[],"default_left":[0,0,0,0,0,0,0,0,0,0,0,0,0],"id":77,"left_children":[1,3,5,7,9,11,-1,-1,-1,-1,-1,-1,-1],"loss_changes":[2.0112387E2,1.9789342E2,8.550548E1,2.5357503E2,5.393875E1,2.1962265E1,0E0,0E0,0E0,0E0,0E0,0E0,0E0],"parents":[2147483647,0,0,1,1,2,2,3,3,4,4,5,5],"right_children":[2,4,6,8,10,12,-1,-1,-1,-1,-1,-1,-1],"split_conditions":[7E0,4E0,1E1,2E0,1E0,8E0,8.0402225E-1,-1.4048739E-2,1.4159041E-2,1.7044725E-2,5.692814E-2,9.705019E-2,2.0856102E-1],"split_indices":[5,0,5,3,1,5,0,0,0,0,0,0,0],"split_type":[0,0,0,0,0,0,0,0,0,0,0,0,0],"sum_hessian":[1.5557E4,1.547E4,8.7E1,1.4105E4,1.365E3,8.6E1,1E0,9.242E3,4.863E3,7.33E2,6.32E2,5.9E1,2.7E1],"tree_param":{"num_deleted":"0","num_feature":"6","num_nodes":"13","size_leaf_vector":"1"}},{"base_weights":[5.586613E-4,-2.2278996E-2,5.43534E-1,-7.536577E-2,2.2042303E-1,5.7730593E-2,3.2023368E0,1.2454571E-2,-2.0074513E-2,-3.0627789E-3,1.0705946E-1,-3.6540683E-2,1.00110546E-1,2.4199088E-1,4.9535504E-1],"categories":[],"categories_nodes":[],"categories_segments":[],"categories_sizes":[],"default_left":[0,0,0,0,0,0,0,0,0,0,0,0,0,0,0],"id":78,"left_children":[1,3,5,7,9,11,13,-1,-1,-1,-1,-1,-1,-1,-1],"loss_changes":[1.9293573E2,1.9239159E2,8.109747E2,3.071186E2,5.720419E2,2.1272809E2,1.2092218E2,0E0,0E0,0E0,0E0,0E0,0E0,0E0,0E0],"parents":[2147483647,0,0,1,1,2,2,3,3,4,4,5,5,6,6],"right_children":[2,4,6,8,10,12,14,-1,-1,-1,-1,-1,-1,-1,-1],"split_conditions":[5E0,3E0,2E0,1E0,2E0,1E0,3E0,1.2454571E-2,-2.0074513E-2,-3.0627789E-3,1.0705946E-1,-3.6540683E-2,1.00110546E-1,2.4199088E-1,4.9535504E-1],"split_indices":[2,3,5,5,5,5,5,0,0,0,0,0,0,0,0],"split_type":[0,0,0,0,0,0,0,0,0,0,0,0,0,0,0],"sum_hessian":[1.5557E4,1.493E4,6.27E2,1.2251E4,2.679E3,5.31E2,9.6E1,4.722E3,7.529E3,2.069E3,6.1E2,3.67E2,1.64E2,6.8E1,2.8E1],"tree_param":{"num_deleted":"0","num_feature":"6","num_nodes":"15","size_leaf_vector":"1"}},{"base_weights":[5.604916E-4,-3.441516E-2,3.7108824E-1,-5.937343E-2,4.960118E-1,2.9270187E-1,3.5708833E0,-1.0075885E-2,3.2280814E-2,-1.5626373E-3,1.2275387E-1,2.1339787E-2,3.5603064E-1,2.8715402E-1,5.039034E-1],"categories":[],"categories_nodes":[],"categories_segments":[],"categories_sizes":[],"default_left":[0,0,0,0,0,0,0,0,0,0,0,0,0,0,0],"id":79,"left_children":[1,3,5,7,9,11,13,-1,-1,-1,-1,-1,-1,-1,-1],"loss_changes":[2.0163588E2,1.8824179E2,3.3555566E2,2.1480814E2,2.3918228E2,3.389651E2,1.8385925E1,0E0,0E0,0E0,0E0,0E0,0E0,0E0,0E0],"parents":[2147483647,0,0,1,1,2,2,3,3,4,4,5,5,6,6],"right_children":[2,4,6,8,10,12,14,-1,-1,-1,-1,-1,-1,-1,-1],"split_conditions":[4E0,5E0,4E0,4E0,1E0,4E0,1E0,-1.0075885E-2,3.2280814E-2,-1.5626373E-3,1.2275387E-1,2.1339787E-2,3.5603064E-1,2.8715402E-1,5.039034E-1],"split_indices":[5,1,2,0,5,4,4,0,0,0,0,0,0,0,0],"split_type":[0,0,0,0,0,0,0,0,0,0,0,0,0,0,0],"sum_hessian":[1.5557E4,1.4216E4,1.341E3,1.3578E4,6.38E2,1.31E3,3.1E1,1.2252E4,1.326E3,3.76E2,2.62E2,1.28E3,3E1,2.3E1,8E0],"tree_param":{"num_deleted":"0","num_feature":"6","num_nodes":"15","size_leaf_vector":"1"}},{"base_weights":[5.887822E-4,-1.2626158E-1,8.9274526E-2,1.3118263E-1,-2.852623E-1,-1.5202805E-2,3.3345395E-1,2.9344553E-2,-3.337681E-2,-3.291527E-2,2.571638E-1,-2.9820718E-3,3.675908E-2,2.1509297E-2,3.5611492E-1],"categories":[],"categories_nodes":[],"categories_segments":[],"categories_sizes":[],"default_left":[0,0,0,0,0,0,0,0,0,0,0,0,0,0,0],"id":80,"left_children":[1,3,5,7,9,11,13,-1,-1,-1,-1,-1,-1,-1,-1],"loss_changes":[1.7503595E2,2.620957E2,2.336113E2,1.8455914E2,4.971422E2,3.5901417E1,1.0475331E3,0E0,0E0,0E0,0E0,0E0,0E0,0E0,0E0],"parents":[2147483647,0,0,1,1,2,2,3,3,4,4,5,5,6,6],"right_children":[2,4,6,8,10,12,14,-1,-1,-1,-1,-1,-1,-1,-1],"split_conditions":[1E0,1E0,2E0,3E0,6E0,5E0,5E0,2.9344553E-2,-3.337681E-2,-3.291527E-2,2.571638E-1,-2.9820718E-3,3.675908E-2,2.1509297E-2,3.5611492E-1],"split_indices":[4,5,5,2,2,2,4,0,0,0,0,0,0,0,0],"split_type":[0,0,0,0,0,0,0,0,0,0,0,0,0,0,0],"sum_hessian":[1.5557E4,6.401E3,9.156E3,2.444E3,3.957E3,6.413E3,2.743E3,1.812E3,6.32E2,3.898E3,5.9E1,6.178E3,2.35E2,2.647E3,9.6E1],"tree_param":{"num_deleted":"0","num_feature":"6","num_nodes":"15","size_leaf_vector":"1"}},{"base_weights":[5.7050533E-4,-1.3231717E-2,8.2562846E-1,-9.215975E-2,1.4399427E-1,7.688346E-1,7.654034E-1,8.910512E-3,-2.1121956E-2,6.6953064E-5,5.477631E-2,6.617136E-2,3.9934817E-1],"categories":[],"categories_nodes":[],"categories_segments":[],"categories_sizes":[],"default_left":[0,0,0,0,0,0,0,0,0,0,0,0,0],"id":81,"left_children":[1,3,5,7,9,11,-1,-1,-1,-1,-1,-1,-1],"loss_changes":[1.7717973E2,1.8991643E2,9.3395065E1,2.1991132E2,2.9600497E2,8.544147E1,0E0,0E0,0E0,0E0,0E0,0E0,0E0],"parents":[2147483647,0,0,1,1,2,2,3,3,4,4,5,5],"right_children":[2,4,6,8,10,12,-1,-1,-1,-1,-1,-1,-1],"split_conditions":[6E0,2E0,1E1,1E0,2E0,3E0,7.654034E-1,8.910512E-3,-2.1121956E-2,6.6953064E-5,5.477631E-2,6.617136E-2,3.9934817E-1],"split_indices":[5,2,5,5,5,4,0,0,0,0,0,0,0],"split_type":[0,0,0,0,0,0,0,0,0,0,0,0,0],"sum_hessian":[1.5557E4,1.5302E4,2.55E2,1.0188E4,5.114E3,2.54E2,1E0,4.039E3,6.149E3,3.775E3,1.339E3,2.47E2,7E0],"tree_param":{"num_deleted":"0","num_feature":"6","num_nodes":"13","size_leaf_vector":"1"}},{"base_weights":[5.953371E-4,-3.054519E-2,3.304942E-1,-8.313121E-2,1.972207E-1,2.644712E-1,3.945237E0,-1.8768808E-2,9.486726E-3,-2.4670123E-3,4.309169E-2,1.9147485E-2,3.19431E-1,2.9995376E-1,5.461694E-1],"categories":[],"categories_nodes":[],"categories_segments":[],"categories_sizes":[],"default_left":[0,0,0,0,0,0,0,0,0,0,0,0,0,0,0],"id":82,"left_children":[1,3,5,7,9,11,13,-1,-1,-1,-1,-1,-1,-1,-1],"loss_changes":[1.5984093E2,1.7029768E2,3.192331E2,2.1499301E2,1.3830798E2,2.814797E2,1.8036102E1,0E0,0E0,0E0,0E0,0E0,0E0,0E0,0E0],"parents":[2147483647,0,0,1,1,2,2,3,3,4,4,5,5,6,6],"right_children":[2,4,6,8,10,12,14,-1,-1,-1,-1,-1,-1,-1,-1],"split_conditions":[4E0,3E0,4E0,2E0,1E0,4E0,5E0,-1.8768808E-2,9.486726E-3,-2.4670123E-3,4.309169E-2,1.9147485E-2,3.19431E-1,2.9995376E-1,5.461694E-1],"split_indices":[5,1,3,4,5,2,3,0,0,0,0,0,0,0,0],"split_type":[0,0,0,0,0,0,0,0,0,0,0,0,0,0,0],"sum_hessian":[1.5557E4,1.4216E4,1.341E3,1.155E4,2.666E3,1.318E3,2.3E1,7.276E3,4.274E3,1.368E3,1.298E3,1.287E3,3.1E1,1.6E1,7E0],"tree_param":{"num_deleted":"0","num_feature":"6","num_nodes":"15","size_leaf_vector":"1"}},{"base_weights":[6.139456E-4,-3.0812083E-2,3.3245462E-1,-8.6419664E-2,2.124223E-1,-2.559816E-1,1.0711392E0,1.5207127E-2,-2.3227943E-2,-2.8700411E-2,6.953526E-2,-1.8150343E-2,-3.284088E-2,7.695044E-2,2.5625694E-1],"categories":[],"categories_nodes":[],"categories_segments":[],"categories_sizes":[],"default_left":[0,0,0,0,0,0,0,0,0,0,0,0,0,0,0],"id":83,"left_children":[1,3,5,7,9,11,13,-1,-1,-1,-1,-1,-1,-1,-1],"loss_changes":[1.6225583E2,1.9225877E2,5.8533844E2,4.0247726E2,6.381422E2,3.9860802E0,2.6659888E2,0E0,0E0,0E0,0E0,0E0,0E0,0E0,0E0],"parents":[2147483647,0,0,1,1,2,2,3,3,4,4,5,5,6,6],"right_children":[2,4,6,8,10,12,14,-1,-1,-1,-1,-1,-1,-1,-1],"split_conditions":[4E0,3E0,1E0,1E0,1E0,1E0,6E0,1.5207127E-2,-2.3227943E-2,-2.8700411E-2,6.953526E-2,-1.8150343E-2,-3.284088E-2,7.695044E-2,2.5625694E-1],"split_indices":[3,2,5,5,5,4,3,0,0,0,0,0,0,0,0],"split_type":[0,0,0,0,0,0,0,0,0,0,0,0,0,0,0],"sum_hessian":[1.5557E4,1.4212E4,1.345E3,1.1568E4,2.644E3,7.49E2,5.96E2,4.39E3,7.178E3,1.3E3,1.344E3,3.71E2,3.78E2,4.97E2,9.9E1],"tree_param":{"num_deleted":"0","num_feature":"6","num_nodes":"15","size_leaf_vector":"1"}},{"base_weights":[5.7278626E-4,-1.1783888E-1,8.3688855E-2,1.0740718E-1,-2.5762093E-1,2.2449203E-2,4.2959863E-1,1.8641721E-2,-7.348769E-2,-3.1464007E-2,3.0105132E-1,-9.504709E-3,1.0694589E-2,2.3708707E-2,2.755814E-1],"categories":[],"categories_nodes":[],"categories_segments":[],"categories_sizes":[],"default_left":[0,0,0,0,0,0,0,0,0,0,0,0,0,0,0],"id":84,"left_children":[1,3,5,7,9,11,13,-1,-1,-1,-1,-1,-1,-1,-1],"loss_changes":[1.5313033E2,2.0206921E2,1.9364896E2,1.6371414E2,7.3887805E2,7.713123E1,6.1510364E2,0E0,0E0,0E0,0E0,0E0,0E0,0E0,0E0],"parents":[2147483647,0,0,1,1,2,2,3,3,4,4,5,5,6,6],"right_children":[2,4,6,8,10,12,14,-1,-1,-1,-1,-1,-1,-1,-1],"split_conditions":[1E0,1E0,3E0,5E0,6E0,1E0,3E0,1.8641721E-2,-7.348769E-2,-3.1464007E-2,3.0105132E-1,-9.504709E-3,1.0694589E-2,2.3708707E-2,2.755814E-1],"split_indices":[3,5,5,4,4,4,2,0,0,0,0,0,0,0,0],"split_type":[0,0,0,0,0,0,0,0,0,0,0,0,0,0,0],"sum_hessian":[1.5557E4,6.416E3,9.141E3,2.457E3,3.959E3,7.767E3,1.374E3,2.247E3,2.1E2,3.892E3,6.7E1,3.249E3,4.518E3,1.27E3,1.04E2],"tree_param":{"num_deleted":"0","num_feature":"6","num_nodes":"15","size_leaf_vector":"1"}},{"base_weights":[5.486391E-4,-6.9736466E-3,1.3230115E0,-3.7876826E-2,3.1215316E-1,1.170653E0,7.2891045E-1,-1.9053923E-2,6.2860744E-3,1.4990655E-2,4.9979433E-2,8.294203E-2,1.8600567E-1],"categories":[],"categories_nodes":[],"categories_segments":[],"categories_sizes":[],"default_left":[0,0,0,0,0,0,0,0,0,0,0,0,0],"id":85,"left_children":[1,3,5,7,9,11,-1,-1,-1,-1,-1,-1,-1],"loss_changes":[1.5477933E2,1.5258734E2,7.145772E1,2.1694589E2,4.151178E1,1.8923729E1,0E0,0E0,0E0,0E0,0E0,0E0,0E0],"parents":[2147483647,0,0,1,1,2,2,3,3,4,4,5,5],"right_children":[2,4,6,8,10,12,-1,-1,-1,-1,-1,-1,-1],"split_conditions":[7E0,4E0,1E1,1E0,1E0,8E0,7.2891045E-1,-1.9053923E-2,6.2860744E-3,1.4990655E-2,4.9979433E-2,8.294203E-2,1.8600567E-1],"split_indices":[5,0,5,4,1,5,0,0,0,0,0,0,0],"split_type":[0,0,0,0,0,0,0,0,0,0,0,0,0],"sum_hessian":[1.5557E4,1.547E4,8.7E1,1.4105E4,1.365E3,8.6E1,1E0,5.607E3,8.498E3,7.33E2,6.32E2,5.9E1,2.7E1],"tree_param":{"num_deleted":"0","num_feature":"6","num_nodes":"13","size_leaf_vector":"1"}},{"base_weights":[5.612567E-4,-2.9765204E-2,3.1190667E-1,-8.333378E-2,2.0702504E-1,-8.066699E-2,7.772837E-1,8.914901E-3,-1.8863758E-2,-2.1597499E-2,6.295438E-2,-4.5450707E-3,-4.221187E-2,3.415258E-2,1.3527666E-1],"categories":[],"categories_nodes":[],"categories_segments":[],"categories_sizes":[],"default_left":[0,0,0,0,0,0,0,0,0,0,0,0,0,0,0],"id":86,"left_children":[1,3,5,7,9,11,13,-1,-1,-1,-1,-1,-1,-1,-1],"loss_changes":[1.4690799E2,1.7985834E2,2.5236421E2,2.1003665E2,4.6768164E2,8.99931E0,1.5802536E2,0E0,0E0,0E0,0E0,0E0,0E0,0E0,0E0],"parents":[2147483647,0,0,1,1,2,2,3,3,4,4,5,5,6,6],"right_children":[2,4,6,8,10,12,14,-1,-1,-1,-1,-1,-1,-1,-1],"split_conditions":[4E0,3E0,1E0,1E0,1E0,3E0,1E0,8.914901E-3,-1.8863758E-2,-2.1597499E-2,6.295438E-2,-4.5450707E-3,-4.221187E-2,3.415258E-2,1.3527666E-1],"split_indices":[1,3,5,5,5,2,2,0,0,0,0,0,0,0,0],"split_type":[0,0,0,0,0,0,0,0,0,0,0,0,0,0,0],"sum_hessian":[1.5557E4,1.4177E4,1.38E3,1.1562E4,2.615E3,7.49E2,6.31E2,4.383E3,7.179E3,1.307E3,1.308E3,6.8E2,6.9E1,3.6E2,2.71E2],"tree_param":{"num_deleted":"0","num_feature":"6","num_nodes":"15","size_leaf_vector":"1"}},{"base_weights":[5.15019E-4,-1.9577622E-2,4.871013E-1,-4.085883E-2,4.6635756E-1,2.8503117E-1,1.5674253E0,-9.423895E-3,1.8893406E-2,6.131006E-3,2.706138E-1,2.3253681E-2,4.7520405E-1,8.059962E-2,2.8932142E-1],"categories":[],"categories_nodes":[],"categories_segments":[],"categories_sizes":[],"default_left":[0,0,0,0,0,0,0,0,0,0,0,0,0,0,0],"id":87,"left_children":[1,3,5,7,9,11,13,-1,-1,-1,-1,-1,-1,-1,-1],"loss_changes":[1.5211705E2,1.5453859E2,1.3424507E2,1.7562315E2,5.686595E2,1.2106569E2,9.558902E1,0E0,0E0,0E0,0E0,0E0,0E0,0E0,0E0],"parents":[2147483647,0,0,1,1,2,2,3,3,4,4,5,5,6,6],"right_children":[2,4,6,8,10,12,14,-1,-1,-1,-1,-1,-1,-1,-1],"split_conditions":[5E0,5E0,2E0,3E0,2E0,4E0,1E0,-9.423895E-3,1.8893406E-2,6.131006E-3,2.706138E-1,2.3253681E-2,4.7520405E-1,8.059962E-2,2.8932142E-1],"split_indices":[5,2,3,1,5,4,4,0,0,0,0,0,0,0,0],"split_type":[0,0,0,0,0,0,0,0,0,0,0,0,0,0,0],"sum_hessian":[1.5557E4,1.4941E4,6.16E2,1.4315E4,6.26E2,5.2E2,9.6E1,1.1617E4,2.698E3,5.31E2,9.5E1,5.15E2,5E0,6.2E1,3.4E1],"tree_param":{"num_deleted":"0","num_feature":"6","num_nodes":"15","size_leaf_vector":"1"}},{"base_weights":[5.37739E-4,-4.31793E-2,2.0158245E-1,1.0886596E-1,-1.429805E-1,-3.571755E-1,7.490535E-1,2.2051055E-2,-2.5327532E-2,-2.3960648E-2,9.972188E-2,-1.516915E-2,-5.310127E-2,5.7649266E-2,3.0941895E-1],"categories":[],"categories_nodes":[],"categories_segments":[],"categories_sizes":[],"default_left":[0,0,0,0,0,0,0,0,0,0,0,0,0,0,0],"id":88,"left_children":[1,3,5,7,9,11,13,-1,-1,-1,-1,-1,-1,-1,-1],"loss_changes":[1.3674919E2,1.9394312E2,8.5037427E2,2.0483942E2,8.5033276E2,4.9071213E1,5.663849E2,0E0,0E0,0E0,0E0,0E0,0E0,0E0,0E0],"parents":[2147483647,0,0,1,1,2,2,3,3,4,4,5,5,6,6],"right_children":[2,4,6,8,10,12,14,-1,-1,-1,-1,-1,-1,-1,-1],"split_conditions":[3E0,1E0,1E0,3E0,4E0,4E0,6E0,2.2051055E-2,-2.5327532E-2,-2.3960648E-2,9.972188E-2,-1.516915E-2,-5.310127E-2,5.7649266E-2,3.0941895E-1],"split_indices":[4,5,5,2,2,4,4,0,0,0,0,0,0,0,0],"split_type":[0,0,0,0,0,0,0,0,0,0,0,0,0,0,0],"sum_hessian":[1.5557E4,1.2779E4,2.778E3,5.064E3,7.715E3,1.375E3,1.403E3,3.871E3,1.193E3,7.113E3,6.02E2,6.31E2,7.44E2,1.308E3,9.5E1],"tree_param":{"num_deleted":"0","num_feature":"6","num_nodes":"15","size_leaf_vector":"1"}},{"base_weights":[5.0782075E-4,-2.9421255E-2,3.1757277E-1,-6.26378E-2,2.911466E-1,2.6051247E-1,3.440281E0,-1.428798E-2,7.999164E-3,2.0655276E-2,6.4517625E-2,1.9402517E-2,3.016694E-1,2.7550635E-1,5.493095E-1],"categories":[],"categories_nodes":[],"categories_segments":[],"categories_sizes":[],"default_left":[0,0,0,0,0,0,0,0,0,0,0,0,0,0,0],"id":89,"left_children":[1,3,5,7,9,11,13,-1,-1,-1,-1,-1,-1,-1,-1],"loss_changes":[1.476464E2,1.5140306E2,2.3822498E2,1.4745572E2,3.984828E1,2.4112283E2,1.8625153E1,0E0,0E0,0E0,0E0,0E0,0E0,0E0,0E0],"parents":[2147483647,0,0,1,1,2,2,3,3,4,4,5,5,6,6],"right_children":[2,4,6,8,10,12,14,-1,-1,-1,-1,-1,-1,-1,-1],"split_conditions":[4E0,4E0,4E0,2E0,6E0,4E0,1E0,-1.428798E-2,7.999164E-3,2.0655276E-2,6.4517625E-2,1.9402517E-2,3.016694E-1,2.7550635E-1,5.493095E-1],"split_indices":[5,0,3,2,0,4,4,0,0,0,0,0,0,0,0],"split_type":[0,0,0,0,0,0,0,0,0,0,0,0,0,0,0],"sum_hessian":[1.5557E4,1.4216E4,1.341E3,1.2882E4,1.334E3,1.318E3,2.3E1,8.244E3,4.638E3,1.078E3,2.56E2,1.288E3,3E1,1.9E1,4E0],"tree_param":{"num_deleted":"0","num_feature":"6","num_nodes":"15","size_leaf_vector":"1"}},{"base_weights":[5.357245E-4,-1.1231242E-1,7.974662E-2,8.999719E-2,-2.3785906E-1,-7.892557E-3,2.8558922E-1,1.8102419E-2,-4.177068E-2,-3.56141E-2,8.8067316E-2,-3.8038164E-3,7.5442836E-2,4.591288E-3,1.0666157E-1],"categories":[],"categories_nodes":[],"categories_segments":[],"categories_sizes":[],"default_left":[0,0,0,0,0,0,0,0,0,0,0,0,0,0,0],"id":90,"left_children":[1,3,5,7,9,11,13,-1,-1,-1,-1,-1,-1,-1,-1],"loss_changes":[1.3907884E2,1.6300865E2,1.649228E2,1.13671524E2,5.242301E2,1.4740346E2,5.1098944E2,0E0,0E0,0E0,0E0,0E0,0E0,0E0,0E0],"parents":[2147483647,0,0,1,1,2,2,3,3,4,4,5,5,6,6],"right_children":[2,4,6,8,10,12,14,-1,-1,-1,-1,-1,-1,-1,-1],"split_conditions":[1E0,1E0,2E0,4E0,4E0,6E0,2E0,1.8102419E-2,-4.177068E-2,-3.56141E-2,