{"learner":{"attributes":{},"feature_names":["x_0","x_1","x_2","x_3"],"feature_types":["int","int","int","int"],"gradient_booster":{"model":{"gbtree_model_param":{"num_parallel_tree":"1","num_trees":"100"},"iteration_indptr":[0,1,2,3,4,5,6,7,8,9,10,11,12,13,14,15,16,17,18,19,20,21,22,23,24,25,26,27,28,29,30,31,32,33,34,35,36,37,38,39,40,41,42,43,44,45,46,47,48,49,50,51,52,53,54,55,56,57,58,59,60,61,62,63,64,65,66,67,68,69,70,71,72,73,74,75,76,77,78,79,80,81,82,83,84,85,86,87,88,89,90,91,92,93,94,95,96,97,98,99,100],"tree_info":[0,0,0,0,0,0,0,0,0,0,0,0,0,0,0,0,0,0,0,0,0,0,0,0,0,0,0,0,0,0,0,0,0,0,0,0,0,0,0,0,0,0,0,0,0,0,0,0,0,0,0,0,0,0,0,0,0,0,0,0,0,0,0,0,0,0,0,0,0,0,0,0,0,0,0,0,0,0,0,0,0,0,0,0,0,0,0,0,0,0,0,0,0,0,0,0,0,0,0,0],"trees":[{"base_weights":[-1.558655E-7,-1.7539058E0,1.8520252E1,-3.5373826E0,3.135977E0,1.4421988E1,3.428424E1,-4.502955E-1,-1.9870912E-1,1.9256654E-1,1.0630304E0,1.2516259E0,2.1645143E0,2.861935E0,4.387237E0],"categories":[],"categories_nodes":[],"categories_segments":[],"categories_sizes":[],"default_left":[0,0,0,0,0,0,0,0,0,0,0,0,0,0,0],"id":0,"left_children":[1,3,5,7,9,11,13,-1,-1,-1,-1,-1,-1,-1,-1],"loss_changes":[5.053995E5,1.2396256E5,8.6463875E4,1.5581453E4,3.4438246E4,1.4458031E4,1.3789844E4,0E0,0E0,0E0,0E0,0E0,0E0,0E0,0E0],"parents":[2147483647,0,0,1,1,2,2,3,3,4,4,5,5,6,6],"right_children":[2,4,6,8,10,12,14,-1,-1,-1,-1,-1,-1,-1,-1],"split_conditions":[4E0,2E0,6E0,1E0,3E0,2E0,7E0,-4.502955E-1,-1.9870912E-1,1.9256654E-1,1.0630304E0,1.2516259E0,2.1645143E0,2.861935E0,4.387237E0],"split_indices":[3,3,3,3,2,2,3,0,0,0,0,0,0,0,0],"split_type":[0,0,0,0,0,0,0,0,0,0,0,0,0,0,0],"sum_hessian":[1.5557E4,1.4212E4,1.345E3,1.0414E4,3.798E3,1.069E3,2.76E2,6.416E3,3.998E3,3.271E3,5.27E2,8.48E2,2.21E2,1.76E2,1E2],"tree_param":{"num_deleted":"0","num_feature":"4","num_nodes":"15","size_leaf_vector":"1"}},{"base_weights":[7.24301E-4,-2.3665807E0,1.1219881E1,-3.1837068E0,1.130845E0,7.3903546E0,2.372808E1,-4.0527296E-1,-1.7884319E-1,1.0225336E-2,7.075763E-1,6.2617296E-1,1.6606387E0,2.0700834E0,3.9528573E0],"categories":[],"categories_nodes":[],"categories_segments":[],"categories_sizes":[],"default_left":[0,0,0,0,0,0,0,0,0,0,0,0,0,0,0],"id":1,"left_children":[1,3,5,7,9,11,13,-1,-1,-1,-1,-1,-1,-1,-1],"loss_changes":[4.1323406E5,3.67211E4,1.29682875E5,1.2621211E4,1.4882926E4,2.1499797E4,2.9555031E4,0E0,0E0,0E0,0E0,0E0,0E0,0E0,0E0],"parents":[2147483647,0,0,1,1,2,2,3,3,4,4,5,5,6,6],"right_children":[2,4,6,8,10,12,14,-1,-1,-1,-1,-1,-1,-1,-1],"split_conditions":[3E0,2E0,5E0,1E0,3E0,3E0,7E0,-4.0527296E-1,-1.7884319E-1,1.0225336E-2,7.075763E-1,6.2617296E-1,1.6606387E0,2.0700834E0,3.9528573E0],"split_indices":[3,3,3,3,2,2,3,0,0,0,0,0,0,0,0],"split_type":[0,0,0,0,0,0,0,0,0,0,0,0,0,0,0],"sum_hessian":[1.5557E4,1.2847E4,2.71E3,1.0414E4,2.433E3,2.076E3,6.34E2,6.416E3,3.998E3,2.075E3,3.58E2,1.851E3,2.25E2,5.34E2,1E2],"tree_param":{"num_deleted":"0","num_feature":"4","num_nodes":"15","size_leaf_vector":"1"}},{"base_weights":[1.1945422E-3,-1.4369707E0,1.51874075E1,-2.8653922E0,2.4794407E0,1.1820149E1,2.8139673E1,-3.6475202E-1,-1.6096336E-1,1.497791E-1,8.557998E-1,1.0865569E0,2.3341317E0,2.6099885E0,4.765676E0],"categories":[],"categories_nodes":[],"categories_segments":[],"categories_sizes":[],"default_left":[0,0,0,0,0,0,0,0,0,0,0,0,0,0,0],"id":2,"left_children":[1,3,5,7,9,11,13,-1,-1,-1,-1,-1,-1,-1,-1],"loss_changes":[3.3981297E5,7.9518695E4,5.8371312E4,1.0223352E4,2.2655865E4,1.1514109E4,9.783719E3,0E0,0E0,0E0,0E0,0E0,0E0,0E0,0E0],"parents":[2147483647,0,0,1,1,2,2,3,3,4,4,5,5,6,6],"right_children":[2,4,6,8,10,12,14,-1,-1,-1,-1,-1,-1,-1,-1],"split_conditions":[4E0,2E0,6E0,1E0,3E0,3E0,8E0,-3.6475202E-1,-1.6096336E-1,1.497791E-1,8.557998E-1,1.0865569E0,2.3341317E0,2.6099885E0,4.765676E0],"split_indices":[3,3,3,3,2,2,3,0,0,0,0,0,0,0,0],"split_type":[0,0,0,0,0,0,0,0,0,0,0,0,0,0,0],"sum_hessian":[1.5557E4,1.4212E4,1.345E3,1.0414E4,3.798E3,1.069E3,2.76E2,6.416E3,3.998E3,3.271E3,5.27E2,9.89E2,8E1,2.52E2,2.4E1],"tree_param":{"num_deleted":"0","num_feature":"4","num_nodes":"15","size_leaf_vector":"1"}},{"base_weights":[1.7998567E-3,-1.9457115E0,9.231465E0,-3.2828248E-1,-6.1141396E-1,6.0909505E0,1.9489134E1,-1.35916E-1,2.9788575E-1,4.5138595E-1,1.092779E0,1.6992962E0,3.2518468E0],"categories":[],"categories_nodes":[],"categories_segments":[],"categories_sizes":[],"default_left":[0,0,0,0,0,0,0,0,0,0,0,0,0],"id":3,"left_children":[1,3,5,-1,7,9,11,-1,-1,-1,-1,-1,-1],"loss_changes":[2.7967112E5,2.2920191E4,8.721441E4,0E0,1.7271467E4,1.57943125E4,2.0099828E4,0E0,0E0,0E0,0E0,0E0,0E0],"parents":[2147483647,0,0,1,1,2,2,4,4,5,5,6,6],"right_children":[2,4,6,-1,8,10,12,-1,-1,-1,-1,-1,-1],"split_conditions":[3E0,1E0,5E0,-3.2828248E-1,3E0,2E0,7E0,-1.35916E-1,2.9788575E-1,4.5138595E-1,1.092779E0,1.6992962E0,3.2518468E0],"split_indices":[3,3,3,0,2,2,3,0,0,0,0,0,0],"split_type":[0,0,0,0,0,0,0,0,0,0,0,0,0],"sum_hessian":[1.5557E4,1.2847E4,2.71E3,6.416E3,6.431E3,2.076E3,6.34E2,5.323E3,1.108E3,1.567E3,5.09E2,5.34E2,1E2],"tree_param":{"num_deleted":"0","num_feature":"4","num_nodes":"13","size_leaf_vector":"1"}},{"base_weights":[2.026668E-3,-1.1769181E0,1.2451016E1,-2.3557348E0,2.0551302E0,9.682928E0,2.3098684E1,-2.9545936E-1,-1.3941866E-1,1.4939456E-1,1.0445403E0,8.194585E-1,1.5331218E0,2.1341255E0,3.9959934E0],"categories":[],"categories_nodes":[],"categories_segments":[],"categories_sizes":[],"default_left":[0,0,0,0,0,0,0,0,0,0,0,0,0,0,0],"id":4,"left_children":[1,3,5,7,9,11,13,-1,-1,-1,-1,-1,-1,-1,-1],"loss_changes":[2.2835431E5,5.415626E4,3.9447938E4,5.993164E3,1.7871959E4,8.869422E3,7.3553906E3,0E0,0E0,0E0,0E0,0E0,0E0,0E0,0E0],"parents":[2147483647,0,0,1,1,2,2,3,3,4,4,5,5,6,6],"right_children":[2,4,6,8,10,12,14,-1,-1,-1,-1,-1,-1,-1,-1],"split_conditions":[4E0,2E0,6E0,1E0,4E0,2E0,8E0,-2.9545936E-1,-1.3941866E-1,1.4939456E-1,1.0445403E0,8.194585E-1,1.5331218E0,2.1341255E0,3.9959934E0],"split_indices":[3,3,3,3,2,2,3,0,0,0,0,0,0,0,0],"split_type":[0,0,0,0,0,0,0,0,0,0,0,0,0,0,0],"sum_hessian":[1.5557E4,1.4212E4,1.345E3,1.0414E4,3.798E3,1.069E3,2.76E2,6.416E3,3.998E3,3.561E3,2.37E2,8.48E2,2.21E2,2.52E2,2.4E1],"tree_param":{"num_deleted":"0","num_feature":"4","num_nodes":"15","size_leaf_vector":"1"}},{"base_weights":[2.4179842E-3,-1.6001495E0,7.597322E0,-2.120203E0,6.257988E-1,5.02219E0,1.6008268E1,-2.6591802E-1,-1.254803E-1,-5.6598645E-2,3.408495E-1,4.182867E-1,1.1877964E0,1.3951715E0,2.6743398E0],"categories":[],"categories_nodes":[],"categories_segments":[],"categories_sizes":[],"default_left":[0,0,0,0,0,0,0,0,0,0,0,0,0,0,0],"id":5,"left_children":[1,3,5,7,9,11,13,-1,-1,-1,-1,-1,-1,-1,-1],"loss_changes":[1.8937397E5,1.4874332E4,5.8637953E4,4.854543E3,8.073989E3,1.1901816E4,1.3646016E4,0E0,0E0,0E0,0E0,0E0,0E0,0E0,0E0],"parents":[2147483647,0,0,1,1,2,2,3,3,4,4,5,5,6,6],"right_children":[2,4,6,8,10,12,14,-1,-1,-1,-1,-1,-1,-1,-1],"split_conditions":[3E0,2E0,5E0,1E0,2E0,3E0,7E0,-2.6591802E-1,-1.254803E-1,-5.6598645E-2,3.408495E-1,4.182867E-1,1.1877964E0,1.3951715E0,2.6743398E0],"split_indices":[3,3,3,3,2,2,3,0,0,0,0,0,0,0,0],"split_type":[0,0,0,0,0,0,0,0,0,0,0,0,0,0,0],"sum_hessian":[1.5557E4,1.2847E4,2.71E3,1.0414E4,2.433E3,2.076E3,6.34E2,6.416E3,3.998E3,1.704E3,7.29E2,1.851E3,2.25E2,5.34E2,1E2],"tree_param":{"num_deleted":"0","num_feature":"4","num_nodes":"15","size_leaf_vector":"1"}},{"base_weights":[2.5340829E-3,-1.440143E0,6.8396835E0,-1.9082204E0,5.633357E-1,4.5207443E0,1.4413851E1,-2.3933034E-1,-1.1293542E-1,8.8483775E-3,6.967658E-1,3.255706E-1,8.401254E-1,1.2559152E0,2.4095535E0],"categories":[],"categories_nodes":[],"categories_segments":[],"categories_sizes":[],"default_left":[0,0,0,0,0,0,0,0,0,0,0,0,0,0,0],"id":6,"left_children":[1,3,5,7,9,11,13,-1,-1,-1,-1,-1,-1,-1,-1],"loss_changes":[1.5347083E5,1.2049715E4,4.7550938E4,3.9322383E3,7.4014326E3,1.0168629E4,1.1099828E4,0E0,0E0,0E0,0E0,0E0,0E0,0E0,0E0],"parents":[2147483647,0,0,1,1,2,2,3,3,4,4,5,5,6,6],"right_children":[2,4,6,8,10,12,14,-1,-1,-1,-1,-1,-1,-1,-1],"split_conditions":[3E0,2E0,5E0,1E0,4E0,2E0,7E0,-2.3933034E-1,-1.1293542E-1,8.8483775E-3,6.967658E-1,3.255706E-1,8.401254E-1,1.2559152E0,2.4095535E0],"split_indices":[3,3,3,3,1,2,3,0,0,0,0,0,0,0,0],"split_type":[0,0,0,0,0,0,0,0,0,0,0,0,0,0,0],"sum_hessian":[1.5557E4,1.2847E4,2.71E3,1.0414E4,2.433E3,2.076E3,6.34E2,6.416E3,3.998E3,2.266E3,1.67E2,1.567E3,5.09E2,5.34E2,1E2],"tree_param":{"num_deleted":"0","num_feature":"4","num_nodes":"15","size_leaf_vector":"1"}},{"base_weights":[2.6138744E-3,-8.7791103E-1,9.300458E0,-1.7174323E0,1.4238766E0,7.2231445E0,1.729116E1,-2.1540105E-1,-1.0164471E-1,9.4663106E-2,8.5605365E-1,6.4915824E-1,1.6075281E0,1.5844153E0,3.1243246E0],"categories":[],"categories_nodes":[],"categories_segments":[],"categories_sizes":[],"default_left":[0,0,0,0,0,0,0,0,0,0,0,0,0,0,0],"id":7,"left_children":[1,3,5,7,9,11,13,-1,-1,-1,-1,-1,-1,-1,-1],"loss_changes":[1.2738125E5,2.746764E4,2.2217617E4,3.185164E3,1.2931063E4,6.8248477E3,5.0972734E3,0E0,0E0,0E0,0E0,0E0,0E0,0E0,0E0],"parents":[2147483647,0,0,1,1,2,2,3,3,4,4,5,5,6,6],"right_children":[2,4,6,8,10,12,14,-1,-1,-1,-1,-1,-1,-1,-1],"split_conditions":[4E0,2E0,6E0,1E0,4E0,3E0,8E0,-2.1540105E-1,-1.0164471E-1,9.4663106E-2,8.5605365E-1,6.4915824E-1,1.6075281E0,1.5844153E0,3.1243246E0],"split_indices":[3,3,3,3,2,2,3,0,0,0,0,0,0,0,0],"split_type":[0,0,0,0,0,0,0,0,0,0,0,0,0,0,0],"sum_hessian":[1.5557E4,1.4212E4,1.345E3,1.0414E4,3.798E3,1.069E3,2.76E2,6.416E3,3.998E3,3.561E3,2.37E2,9.89E2,8E1,2.52E2,2.4E1],"tree_param":{"num_deleted":"0","num_feature":"4","num_nodes":"15","size_leaf_vector":"1"}},{"base_weights":[2.840924E-3,-1.184728E0,5.6309795E0,-1.938643E-1,-4.3238714E-1,3.7332983E0,1.1829173E1,-8.473335E-2,4.1522583E-1,3.0061793E-1,9.44729E-1,1.0306973E0,1.9775193E0],"categories":[],"categories_nodes":[],"categories_segments":[],"categories_sizes":[],"default_left":[0,0,0,0,0,0,0,0,0,0,0,0,0],"id":8,"left_children":[1,3,5,-1,7,9,11,-1,-1,-1,-1,-1,-1],"loss_changes":[1.0399327E5,7.2865586E3,3.1843156E4,0E0,1.2239639E4,8.601016E3,7.4767734E3,0E0,0E0,0E0,0E0,0E0,0E0],"parents":[2147483647,0,0,1,1,2,2,4,4,5,5,6,6],"right_children":[2,4,6,-1,8,10,12,-1,-1,-1,-1,-1,-1],"split_conditions":[3E0,1E0,5E0,-1.938643E-1,4E0,3E0,7E0,-8.473335E-2,4.1522583E-1,3.0061793E-1,9.44729E-1,1.0306973E0,1.9775193E0],"split_indices":[3,3,3,0,2,1,3,0,0,0,0,0,0],"split_type":[0,0,0,0,0,0,0,0,0,0,0,0,0],"sum_hessian":[1.5557E4,1.2847E4,2.71E3,6.416E3,6.431E3,2.076E3,6.34E2,5.898E3,5.33E2,1.843E3,2.33E2,5.34E2,1E2],"tree_param":{"num_deleted":"0","num_feature":"4","num_nodes":"13","size_leaf_vector":"1"}},{"base_weights":[2.8390363E-3,-7.193194E-1,7.6284227E0,-1.4113352E0,1.1780387E0,5.9173985E0,1.4210255E1,-1.6453764E-1,-4.937314E-2,1.1394425E-2,3.8259563E-1,5.2528644E-1,1.3966422E0,1.2954955E0,2.6345475E0],"categories":[],"categories_nodes":[],"categories_segments":[],"categories_sizes":[],"default_left":[0,0,0,0,0,0,0,0,0,0,0,0,0,0,0],"id":9,"left_children":[1,3,5,7,9,11,13,-1,-1,-1,-1,-1,-1,-1,-1],"loss_changes":[8.5681516E4,1.8663355E4,1.5074125E4,2.2358828E3,1.0703756E4,5.6499023E3,3.878332E3,0E0,0E0,0E0,0E0,0E0,0E0,0E0,0E0],"parents":[2147483647,0,0,1,1,2,2,3,3,4,4,5,5,6,6],"right_children":[2,4,6,8,10,12,14,-1,-1,-1,-1,-1,-1,-1,-1],"split_conditions":[4E0,2E0,6E0,3E0,2E0,3E0,8E0,-1.6453764E-1,-4.937314E-2,1.1394425E-2,3.8259563E-1,5.2528644E-1,1.3966422E0,1.2954955E0,2.6345475E0],"split_indices":[3,3,3,2,2,2,3,0,0,0,0,0,0,0,0],"split_type":[0,0,0,0,0,0,0,0,0,0,0,0,0,0,0],"sum_hessian":[1.5557E4,1.4212E4,1.345E3,1.0414E4,3.798E3,1.069E3,2.76E2,8.297E3,2.117E3,2.71E3,1.088E3,9.89E2,8E1,2.52E2,2.4E1],"tree_param":{"num_deleted":"0","num_feature":"4","num_nodes":"15","size_leaf_vector":"1"}},{"base_weights":[2.9428375E-3,-9.7507375E-1,4.6379685E0,-1.6048301E0,-3.4663442E-1,3.0856092E0,9.708223E0,-1.5802303E-1,-1.6944681E-1,-1.21144705E-1,1.4166522E-1,2.6795435E-1,1.212582E0,9.115081E-1,2.3816307E0],"categories":[],"categories_nodes":[],"categories_segments":[],"categories_sizes":[],"default_left":[0,0,0,0,0,0,0,0,0,0,0,0,0,0,0],"id":10,"left_children":[1,3,5,7,9,11,13,-1,-1,-1,-1,-1,-1,-1,-1],"loss_changes":[7.053099E4,5.084217E3,2.1307934E4,1.1470703E1,9.809953E3,7.592002E3,5.096668E3,0E0,0E0,0E0,0E0,0E0,0E0,0E0,0E0],"parents":[2147483647,0,0,1,1,2,2,3,3,4,4,5,5,6,6],"right_children":[2,4,6,8,10,12,14,-1,-1,-1,-1,-1,-1,-1,-1],"split_conditions":[3E0,1E0,5E0,3E0,2E0,4E0,8E0,-1.5802303E-1,-1.6944681E-1,-1.21144705E-1,1.4166522E-1,2.6795435E-1,1.212582E0,9.115081E-1,2.3816307E0],"split_indices":[3,3,3,2,2,2,3,0,0,0,0,0,0,0,0],"split_type":[0,0,0,0,0,0,0,0,0,0,0,0,0,0,0],"sum_hessian":[1.5557E4,1.2847E4,2.71E3,6.416E3,6.431E3,2.076E3,6.34E2,5.049E3,1.367E3,4.315E3,2.116E3,1.988E3,8.8E1,6.1E2,2.4E1],"tree_param":{"num_deleted":"0","num_feature":"4","num_nodes":"15","size_leaf_vector":"1"}},{"base_weights":[2.9356466E-3,-5.896399E-1,6.2601967E0,-1.1598706E0,9.738091E-1,4.82854E0,1.1767823E1,-1.3574642E-1,-3.8518187E-2,2.9255748E-2,5.240516E-1,3.73603E-1,8.9849013E-1,1.0756674E0,2.1529944E0],"categories":[],"categories_nodes":[],"categories_segments":[],"categories_sizes":[],"default_left":[0,0,0,0,0,0,0,0,0,0,0,0,0,0,0],"id":11,"left_children":[1,3,5,7,9,11,13,-1,-1,-1,-1,-1,-1,-1,-1],"loss_changes":[5.76912E4,1.2672398E4,1.0556426E4,1.5937373E3,1.1041025E4,4.82516E3,2.502668E3,0E0,0E0,0E0,0E0,0E0,0E0,0E0,0E0],"parents":[2147483647,0,0,1,1,2,2,3,3,4,4,5,5,6,6],"right_children":[2,4,6,8,10,12,14,-1,-1,-1,-1,-1,-1,-1,-1],"split_conditions":[4E0,2E0,6E0,3E0,3E0,2E0,8E0,-1.3574642E-1,-3.8518187E-2,2.9255748E-2,5.240516E-1,3.73603E-1,8.9849013E-1,1.0756674E0,2.1529944E0],"split_indices":[3,3,3,2,1,2,3,0,0,0,0,0,0,0,0],"split_type":[0,0,0,0,0,0,0,0,0,0,0,0,0,0,0],"sum_hessian":[1.5557E4,1.4212E4,1.345E3,1.0414E4,3.798E3,1.069E3,2.76E2,8.297E3,2.117E3,3.276E3,5.22E2,8.48E2,2.21E2,2.52E2,2.4E1],"tree_param":{"num_deleted":"0","num_feature":"4","num_nodes":"15","size_leaf_vector":"1"}},{"base_weights":[2.9557252E-3,-8.028697E-1,3.821931E0,-9.7985834E-1,7.891387E-1,2.5534277E0,7.9650164E0,-1.4298432E-1,-2.0925134E-2,-1.3036825E-1,3.6551973E-1,1.9180314E-1,7.549655E-1,6.7548203E-1,1.4009293E0],"categories":[],"categories_nodes":[],"categories_segments":[],"categories_sizes":[],"default_left":[0,0,0,0,0,0,0,0,0,0,0,0,0,0,0],"id":12,"left_children":[1,3,5,7,9,11,13,-1,-1,-1,-1,-1,-1,-1,-1],"loss_changes":[4.788168E4,3.620921E3,1.4227367E4,4.0093027E3,7.7183833E3,6.57913E3,4.550246E3,0E0,0E0,0E0,0E0,0E0,0E0,0E0,0E0],"parents":[2147483647,0,0,1,1,2,2,3,3,4,4,5,5,6,6],"right_children":[2,4,6,8,10,12,14,-1,-1,-1,-1,-1,-1,-1,-1],"split_conditions":[3E0,4E0,5E0,2E0,1E0,3E0,2E0,-1.4298432E-1,-2.0925134E-2,-1.3036825E-1,3.6551973E-1,1.9180314E-1,7.549655E-1,6.7548203E-1,1.4009293E0],"split_indices":[3,1,3,2,3,1,2,0,0,0,0,0,0,0,0],"split_type":[0,0,0,0,0,0,0,0,0,0,0,0,0,0,0],"sum_hessian":[1.5557E4,1.2847E4,2.71E3,1.1562E4,1.285E3,2.076E3,6.34E2,7.299E3,4.263E3,7.43E2,5.42E2,1.843E3,2.33E2,5.3E2,1.04E2],"tree_param":{"num_deleted":"0","num_feature":"4","num_nodes":"15","size_leaf_vector":"1"}},{"base_weights":[2.8590853E-3,-7.2257715E-1,3.440853E0,-1.2304153E0,-2.158109E-1,2.7111204E0,9.843228E0,-1.1679184E-1,-1.4602251E-1,-5.555281E-2,3.5373873E-1,1.7096539E-1,5.903908E-1,9.311926E-1,2.6544297E0],"categories":[],"categories_nodes":[],"categories_segments":[],"categories_sizes":[],"default_left":[0,0,0,0,0,0,0,0,0,0,0,0,0,0,0],"id":13,"left_children":[1,3,5,7,9,11,13,-1,-1,-1,-1,-1,-1,-1,-1],"loss_changes":[3.880484E4,3.3062354E3,1.2639166E4,9.0458984E1,8.202932E3,7.775748E3,2.2107324E3,0E0,0E0,0E0,0E0,0E0,0E0,0E0,0E0],"parents":[2147483647,0,0,1,1,2,2,3,3,4,4,5,5,6,6],"right_children":[2,4,6,8,10,12,14,-1,-1,-1,-1,-1,-1,-1,-1],"split_conditions":[3E0,1E0,6E0,3E0,4E0,2E0,9E0,-1.1679184E-1,-1.4602251E-1,-5.555281E-2,3.5373873E-1,1.7096539E-1,5.903908E-1,9.311926E-1,2.6544297E0],"split_indices":[3,3,3,2,2,2,3,0,0,0,0,0,0,0,0],"split_type":[0,0,0,0,0,0,0,0,0,0,0,0,0,0,0],"sum_hessian":[1.5557E4,1.2847E4,2.71E3,6.416E3,6.431E3,2.434E3,2.76E2,5.049E3,1.367E3,5.898E3,5.33E2,1.854E3,5.8E2,2.69E2,7E0],"tree_param":{"num_deleted":"0","num_feature":"4","num_nodes":"15","size_leaf_vector":"1"}},{"base_weights":[2.8548571E-3,-4.44719E-1,4.7289796E0,-8.7906384E-1,7.4615926E-1,3.6520603E0,8.87185E0,-1.0570083E-1,-1.937177E-2,3.6516916E-2,6.4707226E-1,3.1374523E-1,9.896628E-1,7.763893E-1,1.6562134E0],"categories":[],"categories_nodes":[],"categories_segments":[],"categories_sizes":[],"default_left":[0,0,0,0,0,0,0,0,0,0,0,0,0,0,0],"id":14,"left_children":[1,3,5,7,9,11,13,-1,-1,-1,-1,-1,-1,-1,-1],"loss_changes":[3.2911785E4,7.3523564E3,5.972828E3,1.2699409E3,8.283262E3,3.4074004E3,2.2315938E3,0E0,0E0,0E0,0E0,0E0,0E0,0E0,0E0],"parents":[2147483647,0,0,1,1,2,2,3,3,4,4,5,5,6,6],"right_children":[2,4,6,8,10,12,14,-1,-1,-1,-1,-1,-1,-1,-1],"split_conditions":[4E0,2E0,6E0,3E0,4E0,3E0,2E0,-1.0570083E-1,-1.937177E-2,3.6516916E-2,6.4707226E-1,3.1374523E-1,9.896628E-1,7.763893E-1,1.6562134E0],"split_indices":[3,3,3,1,1,2,2,0,0,0,0,0,0,0,0],"split_type":[0,0,0,0,0,0,0,0,0,0,0,0,0,0,0],"sum_hessian":[1.5557E4,1.4212E4,1.345E3,1.0414E4,3.798E3,1.069E3,2.76E2,8.267E3,2.147E3,3.562E3,2.36E2,9.89E2,8E1,2.43E2,3.3E1],"tree_param":{"num_deleted":"0","num_feature":"4","num_nodes":"15","size_leaf_vector":"1"}},{"base_weights":[2.8453209E-3,-4.0020785E-1,4.2588573E0,-7.9116946E-1,6.7172307E-1,3.7059665E0,1.10375E1,-9.006836E-2,1.1941526E-2,4.464139E-2,9.176036E-1,2.8470948E-1,7.1681756E-1,9.8558396E-1,2.3542328E0],"categories":[],"categories_nodes":[],"categories_segments":[],"categories_sizes":[],"default_left":[0,0,0,0,0,0,0,0,0,0,0,0,0,0,0],"id":15,"left_children":[1,3,5,7,9,11,13,-1,-1,-1,-1,-1,-1,-1,-1],"loss_changes":[2.6689883E4,5.95697E3,5.003701E3,1.0387114E3,7.2751655E3,3.6846895E3,1.2603936E3,0E0,0E0,0E0,0E0,0E0,0E0,0E0,0E0],"parents":[2147483647,0,0,1,1,2,2,3,3,4,4,5,5,6,6],"right_children":[2,4,6,8,10,12,14,-1,-1,-1,-1,-1,-1,-1,-1],"split_conditions":[4E0,2E0,7E0,4E0,5E0,2E0,9E0,-9.006836E-2,1.1941526E-2,4.464139E-2,9.176036E-1,2.8470948E-1,7.1681756E-1,9.8558396E-1,2.3542328E0],"split_indices":[3,3,3,1,2,2,3,0,0,0,0,0,0,0,0],"split_type":[0,0,0,0,0,0,0,0,0,0,0,0,0,0,0],"sum_hessian":[1.5557E4,1.4212E4,1.345E3,1.0414E4,3.798E3,1.245E3,1E2,9.296E3,1.118E3,3.701E3,9.7E1,9.99E2,2.46E2,9.3E1,7E0],"tree_param":{"num_deleted":"0","num_feature":"4","num_nodes":"15","size_leaf_vector":"1"}},{"base_weights":[2.8965871E-3,-5.4299915E-1,2.5900104E0,-7.6321435E-1,3.6656126E-1,1.6856084E0,5.5441093E0,-1.1772134E-1,-8.446252E-3,-1.0165524E-1,2.1113503E-1,1.3457E-1,9.2630476E-1,5.034428E-1,1.4991091E0],"categories":[],"categories_nodes":[],"categories_segments":[],"categories_sizes":[],"default_left":[0,0,0,0,0,0,0,0,0,0,0,0,0,0,0],"id":16,"left_children":[1,3,5,7,9,11,13,-1,-1,-1,-1,-1,-1,-1,-1],"loss_changes":[2.197388E4,2.5737217E3,7.233617E3,2.9065918E3,6.0473154E3,5.337129E3,2.9820215E3,0E0,0E0,0E0,0E0,0E0,0E0,0E0,0E0],"parents":[2147483647,0,0,1,1,2,2,3,3,4,4,5,5,6,6],"right_children":[2,4,6,8,10,12,14,-1,-1,-1,-1,-1,-1,-1,-1],"split_conditions":[3E0,3E0,5E0,2E0,1E0,4E0,3E0,-1.1772134E-1,-8.446252E-3,-1.0165524E-1,2.1113503E-1,1.3457E-1,9.2630476E-1,5.034428E-1,1.4991091E0],"split_indices":[3,1,3,2,3,2,2,0,0,0,0,0,0,0,0],"split_type":[0,0,0,0,0,0,0,0,0,0,0,0,0,0,0],"sum_hessian":[1.5557E4,1.2847E4,2.71E3,1.0343E4,2.504E3,2.076E3,6.34E2,6.424E3,3.919E3,1.397E3,1.107E3,1.988E3,8.8E1,6.03E2,3.1E1],"tree_param":{"num_deleted":"0","num_feature":"4","num_nodes":"15","size_leaf_vector":"1"}},{"base_weights":[2.8027943E-3,-3.2786432E-1,3.4944587E0,-6.5427524E-1,5.6708115E-1,2.6208668E0,6.8563676E0,-7.975712E-2,-9.255503E-3,4.724202E-3,3.8231918E-1,2.0892754E-1,8.5292023E-1,6.042751E-1,1.4815916E0],"categories":[],"categories_nodes":[],"categories_segments":[],"categories_sizes":[],"default_left":[0,0,0,0,0,0,0,0,0,0,0,0,0,0,0],"id":17,"left_children":[1,3,5,7,9,11,13,-1,-1,-1,-1,-1,-1,-1,-1],"loss_changes":[1.7964033E4,4.1522725E3,3.9351465E3,8.3825244E2,6.430211E3,3.3428584E3,1.7043291E3,0E0,0E0,0E0,0E0,0E0,0E0,0E0,0E0],"parents":[2147483647,0,0,1,1,2,2,3,3,4,4,5,5,6,6],"right_children":[2,4,6,8,10,12,14,-1,-1,-1,-1,-1,-1,-1,-1],"split_conditions":[4E0,2E0,6E0,3E0,3E0,3E0,8E0,-7.975712E-2,-9.255503E-3,4.724202E-3,3.8231918E-1,2.0892754E-1,8.5292023E-1,6.042751E-1,1.4815916E0],"split_indices":[3,3,3,2,1,1,3,0,0,0,0,0,0,0,0],"split_type":[0,0,0,0,0,0,0,0,0,0,0,0,0,0,0],"sum_hessian":[1.5557E4,1.4212E4,1.345E3,1.0414E4,3.798E3,1.069E3,2.76E2,8.297E3,2.117E3,3.276E3,5.22E2,9.82E2,8.7E1,2.52E2,2.4E1],"tree_param":{"num_deleted":"0","num_feature":"4","num_nodes":"15","size_leaf_vector":"1"}},{"base_weights":[2.7440246E-3,-4.4705638E-1,2.1344419E0,-7.3556566E-1,8.286762E-2,1.3607152E0,4.774742E0,-8.650191E-2,1.2359325E-1,-1.0002734E-1,1.3179265E-1,1.0360388E-1,8.593096E-1,3.8584068E-1,9.1800386E-1],"categories":[],"categories_nodes":[],"categories_segments":[],"categories_sizes":[],"default_left":[0,0,0,0,0,0,0,0,0,0,0,0,0,0,0],"id":18,"left_children":[1,3,5,7,9,11,13,-1,-1,-1,-1,-1,-1,-1,-1],"loss_changes":[1.4918565E4,1.9643665E3,5.5317246E3,2.1242207E3,6.061293E3,4.917587E3,2.443129E3,0E0,0E0,0E0,0E0,0E0,0E0,0E0,0E0],"parents":[2147483647,0,0,1,1,2,2,3,3,4,4,5,5,6,6],"right_children":[2,4,6,8,10,12,14,-1,-1,-1,-1,-1,-1,-1,-1],"split_conditions":[3E0,2E0,2E0,5E0,1E0,4E0,5E0,-8.650191E-2,1.2359325E-1,-1.0002734E-1,1.3179265E-1,1.0360388E-1,8.593096E-1,3.8584068E-1,9.1800386E-1],"split_indices":[3,2,2,1,3,1,3,0,0,0,0,0,0,0,0],"split_type":[0,0,0,0,0,0,0,0,0,0,0,0,0,0,0],"sum_hessian":[1.5557E4,1.2847E4,2.71E3,8.318E3,4.529E3,2.097E3,6.13E2,7.806E3,5.12E2,2.413E3,2.116E3,2.008E3,8.9E1,5.09E2,1.04E2],"tree_param":{"num_deleted":"0","num_feature":"4","num_nodes":"15","size_leaf_vector":"1"}},{"base_weights":[2.6197217E-3,-2.751217E-1,2.9354105E0,-5.373171E-1,4.4376224E-1,2.4832363E0,8.484652E0,-5.955347E-2,5.5613846E-2,2.4871053E-2,7.807412E-1,2.0757465E-1,7.5129145E-1,7.4437374E-1,1.9654816E0],"categories":[],"categories_nodes":[],"categories_segments":[],"categories_sizes":[],"default_left":[0,0,0,0,0,0,0,0,0,0,0,0,0,0,0],"id":19,"left_children":[1,3,5,7,9,11,13,-1,-1,-1,-1,-1,-1,-1,-1],"loss_changes":[1.2673692E4,2.6792192E3,3.3563447E3,6.63333E2,5.454533E3,2.5381357E3,1.02804E3,0E0,0E0,0E0,0E0,0E0,0E0,0E0,0E0],"parents":[2147483647,0,0,1,1,2,2,3,3,4,4,5,5,6,6],"right_children":[2,4,6,8,10,12,14,-1,-1,-1,-1,-1,-1,-1,-1],"split_conditions":[4E0,2E0,7E0,5E0,5E0,3E0,9E0,-5.955347E-2,5.5613846E-2,2.4871053E-2,7.807412E-1,2.0757465E-1,7.5129145E-1,7.4437374E-1,1.9654816E0],"split_indices":[3,3,3,2,2,1,3,0,0,0,0,0,0,0,0],"split_type":[0,0,0,0,0,0,0,0,0,0,0,0,0,0,0],"sum_hessian":[1.5557E4,1.4212E4,1.345E3,1.0414E4,3.798E3,1.245E3,1E2,9.888E3,5.26E2,3.701E3,9.7E1,1.153E3,9.2E1,9.3E1,7E0],"tree_param":{"num_deleted":"0","num_feature":"4","num_nodes":"15","size_leaf_vector":"1"}},{"base_weights":[2.6450965E-3,-1.6707328E-1,3.9914236E0,-3.6761704E-1,1.0735399E0,3.5529556E0,1.2142772E1,-5.555203E-2,4.084463E-2,7.798666E-2,7.6245797E-1,3.1738952E-1,1.2205045E0,9.9491787E-1,1.7479903E0],"categories":[],"categories_nodes":[],"categories_segments":[],"categories_sizes":[],"default_left":[0,0,0,0,0,0,0,0,0,0,0,0,0,0,0],"id":20,"left_children":[1,3,5,7,9,11,13,-1,-1,-1,-1,-1,-1,-1,-1],"loss_changes":[1.053295E4,3.7134446E3,2.226413E3,1.8737842E3,3.9899216E3,1.9421812E3,2.0072852E2,0E0,0E0,0E0,0E0,0E0,0E0,0E0,0E0],"parents":[2147483647,0,0,1,1,2,2,3,3,4,4,5,5,6,6],"right_children":[2,4,6,8,10,12,14,-1,-1,-1,-1,-1,-1,-1,-1],"split_conditions":[5E0,3E0,3E0,3E0,4E0,8E0,6E0,-5.555203E-2,4.084463E-2,7.798666E-2,7.6245797E-1,3.1738952E-1,1.2205045E0,9.9491787E-1,1.7479903E0],"split_indices":[3,3,2,1,2,3,3,0,0,0,0,0,0,0,0],"split_type":[0,0,0,0,0,0,0,0,0,0,0,0,0,0,0],"sum_hessian":[1.5557E4,1.4923E4,6.34E2,1.2847E4,2.076E3,6.03E2,3.1E1,1.0343E4,2.504E3,1.988E3,8.8E1,5.79E2,2.4E1,2.4E1,7E0],"tree_param":{"num_deleted":"0","num_feature":"4","num_nodes":"15","size_leaf_vector":"1"}},{"base_weights":[2.7087783E-3,-1.5031062E-1,3.5990217E0,-4.479108E-1,5.369746E-1,2.8305383E0,7.451076E0,-5.296014E-2,2.3875335E-2,8.191564E-3,3.5543928E-1,2.4480633E-1,1.0808315E0,6.637689E-1,1.6483685E0],"categories":[],"categories_nodes":[],"categories_segments":[],"categories_sizes":[],"default_left":[0,0,0,0,0,0,0,0,0,0,0,0,0,0,0],"id":21,"left_children":[1,3,5,7,9,11,13,-1,-1,-1,-1,-1,-1,-1,-1],"loss_changes":[8.562196E3,3.0527388E3,1.8586611E3,5.843452E2,6.192404E3,1.5937803E3,6.6202295E2,0E0,0E0,0E0,0E0,0E0,0E0,0E0,0E0],"parents":[2147483647,0,0,1,1,2,2,3,3,4,4,5,5,6,6],"right_children":[2,4,6,8,10,12,14,-1,-1,-1,-1,-1,-1,-1,-1],"split_conditions":[5E0,2E0,2E0,4E0,3E0,8E0,4E0,-5.296014E-2,2.3875335E-2,8.191564E-3,3.5543928E-1,2.4480633E-1,1.0808315E0,6.637689E-1,1.6483685E0],"split_indices":[3,3,2,2,1,3,2,0,0,0,0,0,0,0,0],"split_type":[0,0,0,0,0,0,0,0,0,0,0,0,0,0,0],"sum_hessian":[1.5557E4,1.4923E4,6.34E2,1.0414E4,4.509E3,5.3E2,1.04E2,9.307E3,1.107E3,3.919E3,5.9E2,5.07E2,2.3E1,9.7E1,7E0],"tree_param":{"num_deleted":"0","num_feature":"4","num_nodes":"15","size_leaf_vector":"1"}},{"base_weights":[2.6932685E-3,-2.073061E-1,2.220166E0,-7.3571295E-1,1.4040768E-1,1.5666558E0,4.736541E0,-9.5283546E-2,7.8088574E-2,-6.5405056E-2,8.443094E-2,1.1539338E-1,6.159145E-1,3.932335E-1,1.036859E0],"categories":[],"categories_nodes":[],"categories_segments":[],"categories_sizes":[],"default_left":[0,0,0,0,0,0,0,0,0,0,0,0,0,0,0],"id":22,"left_children":[1,3,5,7,9,11,13,-1,-1,-1,-1,-1,-1,-1,-1],"loss_changes":[7.2453213E3,2.6115195E3,2.2060454E3,1.8582561E3,4.79475E3,2.0209937E3,1.2138511E3,0E0,0E0,0E0,0E0,0E0,0E0,0E0,0E0],"parents":[2147483647,0,0,1,1,2,2,3,3,4,4,5,5,6,6],"right_children":[2,4,6,8,10,12,14,-1,-1,-1,-1,-1,-1,-1,-1],"split_conditions":[4E0,1E0,6E0,4E0,1E0,3E0,2E0,-9.5283546E-2,7.8088574E-2,-6.5405056E-2,8.443094E-2,1.1539338E-1,6.159145E-1,3.932335E-1,1.036859E0],"split_indices":[3,2,3,0,3,1,2,0,0,0,0,0,0,0,0],"split_type":[0,0,0,0,0,0,0,0,0,0,0,0,0,0,0],"sum_hessian":[1.5557E4,1.4212E4,1.345E3,5.64E3,8.572E3,1.069E3,2.76E2,4.934E3,7.06E2,4.027E3,4.545E3,9.82E2,8.7E1,2.43E2,3.3E1],"tree_param":{"num_deleted":"0","num_feature":"4","num_nodes":"15","size_leaf_vector":"1"}},{"base_weights":[2.5629771E-3,-2.8207982E-1,1.3515441E0,-5.4364973E-1,1.9361591E-1,6.938751E-1,3.5965576E0,-7.1046226E-2,6.594248E-2,-5.713717E-2,1.07475854E-1,4.1342698E-2,6.94639E-1,2.865605E-1,7.5108075E-1],"categories":[],"categories_nodes":[],"categories_segments":[],"categories_sizes":[],"default_left":[0,0,0,0,0,0,0,0,0,0,0,0,0,0,0],"id":23,"left_children":[1,3,5,7,9,11,13,-1,-1,-1,-1,-1,-1,-1,-1],"loss_changes":[5.9743076E3,1.5987527E3,4.000231E3,1.6641707E3,3.0736682E3,3.6759832E3,1.7352119E3,0E0,0E0,0E0,0E0,0E0,0E0,0E0,0E0],"parents":[2147483647,0,0,1,1,2,2,3,3,4,4,5,5,6,6],"right_children":[2,4,6,8,10,12,14,-1,-1,-1,-1,-1,-1,-1,-1],"split_conditions":[3E0,2E0,2E0,4E0,1E0,4E0,4E0,-7.1046226E-2,6.594248E-2,-5.713717E-2,1.07475854E-1,4.1342698E-2,6.94639E-1,2.865605E-1,7.5108075E-1],"split_indices":[3,1,2,2,3,1,2,0,0,0,0,0,0,0,0],"split_type":[0,0,0,0,0,0,0,0,0,0,0,0,0,0,0],"sum_hessian":[1.5557E4,1.2847E4,2.71E3,8.289E3,4.558E3,2.097E3,6.13E2,7.28E3,1.009E3,2.44E3,2.118E3,2.008E3,8.9E1,5.18E2,9.5E1],"tree_param":{"num_deleted":"0","num_feature":"4","num_nodes":"15","size_leaf_vector":"1"}},{"base_weights":[2.4236268E-3,-1.1953547E-1,2.8687465E0,-4.0988606E-1,4.438575E-1,2.5146205E0,9.463226E0,-5.8949888E-2,1.0295274E-1,-5.1425792E-2,1.3309273E-1,1.8158811E-1,6.018109E-1,7.5791645E-1,1.4168015E0],"categories":[],"categories_nodes":[],"categories_segments":[],"categories_sizes":[],"default_left":[0,0,0,0,0,0,0,0,0,0,0,0,0,0,0],"id":24,"left_children":[1,3,5,7,9,11,13,-1,-1,-1,-1,-1,-1,-1,-1],"loss_changes":[5.4390176E3,2.4414722E3,1.4591045E3,2.5469385E3,4.314854E3,1.467679E3,1.7626978E2,0E0,0E0,0E0,0E0,0E0,0E0,0E0,0E0],"parents":[2147483647,0,0,1,1,2,2,3,3,4,4,5,5,6,6],"right_children":[2,4,6,8,10,12,14,-1,-1,-1,-1,-1,-1,-1,-1],"split_conditions":[5E0,2E0,3E0,4E0,1E0,7E0,4E0,-5.8949888E-2,1.0295274E-1,-5.1425792E-2,1.3309273E-1,1.8158811E-1,6.018109E-1,7.5791645E-1,1.4168015E0],"split_indices":[3,1,2,0,3,3,2,0,0,0,0,0,0,0,0],"split_type":[0,0,0,0,0,0,0,0,0,0,0,0,0,0,0],"sum_hessian":[1.5557E4,1.4923E4,6.34E2,9.848E3,5.075E3,6.03E2,3.1E1,8.756E3,1.092E3,2.44E3,2.635E3,5.04E2,9.9E1,2.4E1,7E0],"tree_param":{"num_deleted":"0","num_feature":"4","num_nodes":"15","size_leaf_vector":"1"}},{"base_weights":[2.379474E-3,-1.6440697E-1,1.7635485E0,-4.5113719E-1,3.8251948E-1,7.137222E-1,2.99539E0,-6.3049264E-2,9.186926E-2,-6.415255E-2,1.3807675E-1,5.8004588E-2,1.4399523E0,2.4193953E-1,6.443503E-1],"categories":[],"categories_nodes":[],"categories_segments":[],"categories_sizes":[],"default_left":[0,0,0,0,0,0,0,0,0,0,0,0,0,0,0],"id":25,"left_children":[1,3,5,7,9,11,13,-1,-1,-1,-1,-1,-1,-1,-1],"loss_changes":[4.570283E3,2.22906E3,1.7385356E3,2.2916055E3,4.9986704E3,1.3235001E3,1.2138037E3,0E0,0E0,0E0,0E0,0E0,0E0,0E0,0E0],"parents":[2147483647,0,0,1,1,2,2,3,3,4,4,5,5,6,6],"right_children":[2,4,6,8,10,12,14,-1,-1,-1,-1,-1,-1,-1,-1],"split_conditions":[4E0,2E0,1E0,4E0,1E0,9E0,2E0,-6.3049264E-2,9.186926E-2,-6.415255E-2,1.3807675E-1,5.8004588E-2,1.4399523E0,2.4193953E-1,6.443503E-1],"split_indices":[3,2,2,0,3,3,1,0,0,0,0,0,0,0,0],"split_type":[0,0,0,0,0,0,0,0,0,0,0,0,0,0,0],"sum_hessian":[1.5557E4,1.4212E4,1.345E3,9.324E3,4.888E3,7.27E2,6.18E2,8.245E3,1.079E3,2.413E3,2.475E3,7.21E2,6E0,5.31E2,8.7E1],"tree_param":{"num_deleted":"0","num_feature":"4","num_nodes":"15","size_leaf_vector":"1"}},{"base_weights":[2.301389E-3,-1.00584105E-1,2.4203498E0,-2.237858E-1,1.1126139E0,2.1028297E0,8.337909E0,-7.5876854E-2,1.1780215E-2,-5.556155E-2,3.071619E-1,1.48122E-1,5.22093E-1,6.489084E-1,1.3073249E0],"categories":[],"categories_nodes":[],"categories_segments":[],"categories_sizes":[],"default_left":[0,0,0,0,0,0,0,0,0,0,0,0,0,0,0],"id":26,"left_children":[1,3,5,7,9,11,13,-1,-1,-1,-1,-1,-1,-1,-1],"loss_changes":[3.8707954E3,2.2309104E3,1.1755969E3,2.476083E3,4.4985703E3,1.1629646E3,1.953208E2,0E0,0E0,0E0,0E0,0E0,0E0,0E0,0E0],"parents":[2147483647,0,0,1,1,2,2,3,3,4,4,5,5,6,6],"right_children":[2,4,6,8,10,12,14,-1,-1,-1,-1,-1,-1,-1,-1],"split_conditions":[5E0,4E0,3E0,1E0,1E0,7E0,6E0,-7.5876854E-2,1.1780215E-2,-5.556155E-2,3.071619E-1,1.48122E-1,5.22093E-1,6.489084E-1,1.3073249E0],"split_indices":[3,1,2,2,3,3,3,0,0,0,0,0,0,0,0],"split_type":[0,0,0,0,0,0,0,0,0,0,0,0,0,0,0],"sum_hessian":[1.5557E4,1.4923E4,6.34E2,1.3548E4,1.375E3,6.03E2,3.1E1,5.279E3,8.269E3,7.43E2,6.32E2,5.04E2,9.9E1,2.4E1,7E0],"tree_param":{"num_deleted":"0","num_feature":"4","num_nodes":"15","size_leaf_vector":"1"}},{"base_weights":[2.2521277E-3,-2.1347138E-1,1.0246105E0,-2.8175724E-1,1.1429479E0,6.828756E-1,4.285056E0,-4.4775892E-2,3.806042E-2,-5.717982E-2,3.795373E-1,5.549352E-3,2.679288E-1,3.5075572E-1,9.642234E-1],"categories":[],"categories_nodes":[],"categories_segments":[],"categories_sizes":[],"default_left":[0,0,0,0,0,0,0,0,0,0,0,0,0,0,0],"id":27,"left_children":[1,3,5,7,9,11,13,-1,-1,-1,-1,-1,-1,-1,-1],"loss_changes":[3.431485E3,1.1903584E3,3.0176914E3,1.345227E3,2.8038833E3,3.074772E3,1.0366357E3,0E0,0E0,0E0,0E0,0E0,0E0,0E0,0E0],"parents":[2147483647,0,0,1,1,2,2,3,3,4,4,5,5,6,6],"right_children":[2,4,6,8,10,12,14,-1,-1,-1,-1,-1,-1,-1,-1],"split_conditions":[3E0,5E0,3E0,3E0,1E0,2E0,5E0,-4.4775892E-2,3.806042E-2,-5.717982E-2,3.795373E-1,5.549352E-3,2.679288E-1,3.5075572E-1,9.642234E-1],"split_indices":[3,1,2,0,3,1,2,0,0,0,0,0,0,0,0],"split_type":[0,0,0,0,0,0,0,0,0,0,0,0,0,0,0],"sum_hessian":[1.5557E4,1.2847E4,2.71E3,1.2232E4,6.15E2,2.454E3,2.56E2,9.781E3,2.451E3,3.74E2,2.41E2,1.868E3,5.86E2,2.25E2,3.1E1],"tree_param":{"num_deleted":"0","num_feature":"4","num_nodes":"15","size_leaf_vector":"1"}},{"base_weights":[2.149321E-3,-5.8040947E-2,3.3228192E0,-4.9994287E-1,2.4335948E-1,3.0106666E0,1.3442615E0,-7.463177E-2,3.735734E-2,-1.6044872E-2,1.2330802E-1,2.2994979E-1,7.879383E-1],"categories":[],"categories_nodes":[],"categories_segments":[],"categories_sizes":[],"default_left":[0,0,0,0,0,0,0,0,0,0,0,0,0],"id":28,"left_children":[1,3,5,7,9,11,-1,-1,-1,-1,-1,-1,-1],"loss_changes":[3.1098015E3,2.0355223E3,8.345498E2,1.3339508E3,3.6314846E3,9.16751E2,0E0,0E0,0E0,0E0,0E0,0E0,0E0],"parents":[2147483647,0,0,1,1,2,2,3,3,4,4,5,5],"right_children":[2,4,6,8,10,12,-1,-1,-1,-1,-1,-1,-1],"split_conditions":[6E0,1E0,9E0,3E0,2E0,2E0,1.3442615E0,-7.463177E-2,3.735734E-2,-1.6044872E-2,1.2330802E-1,2.2994979E-1,7.879383E-1],"split_indices":[3,2,3,0,3,2,0,0,0,0,0,0,0],"split_type":[0,0,0,0,0,0,0,0,0,0,0,0,0],"sum_hessian":[1.5557E4,1.5281E4,2.76E2,6.196E3,9.085E3,2.69E2,7E0,4.833E3,1.363E3,6.453E3,2.632E3,2.36E2,3.3E1],"tree_param":{"num_deleted":"0","num_feature":"4","num_nodes":"13","size_leaf_vector":"1"}},{"base_weights":[2.0907002E-3,-1.2297887E-1,1.3227532E0,-1.9515927E-1,1.449224E0,1.182369E0,8.404477E0,-4.812862E-2,3.2588407E-2,-8.47615E-2,4.689355E-1,9.048925E-2,4.794696E-1,6.662147E-1,1.1491953E0],"categories":[],"categories_nodes":[],"categories_segments":[],"categories_sizes":[],"default_left":[0,0,0,0,0,0,0,0,0,0,0,0,0,0,0],"id":29,"left_children":[1,3,5,7,9,11,13,-1,-1,-1,-1,-1,-1,-1,-1],"loss_changes":[2.5699504E3,1.6132058E3,1.3282056E3,2.0262156E3,4.6478193E3,1.3197468E3,6.3303467E1,0E0,0E0,0E0,0E0,0E0,0E0,0E0,0E0],"parents":[2147483647,0,0,1,1,2,2,3,3,4,4,5,5,6,6],"right_children":[2,4,6,8,10,12,14,-1,-1,-1,-1,-1,-1,-1,-1],"split_conditions":[4E0,5E0,4E0,2E0,1E0,3E0,5E0,-4.812862E-2,3.2588407E-2,-8.47615E-2,4.689355E-1,9.048925E-2,4.794696E-1,6.662147E-1,1.1491953E0],"split_indices":[3,2,2,1,3,1,3,0,0,0,0,0,0,0,0],"split_type":[0,0,0,0,0,0,0,0,0,0,0,0,0,0,0],"sum_hessian":[1.5557E4,1.4212E4,1.345E3,1.3589E4,6.23E2,1.32E3,2.5E1,8.772E3,4.817E3,3.65E2,2.58E2,1.227E3,9.3E1,1.8E1,7E0],"tree_param":{"num_deleted":"0","num_feature":"4","num_nodes":"15","size_leaf_vector":"1"}},{"base_weights":[2.0587088E-3,-5.0408598E-2,2.8966556E0,-4.471113E-1,2.201634E-1,2.6106515E0,1.218721E0,-5.608173E-2,1.3502848E-1,-1.3278785E-2,1.08523265E-1,1.9705638E-1,6.9956553E-1],"categories":[],"categories_nodes":[],"categories_segments":[],"categories_sizes":[],"default_left":[0,0,0,0,0,0,0,0,0,0,0,0,0],"id":30,"left_children":[1,3,5,7,9,11,-1,-1,-1,-1,-1,-1,-1],"loss_changes":[2.3629658E3,1.6404171E3,7.042102E2,1.2672672E3,2.7743477E3,7.44047E2,0E0,0E0,0E0,0E0,0E0,0E0,0E0],"parents":[2147483647,0,0,1,1,2,2,3,3,4,4,5,5],"right_children":[2,4,6,8,10,12,-1,-1,-1,-1,-1,-1,-1],"split_conditions":[6E0,1E0,9E0,5E0,2E0,2E0,1.218721E0,-5.608173E-2,1.3502848E-1,-1.3278785E-2,1.08523265E-1,1.9705638E-1,6.9956553E-1],"split_indices":[3,2,3,1,3,2,0,0,0,0,0,0,0],"split_type":[0,0,0,0,0,0,0,0,0,0,0,0,0],"sum_hessian":[1.5557E4,1.5281E4,2.76E2,6.196E3,9.085E3,2.69E2,7E0,5.828E3,3.68E2,6.453E3,2.632E3,2.36E2,3.3E1],"tree_param":{"num_deleted":"0","num_feature":"4","num_nodes":"13","size_leaf_vector":"1"}},{"base_weights":[2.0000236E-3,-7.085083E-2,1.714164E0,-1.7503607E-1,9.675324E-1,1.4637178E0,6.3877673E0,-3.5971496E-2,6.0092308E-2,-4.9393754E-2,2.6244864E-1,1.2270381E-1,6.896139E-1,4.8747206E-1,1.0317568E0],"categories":[],"categories_nodes":[],"categories_segments":[],"categories_sizes":[],"default_left":[0,0,0,0,0,0,0,0,0,0,0,0,0,0,0],"id":31,"left_children":[1,3,5,7,9,11,13,-1,-1,-1,-1,-1,-1,-1,-1],"loss_changes":[1.9407113E3,1.6147106E3,7.339087E2,1.9439814E3,3.2970784E3,7.6812756E2,1.3997571E2,0E0,0E0,0E0,0E0,0E0,0E0,0E0,0E0],"parents":[2147483647,0,0,1,1,2,2,3,3,4,4,5,5,6,6],"right_children":[2,4,6,8,10,12,14,-1,-1,-1,-1,-1,-1,-1,-1],"split_conditions":[5E0,4E0,3E0,3E0,1E0,8E0,4E0,-3.5971496E-2,6.0092308E-2,-4.9393754E-2,2.6244864E-1,1.2270381E-1,6.896139E-1,4.8747206E-1,1.0317568E0],"split_indices":[3,0,2,2,3,3,2,0,0,0,0,0,0,0,0],"split_type":[0,0,0,0,0,0,0,0,0,0,0,0,0,0,0],"sum_hessian":[1.5557E4,1.4923E4,6.34E2,1.3563E4,1.36E3,6.03E2,3.1E1,1.0956E4,2.607E3,7.23E2,6.37E2,5.79E2,2.4E1,2.4E1,7E0],"tree_param":{"num_deleted":"0","num_feature":"4","num_nodes":"15","size_leaf_vector":"1"}},{"base_weights":[1.9651537E-3,-1.4889452E-1,7.169202E-1,-2.3518556E-1,6.2710255E-1,5.292934E-1,5.8222823E0,-3.0236317E-2,1.0237068E-1,-4.3736875E-2,2.0844498E-1,3.4983784E-2,5.236358E-1,4.288071E-1,9.2189753E-1],"categories":[],"categories_nodes":[],"categories_segments":[],"categories_sizes":[],"default_left":[0,0,0,0,0,0,0,0,0,0,0,0,0,0,0],"id":32,"left_children":[1,3,5,7,9,11,13,-1,-1,-1,-1,-1,-1,-1,-1],"loss_changes":[1.6781598E3,8.604702E2,2.5937925E3,9.781852E2,1.9958889E3,2.2079268E3,4.607478E2,0E0,0E0,0E0,0E0,0E0,0E0,0E0,0E0],"parents":[2147483647,0,0,1,1,2,2,3,3,4,4,5,5,6,6],"right_children":[2,4,6,8,10,12,14,-1,-1,-1,-1,-1,-1,-1,-1],"split_conditions":[3E0,4E0,4E0,5E0,1E0,4E0,5E0,-3.0236317E-2,1.0237068E-1,-4.3736875E-2,2.0844498E-1,3.4983784E-2,5.236358E-1,4.288071E-1,9.2189753E-1],"split_indices":[3,1,1,0,3,2,1,0,0,0,0,0,0,0,0],"split_type":[0,0,0,0,0,0,0,0,0,0,0,0,0,0,0],"sum_hessian":[1.5557E4,1.2847E4,2.71E3,1.1562E4,1.285E3,2.615E3,9.5E1,1.0977E4,5.85E2,7.43E2,5.42E2,2.52E3,9.5E1,6.7E1,2.8E1],"tree_param":{"num_deleted":"0","num_feature":"4","num_nodes":"15","size_leaf_vector":"1"}},{"base_weights":[1.9065446E-3,-4.1452803E-2,2.3940208E0,-2.738801E-1,4.17753E-1,2.1453679E0,1.0486807E0,-4.1407198E-2,8.818672E-2,-4.5741056E-4,1.644914E-1,1.5773825E-1,6.0414606E-1],"categories":[],"categories_nodes":[],"categories_segments":[],"categories_sizes":[],"default_left":[0,0,0,0,0,0,0,0,0,0,0,0,0],"id":33,"left_children":[1,3,5,7,9,11,-1,-1,-1,-1,-1,-1,-1],"loss_changes":[1.6137831E3,1.6311923E3,5.3490784E2,1.6444471E3,2.661808E3,5.879595E2,0E0,0E0,0E0,0E0,0E0,0E0,0E0],"parents":[2147483647,0,0,1,1,2,2,3,3,4,4,5,5],"right_children":[2,4,6,8,10,12,-1,-1,-1,-1,-1,-1,-1],"split_conditions":[6E0,2E0,9E0,4E0,2E0,2E0,1.0486807E0,-4.1407198E-2,8.818672E-2,-4.5741056E-4,1.644914E-1,1.5773825E-1,6.0414606E-1],"split_indices":[3,1,3,2,3,2,0,0,0,0,0,0,0],"split_type":[0,0,0,0,0,0,0,0,0,0,0,0,0],"sum_hessian":[1.5557E4,1.5281E4,2.76E2,1.0146E4,5.135E3,2.69E2,7E0,9.049E3,1.097E3,3.821E3,1.314E3,2.36E2,3.3E1],"tree_param":{"num_deleted":"0","num_feature":"4","num_nodes":"13","size_leaf_vector":"1"}},{"base_weights":[1.8458284E-3,-3.729373E-2,2.1611557E0,-1.7988424E-1,6.140131E-1,1.9336535E0,9.569213E-1,-4.5716472E-2,3.1895127E-2,7.253521E-3,2.3626497E-1,1.4203104E-1,5.4550844E-1],"categories":[],"categories_nodes":[],"categories_segments":[],"categories_sizes":[],"default_left":[0,0,0,0,0,0,0,0,0,0,0,0,0],"id":34,"left_children":[1,3,5,7,9,11,-1,-1,-1,-1,-1,-1,-1],"loss_changes":[1.314956E3,1.4193525E3,4.483385E2,1.7343688E3,2.5989263E3,4.803316E2,0E0,0E0,0E0,0E0,0E0,0E0,0E0],"parents":[2147483647,0,0,1,1,2,2,3,3,4,4,5,5],"right_children":[2,4,6,8,10,12,-1,-1,-1,-1,-1,-1,-1],"split_conditions":[6E0,3E0,9E0,2E0,2E0,2E0,9.569213E-1,-4.5716472E-2,3.1895127E-2,7.253521E-3,2.3626497E-1,1.4203104E-1,5.4550844E-1],"split_indices":[3,0,3,2,3,2,0,0,0,0,0,0,0],"split_type":[0,0,0,0,0,0,0,0,0,0,0,0,0],"sum_hessian":[1.5557E4,1.5281E4,2.76E2,1.2537E4,2.744E3,2.69E2,7E0,8.058E3,4.479E3,2.096E3,6.48E2,2.36E2,3.3E1],"tree_param":{"num_deleted":"0","num_feature":"4","num_nodes":"13","size_leaf_vector":"1"}},{"base_weights":[1.7817173E-3,-2.0201567E-1,4.1154504E-1,-2.8242815E-1,1.2916745E0,1.2934005E-2,1.542265E0,-4.1241787E-2,7.6179564E-2,-9.141051E-2,4.0527722E-1,-2.5402745E-2,4.8445355E-2,3.9222233E-2,2.8821182E-1],"categories":[],"categories_nodes":[],"categories_segments":[],"categories_sizes":[],"default_left":[0,0,0,0,0,0,0,0,0,0,0,0,0,0,0],"id":35,"left_children":[1,3,5,7,9,11,13,-1,-1,-1,-1,-1,-1,-1,-1],"loss_changes":[1.2993113E3,1.2484415E3,2.329288E3,1.3388303E3,3.2376929E3,4.8122708E2,2.0744463E3,0E0,0E0,0E0,0E0,0E0,0E0,0E0,0E0],"parents":[2147483647,0,0,1,1,2,2,3,3,4,4,5,5,6,6],"right_children":[2,4,6,8,10,12,14,-1,-1,-1,-1,-1,-1,-1,-1],"split_conditions":[2E0,5E0,2E0,4E0,1E0,1E0,1E0,-4.1241787E-2,7.6179564E-2,-9.141051E-2,4.0527722E-1,-2.5402745E-2,4.8445355E-2,3.9222233E-2,2.8821182E-1],"split_indices":[1,2,3,0,3,3,2,0,0,0,0,0,0,0,0],"split_type":[0,0,0,0,0,0,0,0,0,0,0,0,0,0,0],"sum_hessian":[1.5557E4,1.039E4,5.167E3,9.86E3,5.3E2,3.821E3,1.346E3,8.769E3,1.091E3,2.95E2,2.35E2,2.44E3,1.381E3,7.25E2,6.21E2],"tree_param":{"num_deleted":"0","num_feature":"4","num_nodes":"15","size_leaf_vector":"1"}},{"base_weights":[1.6485023E-3,-8.436796E-2,9.0993255E-1,-1.4374802E-1,1.1772418E0,7.868398E-1,6.894099E0,-2.8577248E-2,4.4852596E-2,-4.4488832E-2,3.4682667E-1,1.21450284E-4,1.6929342E-1,5.761061E-1,9.899557E-1],"categories":[],"categories_nodes":[],"categories_segments":[],"categories_sizes":[],"default_left":[0,0,0,0,0,0,0,0,0,0,0,0,0,0,0],"id":36,"left_children":[1,3,5,7,9,11,13,-1,-1,-1,-1,-1,-1,-1,-1],"loss_changes":[1.2155826E3,1.0649285E3,9.860492E2,1.1420217E3,2.3762844E3,9.3964087E2,3.4911133E1,0E0,0E0,0E0,0E0,0E0,0E0,0E0,0E0],"parents":[2147483647,0,0,1,1,2,2,3,3,4,4,5,5,6,6],"right_children":[2,4,6,8,10,12,14,-1,-1,-1,-1,-1,-1,-1,-1],"split_conditions":[4E0,5E0,4E0,3E0,1E0,1E0,5E0,-2.8577248E-2,4.4852596E-2,-4.4488832E-2,3.4682667E-1,1.21450284E-4,1.6929342E-1,5.761061E-1,9.899557E-1],"split_indices":[3,1,1,0,3,2,1,0,0,0,0,0,0,0,0],"split_type":[0,0,0,0,0,0,0,0,0,0,0,0,0,0,0],"sum_hessian":[1.5557E4,1.4212E4,1.345E3,1.3574E4,6.38E2,1.319E3,2.6E1,1.0949E4,2.625E3,3.74E2,2.64E2,7.07E2,6.12E2,2.1E1,5E0],"tree_param":{"num_deleted":"0","num_feature":"4","num_nodes":"15","size_leaf_vector":"1"}},{"base_weights":[1.6156508E-3,-3.1932753E-1,2.239815E-1,-4.0123E-1,1.0690695E0,3.3684455E-2,1.328271E0,1.5021197E-2,-7.20038E-2,1.3570311E-2,4.800624E-1,-2.778082E-2,3.6264583E-2,7.973685E-2,3.7216622E-1],"categories":[],"categories_nodes":[],"categories_segments":[],"categories_sizes":[],"default_left":[0,0,0,0,0,0,0,0,0,0,0,0,0,0,0],"id":37,"left_children":[1,3,5,7,9,11,13,-1,-1,-1,-1,-1,-1,-1,-1],"loss_changes":[1.1103961E3,7.2455457E2,1.9313798E3,1.0573938E3,1.2357808E3,8.0356067E2,1.7136907E3,0E0,0E0,0E0,0E0,0E0,0E0,0E0,0E0],"parents":[2147483647,0,0,1,1,2,2,3,3,4,4,5,5,6,6],"right_children":[2,4,6,8,10,12,14,-1,-1,-1,-1,-1,-1,-1,-1],"split_conditions":[1E0,5E0,3E0,1E0,2E0,1E0,2E0,1.5021197E-2,-7.20038E-2,1.3570311E-2,4.800624E-1,-2.778082E-2,3.6264583E-2,7.973685E-2,3.7216622E-1],"split_indices":[2,0,3,3,3,3,1,0,0,0,0,0,0,0,0],"split_type":[0,0,0,0,0,0,0,0,0,0,0,0,0,0,0],"sum_hessian":[1.5557E4,6.367E3,9.19E3,6.013E3,3.54E2,7.84E3,1.35E3,2.203E3,3.81E3,2.84E2,7E1,4.027E3,3.813E3,1.106E3,2.44E2],"tree_param":{"num_deleted":"0","num_feature":"4","num_nodes":"15","size_leaf_vector":"1"}},{"base_weights":[1.5117525E-3,-1.217883E-1,5.7253814E-1,-2.6887393E-1,4.9414864E-1,-2.6467606E-1,1.4289459E0,-4.624505E-2,4.364745E-2,-6.2119972E-2,1.5441707E-1,-2.1280708E-2,-6.331561E-2,5.5817503E-2,2.4453413E-1],"categories":[],"categories_nodes":[],"categories_segments":[],"categories_sizes":[],"default_left":[0,0,0,0,0,0,0,0,0,0,0,0,0,0,0],"id":38,"left_children":[1,3,5,7,9,11,13,-1,-1,-1,-1,-1,-1,-1,-1],"loss_changes":[1.0954711E3,1.1593926E3,1.9814401E3,1.4106488E3,2.8901624E3,2.6584793E1,1.2076099E3,0E0,0E0,0E0,0E0,0E0,0E0,0E0,0E0],"parents":[2147483647,0,0,1,1,2,2,3,3,4,4,5,5,6,6],"right_children":[2,4,6,8,10,12,14,-1,-1,-1,-1,-1,-1,-1,-1],"split_conditions":[3E0,3E0,1E0,3E0,1E0,3E0,1E0,-4.624505E-2,4.364745E-2,-6.2119972E-2,1.5441707E-1,-2.1280708E-2,-6.331561E-2,5.5817503E-2,2.4453413E-1],"split_indices":[1,2,3,0,3,2,2,0,0,0,0,0,0,0,0],"split_type":[0,0,0,0,0,0,0,0,0,0,0,0,0,0,0],"sum_hessian":[1.5557E4,1.2795E4,2.762E3,1.0329E4,2.466E3,1.397E3,1.365E3,8.105E3,2.224E3,1.196E3,1.27E3,1.226E3,1.71E2,7.36E2,6.29E2],"tree_param":{"num_deleted":"0","num_feature":"4","num_nodes":"15","size_leaf_vector":"1"}},{"base_weights":[1.3802068E-3,-2.029421E-2,3.3186252E0,-1.9869041E-1,3.3567256E-1,2.814162E0,8.83124E-1,-2.7195169E-2,1.1493596E-1,1.4797052E-3,1.2506357E-1,2.4010244E-1,6.4492375E-1],"categories":[],"categories_nodes":[],"categories_segments":[],"categories_sizes":[],"default_left":[0,0,0,0,0,0,0,0,0,0,0,0,0],"id":39,"left_children":[1,3,5,7,9,11,-1,-1,-1,-1,-1,-1,-1],"loss_changes":[1.1186774E3,9.81698E2,2.5601953E2,1.0173413E3,1.5151956E3,1.25683105E2,0E0,0E0,0E0,0E0,0E0,0E0,0E0],"parents":[2147483647,0,0,1,1,2,2,3,3,4,4,5,5],"right_children":[2,4,6,8,10,12,-1,-1,-1,-1,-1,-1,-1],"split_conditions":[7E0,2E0,9E0,5E0,2E0,2E0,8.83124E-1,-2.7195169E-2,1.1493596E-1,1.4797052E-3,1.2506357E-1,2.4010244E-1,6.4492375E-1],"split_indices":[3,1,3,2,3,2,0,0,0,0,0,0,0],"split_type":[0,0,0,0,0,0,0,0,0,0,0,0,0],"sum_hessian":[1.5557E4,1.5457E4,1E2,1.0297E4,5.16E3,9.3E1,7E0,9.767E3,5.3E2,3.821E3,1.339E3,8.5E1,8E0],"tree_param":{"num_deleted":"0","num_feature":"4","num_nodes":"13","size_leaf_vector":"1"}},{"base_weights":[1.3695849E-3,-5.1031463E-2,1.2329158E0,-1.2802635E-1,7.071479E-1,1.0316933E0,4.9924607E0,-2.6232524E-2,4.3069746E-2,-2.8172934E-2,1.8683131E-1,8.376868E-2,5.3123903E-1,3.7163946E-1,8.35611E-1],"categories":[],"categories_nodes":[],"categories_segments":[],"categories_sizes":[],"default_left":[0,0,0,0,0,0,0,0,0,0,0,0,0,0,0],"id":40,"left_children":[1,3,5,7,9,11,13,-1,-1,-1,-1,-1,-1,-1,-1],"loss_changes":[1.0040877E3,8.71293E2,4.7522992E2,1.0167754E3,1.5805181E3,4.9716193E2,1.0629706E2,0E0,0E0,0E0,0E0,0E0,0E0,0E0,0E0],"parents":[2147483647,0,0,1,1,2,2,3,3,4,4,5,5,6,6],"right_children":[2,4,6,8,10,12,14,-1,-1,-1,-1,-1,-1,-1,-1],"split_conditions":[5E0,4E0,3E0,3E0,1E0,3E0,4E0,-2.6232524E-2,4.3069746E-2,-2.8172934E-2,1.8683131E-1,8.376868E-2,5.3123903E-1,3.7163946E-1,8.35611E-1],"split_indices":[3,1,2,0,3,1,2,0,0,0,0,0,0,0,0],"split_type":[0,0,0,0,0,0,0,0,0,0,0,0,0,0,0],"sum_hessian":[1.5557E4,1.4923E4,6.34E2,1.3548E4,1.375E3,6.03E2,3.1E1,1.0923E4,2.625E3,7.43E2,6.32E2,5.78E2,2.5E1,2.4E1,7E0],"tree_param":{"num_deleted":"0","num_feature":"4","num_nodes":"15","size_leaf_vector":"1"}},{"base_weights":[1.3610538E-3,-1.6700622E-1,3.4235117E-1,-2.3150736E-1,1.0341712E0,-3.648428E-1,9.675614E-1,-3.0373452E-2,1.0215741E-1,-6.3699774E-2,3.0325386E-1,-2.1854391E-2,-6.942137E-2,8.1353664E-2,5.637376E-1],"categories":[],"categories_nodes":[],"categories_segments":[],"categories_sizes":[],"default_left":[0,0,0,0,0,0,0,0,0,0,0,0,0,0,0],"id":41,"left_children":[1,3,5,7,9,11,13,-1,-1,-1,-1,-1,-1,-1,-1],"loss_changes":[8.932665E2,8.0724316E2,2.2743042E3,8.950574E2,1.7752639E3,1.16170746E2,1.9590127E3,0E0,0E0,0E0,0E0,0E0,0E0,0E0,0E0],"parents":[2147483647,0,0,1,1,2,2,3,3,4,4,5,5,6,6],"right_children":[2,4,6,8,10,12,14,-1,-1,-1,-1,-1,-1,-1,-1],"split_conditions":[2E0,5E0,1E0,5E0,1E0,4E0,6E0,-3.0373452E-2,1.0215741E-1,-6.3699774E-2,3.0325386E-1,-2.1854391E-2,-6.942137E-2,8.1353664E-2,5.637376E-1],"split_indices":[2,0,3,1,3,2,2,0,0,0,0,0,0,0,0],"split_type":[0,0,0,0,0,0,0,0,0,0,0,0,0,0,0],"sum_hessian":[1.5557E4,1.0415E4,5.142E3,9.885E3,5.3E2,2.413E3,2.729E3,9.347E3,5.38E2,2.89E2,2.41E2,1.672E3,7.41E2,2.643E3,8.6E1],"tree_param":{"num_deleted":"0","num_feature":"4","num_nodes":"15","size_leaf_vector":"1"}},{"base_weights":[1.2805278E-3,-1.7889783E-2,2.9352744E0,-2.9352757E-1,1.7170908E-1,2.4720047E0,8.0117816E-1,1.4299335E-2,-5.602091E-2,2.4471495E-3,1.04685545E-1,1.653268E-1,4.0066424E-1],"categories":[],"categories_nodes":[],"categories_segments":[],"categories_sizes":[],"default_left":[0,0,0,0,0,0,0,0,0,0,0,0,0],"id":42,"left_children":[1,3,5,7,9,11,-1,-1,-1,-1,-1,-1,-1],"loss_changes":[8.751211E2,8.0789484E2,2.1772571E2,7.334761E2,1.1801521E3,1.1148358E2,0E0,0E0,0E0,0E0,0E0,0E0,0E0],"parents":[2147483647,0,0,1,1,2,2,3,3,4,4,5,5],"right_children":[2,4,6,8,10,12,-1,-1,-1,-1,-1,-1,-1],"split_conditions":[7E0,1E0,9E0,1E0,3E0,1E0,8.0117816E-1,1.4299335E-2,-5.602091E-2,2.4471495E-3,1.04685545E-1,1.653268E-1,4.0066424E-1],"split_indices":[3,2,3,3,3,2,0,0,0,0,0,0,0],"split_type":[0,0,0,0,0,0,0,0,0,0,0,0,0],"sum_hessian":[1.5557E4,1.5457E4,1E2,6.299E3,9.158E3,9.3E1,7E0,2.389E3,3.91E3,7.84E3,1.318E3,6.2E1,3.1E1],"tree_param":{"num_deleted":"0","num_feature":"4","num_nodes":"13","size_leaf_vector":"1"}},{"base_weights":[1.2445524E-3,-2.861809E-2,1.6487523E0,-1.8774535E-1,2.8576916E-1,1.4675862E0,7.557018E-1,-2.8484834E-2,6.127736E-2,1.7623553E-3,1.06490746E-1,1.2842672E-1,7.310751E-1],"categories":[],"categories_nodes":[],"categories_segments":[],"categories_sizes":[],"default_left":[0,0,0,0,0,0,0,0,0,0,0,0,0],"id":43,"left_children":[1,3,5,7,9,11,-1,-1,-1,-1,-1,-1,-1],"loss_changes":[7.654842E2,7.645752E2,2.8540417E2,7.889291E2,1.0730072E3,2.7982507E2,0E0,0E0,0E0,0E0,0E0,0E0,0E0],"parents":[2147483647,0,0,1,1,2,2,3,3,4,4,5,5],"right_children":[2,4,6,8,10,12,-1,-1,-1,-1,-1,-1,-1],"split_conditions":[6E0,2E0,3E0,4E0,2E0,9E0,7.557018E-1,-2.8484834E-2,6.127736E-2,1.7623553E-3,1.06490746E-1,1.2842672E-1,7.310751E-1],"split_indices":[3,1,2,2,3,3,0,0,0,0,0,0,0],"split_type":[0,0,0,0,0,0,0,0,0,0,0,0,0],"sum_hessian":[1.5557E4,1.5281E4,2.76E2,1.0146E4,5.135E3,2.69E2,7E0,9.049E3,1.097E3,3.821E3,1.314E3,2.62E2,7E0],"tree_param":{"num_deleted":"0","num_feature":"4","num_nodes":"13","size_leaf_vector":"1"}},{"base_weights":[1.2329848E-3,-6.254682E-2,6.7471075E-1,-1.0590794E-1,8.5872036E-1,5.716354E-1,5.6889586E0,-2.1450689E-2,3.4697272E-2,2.2040593E-2,4.5572415E-1,4.6933863E-2,5.6448185E-1,4.6245638E-1,8.643581E-1],"categories":[],"categories_nodes":[],"categories_segments":[],"categories_sizes":[],"default_left":[0,0,0,0,0,0,0,0,0,0,0,0,0,0,0],"id":44,"left_children":[1,3,5,7,9,11,13,-1,-1,-1,-1,-1,-1,-1,-1],"loss_changes":[6.683248E2,5.6786017E2,6.924216E2,6.677251E2,1.5075593E3,6.823918E2,4.4939087E1,0E0,0E0,0E0,0E0,0E0,0E0,0E0,0E0],"parents":[2147483647,0,0,1,1,2,2,3,3,4,4,5,5,6,6],"right_children":[2,4,6,8,10,12,14,-1,-1,-1,-1,-1,-1,-1,-1],"split_conditions":[4E0,5E0,4E0,3E0,2E0,4E0,5E0,-2.1450689E-2,3.4697272E-2,2.2040593E-2,4.5572415E-1,4.6933863E-2,5.6448185E-1,4.6245638E-1,8.643581E-1],"split_indices":[3,1,1,0,3,2,1,0,0,0,0,0,0,0,0],"split_type":[0,0,0,0,0,0,0,0,0,0,0,0,0,0,0],"sum_hessian":[1.5557E4,1.4212E4,1.345E3,1.3574E4,6.38E2,1.319E3,2.6E1,1.0949E4,2.625E3,5.45E2,9.3E1,1.294E3,2.5E1,2.1E1,5E0],"tree_param":{"num_deleted":"0","num_feature":"4","num_nodes":"15","size_leaf_vector":"1"}},{"base_weights":[1.2658321E-3,-1.4362314E-1,2.9470593E-1,-2.319069E-1,5.9748495E-1,-3.2125065E-1,8.39257E-1,2.4299337E-2,-5.115065E-2,-1.0297811E-2,2.992307E-1,-1.7170398E-2,-6.580031E-2,5.8862634E-2,3.1879917E-1],"categories":[],"categories_nodes":[],"categories_segments":[],"categories_sizes":[],"default_left":[0,0,0,0,0,0,0,0,0,0,0,0,0,0,0],"id":45,"left_children":[1,3,5,7,9,11,13,-1,-1,-1,-1,-1,-1,-1,-1],"loss_changes":[6.6150995E2,6.816347E2,1.7253335E3,1.2360583E3,1.8606383E3,1.2145657E2,1.6051788E3,0E0,0E0,0E0,0E0,0E0,0E0,0E0,0E0],"parents":[2147483647,0,0,1,1,2,2,3,3,4,4,5,5,6,6],"right_children":[2,4,6,8,10,12,14,-1,-1,-1,-1,-1,-1,-1,-1],"split_conditions":[2E0,4E0,1E0,1E0,2E0,4E0,5E0,2.4299337E-2,-5.115065E-2,-1.0297811E-2,2.992307E-1,-1.7170398E-2,-6.580031E-2,5.8862634E-2,3.1879917E-1],"split_indices":[2,0,3,3,3,2,2,0,0,0,0,0,0,0,0],"split_type":[0,0,0,0,0,0,0,0,0,0,0,0,0,0,0],"sum_hessian":[1.5557E4,1.0415E4,5.142E3,9.307E3,1.108E3,2.413E3,2.729E3,3.449E3,5.858E3,8.58E2,2.5E2,1.672E3,7.41E2,2.467E3,2.62E2],"tree_param":{"num_deleted":"0","num_feature":"4","num_nodes":"15","size_leaf_vector":"1"}},{"base_weights":[1.1750463E-3,-4.0116034E-2,9.7161114E-1,-2.8930172E-1,1.2768857E-1,8.136023E-1,4.6413717E0,-3.6098666E-2,8.528182E-2,-6.0550827E-3,5.5154096E-2,6.387093E-2,3.9526483E-1,3.5298315E-1,7.758202E-1],"categories":[],"categories_nodes":[],"categories_segments":[],"categories_sizes":[],"default_left":[0,0,0,0,0,0,0,0,0,0,0,0,0,0,0],"id":46,"left_children":[1,3,5,7,9,11,13,-1,-1,-1,-1,-1,-1,-1,-1],"loss_changes":[6.234536E2,6.240766E2,3.644314E2,4.9203586E2,7.116423E2,3.3236377E2,6.2691406E1,0E0,0E0,0E0,0E0,0E0,0E0,0E0,0E0],"parents":[2147483647,0,0,1,1,2,2,3,3,4,4,5,5,6,6],"right_children":[2,4,6,8,10,12,14,-1,-1,-1,-1,-1,-1,-1,-1],"split_conditions":[5E0,1E0,3E0,5E0,2E0,3E0,4E0,-3.6098666E-2,8.528182E-2,-6.0550827E-3,5.5154096E-2,6.387093E-2,3.9526483E-1,3.5298315E-1,7.758202E-1],"split_indices":[3,1,1,2,0,2,1,0,0,0,0,0,0,0,0],"split_type":[0,0,0,0,0,0,0,0,0,0,0,0,0,0,0],"sum_hessian":[1.5557E4,1.4923E4,6.34E2,6.005E3,8.918E3,6.09E2,2.5E1,5.651E3,3.54E2,6.176E3,2.742E3,5.78E2,3.1E1,2E1,5E0],"tree_param":{"num_deleted":"0","num_feature":"4","num_nodes":"15","size_leaf_vector":"1"}},{"base_weights":[1.1658914E-3,-1.4548495E-2,2.4062335E0,-2.5463253E-1,1.5059443E-1,2.022114E0,6.618859E-1,1.28087625E-2,-4.8844654E-2,2.7619363E-3,8.815246E-2,1.3008873E-1,3.378838E-1],"categories":[],"categories_nodes":[],"categories_segments":[],"categories_sizes":[],"default_left":[0,0,0,0,0,0,0,0,0,0,0,0,0],"id":47,"left_children":[1,3,5,7,9,11,-1,-1,-1,-1,-1,-1,-1],"loss_changes":[5.880367E2,6.1291986E2,1.5004926E2,5.6382007E2,8.232432E2,8.7584015E1,0E0,0E0,0E0,0E0,0E0,0E0,0E0],"parents":[2147483647,0,0,1,1,2,2,3,3,4,4,5,5],"right_children":[2,4,6,8,10,12,-1,-1,-1,-1,-1,-1,-1],"split_conditions":[7E0,1E0,9E0,1E0,3E0,1E0,6.618859E-1,1.28087625E-2,-4.8844654E-2,2.7619363E-3,8.815246E-2,1.3008873E-1,3.378838E-1],"split_indices":[3,2,3,3,3,2,0,0,0,0,0,0,0],"split_type":[0,0,0,0,0,0,0,0,0,0,0,0,0],"sum_hessian":[1.5557E4,1.5457E4,1E2,6.299E3,9.158E3,9.3E1,7E0,2.389E3,3.91E3,7.84E3,1.318E3,6.2E1,3.1E1],"tree_param":{"num_deleted":"0","num_feature":"4","num_nodes":"13","size_leaf_vector":"1"}},{"base_weights":[1.1254654E-3,-8.897775E-2,4.1841087E-1,-1.3631935E-1,8.8032407E-1,-2.4738038E-1,1.0994927E0,-2.536121E-2,3.3228334E-2,-6.083061E-2,2.7933487E-1,-1.6135661E-2,-4.8162296E-2,8.5394554E-2,4.267858E-1],"categories":[],"categories_nodes":[],"categories_segments":[],"categories_sizes":[],"default_left":[0,0,0,0,0,0,0,0,0,0,0,0,0,0,0],"id":48,"left_children":[1,3,5,7,9,11,13,-1,-1,-1,-1,-1,-1,-1,-1],"loss_changes":[5.8499866E2,5.873067E2,1.2531774E3,6.706964E2,1.6989797E3,2.809259E1,1.0590804E3,0E0,0E0,0E0,0E0,0E0,0E0,0E0,0E0],"parents":[2147483647,0,0,1,1,2,2,3,3,4,4,5,5,6,6],"right_children":[2,4,6,8,10,12,14,-1,-1,-1,-1,-1,-1,-1,-1],"split_conditions":[3E0,5E0,1E0,3E0,1E0,5E0,6E0,-2.536121E-2,3.3228334E-2,-6.083061E-2,2.7933487E-1,-1.6135661E-2,-4.8162296E-2,8.5394554E-2,4.267858E-1],"split_indices":[1,0,3,2,3,1,1,0,0,0,0,0,0,0,0],"split_type":[0,0,0,0,0,0,0,0,0,0,0,0,0,0,0],"sum_hessian":[1.5557E4,1.2795E4,2.762E3,1.22E4,5.95E2,1.397E3,1.365E3,9.758E3,2.442E3,3.35E2,2.6E2,1.023E3,3.74E2,1.268E3,9.7E1],"tree_param":{"num_deleted":"0","num_feature":"4","num_nodes":"15","size_leaf_vector":"1"}},{"base_weights":[1.0562704E-3,-2.3037473E-2,1.3302965E0,-2.4770533E-1,1.3040522E-1,1.1794454E0,6.2552327E-1,-3.3849165E-2,4.375348E-2,-3.996398E-3,5.1979095E-2,8.917807E-2,3.9628884E-1],"categories":[],"categories_nodes":[],"categories_segments":[],"categories_sizes":[],"default_left":[0,0,0,0,0,0,0,0,0,0,0,0,0],"id":49,"left_children":[1,3,5,7,9,11,-1,-1,-1,-1,-1,-1,-1],"loss_changes":[4.982969E2,5.2685846E2,1.9841443E2,3.859771E2,6.0244824E2,2.1265457E2,0E0,0E0,0E0,0E0,0E0,0E0,0E0],"parents":[2147483647,0,0,1,1,2,2,3,3,4,4,5,5],"right_children":[2,4,6,8,10,12,-1,-1,-1,-1,-1,-1,-1],"split_conditions":[6E0,1E0,3E0,4E0,2E0,8E0,6.2552327E-1,-3.3849165E-2,4.375348E-2,-3.996398E-3,5.1979095E-2,8.917807E-2,3.9628884E-1],"split_indices":[3,1,2,2,0,3,0,0,0,0,0,0,0],"split_type":[0,0,0,0,0,0,0,0,0,0,0,0,0],"sum_hessian":[1.5557E4,1.5281E4,2.76E2,6.201E3,9.08E3,2.69E2,7E0,5.476E3,7.25E2,6.317E3,2.763E3,2.45E2,2.4E1],"tree_param":{"num_deleted":"0","num_feature":"4","num_nodes":"13","size_leaf_vector":"1"}},{"base_weights":[1.0257963E-3,-2.0777373E-1,1.456928E-1,1.4220928E-1,-4.1794002E-1,2.2767728E-2,8.5902345E-1,3.3327337E-2,-4.014155E-2,-4.910675E-2,3.6727235E-1,-6.5227426E-3,4.6926927E-2,4.384787E-2,2.755693E-1],"categories":[],"categories_nodes":[],"categories_segments":[],"categories_sizes":[],"default_left":[0,0,0,0,0,0,0,0,0,0,0,0,0,0,0],"id":50,"left_children":[1,3,5,7,9,11,13,-1,-1,-1,-1,-1,-1,-1,-1],"loss_changes":[4.6998145E2,4.6845532E2,8.059044E2,2.4837634E2,1.1920815E3,3.0810327E2,1.0763958E3,0E0,0E0,0E0,0E0,0E0,0E0,0E0,0E0],"parents":[2147483647,0,0,1,1,2,2,3,3,4,4,5,5,6,6],"right_children":[2,4,6,8,10,12,14,-1,-1,-1,-1,-1,-1,-1,-1],"split_conditions":[1E0,1E0,3E0,3E0,6E0,3E0,2E0,3.3327337E-2,-4.014155E-2,-4.910675E-2,3.6727235E-1,-6.5227426E-3,4.6926927E-2,4.384787E-2,2.755693E-1],"split_indices":[2,3,3,0,1,1,1,0,0,0,0,0,0,0,0],"split_type":[0,0,0,0,0,0,0,0,0,0,0,0,0,0,0],"sum_hessian":[1.5557E4,6.367E3,9.19E3,2.389E3,3.978E3,7.84E3,1.35E3,1.768E3,6.21E2,3.909E3,6.9E1,6.55E3,1.29E3,1.106E3,2.44E2],"tree_param":{"num_deleted":"0","num_feature":"4","num_nodes":"15","size_leaf_vector":"1"}},{"base_weights":[9.6633943E-4,-7.9094656E-2,3.737109E-1,-1.7901906E-1,3.3983415E-1,-6.1758235E-2,1.7673064E0,2.2741258E-2,-4.202829E-2,-4.7937978E-2,1.1198925E-1,-3.9482515E-2,5.546805E-2,7.449462E-2,3.1773135E-1],"categories":[],"categories_nodes":[],"categories_segments":[],"categories_sizes":[],"default_left":[0,0,0,0,0,0,0,0,0,0,0,0,0,0,0],"id":51,"left_children":[1,3,5,7,9,11,13,-1,-1,-1,-1,-1,-1,-1,-1],"loss_changes":[4.6431607E2,5.3621924E2,1.6696024E3,1.01420374E3,1.5770353E3,4.3076523E2,9.418386E2,0E0,0E0,0E0,0E0,0E0,0E0,0E0,0E0],"parents":[2147483647,0,0,1,1,2,2,3,3,4,4,5,5,6,6],"right_children":[2,4,6,8,10,12,14,-1,-1,-1,-1,-1,-1,-1,-1],"split_conditions":[3E0,3E0,2E0,1E0,1E0,1E0,1E0,2.2741258E-2,-4.202829E-2,-4.7937978E-2,1.1198925E-1,-3.9482515E-2,5.546805E-2,7.449462E-2,3.1773135E-1],"split_indices":[0,2,3,3,3,3,1,0,0,0,0,0,0,0,0],"split_type":[0,0,0,0,0,0,0,0,0,0,0,0,0,0,0],"sum_hessian":[1.5557E4,1.2807E4,2.75E3,1.0341E4,2.466E3,2.096E3,6.54E2,3.852E3,6.489E3,1.203E3,1.263E3,1.361E3,7.35E2,3.8E2,2.74E2],"tree_param":{"num_deleted":"0","num_feature":"4","num_nodes":"15","size_leaf_vector":"1"}},{"base_weights":[8.988368E-4,-5.2929305E-2,5.6929296E-1,-8.721869E-2,7.066611E-1,4.7081077E-1,4.7316556E0,-2.1772405E-2,1.5224069E-2,-5.0105143E-2,2.3639546E-1,3.757872E-2,4.9933878E-1,3.8838598E-1,6.683586E-1],"categories":[],"categories_nodes":[],"categories_segments":[],"categories_sizes":[],"default_left":[0,0,0,0,0,0,0,0,0,0,0,0,0,0,0],"id":52,"left_children":[1,3,5,7,9,11,13,-1,-1,-1,-1,-1,-1,-1,-1],"loss_changes":[4.760364E2,3.702518E2,5.495227E2,4.2504315E2,1.2301263E3,5.636764E2,2.5341919E1,0E0,0E0,0E0,0E0,0E0,0E0,0E0,0E0],"parents":[2147483647,0,0,1,1,2,2,3,3,4,4,5,5,6,6],"right_children":[2,4,6,8,10,12,14,-1,-1,-1,-1,-1,-1,-1,-1],"split_conditions":[4E0,5E0,4E0,2E0,1E0,4E0,1E0,-2.1772405E-2,1.5224069E-2,-5.0105143E-2,2.3639546E-1,3.757872E-2,4.9933878E-1,3.8838598E-1,6.683586E-1],"split_indices":[3,0,0,2,3,1,1,0,0,0,0,0,0,0,0],"split_type":[0,0,0,0,0,0,0,0,0,0,0,0,0,0,0],"sum_hessian":[1.5557E4,1.4212E4,1.345E3,1.3599E4,6.13E2,1.315E3,3E1,8.802E3,4.797E3,3.55E2,2.58E2,1.289E3,2.6E1,2.3E1,7E0],"tree_param":{"num_deleted":"0","num_feature":"4","num_nodes":"15","size_leaf_vector":"1"}},{"base_weights":[9.2293316E-4,-1.2480155E-2,2.0522497E0,-1.3249603E-1,2.2699592E-1,1.7156818E0,5.750391E-1,-1.7805703E-2,7.159718E-2,8.213856E-3,1.3218181E-1,1.40852E-1,4.4601533E-1],"categories":[],"categories_nodes":[],"categories_segments":[],"categories_sizes":[],"default_left":[0,0,0,0,0,0,0,0,0,0,0,0,0],"id":53,"left_children":[1,3,5,7,9,11,-1,-1,-1,-1,-1,-1,-1],"loss_changes":[4.2777905E2,4.443074E2,1.15846375E2,3.9821765E2,8.1839E2,7.29595E1,0E0,0E0,0E0,0E0,0E0,0E0,0E0],"parents":[2147483647,0,0,1,1,2,2,3,3,4,4,5,5],"right_children":[2,4,6,8,10,12,-1,-1,-1,-1,-1,-1,-1],"split_conditions":[7E0,2E0,9E0,5E0,3E0,2E0,5.750391E-1,-1.7805703E-2,7.159718E-2,8.213856E-3,1.3218181E-1,1.40852E-1,4.4601533E-1],"split_indices":[3,1,3,0,3,2,0,0,0,0,0,0,0],"split_type":[0,0,0,0,0,0,0,0,0,0,0,0,0],"sum_hessian":[1.5557E4,1.5457E4,1E2,1.0297E4,5.16E3,9.3E1,7E0,9.773E3,5.24E2,4.558E3,6.02E2,8.5E1,8E0],"tree_param":{"num_deleted":"0","num_feature":"4","num_nodes":"13","size_leaf_vector":"1"}},{"base_weights":[9.177964E-4,-4.72034E-2,4.949521E-1,-1.2947804E-1,3.1025782E-1,5.6044098E-2,2.360515E0,-2.0394685E-2,4.8342828E-2,-7.663821E-3,1.507485E-1,-3.3555485E-2,8.3076105E-2,1.8270466E-1,6.293989E-1],"categories":[],"categories_nodes":[],"categories_segments":[],"categories_sizes":[],"default_left":[0,0,0,0,0,0,0,0,0,0,0,0,0,0,0],"id":54,"left_children":[1,3,5,7,9,11,13,-1,-1,-1,-1,-1,-1,-1,-1],"loss_changes":[3.6989178E2,4.1701505E2,1.130645E3,5.26173E2,1.2289916E3,3.397591E2,5.40376E2,0E0,0E0,0E0,0E0,0E0,0E0,0E0,0E0],"parents":[2147483647,0,0,1,1,2,2,3,3,4,4,5,5,6,6],"right_children":[2,4,6,8,10,12,14,-1,-1,-1,-1,-1,-1,-1,-1],"split_conditions":[4E0,3E0,2E0,4E0,2E0,1E0,6E0,-2.0394685E-2,4.8342828E-2,-7.663821E-3,1.507485E-1,-3.3555485E-2,8.3076105E-2,1.8270466E-1,6.293989E-1],"split_indices":[1,0,3,2,3,3,1,0,0,0,0,0,0,0,0],"split_type":[0,0,0,0,0,0,0,0,0,0,0,0,0,0,0],"sum_hessian":[1.5557E4,1.4177E4,1.38E3,1.1525E4,2.652E3,1.118E3,2.62E2,1.0277E4,1.248E3,2.005E3,6.47E2,7.43E2,3.75E2,2.32E2,3E1],"tree_param":{"num_deleted":"0","num_feature":"4","num_nodes":"15","size_leaf_vector":"1"}},{"base_weights":[8.9238706E-4,-3.1313013E-2,7.5779396E-1,-1.3793616E-1,1.752047E-1,6.232248E-1,3.8858469E0,-1.8851181E-2,7.4583106E-2,-2.0325654E-3,7.393881E-2,3.3689704E-2,1.9971167E-1,2.9854748E-1,6.3895077E-1],"categories":[],"categories_nodes":[],"categories_segments":[],"categories_sizes":[],"default_left":[0,0,0,0,0,0,0,0,0,0,0,0,0,0,0],"id":55,"left_children":[1,3,5,7,9,11,13,-1,-1,-1,-1,-1,-1,-1,-1],"loss_changes":[3.7927048E2,3.286442E2,2.6487473E2,4.4009427E2,5.6063574E2,2.39291E2,3.953418E1,0E0,0E0,0E0,0E0,0E0,0E0,0E0,0E0],"parents":[2147483647,0,0,1,1,2,2,3,3,4,4,5,5,6,6],"right_children":[2,4,6,8,10,12,14,-1,-1,-1,-1,-1,-1,-1,-1],"split_conditions":[5E0,2E0,3E0,5E0,2E0,2E0,4E0,-1.8851181E-2,7.4583106E-2,-2.0325654E-3,7.393881E-2,3.3689704E-2,1.9971167E-1,2.9854748E-1,6.3895077E-1],"split_indices":[3,0,1,2,3,2,1,0,0,0,0,0,0,0,0],"split_type":[0,0,0,0,0,0,0,0,0,0,0,0,0,0,0],"sum_hessian":[1.5557E4,1.4923E4,6.34E2,9.842E3,5.081E3,6.09E2,2.5E1,9.31E3,5.32E2,3.774E3,1.307E3,5.05E2,1.04E2,2E1,5E0],"tree_param":{"num_deleted":"0","num_feature":"4","num_nodes":"15","size_leaf_vector":"1"}},{"base_weights":[8.866354E-4,-1.8179527E-1,1.27458E-1,1.7757623E-1,-3.976073E-1,2.6652941E-2,7.1242106E-1,2.9340653E-2,-4.9165804E-2,-4.5999523E-2,3.092883E-1,-9.777851E-3,2.8927615E-2,3.5387598E-2,2.3295517E-1],"categories":[],"categories_nodes":[],"categories_segments":[],"categories_sizes":[],"default_left":[0,0,0,0,0,0,0,0,0,0,0,0,0,0,0],"id":56,"left_children":[1,3,5,7,9,11,13,-1,-1,-1,-1,-1,-1,-1,-1],"loss_changes":[3.5975992E2,4.9395166E2,5.4194885E2,1.8541132E2,8.67907E2,2.562611E2,7.825046E2,0E0,0E0,0E0,0E0,0E0,0E0,0E0,0E0],"parents":[2147483647,0,0,1,1,2,2,3,3,4,4,5,5,6,6],"right_children":[2,4,6,8,10,12,14,-1,-1,-1,-1,-1,-1,-1,-1],"split_conditions":[1E0,1E0,3E0,4E0,6E0,2E0,2E0,2.9340653E-2,-4.9165804E-2,-4.5999523E-2,3.092883E-1,-9.777851E-3,2.8927615E-2,3.5387598E-2,2.3295517E-1],"split_indices":[2,3,3,0,1,1,1,0,0,0,0,0,0,0,0],"split_type":[0,0,0,0,0,0,0,0,0,0,0,0,0,0,0],"sum_hessian":[1.5557E4,6.367E3,9.19E3,2.389E3,3.978E3,7.84E3,1.35E3,2.037E3,3.52E2,3.909E3,6.9E1,5.32E3,2.52E3,1.106E3,2.44E2],"tree_param":{"num_deleted":"0","num_feature":"4","num_nodes":"15","size_leaf_vector":"1"}},{"base_weights":[8.320777E-4,-1.1221997E-2,1.8456941E0,-1.8742754E-1,1.1024185E-1,1.5349975E0,5.265668E-1,1.0241934E-2,-3.6307365E-2,-3.0642294E-3,4.349632E-2,1.27249E-1,3.8728458E-1],"categories":[],"categories_nodes":[],"categories_segments":[],"categories_sizes":[],"default_left":[0,0,0,0,0,0,0,0,0,0,0,0,0],"id":57,"left_children":[1,3,5,7,9,11,-1,-1,-1,-1,-1,-1,-1],"loss_changes":[3.4600116E2,3.308621E2,9.923721E1,3.2118048E2,4.1865405E2,5.2759872E1,0E0,0E0,0E0,0E0,0E0,0E0,0E0],"parents":[2147483647,0,0,1,1,2,2,3,3,4,4,5,5],"right_children":[2,4,6,8,10,12,-1,-1,-1,-1,-1,-1,-1],"split_conditions":[7E0,1E0,9E0,1E0,2E0,2E0,5.265668E-1,1.0241934E-2,-3.6307365E-2,-3.0642294E-3,4.349632E-2,1.27249E-1,3.8728458E-1],"split_indices":[3,1,3,3,0,2,0,0,0,0,0,0,0],"split_type":[0,0,0,0,0,0,0,0,0,0,0,0,0],"sum_hessian":[1.5557E4,1.5457E4,1E2,6.307E3,9.15E3,9.3E1,7E0,2.38E3,3.927E3,6.382E3,2.768E3,8.5E1,8E0],"tree_param":{"num_deleted":"0","num_feature":"4","num_nodes":"13","size_leaf_vector":"1"}},{"base_weights":[8.167369E-4,-1.8168163E-2,1.0482045E0,-6.250985E-2,4.336045E-1,9.190995E-1,5.274472E-1,-1.8163448E-2,1.6001793E-2,-5.839027E-3,2.3768389E-1,6.9338106E-2,3.103405E-1],"categories":[],"categories_nodes":[],"categories_segments":[],"categories_sizes":[],"default_left":[0,0,0,0,0,0,0,0,0,0,0,0,0],"id":58,"left_children":[1,3,5,7,9,11,-1,-1,-1,-1,-1,-1,-1],"loss_changes":[3.093829E2,3.061617E2,1.4629233E2,3.6894843E2,1.3061184E3,1.3096843E2,0E0,0E0,0E0,0E0,0E0,0E0,0E0],"parents":[2147483647,0,0,1,1,2,2,3,3,4,4,5,5],"right_children":[2,4,6,8,10,12,-1,-1,-1,-1,-1,-1,-1],"split_conditions":[6E0,4E0,3E0,2E0,2E0,8E0,5.274472E-1,-1.8163448E-2,1.6001793E-2,-5.839027E-3,2.3768389E-1,6.9338106E-2,3.103405E-1],"split_indices":[3,0,2,2,3,3,0,0,0,0,0,0,0],"split_type":[0,0,0,0,0,0,0,0,0,0,0,0,0],"sum_hessian":[1.5557E4,1.5281E4,2.76E2,1.3916E4,1.365E3,2.69E2,7E0,9.064E3,4.852E3,1.09E3,2.75E2,2.45E2,2.4E1],"tree_param":{"num_deleted":"0","num_feature":"4","num_nodes":"13","size_leaf_vector":"1"}},{"base_weights":[8.0815284E-4,-6.276481E-2,2.9522684E-1,-8.3648205E-2,1.0163832E0,-2.6218617E-1,8.654817E-1,-1.1853359E-2,6.164825E-2,-8.522317E-2,4.3767986E-1,-1.910026E-2,-4.558656E-2,1.8776512E-2,1.6569288E-1],"categories":[],"categories_nodes":[],"categories_segments":[],"categories_sizes":[],"default_left":[0,0,0,0,0,0,0,0,0,0,0,0,0,0,0],"id":59,"left_children":[1,3,5,7,9,11,13,-1,-1,-1,-1,-1,-1,-1,-1],"loss_changes":[2.9121866E2,2.8845923E2,8.784948E2,3.0669604E2,1.5296055E3,1.918686E1,7.323796E2,0E0,0E0,0E0,0E0,0E0,0E0,0E0,0E0],"parents":[2147483647,0,0,1,1,2,2,3,3,4,4,5,5,6,6],"right_children":[2,4,6,8,10,12,14,-1,-1,-1,-1,-1,-1,-1,-1],"split_conditions":[3E0,6E0,1E0,5E0,1E0,5E0,1E0,-1.1853359E-2,6.164825E-2,-8.522317E-2,4.3767986E-1,-1.910026E-2,-4.558656E-2,1.8776512E-2,1.6569288E-1],"split_indices":[1,2,3,0,3,1,2,0,0,0,0,0,0,0,0],"split_type":[0,0,0,0,0,0,0,0,0,0,0,0,0,0,0],"sum_hessian":[1.5557E4,1.2795E4,2.762E3,1.2553E4,2.42E2,1.397E3,1.365E3,1.1958E4,5.95E2,1.56E2,8.6E1,1.023E3,3.74E2,7.36E2,6.29E2],"tree_param":{"num_deleted":"0","num_feature":"4","num_nodes":"15","size_leaf_vector":"1"}},{"base_weights":[7.608972E-4,-4.094314E-2,4.411314E-1,-7.059631E-2,5.890767E-1,3.6213234E-1,4.4379244E0,-1.7019069E-2,1.1239321E-2,9.141391E-3,3.47349E-1,2.7745882E-2,3.8766932E-1,3.414444E-1,8.053654E-1],"categories":[],"categories_nodes":[],"categories_segments":[],"categories_sizes":[],"default_left":[0,0,0,0,0,0,0,0,0,0,0,0,0,0,0],"id":60,"left_children":[1,3,5,7,9,11,13,-1,-1,-1,-1,-1,-1,-1,-1],"loss_changes":[2.857443E2,2.6557004E2,4.2338278E2,2.4741977E2,9.169447E2,3.9204114E2,6.871759E1,0E0,0E0,0E0,0E0,0E0,0E0,0E0,0E0],"parents":[2147483647,0,0,1,1,2,2,3,3,4,4,5,5,6,6],"right_children":[2,4,6,8,10,12,14,-1,-1,-1,-1,-1,-1,-1,-1],"split_conditions":[4E0,5E0,4E0,2E0,2E0,4E0,5E0,-1.7019069E-2,1.1239321E-2,9.141391E-3,3.47349E-1,2.7745882E-2,3.8766932E-1,3.414444E-1,8.053654E-1],"split_indices":[3,1,2,2,3,0,2,0,0,0,0,0,0,0,0],"split_type":[0,0,0,0,0,0,0,0,0,0,0,0,0,0,0],"sum_hessian":[1.5557E4,1.4212E4,1.345E3,1.3574E4,6.38E2,1.32E3,2.5E1,8.79E3,4.784E3,5.45E2,9.3E1,1.29E3,3E1,2.1E1,4E0],"tree_param":{"num_deleted":"0","num_feature":"4","num_nodes":"15","size_leaf_vector":"1"}},{"base_weights":[8.077642E-4,-1.5024818E-1,1.0568982E-1,1.09069E-1,-3.0472365E-1,1.9812949E-2,6.030877E-1,3.3328462E-2,-5.092874E-2,-3.697676E-2,3.9683205E-1,-7.3885755E-3,2.1921415E-2,3.7090804E-2,3.5062686E-1],"categories":[],"categories_nodes":[],"categories_segments":[],"categories_sizes":[],"default_left":[0,0,0,0,0,0,0,0,0,0,0,0,0,0,0],"id":61,"left_children":[1,3,5,7,9,11,13,-1,-1,-1,-1,-1,-1,-1,-1],"loss_changes":[2.4650221E2,2.5544395E2,3.922397E2,3.3028384E2,1.1120978E3,1.4634639E2,9.100281E2,0E0,0E0,0E0,0E0,0E0,0E0,0E0,0E0],"parents":[2147483647,0,0,1,1,2,2,3,3,4,4,5,5,6,6],"right_children":[2,4,6,8,10,12,14,-1,-1,-1,-1,-1,-1,-1,-1],"split_conditions":[1E0,1E0,3E0,3E0,6E0,2E0,3E0,3.3328462E-2,-5.092874E-2,-3.697676E-2,3.9683205E-1,-7.3885755E-3,2.1921415E-2,3.7090804E-2,3.5062686E-1],"split_indices":[1,3,3,2,2,0,0,0,0,0,0,0,0,0,0],"split_type":[0,0,0,0,0,0,0,0,0,0,0,0,0,0,0],"sum_hessian":[1.5557E4,6.375E3,9.182E3,2.38E3,3.995E3,7.831E3,1.351E3,1.747E3,6.33E2,3.936E3,5.9E1,5.328E3,2.503E3,1.252E3,9.9E1],"tree_param":{"num_deleted":"0","num_feature":"4","num_nodes":"15","size_leaf_vector":"1"}},{"base_weights":[7.7481114E-4,-1.514118E-1,1.0621748E-1,1.7434244E-1,-3.4703916E-1,-3.517227E-2,4.3946192E-1,3.451338E-2,-3.116773E-2,-4.0120427E-2,2.8703746E-1,-1.0802185E-2,8.574791E-3,3.1929478E-2,3.541827E-1],"categories":[],"categories_nodes":[],"categories_segments":[],"categories_sizes":[],"default_left":[0,0,0,0,0,0,0,0,0,0,0,0,0,0,0],"id":62,"left_children":[1,3,5,7,9,11,13,-1,-1,-1,-1,-1,-1,-1,-1],"loss_changes":[2.4967474E2,4.0587048E2,4.3307098E2,1.9849664E2,6.945781E2,5.686245E1,1.01960175E3,0E0,0E0,0E0,0E0,0E0,0E0,0E0,0E0],"parents":[2147483647,0,0,1,1,2,2,3,3,4,4,5,5,6,6],"right_children":[2,4,6,8,10,12,14,-1,-1,-1,-1,-1,-1,-1,-1],"split_conditions":[1E0,1E0,2E0,3E0,6E0,1E0,5E0,3.451338E-2,-3.116773E-2,-4.0120427E-2,2.8703746E-1,-1.0802185E-2,8.574791E-3,3.1929478E-2,3.541827E-1],"split_indices":[2,3,3,0,0,3,2,0,0,0,0,0,0,0,0],"split_type":[0,0,0,0,0,0,0,0,0,0,0,0,0,0,0],"sum_hessian":[1.5557E4,6.367E3,9.19E3,2.389E3,3.978E3,6.453E3,2.737E3,1.768E3,6.21E2,3.913E3,6.5E1,4.027E3,2.426E3,2.636E3,1.01E2],"tree_param":{"num_deleted":"0","num_feature":"4","num_nodes":"15","size_leaf_vector":"1"}},{"base_weights":[7.3814194E-4,-2.5717644E-2,6.2251043E-1,-5.2913997E-2,5.783944E-1,5.016818E-1,3.4333928E0,-1.567091E-2,1.4075448E-2,-4.2723473E-2,1.9781436E-1,4.3661702E-2,5.343231E-1,2.5996506E-1,5.7792586E-1],"categories":[],"categories_nodes":[],"categories_segments":[],"categories_sizes":[],"default_left":[0,0,0,0,0,0,0,0,0,0,0,0,0,0,0],"id":63,"left_children":[1,3,5,7,9,11,13,-1,-1,-1,-1,-1,-1,-1,-1],"loss_changes":[2.5593692E2,2.452266E2,2.139458E2,2.8711655E2,9.059503E2,1.8982582E2,3.582794E1,0E0,0E0,0E0,0E0,0E0,0E0,0E0,0E0],"parents":[2147483647,0,0,1,1,2,2,3,3,4,4,5,5,6,6],"right_children":[2,4,6,8,10,12,14,-1,-1,-1,-1,-1,-1,-1,-1],"split_conditions":[5E0,5E0,3E0,2E0,1E0,4E0,4E0,-1.567091E-2,1.4075448E-2,-4.2723473E-2,1.9781436E-1,4.3661702E-2,5.343231E-1,2.5996506E-1,5.7792586E-1],"split_indices":[3,1,1,0,3,2,1,0,0,0,0,0,0,0,0],"split_type":[0,0,0,0,0,0,0,0,0,0,0,0,0,0,0],"sum_hessian":[1.5557E4,1.4923E4,6.34E2,1.4281E4,6.42E2,6.09E2,2.5E1,9.298E3,4.983E3,3.74E2,2.68E2,6.02E2,7E0,2E1,5E0],"tree_param":{"num_deleted":"0","num_feature":"4","num_nodes":"15","size_leaf_vector":"1"}},{"base_weights":[7.651935E-4,-9.093352E-3,1.509603E0,-1.550592E-1,9.1525346E-2,1.236449E0,4.5304632E-1,1.039493E-2,-3.1202054E-2,-1.1363825E-2,2.4868628E-2,7.3305264E-2,2.1888714E-1],"categories":[],"categories_nodes":[],"categories_segments":[],"categories_sizes":[],"default_left":[0,0,0,0,0,0,0,0,0,0,0,0,0],"id":64,"left_children":[1,3,5,7,9,11,-1,-1,-1,-1,-1,-1,-1],"loss_changes":[2.3143816E2,2.2704419E2,7.773949E1,2.564799E2,2.9509033E2,4.346338E1,0E0,0E0,0E0,0E0,0E0,0E0,0E0],"parents":[2147483647,0,0,1,1,2,2,3,3,4,4,5,5],"right_children":[2,4,6,8,10,12,-1,-1,-1,-1,-1,-1,-1],"split_conditions":[7E0,1E0,9E0,1E0,1E0,1E0,4.5304632E-1,1.039493E-2,-3.1202054E-2,-1.1363825E-2,2.4868628E-2,7.3305264E-2,2.1888714E-1],"split_indices":[3,1,3,3,2,2,0,0,0,0,0,0,0],"split_type":[0,0,0,0,0,0,0,0,0,0,0,0,0],"sum_hessian":[1.5557E4,1.5457E4,1E2,6.307E3,9.15E3,9.3E1,7E0,2.38E3,3.927E3,3.969E3,5.181E3,6.2E1,3.1E1],"tree_param":{"num_deleted":"0","num_feature":"4","num_nodes":"13","size_leaf_vector":"1"}},{"base_weights":[7.361179E-4,-3.511227E-2,3.792743E-1,-5.9035208E-2,4.7316474E-1,3.0791667E-1,3.8538222E0,-1.1549574E-2,1.7787097E-2,-3.9020013E-2,1.693122E-1,2.3637632E-2,3.8593337E-1,2.9138428E-1,6.65811E-1],"categories":[],"categories_nodes":[],"categories_segments":[],"categories_sizes":[],"default_left":[0,0,0,0,0,0,0,0,0,0,0,0,0,0,0],"id":65,"left_children":[1,3,5,7,9,11,13,-1,-1,-1,-1,-1,-1,-1,-1],"loss_changes":[2.1113512E2,1.7285063E2,3.3253455E2,1.815977E2,6.7369904E2,3.3445963E2,5.17706E1,0E0,0E0,0E0,0E0,0E0,0E0,0E0,0E0],"parents":[2147483647,0,0,1,1,2,2,3,3,4,4,5,5,6,6],"right_children":[2,4,6,8,10,12,14,-1,-1,-1,-1,-1,-1,-1,-1],"split_conditions":[4E0,5E0,4E0,3E0,1E0,4E0,5E0,-1.1549574E-2,1.7787097E-2,-3.9020013E-2,1.693122E-1,2.3637632E-2,3.8593337E-1,2.9138428E-1,6.65811E-1],"split_indices":[3,1,1,2,3,2,1,0,0,0,0,0,0,0,0],"split_type":[0,0,0,0,0,0,0,0,0,0,0,0,0,0,0],"sum_hessian":[1.5557E4,1.4212E4,1.345E3,1.3574E4,6.38E2,1.319E3,2.6E1,1.0962E4,2.612E3,3.74E2,2.64E2,1.294E3,2.5E1,2.1E1,5E0],"tree_param":{"num_deleted":"0","num_feature":"4","num_nodes":"15","size_leaf_vector":"1"}},{"base_weights":[7.591454E-4,-1.4337719E-2,8.336455E-1,-6.992169E-2,2.3955159E-1,7.195987E-1,4.5785204E-1,9.625343E-3,-1.8219104E-2,-3.5528507E-2,8.2475975E-2,6.136302E-2,4.1133642E-1],"categories":[],"categories_nodes":[],"categories_segments":[],"categories_sizes":[],"default_left":[0,0,0,0,0,0,0,0,0,0,0,0,0],"id":66,"left_children":[1,3,5,7,9,11,-1,-1,-1,-1,-1,-1,-1],"loss_changes":[1.9563783E2,2.1567903E2,1.1500955E2,2.3393109E2,9.558364E2,9.4576645E1,0E0,0E0,0E0,0E0,0E0,0E0,0E0],"parents":[2147483647,0,0,1,1,2,2,3,3,4,4,5,5],"right_children":[2,4,6,8,10,12,-1,-1,-1,-1,-1,-1,-1],"split_conditions":[6E0,3E0,3E0,1E0,1E0,9E0,4.5785204E-1,9.625343E-3,-1.8219104E-2,-3.5528507E-2,8.2475975E-2,6.136302E-2,4.1133642E-1],"split_indices":[3,0,2,3,3,3,0,0,0,0,0,0,0],"split_type":[0,0,0,0,0,0,0,0,0,0,0,0,0],"sum_hessian":[1.5557E4,1.5281E4,2.76E2,1.2537E4,2.744E3,2.69E2,7E0,5.055E3,7.482E3,1.361E3,1.383E3,2.62E2,7E0],"tree_param":{"num_deleted":"0","num_feature":"4","num_nodes":"13","size_leaf_vector":"1"}},{"base_weights":[7.4546825E-4,-7.688086E-2,1.5682411E-1,-9.8243944E-2,8.673304E-1,4.6726294E-2,9.7941285E-1,1.1298682E-2,-2.2645658E-2,-4.8860162E-2,2.906539E-1,-1.4886665E-2,2.720192E-2,7.736534E-2,5.0750196E-1],"categories":[],"categories_nodes":[],"categories_segments":[],"categories_sizes":[],"default_left":[0,0,0,0,0,0,0,0,0,0,0,0,0,0,0],"id":67,"left_children":[1,3,5,7,9,11,13,-1,-1,-1,-1,-1,-1,-1,-1],"loss_changes":[1.8850984E2,2.0968486E2,4.679953E2,2.7523746E2,6.3737665E2,2.0093605E2,5.101266E2,0E0,0E0,0E0,0E0,0E0,0E0,0E0,0E0],"parents":[2147483647,0,0,1,1,2,2,3,3,4,4,5,5,6,6],"right_children":[2,4,6,8,10,12,14,-1,-1,-1,-1,-1,-1,-1,-1],"split_conditions":[2E0,6E0,3E0,1E0,1E0,1E0,5E0,1.1298682E-2,-2.2645658E-2,-4.8860162E-2,2.906539E-1,-1.4886665E-2,2.720192E-2,7.736534E-2,5.0750196E-1],"split_indices":[1,0,3,3,3,3,1,0,0,0,0,0,0,0,0],"split_type":[0,0,0,0,0,0,0,0,0,0,0,0,0,0,0],"sum_hessian":[1.5557E4,1.039E4,5.167E3,1.0161E4,2.29E2,4.558E3,6.09E2,3.838E3,6.323E3,1.38E2,9.1E1,2.44E3,2.118E3,5.81E2,2.8E1],"tree_param":{"num_deleted":"0","num_feature":"4","num_nodes":"15","size_leaf_vector":"1"}},{"base_weights":[7.2413177E-4,-1.3047655E-1,9.162667E-2,1.8494648E-1,-3.1990367E-1,-3.7635233E-2,3.962887E-1,2.8999642E-2,-4.220697E-2,-3.666773E-2,2.2973073E-1,-1.09201325E-2,8.115581E-3,2.8092686E-2,3.4686023E-1],"categories":[],"categories_nodes":[],"categories_segments":[],"categories_sizes":[],"default_left":[0,0,0,0,0,0,0,0,0,0,0,0,0,0,0],"id":68,"left_children":[1,3,5,7,9,11,13,-1,-1,-1,-1,-1,-1,-1,-1],"loss_changes":[1.8556404E2,3.805451E2,3.6196747E2,1.5252554E2,4.8793738E2,5.487697E1,9.69449E2,0E0,0E0,0E0,0E0,0E0,0E0,0E0,0E0],"parents":[2147483647,0,0,1,1,2,2,3,3,4,4,5,5,6,6],"right_children":[2,4,6,8,10,12,14,-1,-1,-1,-1,-1,-1,-1,-1],"split_conditions":[1E0,1E0,2E0,4E0,6E0,1E0,4E0,2.8999642E-2,-4.220697E-2,-3.666773E-2,2.2973073E-1,-1.09201325E-2,8.115581E-3,2.8092686E-2,3.4686023E-1],"split_indices":[2,3,3,0,1,3,0,0,0,0,0,0,0,0,0],"split_type":[0,0,0,0,0,0,0,0,0,0,0,0,0,0,0],"sum_hessian":[1.5557E4,6.367E3,9.19E3,2.389E3,3.978E3,6.453E3,2.737E3,2.037E3,3.52E2,3.909E3,6.9E1,4.027E3,2.426E3,2.639E3,9.8E1],"tree_param":{"num_deleted":"0","num_feature":"4","num_nodes":"15","size_leaf_vector":"1"}},{"base_weights":[6.871869E-4,-2.1025162E-2,5.109776E-1,-5.4963484E-2,3.1722644E-1,2.991202E-1,1.7424572E0,-1.1326133E-2,1.8998453E-2,-4.3005254E-2,1.1647385E-1,2.3571372E-2,4.5099637E-1,1.1235481E-1,3.294125E-1],"categories":[],"categories_nodes":[],"categories_segments":[],"categories_sizes":[],"default_left":[0,0,0,0,0,0,0,0,0,0,0,0,0,0,0],"id":69,"left_children":[1,3,5,7,9,11,13,-1,-1,-1,-1,-1,-1,-1,-1],"loss_changes":[1.723872E2,1.7134036E2,1.6514906E2,1.9371465E2,8.6246027E2,1.4391507E2,8.561063E1,0E0,0E0,0E0,0E0,0E0,0E0,0E0,0E0],"parents":[2147483647,0,0,1,1,2,2,3,3,4,4,5,5,6,6],"right_children":[2,4,6,8,10,12,14,-1,-1,-1,-1,-1,-1,-1,-1],"split_conditions":[5E0,4E0,2E0,3E0,1E0,4E0,1E0,-1.1326133E-2,1.8998453E-2,-4.3005254E-2,1.1647385E-1,2.3571372E-2,4.5099637E-1,1.1235481E-1,3.294125E-1],"split_indices":[3,0,1,2,3,2,2,0,0,0,0,0,0,0,0],"split_type":[0,0,0,0,0,0,0,0,0,0,0,0,0,0,0],"sum_hessian":[1.5557E4,1.4923E4,6.34E2,1.3563E4,1.36E3,5.42E2,9.2E1,1.0956E4,2.607E3,7.23E2,6.37E2,5.35E2,7E0,6.7E1,2.5E1],"tree_param":{"num_deleted":"0","num_feature":"4","num_nodes":"15","size_leaf_vector":"1"}},{"base_weights":[6.825699E-4,-4.75639E-2,2.2412127E-1,-7.288066E-2,4.7078747E-1,-1.989186E-1,6.569072E-1,1.0235366E-2,-1.8208645E-2,-3.0435706E-3,2.9275787E-1,-1.5680768E-2,-4.9816962E-2,3.453117E-2,2.006617E-1],"categories":[],"categories_nodes":[],"categories_segments":[],"categories_sizes":[],"default_left":[0,0,0,0,0,0,0,0,0,0,0,0,0,0,0],"id":70,"left_children":[1,3,5,7,9,11,13,-1,-1,-1,-1,-1,-1,-1,-1],"loss_changes":[1.6772789E2,1.6795596E2,5.0599646E2,2.3350433E2,7.340039E2,1.7539104E1,5.7379706E2,0E0,0E0,0E0,0E0,0E0,0E0,0E0,0E0],"parents":[2147483647,0,0,1,1,2,2,3,3,4,4,5,5,6,6],"right_children":[2,4,6,8,10,12,14,-1,-1,-1,-1,-1,-1,-1,-1],"split_conditions":[3E0,5E0,1E0,1E0,2E0,3E0,2E0,1.0235366E-2,-1.8208645E-2,-3.0435706E-3,2.9275787E-1,-1.5680768E-2,-4.9816962E-2,3.453117E-2,2.006617E-1],"split_indices":[1,0,3,3,3,2,2,0,0,0,0,0,0,0,0],"split_type":[0,0,0,0,0,0,0,0,0,0,0,0,0,0,0],"sum_hessian":[1.5557E4,1.2795E4,2.762E3,1.22E4,5.95E2,1.397E3,1.365E3,4.684E3,7.516E3,4.95E2,1E2,1.226E3,1.71E2,1.11E3,2.55E2],"tree_param":{"num_deleted":"0","num_feature":"4","num_nodes":"15","size_leaf_vector":"1"}},{"base_weights":[6.433384E-4,-7.655833E-3,1.2708211E0,-1.3218856E-1,7.8188345E-2,1.0426863E0,3.792552E-1,9.256598E-3,-2.683923E-2,-3.8512796E-3,3.471754E-2,8.248045E-2,3.0088133E-1],"categories":[],"categories_nodes":[],"categories_segments":[],"categories_sizes":[],"default_left":[0,0,0,0,0,0,0,0,0,0,0,0,0],"id":71,"left_children":[1,3,5,7,9,11,-1,-1,-1,-1,-1,-1,-1],"loss_changes":[1.640132E2,1.6526266E2,5.4150284E1,1.931279E2,2.872733E2,3.778634E1,0E0,0E0,0E0,0E0,0E0,0E0,0E0],"parents":[2147483647,0,0,1,1,2,2,3,3,4,4,5,5],"right_children":[2,4,6,8,10,12,-1,-1,-1,-1,-1,-1,-1],"split_conditions":[7E0,1E0,9E0,1E0,2E0,2E0,3.792552E-1,9.256598E-3,-2.683923E-2,-3.8512796E-3,3.471754E-2,8.248045E-2,3.0088133E-1],"split_indices":[3,1,3,3,0,2,0,0,0,0,0,0,0],"split_type":[0,0,0,0,0,0,0,0,0,0,0,0,0],"sum_hessian":[1.5557E4,1.5457E4,1E2,6.307E3,9.15E3,9.3E1,7E0,2.38E3,3.927E3,6.382E3,2.768E3,8.5E1,8E0],"tree_param":{"num_deleted":"0","num_feature":"4","num_nodes":"13","size_leaf_vector":"1"}},{"base_weights":[6.288321E-4,-3.104286E-2,3.3506355E-1,-4.4756923E-2,7.35094E-1,2.1620673E-1,1.9527836E0,-5.8105593E-3,6.4024255E-2,-7.851282E-2,3.5923508E-1,1.4903461E-2,3.3856496E-1,1.2022489E-1,3.9161268E-1],"categories":[],"categories_nodes":[],"categories_segments":[],"categories_sizes":[],"default_left":[0,0,0,0,0,0,0,0,0,0,0,0,0,0,0],"id":72,"left_children":[1,3,5,7,9,11,13,-1,-1,-1,-1,-1,-1,-1,-1],"loss_changes":[1.648025E2,1.4936674E2,2.5838275E2,1.2772167E2,1.0887367E3,2.666827E2,1.308591E2,0E0,0E0,0E0,0E0,0E0,0E0,0E0,0E0],"parents":[2147483647,0,0,1,1,2,2,3,3,4,4,5,5,6,6],"right_children":[2,4,6,8,10,12,14,-1,-1,-1,-1,-1,-1,-1,-1],"split_conditions":[4E0,6E0,3E0,6E0,1E0,4E0,1E0,-5.8105593E-3,6.4024255E-2,-7.851282E-2,3.5923508E-1,1.4903461E-2,3.3856496E-1,1.2022489E-1,3.9161268E-1],"split_indices":[3,2,0,1,3,2,1,0,0,0,0,0,0,0,0],"split_type":[0,0,0,0,0,0,0,0,0,0,0,0,0,0,0],"sum_hessian":[1.5557E4,1.4212E4,1.345E3,1.3963E4,2.49E2,1.254E3,9.1E1,1.3697E4,2.66E2,1.63E2,8.6E1,1.229E3,2.5E1,6.7E1,2.4E1],"tree_param":{"num_deleted":"0","num_feature":"4","num_nodes":"15","size_leaf_vector":"1"}},{"base_weights":[6.433589E-4,-1.1588933E-1,8.138316E-2,1.7230275E-1,-2.8896376E-1,-3.545696E-2,3.567684E-1,3.0968145E-2,-2.1868633E-2,-3.2908093E-2,2.0944837E-1,-9.821949E-3,6.872223E-3,2.5098477E-2,3.088089E-1],"categories":[],"categories_nodes":[],"categories_segments":[],"categories_sizes":[],"default_left":[0,0,0,0,0,0,0,0,0,0,0,0,0,0,0],"id":73,"left_children":[1,3,5,7,9,11,13,-1,-1,-1,-1,-1,-1,-1,-1],"loss_changes":[1.4639194E2,3.1767725E2,2.9574268E2,1.2844315E2,3.8114987E2,4.220655E1,7.9031256E2,0E0,0E0,0E0,0E0,0E0,0E0,0E0,0E0],"parents":[2147483647,0,0,1,1,2,2,3,3,4,4,5,5,6,6],"right_children":[2,4,6,8,10,12,14,-1,-1,-1,-1,-1,-1,-1,-1],"split_conditions":[1E0,1E0,2E0,3E0,6E0,1E0,5E0,3.0968145E-2,-2.1868633E-2,-3.2908093E-2,2.0944837E-1,-9.821949E-3,6.872223E-3,2.5098477E-2,3.088089E-1],"split_indices":[2,3,3,0,0,3,2,0,0,0,0,0,0,0,0],"split_type":[0,0,0,0,0,0,0,0,0,0,0,0,0,0,0],"sum_hessian":[1.5557E4,6.367E3,9.19E3,2.389E3,3.978E3,6.453E3,2.737E3,1.768E3,6.21E2,3.913E3,6.5E1,4.027E3,2.426E3,2.636E3,1.01E2],"tree_param":{"num_deleted":"0","num_feature":"4","num_nodes":"15","size_leaf_vector":"1"}},{"base_weights":[6.1221886E-4,-1.2288375E-2,7.123316E-1,-8.1823334E-2,1.2480996E-1,4.9415666E-1,2.2571068E0,9.986446E-3,-2.0093784E-2,2.6021919E-3,8.7134786E-2,3.91648E-2,3.4692058E-1,1.6514082E-1,4.0192008E-1],"categories":[],"categories_nodes":[],"categories_segments":[],"categories_sizes":[],"default_left":[0,0,0,0,0,0,0,0,0,0,0,0,0,0,0],"id":74,"left_children":[1,3,5,7,9,11,13,-1,-1,-1,-1,-1,-1,-1,-1],"loss_changes":[1.4285614E2,1.4569545E2,9.224226E1,2.1946643E2,3.792685E2,7.305356E1,2.9650772E1,0E0,0E0,0E0,0E0,0E0,0E0,0E0,0E0],"parents":[2147483647,0,0,1,1,2,2,3,3,4,4,5,5,6,6],"right_children":[2,4,6,8,10,12,14,-1,-1,-1,-1,-1,-1,-1,-1],"split_conditions":[6E0,2E0,2E0,1E0,3E0,9E0,3E0,9.986446E-3,-2.0093784E-2,2.6021919E-3,8.7134786E-2,3.91648E-2,3.4692058E-1,1.6514082E-1,4.0192008E-1],"split_indices":[3,0,2,3,3,3,2,0,0,0,0,0,0,0,0],"split_type":[0,0,0,0,0,0,0,0,0,0,0,0,0,0,0],"sum_hessian":[1.5557E4,1.5281E4,2.76E2,1.0139E4,5.142E3,2.43E2,3.3E1,4.015E3,6.124E3,4.542E3,6E2,2.36E2,7E0,2.6E1,7E0],"tree_param":{"num_deleted":"0","num_feature":"4","num_nodes":"15","size_leaf_vector":"1"}},{"base_weights":[6.173872E-4,-6.55349E-2,1.3362586E-1,-8.269722E-2,6.9302624E-1,3.654989E-2,8.5893035E-1,9.271302E-3,-1.8916737E-2,-3.6404457E-2,2.2825895E-1,-1.3810297E-2,2.3772547E-2,6.734159E-2,4.552395E-1],"categories":[],"categories_nodes":[],"categories_segments":[],"categories_sizes":[],"default_left":[0,0,0,0,0,0,0,0,0,0,0,0,0,0,0],"id":75,"left_children":[1,3,5,7,9,11,13,-1,-1,-1,-1,-1,-1,-1,-1],"loss_changes":[1.3690071E2,1.3533435E2,3.638456E2,1.8980257E2,3.8729556E2,1.6021733E2,4.1490088E2,0E0,0E0,0E0,0E0,0E0,0E0,0E0,0E0],"parents":[2147483647,0,0,1,1,2,2,3,3,4,4,5,5,6,6],"right_children":[2,4,6,8,10,12,14,-1,-1,-1,-1,-1,-1,-1,-1],"split_conditions":[2E0,6E0,3E0,1E0,1E0,1E0,5E0,9.271302E-3,-1.8916737E-2,-3.6404457E-2,2.2825895E-1,-1.3810297E-2,2.3772547E-2,6.734159E-2,4.552395E-1],"split_indices":[1,0,3,3,3,3,1,0,0,0,0,0,0,0,0],"split_type":[0,0,0,0,0,0,0,0,0,0,0,0,0,0,0],"sum_hessian":[1.5557E4,1.039E4,5.167E3,1.0161E4,2.29E2,4.558E3,6.09E2,3.838E3,6.323E3,1.38E2,9.1E1,2.44E3,2.118E3,5.81E2,2.8E1],"tree_param":{"num_deleted":"0","num_feature":"4","num_nodes":"15","size_leaf_vector":"1"}},{"base_weights":[6.016358E-4,-6.506374E-2,1.335921E-1,1.7198709E-1,-2.1305788E-1,-2.971354E-1,5.1441354E-1,2.9512227E-2,-2.0068517E-2,-2.4980953E-2,2.287159E-1,-1.24827875E-2,-6.8523966E-2,4.270151E-2,3.1646106E-1],"categories":[],"categories_nodes":[],"categories_segments":[],"categories_sizes":[],"default_left":[0,0,0,0,0,0,0,0,0,0,0,0,0,0,0],"id":76,"left_children":[1,3,5,7,9,11,13,-1,-1,-1,-1,-1,-1,-1,-1],"loss_changes":[1.3587465E2,3.6545215E2,8.4376056E2,1.8379904E2,5.898431E2,1.6134656E2,6.3097986E2,0E0,0E0,0E0,0E0,0E0,0E0,0E0,0E0],"parents":[2147483647,0,0,1,1,2,2,3,3,4,4,5,5,6,6],"right_children":[2,4,6,8,10,12,14,-1,-1,-1,-1,-1,-1,-1,-1],"split_conditions":[2E0,1E0,1E0,3E0,6E0,4E0,6E0,2.9512227E-2,-2.0068517E-2,-2.4980953E-2,2.287159E-1,-1.24827875E-2,-6.8523966E-2,4.270151E-2,3.1646106E-1],"split_indices":[2,3,3,0,1,2,2,0,0,0,0,0,0,0,0],"split_type":[0,0,0,0,0,0,0,0,0,0,0,0,0,0,0],"sum_hessian":[1.5557E4,1.0415E4,5.142E3,4.003E3,6.412E3,2.413E3,2.729E3,3.009E3,9.94E2,6.32E3,9.2E1,1.672E3,7.41E2,2.643E3,8.6E1],"tree_param":{"num_deleted":"0","num_feature":"4","num_nodes":"15","size_leaf_vector":"1"}},{"base_weights":[5.730011E-4,-2.8216781E-2,3.0457643E-1,-8.80239E-2,8.586168E-2,2.4488944E-1,3.2113256E0,1.5479073E-2,-2.7068866E-2,-2.6745543E-2,4.3029692E-2,1.7962206E-2,2.952955E-1,2.502301E-1,5.275862E-1],"categories":[],"categories_nodes":[],"categories_segments":[],"categories_sizes":[],"default_left":[0,0,0,0,0,0,0,0,0,0,0,0,0,0,0],"id":77,"left_children":[1,3,5,7,9,11,13,-1,-1,-1,-1,-1,-1,-1,-1],"loss_changes":[1.3617519E2,9.697866E1,2.3273795E2,4.136399E2,5.950813E2,2.3277744E2,2.6320984E1,0E0,0E0,0E0,0E0,0E0,0E0,0E0,0E0],"parents":[2147483647,0,0,1,1,2,2,3,3,4,4,5,5,6,6],"right_children":[2,4,6,8,10,12,14,-1,-1,-1,-1,-1,-1,-1,-1],"split_conditions":[4E0,2E0,4E0,1E0,1E0,4E0,5E0,1.5479073E-2,-2.7068866E-2,-2.6745543E-2,4.3029692E-2,1.7962206E-2,2.952955E-1,2.502301E-1,5.275862E-1],"split_indices":[3,2,1,3,3,0,1,0,0,0,0,0,0,0,0],"split_type":[0,0,0,0,0,0,0,0,0,0,0,0,0,0,0],"sum_hessian":[1.5557E4,1.4212E4,1.345E3,9.324E3,4.888E3,1.319E3,2.6E1,4.003E3,5.321E3,2.413E3,2.475E3,1.289E3,3E1,2.1E1,5E0],"tree_param":{"num_deleted":"0","num_feature":"4","num_nodes":"15","size_leaf_vector":"1"}},{"base_weights":[5.861545E-4,-4.0768456E-2,1.9312315E-1,-7.5557575E-2,2.7233827E-1,-2.7038646E-1,6.4715695E-1,1.6674351E-2,-2.2388907E-2,-5.670364E-2,1.21705316E-1,-2.1917097E-2,-6.406033E-2,-1.3919132E-3,1.4174043E-1],"categories":[],"categories_nodes":[],"categories_segments":[],"categories_sizes":[],"default_left":[0,0,0,0,0,0,0,0,0,0,0,0,0,0,0],"id":78,"left_children":[1,3,5,7,9,11,13,-1,-1,-1,-1,-1,-1,-1,-1],"loss_changes":[1.23885216E2,1.3953436E2,5.7912024E2,4.1436383E2,1.01648425E3,2.5684265E1,7.077969E2,0E0,0E0,0E0,0E0,0E0,0E0,0E0,0E0],"parents":[2147483647,0,0,1,1,2,2,3,3,4,4,5,5,6,6],"right_children":[2,4,6,8,10,12,14,-1,-1,-1,-1,-1,-1,-1,-1],"split_conditions":[3E0,4E0,1E0,1E0,1E0,3E0,1E0,1.6674351E-2,-2.2388907E-2,-5.670364E-2,1.21705316E-1,-2.1917097E-2,-6.406033E-2,-1.3919132E-3,1.4174043E-1],"split_indices":[0,2,3,3,3,2,1,0,0,0,0,0,0,0,0],"split_type":[0,0,0,0,0,0,0,0,0,0,0,0,0,0,0],"sum_hessian":[1.5557E4,1.2807E4,2.75E3,1.1527E4,1.28E3,1.361E3,1.389E3,4.377E3,7.15E3,6.78E2,6.02E2,1.197E3,1.64E2,7.48E2,6.41E2],"tree_param":{"num_deleted":"0","num_feature":"4","num_nodes":"15","size_leaf_vector":"1"}},{"base_weights":[5.3478795E-4,-1.8176196E-2,4.4028625E-1,-8.04525E-2,1.0244637E-1,3.4400505E-1,2.6822572E0,8.231894E-3,-1.926024E-2,-1.464079E-2,3.2536525E-2,1.5895946E-2,1.2324723E-1,2.063127E-1,4.40217E-1],"categories":[],"categories_nodes":[],"categories_segments":[],"categories_sizes":[],"default_left":[0,0,0,0,0,0,0,0,0,0,0,0,0,0,0],"id":79,"left_children":[1,3,5,7,9,11,13,-1,-1,-1,-1,-1,-1,-1,-1],"loss_changes":[1.2802206E2,1.1211625E2,1.3614816E2,1.7969785E2,2.8196808E2,1.0009232E2,1.8603851E1,0E0,0E0,0E0,0E0,0E0,0E0,0E0,0E0],"parents":[2147483647,0,0,1,1,2,2,3,3,4,4,5,5,6,6],"right_children":[2,4,6,8,10,12,14,-1,-1,-1,-1,-1,-1,-1,-1],"split_conditions":[5E0,2E0,3E0,1E0,1E0,2E0,4E0,8.231894E-3,-1.926024E-2,-1.464079E-2,3.2536525E-2,1.5895946E-2,1.2324723E-1,2.063127E-1,4.40217E-1],"split_indices":[3,0,1,3,3,2,1,0,0,0,0,0,0,0,0],"split_type":[0,0,0,0,0,0,0,0,0,0,0,0,0,0,0],"sum_hessian":[1.5557E4,1.4923E4,6.34E2,9.842E3,5.081E3,6.09E2,2.5E1,4.015E3,5.827E3,2.401E3,2.68E3,5.05E2,1.04E2,2E1,5E0],"tree_param":{"num_deleted":"0","num_feature":"4","num_nodes":"15","size_leaf_vector":"1"}},{"base_weights":[5.3226785E-4,-6.5694163E-3,1.0874363E0,-1.13508135E-1,6.714668E-2,8.9658415E-1,3.1940195E-1,9.484922E-3,-2.3977732E-2,-1.0035172E-2,1.954565E-2,5.282081E-2,1.5938063E-1],"categories":[],"categories_nodes":[],"categories_segments":[],"categories_sizes":[],"default_left":[0,0,0,0,0,0,0,0,0,0,0,0,0],"id":80,"left_children":[1,3,5,7,9,11,-1,-1,-1,-1,-1,-1,-1],"loss_changes":[1.2009699E2,1.2186466E2,3.774292E1,1.6598062E2,1.9669006E2,2.3301102E1,0E0,0E0,0E0,0E0,0E0,0E0,0E0],"parents":[2147483647,0,0,1,1,2,2,3,3,4,4,5,5],"right_children":[2,4,6,8,10,12,-1,-1,-1,-1,-1,-1,-1],"split_conditions":[7E0,1E0,9E0,1E0,1E0,1E0,3.1940195E-1,9.484922E-3,-2.3977732E-2,-1.0035172E-2,1.954565E-2,5.282081E-2,1.5938063E-1],"split_indices":[3,1,3,3,2,2,0,0,0,0,0,0,0],"split_type":[0,0,0,0,0,0,0,0,0,0,0,0,0],"sum_hessian":[1.5557E4,1.5457E4,1E2,6.307E3,9.15E3,9.3E1,7E0,2.38E3,3.927E3,3.969E3,5.181E3,6.2E1,3.1E1],"tree_param":{"num_deleted":"0","num_feature":"4","num_nodes":"13","size_leaf_vector":"1"}},{"base_weights":[5.1285385E-4,-2.5681019E-2,2.7710497E-1,-3.2477837E-2,9.8473966E-1,2.2375241E-1,2.8751898E0,-3.915304E-3,9.746781E-2,-2.7565503E-2,3.4747562E-1,1.6583828E-2,2.62651E-1,2.2188155E-1,4.8026973E-1],"categories":[],"categories_nodes":[],"categories_segments":[],"categories_sizes":[],"default_left":[0,0,0,0,0,0,0,0,0,0,0,0,0,0,0],"id":81,"left_children":[1,3,5,7,9,11,13,-1,-1,-1,-1,-1,-1,-1,-1],"loss_changes":[1.1272512E2,9.764184E1,1.8593182E2,9.4959724E1,2.9910617E2,1.832472E2,2.3503174E1,0E0,0E0,0E0,0E0,0E0,0E0,0E0,0E0],"parents":[2147483647,0,0,1,1,2,2,3,3,4,4,5,5,6,6],"right_children":[2,4,6,8,10,12,14,-1,-1,-1,-1,-1,-1,-1,-1],"split_conditions":[4E0,7E0,4E0,7E0,1E0,4E0,5E0,-3.915304E-3,9.746781E-2,-2.7565503E-2,3.4747562E-1,1.6583828E-2,2.62651E-1,2.2188155E-1,4.8026973E-1],"split_indices":[3,0,1,2,3,0,1,0,0,0,0,0,0,0,0],"split_type":[0,0,0,0,0,0,0,0,0,0,0,0,0,0,0],"sum_hessian":[1.5557E4,1.4212E4,1.345E3,1.4118E4,9.4E1,1.319E3,2.6E1,1.4026E4,9.2E1,6.3E1,3.1E1,1.289E3,3E1,2.1E1,5E0],"tree_param":{"num_deleted":"0","num_feature":"4","num_nodes":"15","size_leaf_vector":"1"}},{"base_weights":[5.5119145E-4,-3.783957E-2,1.783462E-1,-5.790931E-2,3.730812E-1,-2.1326905E-1,5.790049E-1,7.820855E-3,-1.427376E-2,-4.7930344E-3,2.4369292E-1,-1.4546573E-2,-3.978486E-2,5.764631E-3,1.1879926E-1],"categories":[],"categories_nodes":[],"categories_segments":[],"categories_sizes":[],"default_left":[0,0,0,0,0,0,0,0,0,0,0,0,0,0,0],"id":82,"left_children":[1,3,5,7,9,11,13,-1,-1,-1,-1,-1,-1,-1,-1],"loss_changes":[1.0620075E2,1.0555118E2,4.3364938E2,1.4089177E2,5.1798346E2,1.7438244E1,4.336379E2,0E0,0E0,0E0,0E0,0E0,0E0,0E0,0E0],"parents":[2147483647,0,0,1,1,2,2,3,3,4,4,5,5,6,6],"right_children":[2,4,6,8,10,12,14,-1,-1,-1,-1,-1,-1,-1,-1],"split_conditions":[3E0,5E0,1E0,1E0,2E0,5E0,1E0,7.820855E-3,-1.427376E-2,-4.7930344E-3,2.4369292E-1,-1.4546573E-2,-3.978486E-2,5.764631E-3,1.1879926E-1],"split_indices":[1,0,3,3,3,1,2,0,0,0,0,0,0,0,0],"split_type":[0,0,0,0,0,0,0,0,0,0,0,0,0,0,0],"sum_hessian":[1.5557E4,1.2795E4,2.762E3,1.22E4,5.95E2,1.397E3,1.365E3,4.684E3,7.516E3,4.95E2,1E2,1.023E3,3.74E2,7.36E2,6.29E2],"tree_param":{"num_deleted":"0","num_feature":"4","num_nodes":"15","size_leaf_vector":"1"}},{"base_weights":[5.1554356E-4,-1.0481032E-2,6.071912E-1,-3.6413904E-2,2.5079086E-1,5.187753E-1,3.515328E-1,-1.0518867E-2,9.077048E-3,-3.5352092E-3,1.471948E-1,3.658399E-2,2.0029087E-1],"categories":[],"categories_nodes":[],"categories_segments":[],"categories_sizes":[],"default_left":[0,0,0,0,0,0,0,0,0,0,0,0,0],"id":83,"left_children":[1,3,5,7,9,11,-1,-1,-1,-1,-1,-1,-1],"loss_changes":[1.0379929E2,1.035528E2,6.940008E1,1.2162012E2,4.8225928E2,6.055091E1,0E0,0E0,0E0,0E0,0E0,0E0,0E0],"parents":[2147483647,0,0,1,1,2,2,3,3,4,4,5,5],"right_children":[2,4,6,8,10,12,-1,-1,-1,-1,-1,-1,-1],"split_conditions":[6E0,4E0,3E0,2E0,2E0,8E0,3.515328E-1,-1.0518867E-2,9.077048E-3,-3.5352092E-3,1.471948E-1,3.658399E-2,2.0029087E-1],"split_indices":[3,1,2,0,3,3,0,0,0,0,0,0,0],"split_type":[0,0,0,0,0,0,0,0,0,0,0,0,0],"sum_hessian":[1.5557E4,1.5281E4,2.76E2,1.3902E4,1.379E3,2.69E2,7E0,9.023E3,4.879E3,1.118E3,2.61E2,2.45E2,2.4E1],"tree_param":{"num_deleted":"0","num_feature":"4","num_nodes":"13","size_leaf_vector":"1"}},{"base_weights":[5.1097287E-4,-2.3042627E-2,2.492233E-1,-3.3121787E-2,5.4003114E-1,1.984658E-1,2.8185103E0,-3.9267284E-3,8.644691E-2,-6.136928E-2,2.70866E-1,1.6830264E-3,9.614118E-2,1.9537517E-1,6.059747E-1],"categories":[],"categories_nodes":[],"categories_segments":[],"categories_sizes":[],"default_left":[0,0,0,0,0,0,0,0,0,0,0,0,0,0,0],"id":84,"left_children":[1,3,5,7,9,11,13,-1,-1,-1,-1,-1,-1,-1,-1],"loss_changes":[9.1145615E1,8.068109E1,1.7497334E2,7.7061325E1,6.27162E2,1.8304547E2,6.1035812E1,0E0,0E0,0E0,0E0,0E0,0E0,0E0,0E0],"parents":[2147483647,0,0,1,1,2,2,3,3,4,4,5,5,6,6],"right_children":[2,4,6,8,10,12,14,-1,-1,-1,-1,-1,-1,-1,-1],"split_conditions":[4E0,6E0,4E0,7E0,1E0,2E0,5E0,-3.9267284E-3,8.644691E-2,-6.136928E-2,2.70866E-1,1.6830264E-3,9.614118E-2,1.9537517E-1,6.059747E-1],"split_indices":[3,2,2,0,3,1,2,0,0,0,0,0,0,0,0],"split_type":[0,0,0,0,0,0,0,0,0,0,0,0,0,0,0],"sum_hessian":[1.5557E4,1.4212E4,1.345E3,1.3963E4,2.49E2,1.32E3,2.5E1,1.3869E4,9.4E1,1.63E2,8.6E1,1.067E3,2.53E2,2.1E1,4E0],"tree_param":{"num_deleted":"0","num_feature":"4","num_nodes":"15","size_leaf_vector":"1"}},{"base_weights":[5.364305E-4,-8.822892E-2,6.21685E-2,8.792216E-2,-1.9316572E-1,4.1047977E-3,3.9847973E-1,2.1132484E-2,-5.9868373E-2,-3.0015055E-2,8.7193586E-2,-3.7766173E-3,2.178622E-2,2.1975767E-2,2.6338825E-1],"categories":[],"categories_nodes":[],"categories_segments":[],"categories_sizes":[],"default_left":[0,0,0,0,0,0,0,0,0,0,0,0,0,0,0],"id":85,"left_children":[1,3,5,7,9,11,13,-1,-1,-1,-1,-1,-1,-1,-1],"loss_changes":[8.512007E1,1.17875626E2,1.7931915E2,2.018663E2,4.556048E2,7.010644E1,5.3956647E2,0E0,0E0,0E0,0E0,0E0,0E0,0E0,0E0],"parents":[2147483647,0,0,1,1,2,2,3,3,4,4,5,5,6,6],"right_children":[2,4,6,8,10,12,14,-1,-1,-1,-1,-1,-1,-1,-1],"split_conditions":[1E0,1E0,3E0,4E0,4E0,3E0,3E0,2.1132484E-2,-5.9868373E-2,-3.0015055E-2,8.7193586E-2,-3.7766173E-3,2.178622E-2,2.1975767E-2,2.6338825E-1],"split_indices":[1,3,3,2,2,0,0,0,0,0,0,0,0,0,0],"split_type":[0,0,0,0,0,0,0,0,0,0,0,0,0,0,0],"sum_hessian":[1.5557E4,6.375E3,9.182E3,2.38E3,3.995E3,7.831E3,1.351E3,2.018E3,3.62E2,3.631E3,3.64E2,6.549E3,1.282E3,1.252E3,9.9E1],"tree_param":{"num_deleted":"0","num_feature":"4","num_nodes":"15","size_leaf_vector":"1"}},{"base_weights":[5.034494E-4,-8.8698894E-2,6.230739E-2,1.18410975E-1,-2.1307786E-1,-1.0986095E-3,4.3026012E-1,1.737242E-2,-4.8813745E-2,-2.3552835E-2,3.4963903E-1,-7.5330487E-3,1.5558085E-2,2.8201906E-2,2.40959E-1],"categories":[],"categories_nodes":[],"categories_segments":[],"categories_sizes":[],"default_left":[0,0,0,0,0,0,0,0,0,0,0,0,0,0,0],"id":86,"left_children":[1,3,5,7,9,11,13,-1,-1,-1,-1,-1,-1,-1,-1],"loss_changes":[8.577766E1,1.640656E2,2.1443028E2,8.026966E1,3.3219217E2,9.120734E1,3.9572815E2,0E0,0E0,0E0,0E0,0E0,0E0,0E0,0E0],"parents":[2147483647,0,0,1,1,2,2,3,3,4,4,5,5,6,6],"right_children":[2,4,6,8,10,12,14,-1,-1,-1,-1,-1,-1,-1,-1],"split_conditions":[1E0,1E0,3E0,5E0,7E0,2E0,3E0,1.737242E-2,-4.8813745E-2,-2.3552835E-2,3.4963903E-1,-7.5330487E-3,1.5558085E-2,2.8201906E-2,2.40959E-1],"split_indices":[2,3,3,1,1,1,1,0,0,0,0,0,0,0,0],"split_type":[0,0,0,0,0,0,0,0,0,0,0,0,0,0,0],"sum_hessian":[1.5557E4,6.367E3,9.19E3,2.389E3,3.978E3,7.84E3,1.35E3,2.19E3,1.99E2,3.955E3,2.3E1,5.32E3,2.52E3,1.257E3,9.3E1],"tree_param":{"num_deleted":"0","num_feature":"4","num_nodes":"15","size_leaf_vector":"1"}},{"base_weights":[4.8982236E-4,-5.4866713E-3,9.151844E-1,-3.983126E-2,1.5458047E-1,7.476183E-1,2.7696878E-1,9.483995E-3,-1.2839094E-2,-3.9797105E-2,7.08639E-2,5.8998168E-2,2.1708548E-1],"categories":[],"categories_nodes":[],"categories_segments":[],"categories_sizes":[],"default_left":[0,0,0,0,0,0,0,0,0,0,0,0,0],"id":87,"left_children":[1,3,5,7,9,11,-1,-1,-1,-1,-1,-1,-1],"loss_changes":[8.505542E1,8.498559E1,2.9315262E1,1.5181187E2,8.3636646E2,1.9808525E1,0E0,0E0,0E0,0E0,0E0,0E0,0E0],"parents":[2147483647,0,0,1,1,2,2,3,3,4,4,5,5],"right_children":[2,4,6,8,10,12,-1,-1,-1,-1,-1,-1,-1],"split_conditions":[7E0,3E0,9E0,1E0,1E0,2E0,2.7696878E-1,9.483995E-3,-1.2839094E-2,-3.9797105E-2,7.08639E-2,5.8998168E-2,2.1708548E-1],"split_indices":[3,2,3,3,3,2,0,0,0,0,0,0,0],"split_type":[0,0,0,0,0,0,0,0,0,0,0,0,0],"sum_hessian":[1.5557E4,1.5457E4,1E2,1.2727E4,2.73E3,9.3E1,7E0,5.049E3,7.678E3,1.367E3,1.363E3,8.5E1,8E0],"tree_param":{"num_deleted":"0","num_feature":"4","num_nodes":"13","size_leaf_vector":"1"}},{"base_weights":[4.781888E-4,-9.01962E-3,5.2446747E-1,-3.202112E-2,2.2271869E-1,1.6623983E-1,1.1007948E0,-9.301909E-3,8.078169E-3,-2.938908E-3,1.2986189E-1,5.2914885E-3,2.8299114E-1,9.295617E-2,3.0822048E-1],"categories":[],"categories_nodes":[],"categories_segments":[],"categories_sizes":[],"default_left":[0,0,0,0,0,0,0,0,0,0,0,0,0,0,0],"id":88,"left_children":[1,3,5,7,9,11,13,-1,-1,-1,-1,-1,-1,-1,-1],"loss_changes":[7.7433014E1,8.14652E1,5.7005424E1,9.567048E1,3.7435324E2,5.177025E1,3.3098907E1,0E0,0E0,0E0,0E0,0E0,0E0,0E0,0E0],"parents":[2147483647,0,0,1,1,2,2,3,3,4,4,5,5,6,6],"right_children":[2,4,6,8,10,12,14,-1,-1,-1,-1,-1,-1,-1,-1],"split_conditions":[6E0,4E0,1E0,2E0,2E0,3E0,3E0,-9.301909E-3,8.078169E-3,-2.938908E-3,1.2986189E-1,5.2914885E-3,2.8299114E-1,9.295617E-2,3.0822048E-1],"split_indices":[3,1,2,0,3,1,2,0,0,0,0,0,0,0,0],"split_type":[0,0,0,0,0,0,0,0,0,0,0,0,0,0,0],"sum_hessian":[1.5557E4,1.5281E4,2.76E2,1.3902E4,1.379E3,1.71E2,1.05E2,9.023E3,4.879E3,1.118E3,2.61E2,1.65E2,6E0,9.8E1,7E0],"tree_param":{"num_deleted":"0","num_feature":"4","num_nodes":"15","size_leaf_vector":"1"}},{"base_weights":[4.828009E-4,-4.736415E-2,9.738604E-2,1.1513191E-1,-1.4881228E-1,-7.718984E-2,5.9140354E-1,2.2455424E-2,-2.1600014E-2,-1.7949848E-2,1.9384596E-1,-2.0871026E-2,1.5160519E-2,3.158366E-2,1.794919E-1],"categories":[],"categories_nodes":[],"categories_segments":[],"categories_sizes":[],"default_left":[0,0,0,0,0,0,0,0,0,0,0,0,0,0,0],"id":89,"left_children":[1,3,5,7,9,11,13,-1,-1,-1,-1,-1,-1,-1,-1],"loss_changes":[7.213966E1,1.7172408E2,4.4359622E2,1.451264E2,4.1110345E2,1.1440837E2,4.4483792E2,0E0,0E0,0E0,0E0,0E0,0E0,0E0,0E0],"parents":[2147483647,0,0,1,1,2,2,3,3,4,4,5,5,6,6],"right_children":[2,4,6,8,10,12,14,-1,-1,-1,-1,-1,-1,-1,-1],"split_conditions":[2E0,1E0,2E0,3E0,6E0,1E0,2E0,2.2455424E-2,-2.1600014E-2,-1.7949848E-2,1.9384596E-1,-2.0871026E-2,1.5160519E-2,3.158366E-2,1.794919E-1],"split_indices":[2,3,3,0,1,3,1,0,0,0,0,0,0,0,0],"split_type":[0,0,0,0,0,0,0,0,0,0,0,0,0,0,0],"sum_hessian":[1.5557E4,1.0415E4,5.142E3,4.003E3,6.412E3,3.8E3,1.342E3,3.009E3,9.94E2,6.32E3,9.2E1,2.413E3,1.387E3,1.093E3,2.49E2],"tree_param":{"num_deleted":"0","num_feature":"4","num_nodes":"15","size_leaf_vector":"1"}},{"base_weights":[4.5909898E-4,-2.074519E-2,2.2077537E-1,-5.6316283E-2,1.3501258E-1,-3.6267442E-1,8.7738013E-1,1.4698249E-2,-1.8098963E-2,-3.238805E-2,5.8145788E-2,-2.77144E-2,-4.455781E-2,5.8311142E-2,2.5898314E-1],"categories":[],"categories_nodes":[],"categories_segments":[],"categories_sizes":[],"default_left":[0,0,0,0,0,0,0,0,0,0,0,0,0,0,0],"id":90,"left_children":[1,3,5,7,9,11,13,-1,-1,-1,-1,-1,-1,-1,-1],"loss_changes":[7.2686104E1,7.8643555E1,5.2362726E2,2.9289893E2,5.40842E2,5.010231E0,3.2251093E2,0E0,0E0,0E0,0E0,0E0,0E0,0E0,0E0],"parents":[2147483647,0,0,1,1,2,2,3,3,4,4,5,5,6,6],"right_children":[2,4,6,8,10,12,14,-1,-1,-1,-1,-1,-1,-1,-1],"split_conditions":[4E0,3E0,1E0,1E0,1E0,1E0,2E0,1.4698249E-2,-1.8098963E-2,-3.238805E-2,5.8145788E-2,-2.77144E-2,-4.455781E-2,5.8311142E-2,2.5898314E-1],"split_indices":[0,2,3,3,3,1,1,0,0,0,0,0,0,0,0],"split_type":[0,0,0,0,0,0,0,0,0,0,0,0,0,0,0],"sum_hessian":[1.5557E4,1.4192E4,1.365E3,1.1554E4,2.638E3,7.23E2,6.42E2,4.392E3,7.162E3,1.301E3,1.337E3,3.58E2,3.65E2,5.49E2,9.3E1],"tree_param":{"num_deleted":"0","num_feature":"4","num_nodes":"15",